{"learner":{"attributes":{"scikit_learn":"{\"_estimator_type\": \"classifier\"}"},"feature_names":[],"feature_types":[],"gradient_booster":{"model":{"cats":{"enc":[],"feature_segments":[],"sorted_idx":[]},"gbtree_model_param":{"num_parallel_tree":"1","num_trees":"200"},"iteration_indptr":[0,1,2,3,4,5,6,7,8,9,10,11,12,13,14,15,16,17,18,19,20,21,22,23,24,25,26,27,28,29,30,31,32,33,34,35,36,37,38,39,40,41,42,43,44,45,46,47,48,49,50,51,52,53,54,55,56,57,58,59,60,61,62,63,64,65,66,67,68,69,70,71,72,73,74,75,76,77,78,79,80,81,82,83,84,85,86,87,88,89,90,91,92,93,94,95,96,97,98,99,100,101,102,103,104,105,106,107,108,109,110,111,112,113,114,115,116,117,118,119,120,121,122,123,124,125,126,127,128,129,130,131,132,133,134,135,136,137,138,139,140,141,142,143,144,145,146,147,148,149,150,151,152,153,154,155,156,157,158,159,160,161,162,163,164,165,166,167,168,169,170,171,172,173,174,175,176,177,178,179,180,181,182,183,184,185,186,187,188,189,190,191,192,193,194,195,196,197,198,199,200],"tree_info":[0,0,0,0,0,0,0,0,0,0,0,0,0,0,0,0,0,0,0,0,0,0,0,0,0,0,0,0,0,0,0,0,0,0,0,0,0,0,0,0,0,0,0,0,0,0,0,0,0,0,0,0,0,0,0,0,0,0,0,0,0,0,0,0,0,0,0,0,0,0,0,0,0,0,0,0,0,0,0,0,0,0,0,0,0,0,0,0,0,0,0,0,0,0,0,0,0,0,0,0,0,0,0,0,0,0,0,0,0,0,0,0,0,0,0,0,0,0,0,0,0,0,0,0,0,0,0,0,0,0,0,0,0,0,0,0,0,0,0,0,0,0,0,0,0,0,0,0,0,0,0,0,0,0,0,0,0,0,0,0,0,0,0,0,0,0,0,0,0,0,0,0,0,0,0,0,0,0,0,0,0,0,0,0,0,0,0,0,0,0,0,0,0,0,0,0,0,0,0,0],"trees":[{"base_weights":[-8.1635924E-4,1.3581126E0,-7.481619E-2,1.2673423E-2,8.468375E-2,8.227214E-1,-1.8058626E-1,-3.1133735E-1,1.3467113E0,-4.9976837E-2,-8.054839E-1,4.3435477E-2,-5.3268857E-2,5.3269565E-1,8.745233E-2,-2.7915645E-1,5.890964E-1,-1.2795576E0,-1.23185545E-1,6.3473046E-2,-1.2966975E-2,-8.265122E-1,-8.96452E-2,1.2556776E0,-4.1139278E-1,1.4241424E-2,-7.518039E-2,1.017653E0,-7.8815585E-1,-1.085381E0,3.346352E-1,-2.5849754E-1,5.3839815E-1,-3.0280313E-2,1.4652098E0,-6.416615E-2,2.3932779E-1,1.4241424E-2,6.3473046E-2,3.6502294E-2,-6.569218E-2,-6.1669122E-2,1.4241424E-2,6.3473046E-2,-3.6714803E-2,-1.8970009E-2,4.5560095E-2,5.3671177E-2,-4.266506E-2,-8.0194445E-3,8.185795E-2,5.3838868E-2,-1.5566868E-2],"categories":[],"categories_nodes":[],"categories_segments":[],"categories_sizes":[],"default_left":[0,0,0,0,0,0,0,0,0,0,0,0,0,0,0,0,0,0,0,0,0,0,0,0,0,0,0,0,0,0,0,0,0,0,0,0,0,0,0,0,0,0,0,0,0,0,0,0,0,0,0,0,0],"id":0,"left_children":[1,3,5,-1,-1,7,9,11,13,15,17,-1,-1,19,-1,21,23,25,27,-1,-1,29,31,33,35,-1,-1,37,39,41,43,45,47,-1,49,-1,51,-1,-1,-1,-1,-1,-1,-1,-1,-1,-1,-1,-1,-1,-1,-1,-1],"loss_changes":[1.3108876E1,2.0661163E0,1.1883727E1,0E0,0E0,8.270149E0,9.052256E0,5.3633924E0,2.0892906E0,1.3816361E1,6.0505276E0,0E0,0E0,2.9487865E0,0E0,7.112942E0,1.713924E1,4.36018E0,7.6107173E0,0E0,0E0,5.6828527E0,5.7159824E0,6.817459E0,6.3892145E0,0E0,0E0,3.2882667E-1,5.9341974E0,3.333784E0,4.919849E0,6.302465E0,9.454358E0,0E0,4.1645107E0,0E0,3.5546744E0,0E0,0E0,0E0,0E0,0E0,0E0,0E0,0E0,0E0,0E0,0E0,0E0,0E0,0E0,0E0,0E0],"parents":[2147483647,0,0,1,1,2,2,5,5,6,6,7,7,8,8,9,9,10,10,13,13,15,15,16,16,17,17,18,18,21,21,22,22,23,23,24,24,27,27,28,28,29,29,30,30,31,31,32,32,34,34,36,36],"right_children":[2,4,6,-1,-1,8,10,12,14,16,18,-1,-1,20,-1,22,24,26,28,-1,-1,30,32,34,36,-1,-1,38,40,42,44,46,48,-1,50,-1,52,-1,-1,-1,-1,-1,-1,-1,-1,-1,-1,-1,-1,-1,-1,-1,-1],"split_conditions":[-3.7222304E0,4.1E4,6.55595E1,1.2673423E-2,8.468375E-2,1.85E4,6.010544E-1,6.8303514E0,5.994E1,9.798969E-3,6.0760016E0,4.3435477E-2,-5.3268857E-2,3.4E4,8.745233E-2,-1.4246225E-2,9.283E1,2.8491685E0,-1.40812285E-2,6.3473046E-2,-1.2966975E-2,2.14E0,3.64E5,-8.836207E-1,-3.9506173E-1,1.4241424E-2,-7.518039E-2,1.04184E2,2.84E0,2.173151E-2,3.8198388E0,3.1042128E0,4.29E0,-3.0280313E-2,-3.547842E-2,-6.416615E-2,2.1619458E-2,1.4241424E-2,6.3473046E-2,3.6502294E-2,-6.569218E-2,-6.1669122E-2,1.4241424E-2,6.3473046E-2,-3.6714803E-2,-1.8970009E-2,4.5560095E-2,5.3671177E-2,-4.266506E-2,-8.0194445E-3,8.185795E-2,5.3838868E-2,-1.5566868E-2],"split_indices":[8,43,2,0,0,43,9,59,57,47,55,0,0,43,0,41,50,30,47,0,0,26,40,26,26,0,0,0,31,38,19,21,18,0,35,0,47,0,0,0,0,0,0,0,0,0,0,0,0,0,0,0,0],"split_type":[0,0,0,0,0,0,0,0,0,0,0,0,0,0,0,0,0,0,0,0,0,0,0,0,0,0,0,0,0,0,0,0,0,0,0,0,0,0,0,0,0,0,0,0,0,0,0,0,0,0,0,0,0],"sum_hessian":[1.2834766E2,5.7320313E0,1.2261563E2,1.7445314E0,3.9875002E0,1.22117195E1,1.1040391E2,3.9875002E0,8.224219E0,9.2210945E1,1.819297E1,1.4953126E0,2.4921875E0,3.4890628E0,4.7351565E0,6.828594E1,2.3925001E1,1.0217969E1,7.9750004E0,1.4953126E0,1.9937501E0,1.6697657E1,5.1588284E1,1.4205469E1,9.719532E0,1.2460938E0,8.971875E0,2.7414064E0,5.233594E0,1.3707032E1,2.9906251E0,4.1121098E1,1.0467188E1,1.2460938E0,1.2959375E1,3.7382815E0,5.9812503E0,1.2460938E0,1.4953126E0,1.2460938E0,3.9875002E0,1.2460938E1,1.2460938E0,1.4953126E0,1.4953126E0,3.7881252E1,3.2398438E0,7.7257814E0,2.7414064E0,1.2460938E0,1.1713282E1,1.9937501E0,3.9875002E0],"tree_param":{"num_deleted":"0","num_feature":"66","num_nodes":"53","size_leaf_vector":"1"}},{"base_weights":[1.7615102E-2,1.351064E0,-7.804856E-2,8.204675E-2,-9.180932E-3,2.6075834E-2,-1.1304005E0,-2.4163127E-1,3.0180246E-1,1.20485285E-2,-1.4248812E0,4.005424E-2,-6.873129E-1,3.975855E-1,-5.477763E-2,-8.0582425E-2,-7.4319043E-3,-6.8376E-1,3.4353343E-1,5.2404577E-1,-9.487758E-1,-2.2896267E-1,5.9883857E-1,2.9255314E-2,-9.9657464E-1,1.1300305E0,2.9227598E-2,5.2637782E-2,-1.6084682E-2,-1.4513571E0,-4.1382182E-1,9.3048805E-1,-5.8578265E-1,1.0182985E0,1.4419279E-1,-7.131209E-2,4.2997985E-3,-7.395889E-3,7.1022876E-2,-4.887546E-2,1.4754752E-2,-1.6676674E-2,-8.1516854E-2,2.6166117E-2,-4.894623E-2,1.3454795E-2,5.8899917E-2,-4.4362526E-2,3.0602206E-2,2.9568756E-2,8.9142114E-2,-4.168304E-2,3.3803824E-2],"categories":[],"categories_nodes":[],"categories_segments":[],"categories_sizes":[],"default_left":[0,0,0,0,0,0,0,0,0,0,0,0,0,0,0,0,0,0,0,0,0,0,0,0,0,0,0,0,0,0,0,0,0,0,0,0,0,0,0,0,0,0,0,0,0,0,0,0,0,0,0,0,0],"id":1,"left_children":[1,3,5,-1,-1,7,9,11,13,-1,15,17,19,21,-1,-1,-1,23,25,27,29,31,33,-1,35,37,39,-1,-1,41,43,45,47,49,51,-1,-1,-1,-1,-1,-1,-1,-1,-1,-1,-1,-1,-1,-1,-1,-1,-1,-1],"loss_changes":[1.6179302E1,4.0779266E0,1.3016159E1,0E0,0E0,8.105706E0,4.6618156E0,7.029095E0,7.670323E0,0E0,1.8932381E0,7.948883E0,7.3553267E0,6.608322E0,0E0,0E0,0E0,4.833586E0,6.2480373E0,2.3455582E0,4.2832108E0,6.0062113E0,7.31357E0,0E0,4.290679E0,2.892887E0,5.422284E0,0E0,0E0,1.2502499E0,5.9129705E0,2.5476718E-1,4.409599E0,5.5332317E0,1.0933246E1,0E0,0E0,0E0,0E0,0E0,0E0,0E0,0E0,0E0,0E0,0E0,0E0,0E0,0E0,0E0,0E0,0E0,0E0],"parents":[2147483647,0,0,1,1,2,2,5,5,6,6,7,7,8,8,10,10,11,11,12,12,13,13,17,17,18,18,19,19,20,20,21,21,22,22,24,24,25,25,26,26,29,29,30,30,31,31,32,32,33,33,34,34],"right_children":[2,4,6,-1,-1,8,10,12,14,-1,16,18,20,22,-1,-1,-1,24,26,28,30,32,34,-1,36,38,40,-1,-1,42,44,46,48,50,52,-1,-1,-1,-1,-1,-1,-1,-1,-1,-1,-1,-1,-1,-1,-1,-1,-1,-1],"split_conditions":[-3.1485353E0,3.5474334E-2,7.225E5,8.204675E-2,-9.180932E-3,1.7895034E-1,2.4767354E0,2.395491E0,1.1279157E1,1.20485285E-2,3.429669E0,3.1E4,-2.277553E0,1.510807E0,-5.477763E-2,-8.0582425E-2,-7.4319043E-3,5.9406E1,6.4E4,6.010525E0,3.2975814E-1,-3.9364302E0,-1.5357613E-3,2.9255314E-2,2.3547173E0,-1.9359738E-2,6.1035234E-1,5.2637782E-2,-1.6084682E-2,1.2909703E0,2.5307236E0,-2.2596316E-3,2.097508E5,1.2343843E-2,-9.391608E-3,-7.131209E-2,4.2997985E-3,-7.395889E-3,7.1022876E-2,-4.887546E-2,1.4754752E-2,-1.6676674E-2,-8.1516854E-2,2.6166117E-2,-4.894623E-2,1.3454795E-2,5.8899917E-2,-4.4362526E-2,3.0602206E-2,2.9568756E-2,8.9142114E-2,-4.168304E-2,3.3803824E-2],"split_indices":[8,44,34,0,0,8,55,53,8,0,25,46,7,55,0,0,0,0,46,53,9,64,35,0,55,47,49,0,0,55,61,35,23,38,44,0,0,0,0,0,0,0,0,0,0,0,0,0,0,0,0,0,0],"split_type":[0,0,0,0,0,0,0,0,0,0,0,0,0,0,0,0,0,0,0,0,0,0,0,0,0,0,0,0,0,0,0,0,0,0,0,0,0,0,0,0,0,0,0,0,0,0,0,0,0,0,0,0,0],"sum_hessian":[1.2500757E2,7.48946E0,1.1751811E2,6.2413583E0,1.2481021E0,1.0782468E2,9.693433E0,5.4770668E1,5.305401E1,1.7456765E0,7.947756E0,3.4117447E1,2.0653223E1,5.0320232E1,2.7337766E0,6.703892E0,1.2438637E0,9.708671E0,2.4408775E1,3.4881814E0,1.7165043E1,1.2200259E1,3.8119972E1,1.7479647E0,7.960706E0,6.2282677E0,1.8180508E1,1.995764E0,1.4924173E0,7.9670587E0,9.197984E0,2.4927135E0,9.707546E0,1.9182383E1,1.8937588E1,5.4715967E0,2.4891093E0,1.2441959E0,4.9840717E0,3.2389984E0,1.4941509E1,1.494796E0,6.472263E0,3.4878333E0,5.7101502E0,1.2471949E0,1.2455186E0,7.9627676E0,1.7447784E0,1.3447026E1,5.7353573E0,6.471866E0,1.2465722E1],"tree_param":{"num_deleted":"0","num_feature":"66","num_nodes":"53","size_leaf_vector":"1"}},{"base_weights":[9.118218E-4,1.1245673E0,-7.2662786E-2,1.5312833E-1,8.019961E-2,-2.2243492E-1,3.7704977E-1,4.098358E-2,-3.277198E-2,-3.5961622E-1,5.1183146E-1,1.033787E0,-2.0837265E-1,-3.336622E-2,-6.1018914E-1,-4.9425998E-1,8.3240706E-1,1.1994748E0,-6.3471E-3,-1.1969583E0,2.9054487E-1,2.1846576E-1,-1.2389777E0,-1.1020513E0,-2.1787155E-1,2.3627272E-2,-5.965531E-2,-2.1596527E-2,1.0955956E0,1.5023056E0,2.916317E-1,-7.120704E-2,-1.532045E-2,1.27898E0,-3.9700043E-1,6.548836E-2,4.8190452E-2,-1.6976325E-2,-7.25887E-2,5.5028632E-2,-1.2760848E0,-6.200167E-1,6.803161E-1,1.2905655E0,-7.5795217E-3,-9.536081E-3,8.907058E-2,5.6987096E-2,-1.9362021E-2,7.7052325E-2,1.2235487E-2,2.710039E-1,-5.675703E-2,-1.407031E-2,3.5543535E-2,3.4311417E-2,-3.0104442E-2,-7.264393E-2,-4.1828747E-3,9.259266E-3,-4.9918827E-2,5.42836E-2,-3.6422443E-2,2.3494015E-2,7.9421416E-2,-3.4021985E-2,6.465482E-2],"categories":[],"categories_nodes":[],"categories_segments":[],"categories_sizes":[],"default_left":[0,0,0,0,0,0,0,0,0,0,0,0,0,0,0,0,0,0,0,0,0,0,0,0,0,0,0,0,0,0,0,0,0,0,0,0,0,0,0,0,0,0,0,0,0,0,0,0,0,0,0,0,0,0,0,0,0,0,0,0,0,0,0,0,0,0,0],"id":2,"left_children":[1,3,5,7,-1,9,11,-1,-1,13,15,17,19,21,23,25,27,29,-1,31,33,35,37,39,41,-1,-1,-1,43,45,47,-1,-1,49,51,-1,53,-1,-1,55,57,59,61,63,-1,-1,-1,-1,-1,-1,-1,65,-1,-1,-1,-1,-1,-1,-1,-1,-1,-1,-1,-1,-1,-1,-1],"loss_changes":[1.0756158E1,3.4781275E0,8.309307E0,2.5569823E0,0E0,9.475224E0,1.208831E1,0E0,0E0,6.381233E0,5.227724E0,2.9835653E0,8.811168E0,1.0919776E1,8.295317E0,3.4257333E0,4.3655405E0,3.1300087E0,0E0,7.675562E-1,8.804714E0,5.4863153E0,6.9576836E-1,3.972786E0,9.759862E0,0E0,0E0,0E0,2.6186428E0,4.824749E0,3.0249472E0,0E0,0E0,1.0446196E0,4.2342224E0,0E0,6.0692844E0,0E0,0E0,1.8617446E0,3.4385834E0,5.784651E0,5.6288667E0,1.385849E0,0E0,0E0,0E0,0E0,0E0,0E0,0E0,5.7300987E0,0E0,0E0,0E0,0E0,0E0,0E0,0E0,0E0,0E0,0E0,0E0,0E0,0E0,0E0,0E0],"parents":[2147483647,0,0,1,1,2,2,3,3,5,5,6,6,9,9,10,10,11,11,12,12,13,13,14,14,15,15,16,16,17,17,19,19,20,20,21,21,22,22,23,23,24,24,28,28,29,29,30,30,33,33,34,34,36,36,39,39,40,40,41,41,42,42,43,43,51,51],"right_children":[2,4,6,8,-1,10,12,-1,-1,14,16,18,20,22,24,26,28,30,-1,32,34,36,38,40,42,-1,-1,-1,44,46,48,-1,-1,50,52,-1,54,-1,-1,56,58,60,62,64,-1,-1,-1,-1,-1,-1,-1,66,-1,-1,-1,-1,-1,-1,-1,-1,-1,-1,-1,-1,-1,-1,-1],"split_conditions":[-3.1485353E0,4.5E4,1.2421303E-2,7.2086505E-3,8.019961E-2,3.71E5,8.997E1,4.098358E-2,-3.277198E-2,-4.790815E-3,2.9045181E0,2.1783627E1,-3.9506173E-1,2.965E5,5.55652E-3,5.2043312E1,-4.4469028E0,1.2866242E-2,-6.3471E-3,5.2793124E-3,5.854323E-1,-2.1207178E-2,2.8118813E0,7.441E1,8.699E1,2.3627272E-2,-5.965531E-2,-2.1596527E-2,1.2335E6,-8.135593E-1,1.85E4,-7.120704E-2,-1.532045E-2,7.7153877E-3,6.5140564E1,6.548836E-2,3.52126E0,-1.6976325E-2,-7.25887E-2,6.336088E0,2.38E0,-6.8965517E-3,1.0312645E0,1.3869752E0,-7.5795217E-3,-9.536081E-3,8.907058E-2,5.6987096E-2,-1.9362021E-2,7.7052325E-2,1.2235487E-2,-1.6734485E-1,-5.675703E-2,-1.407031E-2,3.5543535E-2,3.4311417E-2,-3.0104442E-2,-7.264393E-2,-4.1828747E-3,9.259266E-3,-4.9918827E-2,5.42836E-2,-3.6422443E-2,2.3494015E-2,7.9421416E-2,-3.4021985E-2,6.465482E-2],"split_indices":[8,40,47,14,0,46,51,0,0,38,61,65,26,37,38,6,28,14,0,38,25,44,61,50,62,0,0,0,46,26,37,0,0,38,6,0,61,0,0,59,26,41,25,49,0,0,0,0,0,0,0,9,0,0,0,0,0,0,0,0,0,0,0,0,0,0,0],"split_type":[0,0,0,0,0,0,0,0,0,0,0,0,0,0,0,0,0,0,0,0,0,0,0,0,0,0,0,0,0,0,0,0,0,0,0,0,0,0,0,0,0,0,0,0,0,0,0,0,0,0,0,0,0,0,0,0,0,0,0,0,0,0,0,0,0,0,0],"sum_hessian":[1.2811722E2,6.9954658E0,1.2112176E2,2.7475724E0,4.2478933E0,9.124045E1,2.9881308E1,1.4985279E0,1.2490445E0,7.73075E1,1.3932946E1,1.3721925E1,1.6159382E1,3.4074764E1,4.323274E1,3.235837E0,1.0697109E1,1.1978656E1,1.7432694E0,4.9506836E0,1.1208698E1,2.8864292E1,5.210473E0,1.8380007E1,2.4852732E1,1.4935015E0,1.7423354E0,1.7326146E0,8.964495E0,8.491368E0,3.487287E0,3.467054E0,1.4836298E0,4.245308E0,6.9633904E0,2.9925914E0,2.58717E1,1.4934554E0,3.717018E0,2.4924564E0,1.588755E1,1.7380617E1,7.4721136E0,7.722474E0,1.2420201E0,1.2465569E0,7.244812E0,1.2485752E0,2.2387118E0,2.99615E0,1.2491579E0,3.987566E0,2.9758244E0,1.7662346E1,8.209353E0,1.2487032E0,1.2437533E0,1.3645932E1,2.2416186E0,5.7194324E0,1.1661185E1,5.9806075E0,1.4915065E0,2.742824E0,4.9796505E0,2.2382739E0,1.7492923E0],"tree_param":{"num_deleted":"0","num_feature":"66","num_nodes":"67","size_leaf_vector":"1"}},{"base_weights":[6.02765E-3,9.758132E-1,-5.2224852E-2,1.225272E0,-7.675716E-3,-1.2173975E-1,8.0708224E-1,7.7667914E-2,1.201881E-2,6.041869E-2,-6.418005E-1,1.1435679E0,-2.1978883E-2,4.5582044E-1,-1.4381884E-1,-1.038784E0,1.0216366E-1,1.4154515E0,-7.6572686E-3,-1.3434929E-1,1.0350455E0,-5.932541E-1,2.0315693E-1,-1.2248471E0,-1.827691E-1,6.3603826E-2,-2.4046166E-1,1.2677178E-2,8.214061E-2,-4.9684256E-1,1.053649E0,-1.758228E-1,1.2853106E0,-9.3852794E-1,-2.409153E-2,3.7926355E-1,-7.755346E-1,-1.3690997E0,1.3915511E-2,4.820565E-2,-5.905753E-2,-7.4695325E-1,5.1455766E-1,-4.6290692E-2,1.1768374E-2,6.526756E-2,1.3785146E-2,3.741282E-2,-5.106259E-2,2.5366232E-2,7.9083055E-2,-1.8682571E-2,-6.313701E-2,3.2703917E-2,-5.1133342E-2,5.457724E-2,6.3323225E-3,-6.463801E-2,4.4662966E-3,-7.353877E-2,-7.007234E-3,3.5551924E-2,-6.286993E-2,6.4058766E-2,-2.2288647E-2],"categories":[],"categories_nodes":[],"categories_segments":[],"categories_sizes":[],"default_left":[0,0,0,0,0,0,0,0,0,0,0,0,0,0,0,0,0,0,0,0,0,0,0,0,0,0,0,0,0,0,0,0,0,0,0,0,0,0,0,0,0,0,0,0,0,0,0,0,0,0,0,0,0,0,0,0,0,0,0,0,0,0,0,0,0],"id":3,"left_children":[1,3,5,7,-1,9,11,-1,-1,13,15,17,-1,19,21,23,25,27,-1,29,31,33,35,37,39,-1,41,-1,-1,43,45,47,49,51,53,55,57,59,-1,-1,-1,61,63,-1,-1,-1,-1,-1,-1,-1,-1,-1,-1,-1,-1,-1,-1,-1,-1,-1,-1,-1,-1,-1,-1],"loss_changes":[7.4597406E0,2.2959452E0,7.5450344E0,1.6428452E0,0E0,1.1047103E1,4.471502E0,0E0,0E0,7.089181E0,9.034179E0,2.9412985E0,0E0,1.0347492E1,9.182452E0,2.9298973E0,4.8869452E0,1.2969236E0,0E0,7.274623E0,4.827978E0,5.002784E0,6.074565E0,3.8699284E0,6.532817E0,0E0,4.086384E0,0E0,0E0,4.2042146E0,4.2053175E-1,3.4834933E0,2.1268978E0,2.4383326E0,7.902774E0,5.0969787E0,2.5502772E0,1.649477E0,0E0,0E0,0E0,5.5096474E0,3.8685093E0,0E0,0E0,0E0,0E0,0E0,0E0,0E0,0E0,0E0,0E0,0E0,0E0,0E0,0E0,0E0,0E0,0E0,0E0,0E0,0E0,0E0,0E0],"parents":[2147483647,0,0,1,1,2,2,3,3,5,5,6,6,9,9,10,10,11,11,13,13,14,14,15,15,16,16,17,17,19,19,20,20,21,21,22,22,23,23,24,24,26,26,29,29,30,30,31,31,32,32,33,33,34,34,35,35,36,36,37,37,41,41,42,42],"right_children":[2,4,6,8,-1,10,12,-1,-1,14,16,18,-1,20,22,24,26,28,-1,30,32,34,36,38,40,-1,42,-1,-1,44,46,48,50,52,54,56,58,60,-1,-1,-1,62,64,-1,-1,-1,-1,-1,-1,-1,-1,-1,-1,-1,-1,-1,-1,-1,-1,-1,-1,-1,-1,-1,-1],"split_conditions":[5.877E1,9.216643E0,4.227039E-2,1.92E0,-7.675716E-3,-1.3294926E0,2.345E5,7.7667914E-2,1.201881E-2,6.75E4,2.135E5,9.4E0,-2.1978883E-2,7.924E1,3.3213794E0,3.7620742E-2,1.7336223E-2,2.9E4,-7.6572686E-3,4.0482235E0,-1.2982394E-2,4.1557503E0,2.173151E-2,2.923913E0,6.43E0,6.3603826E-2,3.0616763E0,1.2677178E-2,8.214061E-2,3.975177E-1,3.3502538E-2,-2.516916E-1,2.2777328E0,7.5757575E-1,2.518224E-3,8.2E4,3.1485765E0,1.6507619E2,1.3915511E-2,4.820565E-2,-5.905753E-2,-8.154603E-3,4.18E0,-4.6290692E-2,1.1768374E-2,6.526756E-2,1.3785146E-2,3.741282E-2,-5.106259E-2,2.5366232E-2,7.9083055E-2,-1.8682571E-2,-6.313701E-2,3.2703917E-2,-5.1133342E-2,5.457724E-2,6.3323225E-3,-6.463801E-2,4.4662966E-3,-7.353877E-2,-7.007234E-3,3.5551924E-2,-6.286993E-2,6.4058766E-2,-2.2288647E-2],"split_indices":[42,59,14,31,0,58,37,0,0,43,43,26,0,50,61,35,22,37,0,30,47,65,35,21,31,0,55,0,0,26,22,7,61,65,35,34,55,2,0,0,0,44,31,0,0,0,0,0,0,0,0,0,0,0,0,0,0,0,0,0,0,0,0,0,0],"split_type":[0,0,0,0,0,0,0,0,0,0,0,0,0,0,0,0,0,0,0,0,0,0,0,0,0,0,0,0,0,0,0,0,0,0,0,0,0,0,0,0,0,0,0,0,0,0,0,0,0,0,0,0,0,0,0,0,0,0,0,0,0,0,0,0,0],"sum_hessian":[1.301464E2,6.4820485E0,1.23664345E2,5.2396884E0,1.2423601E0,1.1520314E2,8.461199E0,3.497447E0,1.7422413E0,8.597355E1,2.9229595E1,6.727953E0,1.7332457E0,2.886309E1,5.711046E1,1.8800997E1,1.0428598E1,5.4861054E0,1.2418475E0,1.4676909E1,1.4186181E1,2.457232E1,3.2538136E1,1.5090138E1,3.7108583E0,1.747824E0,8.680774E0,1.2439846E0,4.2421207E0,1.1691324E1,2.985586E0,2.4807787E0,1.1705402E1,1.4890351E1,9.68197E0,2.809515E1,4.4429865E0,1.3850171E1,1.2399675E0,1.7429656E0,1.9678926E0,5.201872E0,3.478902E0,7.2055073E0,4.4858165E0,1.7435267E0,1.2420591E0,1.2401723E0,1.2406064E0,3.976945E0,7.728458E0,6.2147865E0,8.675565E0,5.9714932E0,3.7104764E0,6.4860587E0,2.160909E1,2.4706595E0,1.9723272E0,1.2610123E1,1.2400483E0,1.2470188E0,3.954853E0,1.7487794E0,1.7301227E0],"tree_param":{"num_deleted":"0","num_feature":"66","num_nodes":"65","size_leaf_vector":"1"}},{"base_weights":[-5.4139555E-2,9.795294E-1,-1.1396202E-1,1.2680329E0,-1.1199414E-2,1.0949998E0,-1.6859484E-1,7.4146524E-2,1.8589346E-2,1.8944899E-2,6.9742344E-2,-8.431146E-3,-5.007953E-1,-4.343576E-1,2.1574071E-1,-9.232526E-2,-1.0290204E0,-5.8528566E-1,7.2367054E-1,4.118162E-1,-5.9923095E-1,2.52556E-1,-1.0286003E0,-1.4476651E0,1.095289E-1,-4.6385497E-2,-9.190363E-1,6.1318815E-2,-8.208405E-3,-2.522954E-3,9.175143E-1,-7.082055E-2,-3.0448262E-2,6.082661E-1,-2.8908277E-1,-6.884169E-2,-2.7576631E-3,-8.145981E-3,-7.882518E-2,-4.8965108E-2,6.5812206E-1,-3.751082E-2,2.7725464E-2,-5.690377E-2,2.0221476E-2,3.925032E-2,-1.877712E-2,5.1787317E-2,-1.6386054E-2,4.2761456E-2,-1.9823639E-2,-7.753958E-3,6.64963E-2,1.0797516E-2,-5.8197733E-2,5.2001864E-2,-7.4574524E-3],"categories":[],"categories_nodes":[],"categories_segments":[],"categories_sizes":[],"default_left":[0,0,0,0,0,0,0,0,0,0,0,0,0,0,0,0,0,0,0,0,0,0,0,0,0,0,0,0,0,0,0,0,0,0,0,0,0,0,0,0,0,0,0,0,0,0,0,0,0,0,0,0,0,0,0,0,0],"id":4,"left_children":[1,3,5,7,-1,9,11,-1,-1,-1,-1,13,15,17,19,21,23,25,27,29,31,33,35,37,39,41,43,-1,-1,45,47,-1,49,51,53,-1,-1,-1,-1,-1,55,-1,-1,-1,-1,-1,-1,-1,-1,-1,-1,-1,-1,-1,-1,-1,-1],"loss_changes":[8.158219E0,2.7920423E0,8.368313E0,5.99761E-1,0E0,6.5042543E-1,6.349318E0,0E0,0E0,0E0,0E0,7.883563E0,8.282542E0,5.3986073E0,8.895055E0,7.6847053E0,8.182014E0,4.586129E0,1.8657773E0,9.267264E0,5.024623E0,3.568149E0,2.0891948E0,1.7920113E0,3.9030082E0,5.0241804E0,5.0520506E0,0E0,0E0,7.72746E0,3.2716312E0,0E0,2.7544017E0,6.2382326E0,3.634674E0,0E0,0E0,0E0,0E0,0E0,1.4579031E0,0E0,0E0,0E0,0E0,0E0,0E0,0E0,0E0,0E0,0E0,0E0,0E0,0E0,0E0,0E0,0E0],"parents":[2147483647,0,0,1,1,2,2,3,3,5,5,6,6,11,11,12,12,13,13,14,14,15,15,16,16,17,17,18,18,19,19,20,20,21,21,22,22,23,23,24,24,25,25,26,26,29,29,30,30,32,32,33,33,34,34,40,40],"right_children":[2,4,6,8,-1,10,12,-1,-1,-1,-1,14,16,18,20,22,24,26,28,30,32,34,36,38,40,42,44,-1,-1,46,48,-1,50,52,54,-1,-1,-1,-1,-1,56,-1,-1,-1,-1,-1,-1,-1,-1,-1,-1,-1,-1,-1,-1,-1,-1],"split_conditions":[-3.4177582E0,8.266E1,5.9776E1,-3.9346683E0,-1.1199414E-2,-1.1428571E-2,2.1237278E0,7.4146524E-2,1.8589346E-2,1.8944899E-2,6.9742344E-2,-3.413793E-1,1.6922002E-1,1.957593E0,6.1435777E-1,6.93E5,3.506176E0,8.862675E-1,-4.0406844E-1,1.475E5,-8.537653E-3,-2.653928E-4,4.9971413E-2,1.25E4,-2.3369547E-2,1.5E0,6.5431136E-1,6.1318815E-2,-8.208405E-3,-8.67052E-3,7.6190475E1,-7.082055E-2,4.2208934E-1,-1.9175456E-3,1.1084625E-2,-6.884169E-2,-2.7576631E-3,-8.145981E-3,-7.882518E-2,-4.8965108E-2,9.031847E0,-3.751082E-2,2.7725464E-2,-5.690377E-2,2.0221476E-2,3.925032E-2,-1.877712E-2,5.1787317E-2,-1.6386054E-2,4.2761456E-2,-1.9823639E-2,-7.753958E-3,6.64963E-2,1.0797516E-2,-5.8197733E-2,5.2001864E-2,-7.4574524E-3],"split_indices":[8,33,3,8,0,26,49,0,0,0,0,26,26,49,27,34,49,49,9,46,41,35,38,40,38,18,27,0,0,44,6,0,25,41,41,0,0,0,0,0,30,0,0,0,0,0,0,0,0,0,0,0,0,0,0,0,0],"split_type":[0,0,0,0,0,0,0,0,0,0,0,0,0,0,0,0,0,0,0,0,0,0,0,0,0,0,0,0,0,0,0,0,0,0,0,0,0,0,0,0,0,0,0,0,0,0,0,0,0,0,0,0,0,0,0,0,0],"sum_hessian":[1.2912663E2,6.223154E0,1.2290347E2,4.9765787E0,1.2465756E0,4.4905205E0,1.1841296E2,3.486097E0,1.4904815E0,1.9934218E0,2.4970987E0,8.058562E1,3.7827335E1,2.7464832E1,5.3120785E1,2.1994242E1,1.5833095E1,2.473558E1,2.729252E0,4.321766E1,9.903127E0,1.6607168E1,5.387073E0,1.137793E1,4.4551654E0,9.895885E0,1.4839695E1,1.4991235E0,1.2301286E0,2.4301476E1,1.8916182E1,3.4525452E0,6.4505816E0,9.94982E0,6.65735E0,3.662492E0,1.7245811E0,1.2434162E0,1.0134513E1,1.2295923E0,3.2255728E0,4.4431286E0,5.4527564E0,1.2852614E1,1.9870812E0,7.4559E0,1.6845575E1,1.7429523E1,1.4866581E0,1.4954568E0,4.9551244E0,5.2167935E0,4.7330256E0,4.6983304E0,1.9590194E0,1.9939226E0,1.2316504E0],"tree_param":{"num_deleted":"0","num_feature":"66","num_nodes":"57","size_leaf_vector":"1"}},{"base_weights":[1.9078258E-2,1.2660367E0,-3.7899E-2,1.033731E-2,7.566529E-2,6.276928E-2,-8.753348E-2,2.5320932E-1,-2.1116497E-1,4.7163633E-1,-7.692384E-1,-6.0922855E-1,-2.5332903E-2,-4.4751158E-1,7.027151E-1,-1.0458043E0,3.374345E-3,9.4856404E-2,-9.873482E-1,-6.432268E-2,9.3115754E-2,-8.7030613E-1,3.4301773E-2,-1.2326897E-1,9.873203E-1,-1.0070026E-2,-6.453033E-2,9.488872E-1,-4.332848E-1,-1.2437989E0,-2.2521725E-1,2.6818883E-1,-6.575064E-1,-6.4959945E-3,-6.1538346E-2,3.4794893E-2,-6.1396766E-2,7.646419E-3,6.480994E-2,-7.93214E-3,7.112226E-2,2.3960928E-2,-4.5925822E-2,1.3404863E-2,-7.073446E-2,-5.329941E-2,1.4618796E-2,1.7879335E-2,-3.4480754E-2,3.0386304E-2,-4.7540266E-2],"categories":[],"categories_nodes":[],"categories_segments":[],"categories_sizes":[],"default_left":[0,0,0,0,0,0,0,0,0,0,0,0,0,0,0,0,0,0,0,0,0,0,0,0,0,0,0,0,0,0,0,0,0,0,0,0,0,0,0,0,0,0,0,0,0,0,0,0,0,0,0],"id":5,"left_children":[1,3,5,-1,-1,-1,7,9,11,13,15,17,19,21,23,25,-1,27,29,-1,31,33,-1,35,37,-1,-1,39,41,43,45,47,49,-1,-1,-1,-1,-1,-1,-1,-1,-1,-1,-1,-1,-1,-1,-1,-1,-1,-1],"loss_changes":[9.327102E0,1.1895428E0,8.1894865E0,0E0,0E0,0E0,5.1992197E0,7.727108E0,6.65507E0,6.217035E0,1.5017445E0,7.7226667E0,9.458753E0,3.5655763E0,5.4336615E0,7.134361E-1,0E0,5.338688E0,3.3808765E0,0E0,7.8093266E0,1.1617258E0,0E0,6.899001E0,4.1616535E0,0E0,0E0,2.5794702E0,3.732982E0,3.9432392E0,2.8953679E0,4.340255E0,4.7618265E0,0E0,0E0,0E0,0E0,0E0,0E0,0E0,0E0,0E0,0E0,0E0,0E0,0E0,0E0,0E0,0E0,0E0,0E0],"parents":[2147483647,0,0,1,1,2,2,6,6,7,7,8,8,9,9,10,10,11,11,12,12,13,13,14,14,15,15,17,17,18,18,20,20,21,21,23,23,24,24,27,27,28,28,29,29,30,30,31,31,32,32],"right_children":[2,4,6,-1,-1,-1,8,10,12,14,16,18,20,22,24,26,-1,28,30,-1,32,34,-1,36,38,-1,-1,40,42,44,46,48,50,-1,-1,-1,-1,-1,-1,-1,-1,-1,-1,-1,-1,-1,-1,-1,-1,-1,-1],"split_conditions":[5.9776E1,3.79E4,-3.9346683E0,1.033731E-2,7.566529E-2,6.276928E-2,-1.2287605E-2,5.2972336E0,6.7E4,-1.598465E0,6.45E0,-1.2519679E0,-9.283667E-3,4.5319085E0,1.75E0,4E0,3.374345E-3,2.437241E-4,8.2E4,-6.432268E-2,6.194069E0,-2.3369547E-2,3.4301773E-2,7.3E4,-6.756178E0,-1.0070026E-2,-6.453033E-2,5.860086E-1,-8.67052E-3,2.09E4,-2.9071724E0,8.845E5,-1.6132697E0,-6.4959945E-3,-6.1538346E-2,3.4794893E-2,-6.1396766E-2,7.646419E-3,6.480994E-2,-7.93214E-3,7.112226E-2,2.3960928E-2,-4.5925822E-2,1.3404863E-2,-7.073446E-2,-5.329941E-2,1.4618796E-2,1.7879335E-2,-3.4480754E-2,3.0386304E-2,-4.7540266E-2],"split_indices":[3,23,8,0,0,0,38,19,37,16,18,7,38,19,18,18,0,38,40,0,53,38,0,34,29,0,0,25,44,23,30,34,52,0,0,0,0,0,0,0,0,0,0,0,0,0,0,0,0,0,0],"split_type":[0,0,0,0,0,0,0,0,0,0,0,0,0,0,0,0,0,0,0,0,0,0,0,0,0,0,0,0,0,0,0,0,0,0,0,0,0,0,0,0,0,0,0,0,0,0,0,0,0,0,0],"sum_hessian":[1.2960303E2,4.7359433E0,1.2486709E2,1.243776E0,3.4921675E0,3.7172475E0,1.2114983E2,3.1974976E1,8.917486E1,2.6790419E1,5.184558E0,2.7655888E1,6.1518974E1,5.1939883E0,2.159643E1,3.7087977E0,1.47576E0,9.924646E0,1.7731241E1,4.4353223E0,5.7083652E1,3.9521346E0,1.2418541E0,5.679681E0,1.5916749E1,1.2432219E0,2.4655757E0,3.4878933E0,6.436753E0,1.2794125E1,4.937117E0,4.6808804E1,1.0274847E1,1.7395425E0,2.212592E0,3.473753E0,2.205928E0,4.7041774E0,1.1212571E1,1.2438492E0,2.244044E0,2.2388573E0,4.1978955E0,1.2415042E0,1.1552621E1,1.4775296E0,3.4595876E0,4.338598E1,3.4228249E0,1.7318703E0,8.542977E0],"tree_param":{"num_deleted":"0","num_feature":"66","num_nodes":"51","size_leaf_vector":"1"}},{"base_weights":[4.2661354E-3,1.0382047E0,-6.556276E-2,1.2793725E0,-1.3603246E-3,-4.6623695E-1,8.621904E-2,1.0040674E-2,7.4448675E-2,1.6008803E-1,-6.4353013E-1,-1.08210094E-1,6.459002E-1,-5.5986524E-1,1.0656666E0,-6.0493883E-2,-9.1280246E-1,-2.55311E-1,6.645006E-1,9.125808E-1,-5.9683406E-1,-5.1989622E-2,1.2789595E-2,6.602016E-2,1.3641565E-2,-5.2409757E-2,5.4972655E-1,-2.8321612E-1,-1.2589084E0,7.727716E-1,-3.6328197E-1,-1.8650481E-2,8.6723644E-1,-2.888134E-2,1.045478E0,-6.1820246E-2,3.257559E-2,-2.6948482E-2,1.1482873E0,-1.0602828E0,9.473413E-1,-1.0418562E-2,-7.3007815E-2,-7.7461773E-3,1.0618842E0,-1.1744939E0,-1.8150787E-1,1.1362146E0,7.8011066E-2,1.1843244E0,-1.5604763E-2,6.977018E-2,1.3798959E-2,-6.591552E-2,-6.241811E-3,5.9222694E-2,1.4383043E-2,6.659427E-2,9.895118E-3,-4.558983E-3,-6.6362716E-2,2.418287E-2,-1.7982803E-2,6.971657E-2,1.6340926E-2,5.5424888E-2,-4.9772684E-2,6.8407975E-2,8.844337E-3],"categories":[],"categories_nodes":[],"categories_segments":[],"categories_sizes":[],"default_left":[0,0,0,0,0,0,0,0,0,0,0,0,0,0,0,0,0,0,0,0,0,0,0,0,0,0,0,0,0,0,0,0,0,0,0,0,0,0,0,0,0,0,0,0,0,0,0,0,0,0,0,0,0,0,0,0,0,0,0,0,0,0,0,0,0,0,0,0,0],"id":6,"left_children":[1,3,5,7,-1,9,11,-1,-1,13,15,17,19,21,23,25,27,29,31,33,35,-1,-1,-1,-1,-1,37,39,41,43,45,-1,47,-1,49,-1,-1,-1,51,53,55,-1,-1,-1,57,59,61,63,65,67,-1,-1,-1,-1,-1,-1,-1,-1,-1,-1,-1,-1,-1,-1,-1,-1,-1,-1,-1],"loss_changes":[9.339486E0,2.137494E0,7.4129114E0,1.2142401E0,0E0,3.8188882E0,9.729525E0,0E0,0E0,5.932005E0,4.0706024E0,7.755542E0,8.1772E0,2.3072314E0,4.413247E-1,6.225863E0,3.5452833E0,6.584317E0,2.6268559E0,4.4373894E0,4.536914E0,0E0,0E0,0E0,0E0,0E0,4.822025E0,8.312035E0,2.077179E0,1.6978252E0,7.46501E0,0E0,1.9198666E0,0E0,3.7865963E0,0E0,0E0,0E0,5.8088493E-1,1.0799475E0,2.0456457E-1,0E0,0E0,0E0,7.8286314E-1,1.4261494E0,5.3548527E0,1.00313E0,4.95151E0,2.8424072E0,0E0,0E0,0E0,0E0,0E0,0E0,0E0,0E0,0E0,0E0,0E0,0E0,0E0,0E0,0E0,0E0,0E0,0E0,0E0],"parents":[2147483647,0,0,1,1,2,2,3,3,5,5,6,6,9,9,10,10,11,11,12,12,13,13,14,14,15,15,16,16,17,17,18,18,19,19,20,20,26,26,27,27,28,28,29,29,30,30,32,32,34,34,38,38,39,39,40,40,44,44,45,45,46,46,47,47,48,48,49,49],"right_children":[2,4,6,8,-1,10,12,-1,-1,14,16,18,20,22,24,26,28,30,32,34,36,-1,-1,-1,-1,-1,38,40,42,44,46,-1,48,-1,50,-1,-1,-1,52,54,56,-1,-1,-1,58,60,62,64,66,68,-1,-1,-1,-1,-1,-1,-1,-1,-1,-1,-1,-1,-1,-1,-1,-1,-1,-1,-1],"split_conditions":[-3.1485353E0,2.0507725E-2,-5E-1,8.2473495E1,-1.3603246E-3,3E4,9.338344E-3,1.0040674E-2,7.4448675E-2,2.6105487E0,-4.6741133E0,4.03E5,2.4032787E1,-5.4781595E-3,2.6995963E-1,-7.9197826E0,1.8942755E-1,6.47835E1,-2.4305178E-2,-3.98E-2,8.6859276E1,-5.1989622E-2,1.2789595E-2,6.602016E-2,1.3641565E-2,-5.2409757E-2,1.925E5,1.575E5,-2.799511E0,1.3E4,7.851E1,-1.8650481E-2,2.110242E-2,-2.888134E-2,7.1140677E-1,-6.1820246E-2,3.257559E-2,-2.6948482E-2,3.591E5,9.55546E1,1.4735038E0,-1.0418562E-2,-7.3007815E-2,-7.7461773E-3,2.65E4,2.0492358E0,-1.2593672E-2,1.1494E2,6.055E5,4.503527E-2,-1.5604763E-2,6.977018E-2,1.3798959E-2,-6.591552E-2,-6.241811E-3,5.9222694E-2,1.4383043E-2,6.659427E-2,9.895118E-3,-4.558983E-3,-6.6362716E-2,2.418287E-2,-1.7982803E-2,6.971657E-2,1.6340926E-2,5.5424888E-2,-4.9772684E-2,6.8407975E-2,8.844337E-3],"split_indices":[8,44,26,10,0,40,47,0,0,30,58,46,65,44,27,58,27,2,38,38,6,0,0,0,0,0,40,43,30,43,50,0,14,0,27,0,0,0,24,3,8,0,0,0,46,61,14,39,46,22,0,0,0,0,0,0,0,0,0,0,0,0,0,0,0,0,0,0,0],"split_type":[0,0,0,0,0,0,0,0,0,0,0,0,0,0,0,0,0,0,0,0,0,0,0,0,0,0,0,0,0,0,0,0,0,0,0,0,0,0,0,0,0,0,0,0,0,0,0,0,0,0,0,0,0,0,0,0,0,0,0,0,0,0,0,0,0,0,0,0,0],"sum_hessian":[1.2741518E2,7.183475E0,1.20231705E2,5.693795E0,1.4896802E0,3.2463272E1,8.776843E1,1.2450626E0,4.4487324E0,7.183415E0,2.527986E1,6.573814E1,2.2030293E1,4.2145343E0,2.9688804E0,8.373648E0,1.690621E1,5.578747E1,9.950669E0,1.835675E1,3.6735415E0,2.4803324E0,1.7342021E0,1.7433314E0,1.2255489E0,2.9236705E0,5.4499774E0,6.6421175E0,1.0264093E1,4.7168775E0,5.107059E1,1.4892877E0,8.461382E0,1.2290212E0,1.712773E1,2.4353786E0,1.2381631E0,1.9687184E0,3.4812589E0,4.156048E0,2.4860697E0,1.977372E0,8.286721E0,1.2310059E0,3.4858716E0,8.349153E0,4.272144E1,5.9827313E0,2.47865E0,1.5654295E1,1.4734342E0,2.245471E0,1.2357881E0,2.9367182E0,1.2193296E0,1.243585E0,1.2424848E0,2.243266E0,1.2426053E0,1.2291813E0,7.1199713E0,8.662542E0,3.40589E1,3.9882088E0,1.9945226E0,1.2479901E0,1.2306601E0,1.2935749E1,2.718546E0],"tree_param":{"num_deleted":"0","num_feature":"66","num_nodes":"69","size_leaf_vector":"1"}},{"base_weights":[1.986306E-3,3.1524327E-1,-2.2759715E-1,1.2362947E-1,1.0727658E0,-6.5903074E-1,-2.7840154E-2,1.0360738E0,-3.6990274E-2,1.3518481E0,-3.0848745E-2,2.610283E-2,-8.0696833E-1,-7.1802163E-1,2.0449798E-1,1.1930163E0,9.58453E-3,-4.3372425E-1,4.701779E-1,7.520013E-2,8.851896E-3,1.2707593E-1,-9.6448344E-1,3.5698757E-1,-1.1734148E0,9.6865565E-1,-7.555292E-2,1.035935E-2,7.163538E-2,3.8271675E-1,-6.5834755E-1,-7.521778E-1,7.4181384E-1,-3.703158E-2,5.585779E-2,-3.823913E-1,-1.2086303E0,5.811592E-2,-1.8870858E-2,-1.3167114E0,-5.527658E-3,-2.7181534E-2,1.372723E0,-8.138498E-1,1.9284043E-1,5.8304053E-2,-2.96306E-1,2.0956643E-2,-8.1883556E-1,-3.869007E-3,-5.2639194E-2,-2.629506E-2,9.754559E-1,-8.256281E-1,2.9450467E-2,-9.483662E-3,-1.3817846E0,-6.744224E-3,-7.520389E-2,1.1278204E-2,7.662349E-2,2.0663276E-2,-1.1476859E0,7.29481E-1,-2.6220262E-1,-4.939523E-2,2.2082249E-2,6.5291487E-3,-5.004538E-2,8.544041E-2,7.585929E-3,1.4519088E-2,-6.279277E-2,-7.6545976E-2,-3.4058098E-2,-7.432756E-2,-5.327469E-3,6.1726104E-2,-2.7567131E-2,4.747924E-2,-3.375329E-2],"categories":[],"categories_nodes":[],"categories_segments":[],"categories_sizes":[],"default_left":[0,0,0,0,0,0,0,0,0,0,0,0,0,0,0,0,0,0,0,0,0,0,0,0,0,0,0,0,0,0,0,0,0,0,0,0,0,0,0,0,0,0,0,0,0,0,0,0,0,0,0,0,0,0,0,0,0,0,0,0,0,0,0,0,0,0,0,0,0,0,0,0,0,0,0,0,0,0,0,0,0],"id":7,"left_children":[1,3,5,7,9,11,13,15,17,19,-1,-1,21,23,25,27,-1,29,31,-1,-1,33,35,37,39,41,43,-1,-1,45,47,49,51,-1,-1,53,55,-1,-1,57,-1,-1,59,61,63,-1,65,-1,67,-1,-1,-1,69,71,-1,-1,73,-1,-1,-1,-1,-1,75,77,79,-1,-1,-1,-1,-1,-1,-1,-1,-1,-1,-1,-1,-1,-1,-1,-1],"loss_changes":[9.261128E0,7.7721963E0,6.3863173E0,6.5740094E0,5.9572926E0,4.523017E0,8.459763E0,6.604619E-1,8.028085E0,1.4564552E0,0E0,0E0,3.2496967E0,6.9190764E0,8.539744E0,9.9487257E-1,0E0,4.3486104E0,6.384243E0,0E0,0E0,4.2214556E0,2.1391335E0,3.2289348E0,1.3104763E0,7.274191E0,6.077769E0,0E0,0E0,3.2456377E0,3.4361134E0,6.664226E-1,4.9144535E0,0E0,0E0,3.4449074E0,1.9314728E0,0E0,0E0,1.6422577E0,0E0,0E0,1.2512207E0,3.8162003E0,5.739882E0,0E0,2.333825E0,0E0,2.8802443E0,0E0,0E0,0E0,7.532243E0,2.8301325E0,0E0,0E0,5.0933838E-2,0E0,0E0,0E0,0E0,0E0,2.1976051E0,7.5960836E0,7.160699E0,0E0,0E0,0E0,0E0,0E0,0E0,0E0,0E0,0E0,0E0,0E0,0E0,0E0,0E0,0E0,0E0],"parents":[2147483647,0,0,1,1,2,2,3,3,4,4,5,5,6,6,7,7,8,8,9,9,12,12,13,13,14,14,15,15,17,17,18,18,21,21,22,22,23,23,24,24,25,25,26,26,29,29,30,30,31,31,32,32,35,35,36,36,39,39,42,42,43,43,44,44,46,46,48,48,52,52,53,53,56,56,62,62,63,63,64,64],"right_children":[2,4,6,8,10,12,14,16,18,20,-1,-1,22,24,26,28,-1,30,32,-1,-1,34,36,38,40,42,44,-1,-1,46,48,50,52,-1,-1,54,56,-1,-1,58,-1,-1,60,62,64,-1,66,-1,68,-1,-1,-1,70,72,-1,-1,74,-1,-1,-1,-1,-1,76,78,80,-1,-1,-1,-1,-1,-1,-1,-1,-1,-1,-1,-1,-1,-1,-1,-1],"split_conditions":[8.76E1,5.6047072E0,-3.902439E-1,6.11942E1,1.62E5,3E4,8.2E4,2.275E5,7.995E1,6.710754E1,-3.0848745E-2,2.610283E-2,-4.870185E0,2.122905E-1,8.2E4,5.629E1,9.58453E-3,-2.48715E0,2.0634801E0,7.520013E-2,8.851896E-3,-6.7168264E0,2.7415982E-1,1.18E5,2.6455319E-2,2.2777328E0,2.3411727E0,1.035935E-2,7.163538E-2,4.2625E4,2.075017E0,1.7375188E0,5.9445775E-1,-3.703158E-2,5.585779E-2,5.55652E-3,-7.9959855E0,5.811592E-2,-1.8870858E-2,-7.893594E0,-5.527658E-3,-2.7181534E-2,8.4277517E-1,-2.4114442E-1,1.9762895E0,5.8304053E-2,-1.4103635E-2,2.0956643E-2,1.7117007E0,-3.869007E-3,-5.2639194E-2,-2.629506E-2,1.5405097E0,8.0893755E-1,2.9450467E-2,-9.483662E-3,2.6060915E0,-6.744224E-3,-7.520389E-2,1.1278204E-2,7.662349E-2,2.0663276E-2,4.238873E-3,6.2611806E-1,2.13664E5,-4.939523E-2,2.2082249E-2,6.5291487E-3,-5.004538E-2,8.544041E-2,7.585929E-3,1.4519088E-2,-6.279277E-2,-7.6545976E-2,-3.4058098E-2,-7.432756E-2,-5.327469E-3,6.1726104E-2,-2.7567131E-2,4.747924E-2,-3.375329E-2],"split_indices":[51,61,26,3,37,40,40,34,36,6,0,0,52,26,34,51,0,7,61,0,0,58,27,34,38,61,19,0,0,24,61,19,49,0,0,38,64,0,0,30,0,0,49,26,49,0,44,0,19,0,0,0,49,49,0,0,49,0,0,0,0,0,35,27,40,0,0,0,0,0,0,0,0,0,0,0,0,0,0,0,0],"split_type":[0,0,0,0,0,0,0,0,0,0,0,0,0,0,0,0,0,0,0,0,0,0,0,0,0,0,0,0,0,0,0,0,0,0,0,0,0,0,0,0,0,0,0,0,0,0,0,0,0,0,0,0,0,0,0,0,0,0,0,0,0,0,0,0,0,0,0,0,0,0,0,0,0,0,0,0,0,0,0,0,0],"sum_hessian":[1.267747E2,5.345901E1,7.331569E1,4.359496E1,9.864056E0,2.2475063E1,5.0840626E1,5.709591E0,3.788537E1,8.637439E0,1.2266166E0,2.2202654E0,2.0254797E1,1.22778225E1,3.85628E1,4.4665284E0,1.2430625E0,2.1338257E1,1.6547112E1,7.3989606E0,1.2384782E0,2.9507108E0,1.7304087E1,3.717743E0,8.560081E0,9.682877E0,2.8879925E1,1.2382216E0,3.228307E0,4.4521513E0,1.6886105E1,2.6869283E0,1.3860183E1,1.7068087E0,1.2439021E0,5.8715186E0,1.1432568E1,1.495331E0,2.2224119E0,7.3326454E0,1.2274345E0,1.968828E0,7.7140484E0,7.157836E0,2.172209E1,1.7341877E0,2.7179637E0,1.9801571E0,1.4905948E1,1.2155923E0,1.4713359E0,1.9622663E0,1.1897916E1,4.1348896E0,1.7366291E0,1.964938E0,9.46763E0,1.2387888E0,6.093857E0,1.2377367E0,6.4763117E0,1.4799399E0,5.677896E0,9.6906395E0,1.203145E1,1.2281983E0,1.4897653E0,2.444073E0,1.2461875E1,5.725866E0,6.17205E0,1.24094E0,2.8939495E0,6.828935E0,2.6386945E0,3.9609005E0,1.7169954E0,6.976061E0,2.7145786E0,2.7271228E0,9.304327E0],"tree_param":{"num_deleted":"0","num_feature":"66","num_nodes":"81","size_leaf_vector":"1"}},{"base_weights":[-2.8423483E-2,6.0681935E-2,-8.003588E-2,1.0406572E0,-1.3569067E-1,1.350113E-2,6.786507E-2,-5.0653917E-1,8.663666E-3,9.291897E-2,-7.7934027E-1,2.3673123E-1,-3.9742735E-1,4.5351177E-1,-5.4831613E-2,-1.3880429E-1,-9.9320644E-1,3.5176497E-2,6.635767E-1,-5.659563E-1,5.6024265E-1,9.87048E-1,-2.284581E-1,-9.1026896E-1,8.8037914E-1,-1.1002483E0,4.111813E-3,5.6294376E-1,-3.8979995E-1,-6.275832E-2,1.028326E0,-2.4034241E-1,-1.2798363E0,6.5238826E-2,-1.5563543E-2,7.0230113E-3,6.314155E-2,4.2337764E-2,-4.7074948E-2,-5.9851047E-2,-4.379682E-3,5.4447275E-2,1.3788404E-2,-5.9310347E-2,-2.3251837E-3,4.8387066E-2,-6.9086547E-3,-6.7431524E-2,-7.190784E-3,4.409961E-2,-2.756301E-2,6.831241E-2,6.1521673E-4,3.0594526E-2,-2.448027E-2,-7.8082676E-3,-7.2831E-2],"categories":[],"categories_nodes":[],"categories_segments":[],"categories_sizes":[],"default_left":[0,0,0,0,0,0,0,0,0,0,0,0,0,0,0,0,0,0,0,0,0,0,0,0,0,0,0,0,0,0,0,0,0,0,0,0,0,0,0,0,0,0,0,0,0,0,0,0,0,0,0,0,0,0,0,0,0],"id":8,"left_children":[1,-1,3,5,7,-1,-1,9,11,13,15,17,19,21,-1,23,25,27,29,31,33,35,37,39,41,43,-1,45,47,49,51,53,55,-1,-1,-1,-1,-1,-1,-1,-1,-1,-1,-1,-1,-1,-1,-1,-1,-1,-1,-1,-1,-1,-1,-1,-1],"loss_changes":[8.253265E0,0E0,7.8186584E0,1.0827122E0,6.3295116E0,0E0,0E0,5.488927E0,8.061905E0,5.323986E0,2.9950018E0,4.770178E0,5.370863E0,3.6247578E0,0E0,6.216327E0,2.0454655E0,8.944809E0,4.7842574E0,5.9975386E0,3.772719E0,1.0902824E0,4.5637083E0,9.3583536E-1,1.3796234E-1,1.3501415E0,0E0,5.1746907E0,5.028079E0,3.669729E0,4.074707E0,4.518312E0,1.4144268E0,0E0,0E0,0E0,0E0,0E0,0E0,0E0,0E0,0E0,0E0,0E0,0E0,0E0,0E0,0E0,0E0,0E0,0E0,0E0,0E0,0E0,0E0,0E0,0E0],"parents":[2147483647,0,0,2,2,3,3,4,4,7,7,8,8,9,9,10,10,11,11,12,12,13,13,15,15,16,16,17,17,18,18,19,19,20,20,21,21,22,22,23,23,24,24,25,25,27,27,28,28,29,29,30,30,31,31,32,32],"right_children":[2,-1,4,6,8,-1,-1,10,12,14,16,18,20,22,-1,24,26,28,30,32,34,36,38,40,42,44,-1,46,48,50,52,54,56,-1,-1,-1,-1,-1,-1,-1,-1,-1,-1,-1,-1,-1,-1,-1,-1,-1,-1,-1,-1,-1,-1,-1,-1],"split_conditions":[-3.9346683E0,6.0681935E-2,5.9776E1,5.9878E1,-5E-1,1.350113E-2,6.786507E-2,5.75E4,1.9762895E0,6.369427E-3,1.6884114E-1,2.2525613E0,4.9917057E-2,-7.085346E-1,-5.4831613E-2,5.2450333E1,1.3333334E-2,6.8E4,7.5E4,1.1906354E0,4.340909E0,-3.7579858E-3,2.65E4,3.3221763E-1,3.6052797E0,1.6453416E2,4.111813E-3,2.645532E0,3.8E4,7.85E1,6.845414E1,-3.0638397E-1,2.0105698E0,6.5238826E-2,-1.5563543E-2,7.0230113E-3,6.314155E-2,4.2337764E-2,-4.7074948E-2,-5.9851047E-2,-4.379682E-3,5.4447275E-2,1.3788404E-2,-5.9310347E-2,-2.3251837E-3,4.8387066E-2,-6.9086547E-3,-6.7431524E-2,-7.190784E-3,4.409961E-2,-2.756301E-2,6.831241E-2,6.1521673E-4,3.0594526E-2,-2.448027E-2,-7.8082676E-3,-7.2831E-2],"split_indices":[8,0,3,0,26,0,0,46,49,41,25,8,14,21,0,6,14,43,37,21,21,47,43,27,8,33,0,53,46,33,6,26,53,0,0,0,0,0,0,0,0,0,0,0,0,0,0,0,0,0,0,0,0,0,0,0,0],"split_type":[0,0,0,0,0,0,0,0,0,0,0,0,0,0,0,0,0,0,0,0,0,0,0,0,0,0,0,0,0,0,0,0,0,0,0,0,0,0,0,0,0,0,0,0,0,0,0,0,0,0,0,0,0,0,0,0,0],"sum_hessian":[1.262292E2,4.1377993E0,1.2209141E2,4.9389896E0,1.1715241E2,1.9779376E0,2.9610522E0,3.2121864E1,8.503055E1,1.0252413E1,2.1869452E1,5.4717392E1,3.031316E1,8.342328E0,1.910085E0,5.8869314E0,1.598252E1,3.7902428E1,1.6814962E1,2.6124796E1,4.188363E0,4.4295444E0,3.9127834E0,3.4114895E0,2.475442E0,1.4514759E1,1.4677615E0,1.676177E1,2.1140657E1,5.89802E0,1.0916943E1,1.8859364E1,7.265433E0,1.99063E0,2.1977332E0,1.4592648E0,2.9702797E0,1.4853928E0,2.4273906E0,2.1923048E0,1.2191848E0,1.244925E0,1.2305168E0,1.33038025E1,1.2109557E0,1.0385375E1,6.3763957E0,3.4010398E0,1.7739616E1,1.735705E0,4.162315E0,7.9335823E0,2.9833605E0,3.9385657E0,1.4920798E1,1.2436869E0,6.021746E0],"tree_param":{"num_deleted":"0","num_feature":"66","num_nodes":"57","size_leaf_vector":"1"}},{"base_weights":[5.5077937E-2,1.2056749E0,-1.2719136E-2,7.6777795E-3,7.0021816E-2,7.4343044E-1,-8.6679526E-2,-2.1774395E-1,1.0496646E0,4.0475897E-2,-5.3049093E-1,3.0349592E-2,-4.7707234E-2,3.5108456E-1,6.610837E-2,-7.049628E-1,1.598303E-1,2.207488E-1,-6.9485873E-1,-1.8717727E-2,5.0017845E-2,-9.0875834E-1,3.0338168E-2,-6.265372E-1,2.6593E-1,-4.839876E-2,8.2987666E-1,-6.4227454E-2,-4.0558E-1,1.2256394E-2,-1.0805026E0,5.8080975E-2,-6.66024E-2,5.7617676E-1,-5.4056644E-2,-6.3527795E-3,6.512597E-2,-1.2320531E-1,-5.218339E-2,-1.0704827E-2,-7.313027E-2,-3.7482258E-2,2.9867178E-2,3.977182E-2,-1.4868001E-2,4.371578E-3,-5.4630693E-2,1.0833845E-2,-4.6904705E-2],"categories":[],"categories_nodes":[],"categories_segments":[],"categories_sizes":[],"default_left":[0,0,0,0,0,0,0,0,0,0,0,0,0,0,0,0,0,0,0,0,0,0,0,0,0,0,0,0,0,0,0,0,0,0,0,0,0,0,0,0,0,0,0,0,0,0,0,0,0],"id":9,"left_children":[1,3,5,-1,-1,7,9,11,13,15,17,-1,-1,19,-1,21,23,25,27,-1,-1,29,-1,31,33,-1,35,-1,37,-1,39,41,-1,43,45,-1,-1,47,-1,-1,-1,-1,-1,-1,-1,-1,-1,-1,-1],"loss_changes":[9.874281E0,1.2281723E0,6.7945895E0,0E0,0E0,3.4152932E0,6.258201E0,2.6709046E0,1.1315279E0,7.838298E0,3.2012258E0,0E0,0E0,2.1237123E0,0E0,3.804473E0,6.4794846E0,4.5612473E0,2.9748077E0,0E0,0E0,2.431491E0,0E0,4.566002E0,6.719341E0,0E0,1.961045E0,0E0,2.6119409E0,0E0,2.898591E0,2.9195263E0,0E0,6.804448E0,5.103204E0,0E0,0E0,3.4376106E0,0E0,0E0,0E0,0E0,0E0,0E0,0E0,0E0,0E0,0E0,0E0],"parents":[2147483647,0,0,1,1,2,2,5,5,6,6,7,7,8,8,9,9,10,10,13,13,15,15,16,16,17,17,18,18,21,21,23,23,24,24,26,26,28,28,30,30,31,31,33,33,34,34,37,37],"right_children":[2,4,6,-1,-1,8,10,12,14,16,18,-1,-1,20,-1,22,24,26,28,-1,-1,30,-1,32,34,-1,36,-1,38,-1,40,42,-1,44,46,-1,-1,48,-1,-1,-1,-1,-1,-1,-1,-1,-1,-1,-1],"split_conditions":[-3.3375232E0,7.16E1,5.371217E1,7.6777795E-3,7.0021816E-2,1.3E4,1.3333334E-2,2.39E0,5.170939E1,7.7E1,7.861E1,3.0349592E-2,-4.7707234E-2,1.1728811E0,6.610837E-2,3.9862543E-2,1.8537526E0,6.953E1,-1.30308E-2,-1.8717727E-2,5.0017845E-2,1.2E0,3.0338168E-2,-1.7302534E-4,1.42E5,-4.839876E-2,1.5141088E-1,-6.4227454E-2,1.1084625E-2,1.2256394E-2,2.65E4,5.797683E-1,-6.66024E-2,1.5342163E0,1.6725638E2,-6.3527795E-3,6.512597E-2,2.003675E-2,-5.218339E-2,-1.0704827E-2,-7.313027E-2,-3.7482258E-2,2.9867178E-2,3.977182E-2,-1.4868001E-2,4.371578E-3,-5.4630693E-2,1.0833845E-2,-4.6904705E-2],"split_indices":[8,45,12,0,0,43,35,31,12,50,39,0,0,49,0,47,61,1,38,0,0,18,0,44,34,0,25,0,41,0,46,25,0,21,42,0,0,47,0,0,0,0,0,0,0,0,0,0,0],"split_type":[0,0,0,0,0,0,0,0,0,0,0,0,0,0,0,0,0,0,0,0,0,0,0,0,0,0,0,0,0,0,0,0,0,0,0,0,0,0,0,0,0,0,0,0,0,0,0,0,0],"sum_hessian":[1.2538524E2,6.0430975E0,1.1934214E2,1.223276E0,4.8198214E0,9.826555E0,1.0951558E2,2.4441342E0,7.3824205E0,8.583266E1,2.3682924E1,1.235812E0,1.2083223E0,2.7137923E0,4.668628E0,1.1169027E1,7.466363E1,4.189926E0,1.9492998E1,1.4816988E0,1.2320935E0,9.932998E0,1.2360299E0,8.293134E0,6.63705E1,1.2199857E0,2.9699404E0,5.2830524E0,1.4209946E1,1.2315291E0,8.701468E0,4.6746206E0,3.618513E0,3.3291603E1,3.307889E1,1.223656E0,1.7462845E0,1.067777E1,3.5321767E0,3.1405897E0,5.560879E0,1.715282E0,2.9593387E0,2.6683416E1,6.6081877E0,2.991872E1,3.1601727E0,8.053031E0,2.6247385E0],"tree_param":{"num_deleted":"0","num_feature":"66","num_nodes":"49","size_leaf_vector":"1"}},{"base_weights":[-6.579053E-3,2.8510872E-1,-1.7433873E-1,3.7892747E-1,-5.810175E-2,-4.035895E-1,1.21426895E-1,1.8737628E-1,1.1425041E0,3.624247E-1,-6.3351554E-1,-1.553681E-1,8.73702E-1,4.2266133E-1,-5.190662E-1,6.4079694E-2,6.5536797E-3,7.551187E-1,-5.367563E-2,-3.9316505E-1,-1.0712614E0,-6.1300683E-1,2.8575873E-1,1.2569411E0,-1.7391104E-2,7.89095E-1,-1.4537342E-1,-1.0233878E0,4.2122883E-1,1.0218779E0,-2.9524898E-2,-7.721304E-1,8.735042E-2,3.386109E-3,-1.3182476E0,4.7251487E-1,-9.1347253E-1,-5.9208207E-2,6.709778E-2,-7.896111E-3,7.699133E-2,-1.6456101E-2,9.6858466E-1,-5.195795E-1,5.996525E-2,-3.2548816E-3,-6.664853E-2,5.6996256E-2,-1.9946953E-2,6.9127835E-2,1.9780421E-1,-3.602433E-2,-1.1865714E0,7.8021806E-1,-5.515273E-1,-7.252647E-3,-7.303637E-2,5.912144E-2,-2.6900927E-2,-1.1455108E0,1.2432135E-2,7.096039E-1,-4.7599947E-1,5.8166146E-2,-7.474082E-3,-4.1941408E-2,2.1867333E-2,-4.9736824E-2,5.92148E-2,-5.3273052E-2,2.579301E-2,-7.0804685E-2,-9.088676E-6,-1.6859233E-3,7.104329E-2,-5.254528E-2,2.9141584E-2,-1.4958377E-2,-6.770453E-2,5.323423E-2,-8.220404E-3,2.509872E-2,-4.463224E-2],"categories":[],"categories_nodes":[],"categories_segments":[],"categories_sizes":[],"default_left":[0,0,0,0,0,0,0,0,0,0,0,0,0,0,0,0,0,0,0,0,0,0,0,0,0,0,0,0,0,0,0,0,0,0,0,0,0,0,0,0,0,0,0,0,0,0,0,0,0,0,0,0,0,0,0,0,0,0,0,0,0,0,0,0,0,0,0,0,0,0,0,0,0,0,0,0,0,0,0,0,0,0,0],"id":10,"left_children":[1,3,5,7,-1,9,11,13,15,17,19,21,23,25,27,-1,-1,29,-1,31,33,35,37,39,-1,41,43,45,47,49,-1,51,53,-1,55,57,59,61,-1,-1,-1,-1,63,65,-1,-1,-1,-1,-1,-1,67,69,71,73,75,-1,-1,-1,-1,77,-1,79,81,-1,-1,-1,-1,-1,-1,-1,-1,-1,-1,-1,-1,-1,-1,-1,-1,-1,-1,-1,-1],"loss_changes":[6.4302583E0,6.9559107E0,5.7040625E0,6.488094E0,0E0,8.545528E0,7.8789887E0,6.5071344E0,1.0972223E0,7.3158493E0,3.4379215E0,5.8344674E0,5.190321E0,6.136149E0,5.1258383E0,0E0,0E0,4.065932E0,0E0,4.666912E0,3.5834875E0,5.0230584E0,5.528819E0,3.4232368E0,0E0,3.879445E0,6.7561183E0,1.9114623E0,2.9095879E0,2.2281036E0,0E0,4.2962503E0,5.75781E0,0E0,1.502552E0,3.2982917E0,3.3498068E0,4.2572513E0,0E0,0E0,0E0,0E0,3.5575018E0,3.4928854E0,0E0,0E0,0E0,0E0,0E0,0E0,5.5652127E0,4.046213E0,2.4690628E0,3.274521E0,4.4914036E0,0E0,0E0,0E0,0E0,1.2989244E0,0E0,1.6341248E0,3.9239087E0,0E0,0E0,0E0,0E0,0E0,0E0,0E0,0E0,0E0,0E0,0E0,0E0,0E0,0E0,0E0,0E0,0E0,0E0,0E0,0E0],"parents":[2147483647,0,0,1,1,2,2,3,3,5,5,6,6,7,7,8,8,9,9,10,10,11,11,12,12,13,13,14,14,17,17,19,19,20,20,21,21,22,22,23,23,25,25,26,26,27,27,28,28,29,29,31,31,32,32,34,34,35,35,36,36,37,37,42,42,43,43,50,50,51,51,52,52,53,53,54,54,59,59,61,61,62,62],"right_children":[2,4,6,8,-1,10,12,14,16,18,20,22,24,26,28,-1,-1,30,-1,32,34,36,38,40,-1,42,44,46,48,50,-1,52,54,-1,56,58,60,62,-1,-1,-1,-1,64,66,-1,-1,-1,-1,-1,-1,68,70,72,74,76,-1,-1,-1,-1,78,-1,80,82,-1,-1,-1,-1,-1,-1,-1,-1,-1,-1,-1,-1,-1,-1,-1,-1,-1,-1,-1,-1],"split_conditions":[8.39E1,4.4444446E-2,2.15E5,5.6047072E0,-5.810175E-2,-1.2287605E-2,8.196721E-3,2.1237278E0,1.31E5,2.173151E-2,-2.563492E1,3.93E5,1.1296E2,3.5569107E-3,6.8E4,6.4079694E-2,6.5536797E-3,4.4555E5,-5.367563E-2,8.8685834E-1,-1.3956734E-2,8.717626E-1,-4.790815E-1,3.0790148E0,-1.7391104E-2,-1.07E0,6.306186E1,-3.912967E-2,3.5E4,9.1168654E-1,-2.9524898E-2,6.75E4,2.395491E0,3.386109E-3,-1.4886165E0,3.004391E-1,1.289546E-3,4.56382E1,6.709778E-2,-7.896111E-3,7.699133E-2,-1.6456101E-2,8.939394E0,9.1E4,5.996525E-2,-3.2548816E-3,-6.664853E-2,5.6996256E-2,-1.9946953E-2,6.9127835E-2,1.45E5,2.35E4,6.861904E-2,1.645828E0,9.3319E1,-7.252647E-3,-7.303637E-2,5.912144E-2,-2.6900927E-2,-7.7624306E1,1.2432135E-2,4.56E5,-1.0794473E-2,5.8166146E-2,-7.474082E-3,-4.1941408E-2,2.1867333E-2,-4.9736824E-2,5.92148E-2,-5.3273052E-2,2.579301E-2,-7.0804685E-2,-9.088676E-6,-1.6859233E-3,7.104329E-2,-5.254528E-2,2.9141584E-2,-1.4958377E-2,-6.770453E-2,5.323423E-2,-8.220404E-3,2.509872E-2,-4.463224E-2],"split_indices":[33,44,43,61,0,38,38,49,37,35,13,46,42,38,43,0,0,24,0,53,41,49,58,61,0,20,6,35,46,25,0,43,53,0,52,25,38,6,0,0,0,0,59,37,0,0,0,0,0,0,34,34,9,53,2,0,0,0,0,13,0,34,44,0,0,0,0,0,0,0,0,0,0,0,0,0,0,0,0,0,0,0,0],"split_type":[0,0,0,0,0,0,0,0,0,0,0,0,0,0,0,0,0,0,0,0,0,0,0,0,0,0,0,0,0,0,0,0,0,0,0,0,0,0,0,0,0,0,0,0,0,0,0,0,0,0,0,0,0,0,0,0,0,0,0,0,0,0,0,0,0,0,0,0,0,0,0,0,0,0,0,0,0,0,0,0,0,0,0],"sum_hessian":[1.2939249E2,4.6990124E1,8.240236E1,4.4822426E1,2.167697E0,4.6215626E1,3.6186733E1,3.6828903E1,7.993524E0,1.0536451E1,3.5679173E1,2.703342E1,9.153313E0,2.792876E1,8.900142E0,6.7923455E0,1.2011786E0,8.646086E0,1.8903664E0,2.425809E1,1.1421083E1,1.3077145E1,1.3956276E1,6.945308E0,2.2080042E0,1.6740477E1,1.1188284E1,5.735547E0,3.164595E0,7.4164195E0,1.2296659E0,1.3222834E1,1.1035255E1,2.1646316E0,9.256453E0,2.7108357E0,1.0366309E1,1.123178E1,2.724496E0,1.2308596E0,5.7144485E0,2.2001204E0,1.4540357E1,9.232582E0,1.9557014E0,1.6959952E0,4.0395517E0,1.4788451E0,1.6857498E0,4.6872177E0,2.7292016E0,5.154547E0,8.068287E0,5.187808E0,5.847448E0,1.2209638E0,8.035488E0,1.4923413E0,1.2184944E0,8.652885E0,1.7134236E0,3.7014868E0,7.5302935E0,1.2349002E1,2.1913548E0,7.015495E0,2.2170875E0,1.2317806E0,1.4974209E0,1.4741713E0,3.680376E0,6.5981703E0,1.4701166E0,2.7021375E0,2.4856703E0,4.111162E0,1.7362859E0,2.1921637E0,6.4607215E0,2.477007E0,1.2244799E0,2.188506E0,5.3417873E0],"tree_param":{"num_deleted":"0","num_feature":"66","num_nodes":"83","size_leaf_vector":"1"}},{"base_weights":[-5.5877108E-2,8.4190905E-1,-1.2901448E-1,1.0001308E0,-6.8784915E-3,1.0053245E0,-1.9918127E-1,1.5093881E-2,1.1752827E0,5.9804138E-2,3.6666512E-3,-7.216748E-2,-6.223519E-1,1.6486136E-2,6.8520606E-2,-2.7915767E-1,3.6882782E-1,3.7447613E-2,-7.919117E-1,-4.2362145E-1,1.6290429E-1,-4.5064613E-2,5.289668E-1,-9.947292E-1,3.5740542E-1,5.272232E-1,-5.055676E-1,4.7130936E-1,-4.6329465E-2,7.3987216E-1,-1.3134982E-1,2.0875964E-2,-1.1343858E0,5.7599362E-2,-1.9620191E-2,5.570368E-2,-1.3834678E-2,-4.8203688E-2,-1.3307735E-2,-5.967308E-3,6.1427902E-2,4.9455088E-2,-3.6967674E-3,-3.272528E-2,4.4604134E-2,-6.2629364E-2,5.8091492E-3],"categories":[],"categories_nodes":[],"categories_segments":[],"categories_sizes":[],"default_left":[0,0,0,0,0,0,0,0,0,0,0,0,0,0,0,0,0,0,0,0,0,0,0,0,0,0,0,0,0,0,0,0,0,0,0,0,0,0,0,0,0,0,0,0,0,0,0],"id":11,"left_children":[1,3,5,7,-1,9,11,-1,13,-1,-1,15,17,-1,-1,19,21,-1,23,25,27,-1,29,31,33,35,37,39,-1,41,43,-1,45,-1,-1,-1,-1,-1,-1,-1,-1,-1,-1,-1,-1,-1,-1],"loss_changes":[8.045231E0,1.5692182E0,9.165063E0,6.326647E-1,0E0,1.1081882E0,5.701163E0,0E0,5.5612755E-1,0E0,0E0,7.711999E0,6.3011847E0,0E0,0E0,3.7282634E0,5.980298E0,0E0,5.5615234E0,3.653185E0,5.421467E0,0E0,3.5312858E0,4.2698936E0,2.886225E0,2.1661916E0,4.192032E0,5.6146336E0,0E0,3.8943987E0,4.2346816E0,0E0,2.7744713E0,0E0,0E0,0E0,0E0,0E0,0E0,0E0,0E0,0E0,0E0,0E0,0E0,0E0,0E0],"parents":[2147483647,0,0,1,1,2,2,3,3,5,5,6,6,8,8,11,11,12,12,15,15,16,16,18,18,19,19,20,20,22,22,23,23,24,24,25,25,26,26,27,27,29,29,30,30,32,32],"right_children":[2,4,6,8,-1,10,12,-1,14,-1,-1,16,18,-1,-1,20,22,-1,24,26,28,-1,30,32,34,36,38,40,-1,42,44,-1,46,-1,-1,-1,-1,-1,-1,-1,-1,-1,-1,-1,-1,-1,-1],"split_conditions":[6.3282E1,3.9862543E-2,-3.4177582E0,1.348906E-1,-6.8784915E-3,7.5638914E-1,4.436978E0,1.5093881E-2,5.65535E1,5.9804138E-2,3.6666512E-3,4.8979592E-1,-1.5716286E1,1.6486136E-2,6.8520606E-2,3.7E5,2.35E4,3.7447613E-2,4.3201134E-2,1.15E4,6.39E5,-4.5064613E-2,5.8897966E-1,-4.7E0,4.997356E-2,-4.7E-1,-7.2E-1,-2.062629E-3,-4.6329465E-2,-9.1553134E-1,4.847935E0,2.0875964E-2,1.0623E6,5.7599362E-2,-1.9620191E-2,5.570368E-2,-1.3834678E-2,-4.8203688E-2,-1.3307735E-2,-5.967308E-3,6.1427902E-2,4.9455088E-2,-3.6967674E-3,-3.272528E-2,4.4604134E-2,-6.2629364E-2,5.8091492E-3],"split_indices":[3,38,8,25,0,25,19,0,11,0,0,26,64,0,0,40,46,0,35,40,34,0,27,20,35,20,20,38,0,58,61,0,24,0,0,0,0,0,0,0,0,0,0,0,0,0,0],"split_type":[0,0,0,0,0,0,0,0,0,0,0,0,0,0,0,0,0,0,0,0,0,0,0,0,0,0,0,0,0,0,0,0,0,0,0,0,0,0,0,0,0,0,0,0,0,0,0],"sum_hessian":[1.19871216E2,8.237822E0,1.1163339E2,7.0740223E0,1.1637989E0,5.7266636E0,1.0590673E2,1.9647905E0,5.109232E0,4.5184693E0,1.208194E0,8.235776E1,2.3548973E1,1.4623127E0,3.646919E0,5.629944E1,2.6058315E1,2.215359E0,2.1333612E1,4.246409E1,1.3835351E1,2.399424E0,2.3658892E1,1.8247942E1,3.0856714E0,2.9381473E0,3.952594E1,1.1225213E1,2.6101382E0,1.7840233E1,5.8186584E0,1.4630932E0,1.678485E1,1.2376963E0,1.8479753E0,1.4753505E0,1.4627968E0,1.2520593E1,2.700535E1,6.779547E0,4.445666E0,1.34926815E1,4.3475513E0,4.088956E0,1.7297027E0,1.5333903E1,1.4509455E0],"tree_param":{"num_deleted":"0","num_feature":"66","num_nodes":"47","size_leaf_vector":"1"}},{"base_weights":[-3.228816E-2,3.6162198E-2,-8.434914E-1,1.0336171E-1,-6.408385E-1,1.8449077E-2,-1.137959E0,3.596269E-2,7.6174694E-1,-6.8896525E-2,-1.7502284E-2,-1.632509E-3,-6.627329E-2,1.1485773E-1,-9.2670226E-1,1.1097463E0,-2.3212276E-2,4.5931112E-2,-5.858675E-1,6.86044E-3,5.3118175E-1,-5.2216504E-2,-6.959578E-2,-6.9540883E-3,6.7584865E-2,-4.9050167E-2,1.6924089E-2,7.2790466E-2,-7.350285E-1,8.1273705E-1,-2.8028804E-1,-4.428644E-2,3.536608E-2,1.6149247E-2,-1.07549885E-2,2.1496128E-2,-6.0143657E-2,1.4946674E-2,7.643422E-2,2.4434036E-2,-4.6080258E-2],"categories":[],"categories_nodes":[],"categories_segments":[],"categories_sizes":[],"default_left":[0,0,0,0,0,0,0,0,0,0,0,0,0,0,0,0,0,0,0,0,0,0,0,0,0,0,0,0,0,0,0,0,0,0,0,0,0,0,0,0,0],"id":12,"left_children":[1,3,5,7,9,-1,11,13,15,-1,17,-1,-1,19,21,23,-1,-1,25,27,29,31,-1,-1,-1,-1,-1,33,35,37,39,-1,-1,-1,-1,-1,-1,-1,-1,-1,-1],"loss_changes":[6.978806E0,5.359708E0,3.9111009E0,4.7077913E0,4.8670115E0,0E0,1.6380548E0,7.5380716E0,4.721866E0,0E0,4.145922E0,0E0,0E0,4.1026144E0,2.9874759E0,2.5976486E0,0E0,0E0,2.0960555E0,3.6500301E0,4.522681E0,2.9379108E0,0E0,0E0,0E0,0E0,0E0,4.9989796E0,3.8369439E0,4.7711143E0,3.20504E0,0E0,0E0,0E0,0E0,0E0,0E0,0E0,0E0,0E0,0E0],"parents":[2147483647,0,0,1,1,2,2,3,3,4,4,6,6,7,7,8,8,10,10,13,13,14,14,15,15,18,18,19,19,20,20,21,21,27,27,28,28,29,29,30,30],"right_children":[2,4,6,8,10,-1,12,14,16,-1,18,-1,-1,20,22,24,-1,-1,26,28,30,32,-1,-1,-1,-1,-1,34,36,38,40,-1,-1,-1,-1,-1,-1,-1,-1,-1,-1],"split_conditions":[7.225E5,3.6388888E0,7.6527855E1,3.402439E-2,4.1966195E0,1.8449077E-2,1.4506136E0,2.4543194E-2,2.34E5,-6.8896525E-2,-3.4596577E0,-1.632509E-3,-6.627329E-2,3.76E5,-1.4737498E0,6.7675E4,-2.3212276E-2,4.5931112E-2,-6.875E0,3.480715E-2,1.1611E2,-3.0195584E0,-6.959578E-2,-6.9540883E-3,6.7584865E-2,-4.9050167E-2,1.6924089E-2,8.994E1,1.1986785E0,2.567551E-3,2.7935E5,-4.428644E-2,3.536608E-2,1.6149247E-2,-1.07549885E-2,2.1496128E-2,-6.0143657E-2,1.4946674E-2,7.643422E-2,2.4434036E-2,-4.6080258E-2],"split_indices":[34,26,12,14,65,0,49,14,34,0,64,0,0,40,7,24,0,0,13,44,39,58,0,0,0,0,0,45,49,44,34,0,0,0,0,0,0,0,0,0,0],"split_type":[0,0,0,0,0,0,0,0,0,0,0,0,0,0,0,0,0,0,0,0,0,0,0,0,0,0,0,0,0,0,0,0,0,0,0,0,0,0,0,0,0],"sum_hessian":[1.2413342E2,1.1535504E2,8.778383E0,1.05709564E2,9.6454735E0,1.6659155E0,7.1124682E0,9.684967E1,8.859897E0,3.8647966E0,5.7806764E0,1.2018673E0,5.9106007E0,9.0327576E1,6.5220933E0,6.9748855E0,1.8850113E0,1.9510126E0,3.8296638E0,7.252943E1,1.779815E1,2.6510391E0,3.8710542E0,1.2010155E0,5.77387E0,2.639888E0,1.1897757E0,6.7438225E1,5.0912004E0,1.3212316E1,4.5858326E0,1.1847551E0,1.466284E0,3.6016098E1,3.1422127E1,1.4820058E0,3.6091945E0,8.517337E0,4.6949797E0,2.1936045E0,2.3922281E0],"tree_param":{"num_deleted":"0","num_feature":"66","num_nodes":"41","size_leaf_vector":"1"}},{"base_weights":[4.603009E-2,2.0336883E-1,-2.5689173E-1,-5.3321034E-1,3.113876E-1,-4.752526E-2,-9.719601E-1,-8.539848E-1,3.7978824E-2,3.824335E-1,-6.9561E-1,9.570116E-1,-1.7239788E-1,-1.1964715E0,1.6208742E-2,-1.2020634E0,8.923659E-2,9.750481E-1,2.542461E-1,-6.4947635E-2,3.2896977E-2,5.9450787E-2,1.160971E-2,-4.258761E-1,4.1510525E-1,-6.8899475E-2,-8.124162E-3,-4.7017927E-3,-7.100286E-2,3.2252558E-2,-2.5609234E-2,1.1239023E0,-9.204911E-3,-2.6952487E-1,3.8105553E-1,-6.9367987E-1,4.9069473E-1,7.11248E-1,-2.3553496E-2,-6.9459616E-3,1.3019588E0,-7.850048E-1,8.906809E-1,5.8740646E-1,-2.0047355E-2,-1.5968557E-2,-9.504672E-1,-4.4030245E-2,1.0497128E0,1.8038565E-1,6.632516E-2,1.2218766E-2,7.5128265E-2,-5.374095E-2,1.8798333E-2,6.5599703E-3,5.7365127E-2,4.1101277E-2,-1.4690632E-2,-4.7044978E-2,1.3033549E-2,-3.6259465E-2,3.9653435E-2,-5.6460466E-2,1.5098497E-2,6.711214E-2,7.797179E-3,4.6952523E-2,-3.9200943E-2],"categories":[],"categories_nodes":[],"categories_segments":[],"categories_sizes":[],"default_left":[0,0,0,0,0,0,0,0,0,0,0,0,0,0,0,0,0,0,0,0,0,0,0,0,0,0,0,0,0,0,0,0,0,0,0,0,0,0,0,0,0,0,0,0,0,0,0,0,0,0,0,0,0,0,0,0,0,0,0,0,0,0,0,0,0,0,0,0,0],"id":13,"left_children":[1,3,5,7,9,11,13,15,-1,17,19,21,23,25,-1,27,29,31,33,-1,-1,-1,-1,35,37,-1,-1,-1,-1,-1,-1,39,-1,41,43,45,47,49,-1,-1,51,53,55,57,59,61,63,-1,65,67,-1,-1,-1,-1,-1,-1,-1,-1,-1,-1,-1,-1,-1,-1,-1,-1,-1,-1,-1],"loss_changes":[5.965177E0,6.7069855E0,6.369222E0,5.1616716E0,5.440501E0,4.4547777E0,3.1970673E0,3.1244936E0,0E0,4.933379E0,5.03694E0,3.854196E-1,4.8326592E0,1.3604794E0,0E0,1.5045843E0,1.4696499E0,2.238947E0,3.9170573E0,0E0,0E0,0E0,0E0,5.8226824E0,2.9409533E0,0E0,0E0,0E0,0E0,0E0,0E0,2.5592403E0,0E0,7.744093E0,3.8728194E0,3.0649061E0,5.2447424E0,2.321714E0,0E0,0E0,1.620038E0,3.3271155E0,6.4702773E-1,6.6167727E0,4.591578E0,3.9492602E0,3.2105408E0,0E0,9.567542E-1,4.6627374E0,0E0,0E0,0E0,0E0,0E0,0E0,0E0,0E0,0E0,0E0,0E0,0E0,0E0,0E0,0E0,0E0,0E0,0E0,0E0],"parents":[2147483647,0,0,1,1,2,2,3,3,4,4,5,5,6,6,7,7,9,9,10,10,11,11,12,12,13,13,15,15,16,16,17,17,18,18,23,23,24,24,31,31,33,33,34,34,35,35,36,36,37,37,40,40,41,41,42,42,43,43,44,44,45,45,46,46,48,48,49,49],"right_children":[2,4,6,8,10,12,14,16,-1,18,20,22,24,26,-1,28,30,32,34,-1,-1,-1,-1,36,38,-1,-1,-1,-1,-1,-1,40,-1,42,44,46,48,50,-1,-1,52,54,56,58,60,62,64,-1,66,68,-1,-1,-1,-1,-1,-1,-1,-1,-1,-1,-1,-1,-1,-1,-1,-1,-1,-1,-1],"split_conditions":[2.15E5,-2.3183715E-2,6.606246E0,5.160266E0,4.6831027E-2,-2.5764342E-2,2.244E6,4.814926E-3,3.7978824E-2,-1.11224605E-2,9.1128E1,-7.5206817E-3,8.196721E-3,1.1105E6,1.6208742E-2,-6.341554E-1,-9.450458E0,9.8888886E-1,-4E-1,-6.4947635E-2,3.2896977E-2,5.9450787E-2,1.160971E-2,1.1464E2,1.1105E6,-6.8899475E-2,-8.124162E-3,-4.7017927E-3,-7.100286E-2,3.2252558E-2,-2.5609234E-2,1.1931065E-1,-9.204911E-3,1.8669842E0,1.39E0,1.8785009E0,4.803997E-2,4.01E5,-2.3553496E-2,-6.9459616E-3,1.2903936E0,9.060085E-3,-4.5659646E-2,2.0479014E0,5.45E4,2.7935E5,1.6285E6,-4.4030245E-2,4.325E5,9.181E1,6.632516E-2,1.2218766E-2,7.5128265E-2,-5.374095E-2,1.8798333E-2,6.5599703E-3,5.7365127E-2,4.1101277E-2,-1.4690632E-2,-4.7044978E-2,1.3033549E-2,-3.6259465E-2,3.9653435E-2,-5.6460466E-2,1.5098497E-2,6.711214E-2,7.797179E-3,4.6952523E-2,-3.9200943E-2],"split_indices":[34,15,61,19,44,35,43,44,0,15,0,38,38,37,0,26,64,25,26,0,0,0,0,45,34,0,0,0,0,0,0,25,0,49,20,55,59,37,0,0,55,15,44,49,23,34,34,0,46,36,0,0,0,0,0,0,0,0,0,0,0,0,0,0,0,0,0,0,0],"split_type":[0,0,0,0,0,0,0,0,0,0,0,0,0,0,0,0,0,0,0,0,0,0,0,0,0,0,0,0,0,0,0,0,0,0,0,0,0,0,0,0,0,0,0,0,0,0,0,0,0,0,0,0,0,0,0,0,0,0,0,0,0,0,0,0,0,0,0,0,0],"sum_hessian":[1.2306142E2,8.1209526E1,4.185189E1,9.882764E0,7.132676E1,3.3198185E1,8.6537075E0,8.190026E0,1.6927377E0,6.720549E1,4.121271E0,2.9337504E0,3.0264433E1,7.4415965E0,1.2121114E0,5.7818985E0,2.4081283E0,1.0776936E1,5.6428555E1,2.878514E0,1.2427572E0,1.7372464E0,1.1965039E0,2.133469E1,8.929744E0,6.047293E0,1.3943033E0,1.1858381E0,4.5960603E0,1.2138146E0,1.1943136E0,9.577435E0,1.1995013E0,1.0779541E1,4.5649014E1,1.669881E1,4.6358805E0,6.841006E0,2.0887375E0,1.2106934E0,8.366741E0,7.6874123E0,3.0921285E0,2.9835432E1,1.5813581E1,4.880477E0,1.1818333E1,1.1759486E0,3.459932E0,4.366572E0,2.474434E0,1.6876652E0,6.679076E0,6.21113E0,1.476282E0,1.1626064E0,1.9295223E0,2.3615204E1,6.2202272E0,3.145035E0,1.2668547E1,2.6558964E0,2.2245805E0,1.0428426E1,1.3899071E0,2.2287018E0,1.2312303E0,2.4586916E0,1.9078805E0],"tree_param":{"num_deleted":"0","num_feature":"66","num_nodes":"69","size_leaf_vector":"1"}},{"base_weights":[-2.2721563E-2,-3.6110562E-1,1.087986E-1,3.536645E-2,-4.4362393E-1,2.479032E-1,-2.8880146E-1,-1.0246913E-2,-6.8013793E-1,-9.22048E-2,5.010926E-1,-7.299407E-1,3.550149E-1,-6.4899206E-1,6.2114096E-1,-9.7834575E-1,-3.0809468E-1,-3.5069394E-1,7.3011875E-1,8.963033E-1,7.19512E-2,-1.1191068E-1,-1.0780089E0,6.5992975E-1,-4.6503082E-2,2.2624446E-2,-1.034403E0,9.776706E-1,-2.8137399E-2,-1.2040598E0,-2.1603948E-1,-6.3579446E-1,5.872682E-1,-5.8603443E-2,-1.2394597E-1,1.0649031E0,-2.6131129E-2,1.7288546E-1,1.1482542E0,-5.7113435E-2,2.8854364E-1,4.2365935E-2,-5.777561E-1,-6.466232E-2,-1.3123619E-2,-1.3064774E-2,9.4521934E-1,-5.8454215E-3,-6.3553356E-2,6.416717E-2,-4.0872246E-3,-1.7809182E-3,-6.9499604E-2,2.6206339E-2,-4.452832E-2,2.8099244E-2,-9.629695E-1,5.1387202E-2,-6.259708E-3,4.0371677E-1,-6.250421E-1,-7.913998E-3,7.008786E-2,8.163409E-1,-4.2120367E-2,1.3386128E0,2.8554899E-1,1.1708757E0,-2.0777829E-1,1.5245961E-2,-4.7881916E-2,-7.674267E-3,6.5514825E-2,2.1217626E-3,-6.400171E-2,-4.7872574E-3,4.666808E-2,2.7974699E-2,-4.24374E-2,6.1939448E-2,-9.283897E-3,7.273672E-2,8.238024E-3,-2.6533673E-2,4.2526893E-2,-5.116794E-3,7.428281E-2,-2.99775E-2,4.237333E-2],"categories":[],"categories_nodes":[],"categories_segments":[],"categories_sizes":[],"default_left":[0,0,0,0,0,0,0,0,0,0,0,0,0,0,0,0,0,0,0,0,0,0,0,0,0,0,0,0,0,0,0,0,0,0,0,0,0,0,0,0,0,0,0,0,0,0,0,0,0,0,0,0,0,0,0,0,0,0,0,0,0,0,0,0,0,0,0,0,0,0,0,0,0,0,0,0,0,0,0,0,0,0,0,0,0,0,0,0,0],"id":14,"left_children":[1,3,5,-1,7,9,11,13,15,17,19,21,23,25,27,29,31,33,35,37,39,41,43,45,-1,-1,47,49,-1,51,53,55,57,-1,59,61,-1,63,65,-1,67,-1,69,-1,-1,-1,71,-1,-1,-1,-1,-1,-1,-1,-1,-1,73,-1,-1,75,77,-1,-1,79,-1,81,83,85,87,-1,-1,-1,-1,-1,-1,-1,-1,-1,-1,-1,-1,-1,-1,-1,-1,-1,-1,-1,-1],"loss_changes":[5.5110283E0,3.3681226E0,5.0108895E0,0E0,3.3523598E0,5.789596E0,6.9641905E0,5.4792433E0,2.049241E0,6.4857E0,6.446415E0,2.963367E0,4.6386786E0,3.3318381E0,3.4375932E0,1.684371E0,3.5675545E0,4.133483E0,3.6322858E0,3.4281206E0,5.4558005E0,3.296229E0,1.2500982E0,2.5826097E0,0E0,0E0,1.0025868E0,1.9257488E0,0E0,1.7972679E0,2.3641622E0,3.852474E0,1.20717E0,0E0,5.308372E0,2.742014E0,0E0,4.814592E0,2.0122147E0,0E0,7.8366766E0,0E0,1.909006E0,0E0,0E0,0E0,3.0097466E0,0E0,0E0,0E0,0E0,0E0,0E0,0E0,0E0,0E0,2.2874794E0,0E0,0E0,2.7140117E0,3.1778286E0,0E0,0E0,2.0817115E0,0E0,1.3515491E0,2.253014E0,2.714263E0,5.4469976E0,0E0,0E0,0E0,0E0,0E0,0E0,0E0,0E0,0E0,0E0,0E0,0E0,0E0,0E0,0E0,0E0,0E0,0E0,0E0,0E0],"parents":[2147483647,0,0,1,1,2,2,4,4,5,5,6,6,7,7,8,8,9,9,10,10,11,11,12,12,13,13,14,14,15,15,16,16,17,17,18,18,19,19,20,20,21,21,22,22,23,23,26,26,27,27,29,29,30,30,31,31,32,32,34,34,35,35,37,37,38,38,40,40,42,42,46,46,56,56,59,59,60,60,63,63,65,65,66,66,67,67,68,68],"right_children":[2,4,6,-1,8,10,12,14,16,18,20,22,24,26,28,30,32,34,36,38,40,42,44,46,-1,-1,48,50,-1,52,54,56,58,-1,60,62,-1,64,66,-1,68,-1,70,-1,-1,-1,72,-1,-1,-1,-1,-1,-1,-1,-1,-1,74,-1,-1,76,78,-1,-1,80,-1,82,84,86,88,-1,-1,-1,-1,-1,-1,-1,-1,-1,-1,-1,-1,-1,-1,-1,-1,-1,-1,-1,-1],"split_conditions":[-4.7727272E-1,-3.4177582E0,4.476807E0,3.536645E-2,6.75E4,2.3561044E0,4.847935E0,-8.5089093E-1,2.135E5,1.3552631E0,3.2258064E-2,2.305786E0,1.6389479E2,-8.9612186E-1,2.2511233E-1,2.351525E0,1.37013905E-2,-3.35E0,4.3509316E0,-1.4892443E-2,-6.22E0,-1.6776677E-2,6E0,-2.2612318E-2,-4.6503082E-2,2.2624446E-2,-1.3065796E1,6.6276777E-1,-2.8137399E-2,8.207E1,1.7596666E-2,8.752172E-2,-1.414521E0,-5.8603443E-2,-8.67144E-2,-2.1970063E-2,-2.6131129E-2,8.72E1,5.36675E5,-5.7113435E-2,2.8704622E0,4.2365935E-2,-1.2010604E0,-6.466232E-2,-1.3123619E-2,-1.3064774E-2,7.42564E1,-5.8454215E-3,-6.3553356E-2,6.416717E-2,-4.0872246E-3,-1.7809182E-3,-6.9499604E-2,2.6206339E-2,-4.452832E-2,2.8099244E-2,-5.6902003E0,5.1387202E-2,-6.259708E-3,-3.4029227E-1,-2.23E0,-7.913998E-3,7.008786E-2,1.5555556E0,-4.2120367E-2,3.282696E-2,1.0639E2,-2.88E0,3.7905604E-2,1.5245961E-2,-4.7881916E-2,-7.674267E-3,6.5514825E-2,2.1217626E-3,-6.400171E-2,-4.7872574E-3,4.666808E-2,2.7974699E-2,-4.24374E-2,6.1939448E-2,-9.283897E-3,7.273672E-2,8.238024E-3,-2.6533673E-2,4.2526893E-2,-5.116794E-3,7.428281E-2,-2.99775E-2,4.237333E-2],"split_indices":[26,8,19,0,43,19,61,8,43,26,22,55,51,26,21,49,38,31,26,35,31,35,18,38,0,0,64,27,0,39,38,27,21,0,26,44,0,56,24,0,59,0,21,0,0,0,3,0,0,0,0,0,0,0,0,0,52,0,0,26,31,0,0,26,0,41,36,31,14,0,0,0,0,0,0,0,0,0,0,0,0,0,0,0,0,0,0,0,0],"split_type":[0,0,0,0,0,0,0,0,0,0,0,0,0,0,0,0,0,0,0,0,0,0,0,0,0,0,0,0,0,0,0,0,0,0,0,0,0,0,0,0,0,0,0,0,0,0,0,0,0,0,0,0,0,0,0,0,0,0,0,0,0,0,0,0,0,0,0,0,0,0,0,0,0,0,0,0,0,0,0,0,0,0,0,0,0,0,0,0,0],"sum_hessian":[1.21948494E2,3.3643238E1,8.830526E1,1.8692092E0,3.177403E1,6.5696976E1,2.2608282E1,1.1586607E1,2.0187424E1,2.8307497E1,3.738948E1,1.3336452E1,9.271831E0,5.745886E0,5.8407216E0,1.0301053E1,9.886371E0,2.197379E1,6.333707E0,1.8897522E1,1.8491957E1,5.2810087E0,8.055443E0,7.8869348E0,1.3848954E0,1.4442537E0,4.301632E0,4.622759E0,1.2179625E0,7.500659E0,2.8003938E0,7.449706E0,2.436664E0,3.85183E0,1.812196E1,5.1163483E0,1.2173585E0,5.3170485E0,1.3580474E1,2.1523032E0,1.6339653E1,1.4586326E0,3.822376E0,5.909925E0,2.1455178E0,1.8848127E0,6.002122E0,1.1884108E0,3.1132214E0,3.4235837E0,1.1991754E0,1.1932931E0,6.307366E0,1.4415431E0,1.3588507E0,1.4443368E0,6.005369E0,1.2322861E0,1.2043781E0,8.921646E0,9.200314E0,1.2192248E0,3.8971233E0,3.37442E0,1.9426286E0,1.0673653E1,2.906822E0,5.393068E0,1.0946586E1,1.2094623E0,2.6129136E0,1.6415219E0,4.3606E0,1.6474636E0,4.3579054E0,5.0132833E0,3.9083633E0,1.2230692E0,7.9772444E0,2.207466E0,1.1669539E0,9.495084E0,1.1785684E0,1.2138891E0,1.6929328E0,1.2028257E0,4.1902423E0,8.297778E0,2.6488073E0],"tree_param":{"num_deleted":"0","num_feature":"66","num_nodes":"89","size_leaf_vector":"1"}},{"base_weights":[3.920867E-2,1.1100379E-1,-7.700801E-1,6.3494734E-2,7.207811E-2,3.4959953E-2,-1.0420542E0,3.1830654E-1,-7.618844E-2,-1.1987727E0,8.56406E-4,-1.8061604E-1,5.1405257E-1,-4.6143556E-1,1.3982378E-1,-1.8692754E-2,-6.40155E-2,-4.2442676E-1,5.0538935E-2,2.3088188E-1,1.2934657E0,5.074932E-2,-5.776053E-1,2.8993466E-1,-3.666853E-1,3.903697E-2,-7.1823347E-1,4.1373146E-1,-8.110982E-1,1.0575704E-2,7.3068485E-2,-3.039515E-1,-1.1969283E0,-4.8228317E-1,4.302226E-1,2.7642181E-2,-5.9545904E-2,-6.1504047E-2,2.1089534E-3,4.0237006E-2,-9.101041E-4,-5.410263E-2,-5.258884E-3,-2.2962634E-2,3.2942824E-2,-3.9297445E-3,-7.003339E-2,3.334885E-2,-4.882105E-2,2.7481077E-2,-4.1820746E-2,-2.4670204E-2,4.6253145E-2],"categories":[],"categories_nodes":[],"categories_segments":[],"categories_sizes":[],"default_left":[0,0,0,0,0,0,0,0,0,0,0,0,0,0,0,0,0,0,0,0,0,0,0,0,0,0,0,0,0,0,0,0,0,0,0,0,0,0,0,0,0,0,0,0,0,0,0,0,0,0,0,0,0],"id":15,"left_children":[1,3,5,-1,7,-1,9,11,13,15,-1,17,19,21,23,-1,-1,25,-1,27,29,-1,31,33,35,-1,37,39,41,-1,-1,43,45,47,49,51,-1,-1,-1,-1,-1,-1,-1,-1,-1,-1,-1,-1,-1,-1,-1,-1,-1],"loss_changes":[7.2884107E0,5.084495E0,4.815589E0,0E0,4.1157203E0,0E0,1.5197201E0,4.225342E0,5.9528623E0,5.1478386E-2,0E0,4.1074114E0,6.4662027E0,4.986239E0,3.6117542E0,0E0,0E0,4.532345E0,0E0,4.8510065E0,1.1352959E0,0E0,3.7748203E0,4.1207857E0,3.6021237E0,0E0,3.7645411E0,3.5316117E0,6.275327E-1,0E0,0E0,3.0353842E0,1.5174427E0,4.072794E0,5.1628094E0,4.3866987E0,0E0,0E0,0E0,0E0,0E0,0E0,0E0,0E0,0E0,0E0,0E0,0E0,0E0,0E0,0E0,0E0,0E0],"parents":[2147483647,0,0,1,1,2,2,4,4,6,6,7,7,8,8,9,9,11,11,12,12,13,13,14,14,17,17,19,19,20,20,22,22,23,23,24,24,26,26,27,27,28,28,31,31,32,32,33,33,34,34,35,35],"right_children":[2,4,6,-1,8,-1,10,12,14,16,-1,18,20,22,24,-1,-1,26,-1,28,30,-1,32,34,36,-1,38,40,42,-1,-1,44,46,48,50,52,-1,-1,-1,-1,-1,-1,-1,-1,-1,-1,-1,-1,-1,-1,-1,-1,-1],"split_conditions":[7.225E5,1.76E4,1.2764325E0,6.3494734E-2,-7.5061126E0,3.4959953E-2,1.3011582E1,8.2986E1,-4.6947083E1,2.9678483E0,8.56406E-4,4.8245613E1,5.3028488E-3,-3.3873834E-2,4.645536E0,-1.8692754E-2,-6.40155E-2,2.5395096E1,5.0538935E-2,4.75E5,-8.96626E1,5.074932E-2,7.9027357E0,3.8E4,9.15E1,3.903697E-2,3.5598923E1,3.403659E-1,9.6234E1,1.0575704E-2,7.3068485E-2,2.5253648E-1,-6.4928246E1,2.6E-1,4.4444446E-2,8.69695E1,-5.9545904E-2,-6.1504047E-2,2.1089534E-3,4.0237006E-2,-9.101041E-4,-5.410263E-2,-5.258884E-3,-2.2962634E-2,3.2942824E-2,-3.9297445E-3,-7.003339E-2,3.334885E-2,-4.882105E-2,2.7481077E-2,-4.1820746E-2,-2.4670204E-2,4.6253145E-2],"split_indices":[34,23,49,0,64,0,53,3,13,19,0,6,38,47,19,0,0,6,0,37,13,0,65,34,56,0,6,27,1,0,0,9,13,32,47,2,0,0,0,0,0,0,0,0,0,0,0,0,0,0,0,0,0],"split_type":[0,0,0,0,0,0,0,0,0,0,0,0,0,0,0,0,0,0,0,0,0,0,0,0,0,0,0,0,0,0,0,0,0,0,0,0,0,0,0,0,0,0,0,0,0,0,0,0,0,0,0,0,0],"sum_hessian":[1.22968315E2,1.13740776E2,9.227543E0,2.6685789E0,1.110722E2,1.1959361E0,8.031607E0,4.1314217E1,6.975797E1,6.8816023E0,1.1500046E0,1.1663439E1,2.965078E1,2.465351E1,4.510447E1,1.1214013E0,5.760201E0,1.0216466E1,1.4469731E0,2.2699858E1,6.9509215E0,1.2339481E0,2.341956E1,3.51229E1,9.981568E0,1.6776377E0,8.538828E0,1.982402E1,2.8758373E0,1.2373474E0,5.7135744E0,1.7276537E1,6.1430235E0,5.0249805E0,3.0097918E1,7.4052362E0,2.5763323E0,4.7343807E0,3.8044472E0,9.951917E0,9.872103E0,1.6931343E0,1.1827031E0,1.5327254E1,1.9492829E0,1.1602315E0,4.982792E0,1.4057422E0,3.6192386E0,2.8022472E1,2.075445E0,4.969893E0,2.4353433E0],"tree_param":{"num_deleted":"0","num_feature":"66","num_nodes":"53","size_leaf_vector":"1"}},{"base_weights":[-2.5831016E-2,-7.941453E-2,6.360249E-1,-2.2090385E-2,-9.876234E-1,8.455076E-1,-2.0866362E-2,-1.1991889E-1,3.3230013E-1,-5.82138E-2,-3.8133517E-3,-1.1228511E-1,6.383346E-2,1.9037509E-1,-3.7334263E-1,5.6416005E-1,-5.000098E-1,1.7266886E-2,-2.6349595E-2,-4.0890568E-1,5.103984E-1,4.0462962E-1,-5.4177916E-1,1.1359189E0,2.3219104E-1,2.8008133E-2,-5.554929E-2,1.7111884E-1,-9.6910685E-1,6.908085E-1,-4.0755135E-1,-2.46766E-1,5.4876585E-2,-8.655991E-1,-1.5161975E-1,-4.8565683E-3,7.118286E-2,-6.9866544E-1,6.3260794E-1,5.808257E-2,-2.1476137E-2,-5.21542E-3,-6.0566086E-2,4.817012E-3,6.162071E-2,3.229987E-2,-4.7156814E-2,-3.3244345E-2,3.1812903E-2,4.9782568E-3,-5.127072E-2,2.6233444E-2,-2.6781518E-2,-5.9351593E-2,1.625011E-2,-1.6639753E-4,5.689146E-2],"categories":[],"categories_nodes":[],"categories_segments":[],"categories_sizes":[],"default_left":[0,0,0,0,0,0,0,0,0,0,0,0,0,0,0,0,0,0,0,0,0,0,0,0,0,0,0,0,0,0,0,0,0,0,0,0,0,0,0,0,0,0,0,0,0,0,0,0,0,0,0,0,0,0,0,0,0],"id":16,"left_children":[1,3,5,7,9,11,-1,13,15,-1,-1,17,-1,19,21,23,25,-1,-1,27,29,31,33,35,37,-1,-1,39,41,43,45,47,-1,49,51,-1,-1,53,55,-1,-1,-1,-1,-1,-1,-1,-1,-1,-1,-1,-1,-1,-1,-1,-1,-1,-1],"loss_changes":[4.2738614E0,5.760036E0,2.345427E0,3.69699E0,9.6902657E-1,3.3903284E0,0E0,6.629378E0,4.7369976E0,0E0,0E0,8.196276E-1,0E0,7.5263734E0,6.279129E0,3.2524223E0,4.223672E0,0E0,0E0,4.662156E0,4.474391E0,4.2440524E0,4.7255993E0,2.4614658E0,5.2789545E0,0E0,0E0,5.0494924E0,1.3795633E0,6.813384E0,3.3107004E0,2.3997142E0,0E0,3.3096313E0,5.123828E0,0E0,0E0,2.5746675E0,3.0877402E0,0E0,0E0,0E0,0E0,0E0,0E0,0E0,0E0,0E0,0E0,0E0,0E0,0E0,0E0,0E0,0E0,0E0,0E0],"parents":[2147483647,0,0,1,1,2,2,3,3,4,4,5,5,7,7,8,8,11,11,13,13,14,14,15,15,16,16,19,19,20,20,21,21,22,22,23,23,24,24,27,27,28,28,29,29,30,30,31,31,33,33,34,34,37,37,38,38],"right_children":[2,4,6,8,10,12,-1,14,16,-1,-1,18,-1,20,22,24,26,-1,-1,28,30,32,34,36,38,-1,-1,40,42,44,46,48,-1,50,52,-1,-1,54,56,-1,-1,-1,-1,-1,-1,-1,-1,-1,-1,-1,-1,-1,-1,-1,-1,-1,-1],"split_conditions":[4.227039E-2,2.78E0,4.29E5,3.7E5,1.7307484E1,4.75E4,-2.0866362E-2,7.1819E4,3.0435834E0,-5.82138E-2,-3.8133517E-3,2.183559E0,6.383346E-2,-1.3917919E0,-1.165999E1,-6.8083053E0,-2.0935671E0,1.7266886E-2,-2.6349595E-2,-2.3427958E0,1.0443038E1,5.138894E0,2.135E5,-5.447814E0,-7.183218E-3,2.8008133E-2,-5.554929E-2,3.8751886E0,5.901E1,1.1947929E0,1.5922331E0,-1.8297464E-3,5.4876585E-2,-3.9370492E0,3.125E5,-4.8565683E-3,7.118286E-2,2.2828622E0,-2.996988E-1,5.808257E-2,-2.1476137E-2,-5.21542E-3,-6.0566086E-2,4.817012E-3,6.162071E-2,3.229987E-2,-4.7156814E-2,-3.3244345E-2,3.1812903E-2,4.9782568E-3,-5.127072E-2,2.6233444E-2,-2.6781518E-2,-5.9351593E-2,1.625011E-2,-1.6639753E-4,5.689146E-2],"split_indices":[14,16,37,40,30,43,0,43,49,0,0,49,0,8,64,64,21,0,0,8,30,61,43,52,44,0,0,61,42,49,29,47,0,52,43,0,0,49,26,0,0,0,0,0,0,0,0,0,0,0,0,0,0,0,0,0,0],"split_type":[0,0,0,0,0,0,0,0,0,0,0,0,0,0,0,0,0,0,0,0,0,0,0,0,0,0,0,0,0,0,0,0,0,0,0,0,0,0,0,0,0,0,0,0,0,0,0,0,0,0,0,0,0,0,0,0,0],"sum_hessian":[1.1808653E2,1.10056435E2,8.0301E0,1.0448584E2,5.570594E0,6.862629E0,1.1674706E0,8.240092E1,2.2084923E1,4.4336734E0,1.1369202E0,2.359889E0,4.50274E0,3.7155823E1,4.5245094E1,1.752507E1,4.559854E0,1.2014164E0,1.1584725E0,1.2837805E1,2.431802E1,7.8029003E0,3.7442192E1,5.547943E0,1.1977127E1,1.6975002E0,2.8623536E0,6.6485395E0,6.1892653E0,2.0530485E1,3.7875342E0,4.353784E0,3.4491162E0,1.9794668E1,1.7647526E1,1.175024E0,4.372919E0,3.3784163E0,8.598711E0,2.1571364E0,4.491403E0,1.667239E0,4.5220265E0,1.0349127E1,1.0181358E1,1.2070311E0,2.5805032E0,3.1223526E0,1.2314317E0,2.8655982E0,1.692907E1,6.258779E0,1.1388746E1,2.179191E0,1.1992251E0,4.246693E0,4.3520174E0],"tree_param":{"num_deleted":"0","num_feature":"66","num_nodes":"57","size_leaf_vector":"1"}},{"base_weights":[1.0194466E-2,9.446758E-1,-4.809277E-2,5.7179797E-2,-2.7361827E-3,8.525254E-1,-9.889939E-2,1.0067823E0,5.0159614E-3,-2.1679579E-1,3.1943724E-1,6.8420107E-3,6.195405E-2,-1.2621923E-1,-7.6314485E-1,6.653148E-2,6.732426E-2,-2.4426368E-1,3.3942538E-1,-1.125725E0,8.158057E-2,3.051786E-1,-7.540047E-1,5.059216E-2,-5.467369E-1,5.305101E-1,-4.6826262E-2,-5.165336E-3,-1.2746649E0,2.5791649E-2,-2.687477E-2,-5.839658E-1,6.074726E-1,-3.4491096E-3,-4.729648E-2,-1.0008281E-2,3.601809E-2,3.0149473E-2,-3.3453416E-2,-3.0367175E-2,3.5223763E-2,-6.836795E-2,-2.0430954E-2,-4.7586583E-2,1.45562235E-2,5.344516E-2,8.479978E-3],"categories":[],"categories_nodes":[],"categories_segments":[],"categories_sizes":[],"default_left":[0,0,0,0,0,0,0,0,0,0,0,0,0,0,0,0,0,0,0,0,0,0,0,0,0,0,0,0,0,0,0,0,0,0,0,0,0,0,0,0,0,0,0,0,0,0,0],"id":17,"left_children":[1,3,5,-1,-1,7,9,11,-1,13,15,-1,-1,17,19,-1,21,23,25,27,29,31,33,35,37,39,-1,-1,41,-1,-1,43,45,-1,-1,-1,-1,-1,-1,-1,-1,-1,-1,-1,-1,-1,-1],"loss_changes":[6.603731E0,1.4775805E0,5.313833E0,0E0,0E0,6.1921644E-1,5.4491715E0,8.4896994E-1,0E0,4.1443725E0,6.1274824E0,0E0,0E0,4.189247E0,3.7636256E0,0E0,4.249255E0,5.394781E0,4.2825193E0,1.1559172E0,1.4958284E0,4.834071E0,5.8003855E-1,5.4158874E0,4.593399E0,3.2273905E0,0E0,0E0,2.6670456E-2,0E0,0E0,1.8019582E0,2.430594E0,0E0,0E0,0E0,0E0,0E0,0E0,0E0,0E0,0E0,0E0,0E0,0E0,0E0,0E0],"parents":[2147483647,0,0,1,1,2,2,5,5,6,6,7,7,9,9,10,10,13,13,14,14,16,16,17,17,18,18,19,19,20,20,21,21,22,22,23,23,24,24,25,25,28,28,31,31,32,32],"right_children":[2,4,6,-1,-1,8,10,12,-1,14,16,-1,-1,18,20,-1,22,24,26,28,30,32,34,36,38,40,-1,-1,42,-1,-1,44,46,-1,-1,-1,-1,-1,-1,-1,-1,-1,-1,-1,-1,-1,-1],"split_conditions":[-3.3375232E0,8.599E1,6.11942E1,5.7179797E-2,-2.7361827E-3,2.6455319E-2,3.93E5,2.45E4,5.0159614E-3,6.330466E0,8.8E4,6.8420107E-3,6.195405E-2,2.2525613E0,9.183976E0,6.653148E-2,1.09603745E2,-2.1041923E-3,5.86E5,-1.4467698E0,3.6771144E-3,1.97E5,1.665E5,4.9131943E1,2.2451855E1,7.0450693E-1,-4.6826262E-2,-5.165336E-3,6.39E5,2.5791649E-2,-2.687477E-2,3.7394137E0,4.165E5,-3.4491096E-3,-4.729648E-2,-1.0008281E-2,3.601809E-2,3.0149473E-2,-3.3453416E-2,-3.0367175E-2,3.5223763E-2,-6.836795E-2,-2.0430954E-2,-4.7586583E-2,1.45562235E-2,5.344516E-2,8.479978E-3],"split_indices":[8,51,3,0,0,41,46,34,0,61,34,0,0,8,61,0,12,44,40,21,14,43,40,6,6,49,0,0,40,0,0,18,43,0,0,0,0,0,0,0,0,0,0,0,0,0,0],"split_type":[0,0,0,0,0,0,0,0,0,0,0,0,0,0,0,0,0,0,0,0,0,0,0,0,0,0,0,0,0,0,0,0,0,0,0,0,0,0,0,0,0,0,0,0,0,0,0],"sum_hessian":[1.19405716E2,6.1176805E0,1.1328804E2,4.981818E0,1.1358626E0,5.2069936E0,1.0808104E2,4.040051E0,1.166943E0,8.4694145E1,2.3386894E1,1.1863446E0,2.8537061E0,7.370584E1,1.0988311E1,3.8135064E0,1.957339E1,5.917895E1,1.4526885E1,7.455532E0,3.532779E0,1.5665221E1,3.9081671E0,3.0388493E1,2.879046E1,1.3142852E1,1.3840332E0,1.1633269E0,6.2922053E0,2.1743472E0,1.3584317E0,3.7381961E0,1.1927025E1,1.1528418E0,2.7553253E0,2.2620611E1,7.7678804E0,2.390866E0,2.6399593E1,1.4125571E0,1.1730295E1,5.160967E0,1.1312383E0,2.570384E0,1.1678121E0,5.105609E0,6.8214164E0],"tree_param":{"num_deleted":"0","num_feature":"66","num_nodes":"47","size_leaf_vector":"1"}},{"base_weights":[-2.4973804E-2,2.8793553E-1,-2.0548917E-1,-4.1423136E-1,4.582198E-1,-6.8289053E-1,-9.3394496E-2,2.7577057E-2,-6.8604344E-1,5.3598696E-1,-3.4420703E-2,-1.0609882E0,1.6999248E-1,3.7587178E-1,-2.534321E-1,-1.8127714E-1,-5.8843102E-2,-3.0610108E-1,6.6805905E-1,-6.6891545E-3,-1.2510726E0,7.589254E-1,-2.6564077E-2,-3.903336E-1,1.1208555E0,-6.651688E-2,-6.6056144E-1,-7.388737E-1,3.5809282E-2,2.0646265E-2,-4.483693E-2,1.0231791E-1,8.3249694E-1,-7.200313E-2,-2.5157575E-3,4.8645567E-2,9.370339E-3,-9.499149E-1,4.8794463E-2,5.8075734E-3,1.2616502E0,4.45665E-1,-4.134206E-1,3.380696E-2,-9.040319E-1,-4.7276723E-3,-5.0196435E-2,4.3487465E-1,-3.7192594E-2,2.3540795E-2,1.008619E0,-4.012171E-3,-6.0610976E-2,1.0097122E-2,7.133227E-2,-2.9611558E-2,1.1620883E0,-6.350478E-1,4.850839E-1,1.6234104E-2,-1.0515133E0,4.3010358E-2,-2.4249947E-2,3.6404137E-2,-2.1454558E-2,6.884263E-2,2.4794187E-2,-4.8396714E-2,1.3726219E-2,1.3539781E-2,6.6760115E-2,-4.4591483E-2,2.5795445E-2,5.3581446E-2,-2.815704E-2,4.517638E-3,-6.0478646E-2],"categories":[],"categories_nodes":[],"categories_segments":[],"categories_sizes":[],"default_left":[0,0,0,0,0,0,0,0,0,0,0,0,0,0,0,0,0,0,0,0,0,0,0,0,0,0,0,0,0,0,0,0,0,0,0,0,0,0,0,0,0,0,0,0,0,0,0,0,0,0,0,0,0,0,0,0,0,0,0,0,0,0,0,0,0,0,0,0,0,0,0,0,0,0,0,0,0],"id":18,"left_children":[1,3,5,7,9,11,13,-1,15,17,-1,19,21,23,25,27,-1,29,31,-1,33,35,-1,37,39,41,43,45,-1,-1,-1,47,49,-1,-1,-1,-1,51,-1,-1,53,55,57,-1,59,-1,-1,61,-1,63,65,-1,-1,-1,-1,67,69,71,73,-1,75,-1,-1,-1,-1,-1,-1,-1,-1,-1,-1,-1,-1,-1,-1,-1,-1],"loss_changes":[7.0655785E0,5.665494E0,4.1769366E0,2.8626451E0,3.6978955E0,4.988507E0,5.0018964E0,0E0,1.7267127E0,4.1552505E0,0E0,1.6776934E0,2.6506038E0,1.0151485E1,3.708993E0,3.0525942E0,0E0,2.7068307E0,2.8007116E0,0E0,1.8718576E0,2.2974813E-1,0E0,7.907891E0,1.110548E0,6.3871937E0,5.624904E0,5.202956E-1,0E0,0E0,0E0,2.6101885E0,3.3807144E0,0E0,0E0,0E0,0E0,1.4960575E0,0E0,0E0,1.0570021E0,4.9984064E0,4.5560827E0,0E0,2.78047E0,0E0,0E0,2.9464862E0,0E0,2.001332E0,3.0176582E0,0E0,0E0,0E0,0E0,3.0451481E0,5.393801E-1,5.645395E0,3.5471506E0,0E0,2.3207788E0,0E0,0E0,0E0,0E0,0E0,0E0,0E0,0E0,0E0,0E0,0E0,0E0,0E0,0E0,0E0,0E0],"parents":[2147483647,0,0,1,1,2,2,3,3,4,4,5,5,6,6,8,8,9,9,11,11,12,12,13,13,14,14,15,15,17,17,18,18,20,20,21,21,23,23,24,24,25,25,26,26,27,27,31,31,32,32,37,37,40,40,41,41,42,42,44,44,47,47,49,49,50,50,55,55,56,56,57,57,58,58,60,60],"right_children":[2,4,6,8,10,12,14,-1,16,18,-1,20,22,24,26,28,-1,30,32,-1,34,36,-1,38,40,42,44,46,-1,-1,-1,48,50,-1,-1,-1,-1,52,-1,-1,54,56,58,-1,60,-1,-1,62,-1,64,66,-1,-1,-1,-1,68,70,72,74,-1,76,-1,-1,-1,-1,-1,-1,-1,-1,-1,-1,-1,-1,-1,-1,-1,-1],"split_conditions":[8.39E1,-1.8823873E-2,1.8E0,-3.98E-2,4.4444446E-2,1.4198782E0,8.8E4,2.7577057E-2,2.0479014E0,3.675E4,-3.4420703E-2,5.5E4,3.4466913E0,2.9681597E0,1.14204E2,1.12575E5,-5.8843102E-2,-6.1721593E-1,-2.0695533E-1,-6.6891545E-3,7.3665494E-1,2.130729E5,-2.6564077E-2,1.475E5,-3.5062008E0,1.829464E0,3.762E5,3.985E4,3.5809282E-2,2.0646265E-2,-4.483693E-2,8.87E1,-4.0825686E0,-7.200313E-2,-2.5157575E-3,4.8645567E-2,9.370339E-3,-1.0019268E-2,4.8794463E-2,5.8075734E-3,1.4140958E0,6.861904E-2,3.9862543E-2,3.380696E-2,7.218378E-2,-4.7276723E-3,-5.0196435E-2,-2.5268126E-1,-3.7192594E-2,-2.8368793E-3,1.59E0,-4.012171E-3,-6.0610976E-2,1.0097122E-2,7.133227E-2,-2.1207178E-2,7.523586E1,1.088255E2,-5.6945067E-3,1.6234104E-2,9.7E4,4.3010358E-2,-2.4249947E-2,3.6404137E-2,-2.1454558E-2,6.884263E-2,2.4794187E-2,-4.8396714E-2,1.3726219E-2,1.3539781E-2,6.6760115E-2,-4.4591483E-2,2.5795445E-2,5.3581446E-2,-2.815704E-2,4.517638E-3,-6.0478646E-2],"split_indices":[33,14,18,35,44,29,34,0,49,24,0,46,59,61,48,24,0,29,27,0,27,24,0,46,52,53,24,24,0,0,0,63,28,0,0,0,0,41,0,0,55,9,14,0,27,0,0,27,0,14,31,0,0,0,0,41,12,2,41,0,37,0,0,0,0,0,0,0,0,0,0,0,0,0,0,0,0],"split_type":[0,0,0,0,0,0,0,0,0,0,0,0,0,0,0,0,0,0,0,0,0,0,0,0,0,0,0,0,0,0,0,0,0,0,0,0,0,0,0,0,0,0,0,0,0,0,0,0,0,0,0,0,0,0,0,0,0,0,0,0,0,0,0,0,0,0,0,0,0,0,0,0,0,0,0,0,0],"sum_hessian":[1.2304033E2,4.479559E1,7.824474E1,8.463552E0,3.6332035E1,1.3910227E1,6.433452E1,1.6328309E0,6.8307214E0,3.452316E1,1.8088789E0,9.468622E0,4.4416046E0,1.601787E1,4.8316647E1,4.042589E0,2.7881322E0,4.5018444E0,3.0021313E1,1.9007655E0,7.567857E0,2.3694885E0,2.072116E0,8.131147E0,7.8867226E0,3.391121E1,1.4405435E1,2.602411E0,1.4401783E0,2.1659527E0,2.3358915E0,7.1261926E0,2.289512E1,6.3665195E0,1.201337E0,1.2129961E0,1.1564924E0,5.984652E0,2.1464956E0,1.1936775E0,6.693045E0,1.3578581E1,2.033263E1,1.9457567E0,1.2459678E1,1.1539683E0,1.4484427E0,5.4645953E0,1.661597E0,4.296104E0,1.8599016E1,1.6893907E0,4.2952614E0,1.2013172E0,5.491728E0,8.739469E0,4.8391123E0,1.6544855E1,3.787775E0,1.2064939E0,1.1253184E1,3.7811332E0,1.6834623E0,1.4423963E0,2.8537078E0,9.843997E0,8.755019E0,1.6050336E0,7.1344347E0,1.2040771E0,3.6350353E0,1.3711024E1,2.8338304E0,2.414429E0,1.3733462E0,1.4203734E0,9.83281E0],"tree_param":{"num_deleted":"0","num_feature":"66","num_nodes":"77","size_leaf_vector":"1"}},{"base_weights":[1.1959891E-2,-8.4378146E-2,4.0057117E-1,6.924202E-2,-6.5357137E-1,6.658017E-2,1.0980406E-1,1.8202666E-2,6.1964005E-2,-9.711638E-1,2.4512732E-1,5.0113314E-1,-6.612362E-1,-1.4480428E-1,4.5355818E-1,-1.1306438E0,7.854279E-3,-3.7228733E-2,9.163809E-1,7.559498E-1,-3.5922553E-2,-9.977303E-1,2.6455825E-2,8.689585E-1,-2.4162845E-1,7.2895056E-1,-7.263184E-1,-1.3268023E0,-4.798939E-1,9.69919E-3,5.725656E-2,-1.8039254E-2,9.774726E-1,-2.7828708E-3,-6.1085265E-2,5.591303E-2,6.538883E-4,1.2758541E-1,-5.3493255E-1,1.879105E-4,1.0032346E0,-5.423373E-2,7.779514E-3,-6.9933005E-2,-2.0144239E-2,1.7989444E-2,-5.2816797E-2,1.262192E0,-2.3772137E-3,1.9700544E-2,-5.385503E-2,2.5696948E-2,-3.3074718E-2,4.6591826E-2,-4.5908358E-2,5.988868E-2,-1.45428525E-2,7.031896E-2,1.25015E-2],"categories":[],"categories_nodes":[],"categories_segments":[],"categories_sizes":[],"default_left":[0,0,0,0,0,0,0,0,0,0,0,0,0,0,0,0,0,0,0,0,0,0,0,0,0,0,0,0,0,0,0,0,0,0,0,0,0,0,0,0,0,0,0,0,0,0,0,0,0,0,0,0,0,0,0,0,0,0,0],"id":19,"left_children":[1,3,5,7,9,-1,11,13,-1,15,17,19,21,23,25,27,-1,-1,29,31,-1,33,-1,35,37,39,41,43,45,-1,-1,-1,47,-1,-1,-1,-1,49,51,53,55,-1,-1,-1,-1,-1,-1,57,-1,-1,-1,-1,-1,-1,-1,-1,-1,-1,-1],"loss_changes":[4.4945607E0,8.466255E0,6.30866E0,4.5603576E0,6.1074076E0,0E0,6.1425033E0,5.356177E0,0E0,2.9478397E0,4.7799816E0,4.6901193E0,3.297729E0,5.608468E0,7.207063E0,1.1007423E0,0E0,0E0,4.5927787E-1,3.2038145E0,0E0,1.1426511E0,0E0,1.0549121E0,5.589653E0,3.4300985E0,1.5561485E0,9.323311E-2,2.6642947E0,0E0,0E0,0E0,2.945485E0,0E0,0E0,0E0,0E0,7.9282904E0,4.1374197E0,5.7263308E0,3.487256E0,0E0,0E0,0E0,0E0,0E0,0E0,7.82917E-1,0E0,0E0,0E0,0E0,0E0,0E0,0E0,0E0,0E0,0E0,0E0],"parents":[2147483647,0,0,1,1,2,2,3,3,4,4,6,6,7,7,9,9,10,10,11,11,12,12,13,13,14,14,15,15,18,18,19,19,21,21,23,23,24,24,25,25,26,26,27,27,28,28,32,32,37,37,38,38,39,39,40,40,47,47],"right_children":[2,4,6,8,10,-1,12,14,-1,16,18,20,22,24,26,28,-1,-1,30,32,-1,34,-1,36,38,40,42,44,46,-1,-1,-1,48,-1,-1,-1,-1,50,52,54,56,-1,-1,-1,-1,-1,-1,58,-1,-1,-1,-1,-1,-1,-1,-1,-1,-1,-1],"split_conditions":[3.88E5,1.0104E2,1.095E5,9.6538E1,5.9715207E-3,6.658017E-2,2.003675E-2,9.592838E-3,6.1964005E-2,1.259277E1,-3.4444445E-1,1.09603745E2,1.1630582E0,-3.4177582E0,5.586451E0,4.98475E5,7.854279E-3,-3.7228733E-2,-2.3892007E-3,-2.4992762E-2,-3.5922553E-2,-4.8713236E0,2.6455825E-2,2.4867725E-1,-5.325112E-3,2.55E4,8.5262716E-1,3.0519223E0,-4.671338E-1,9.69919E-3,5.725656E-2,-1.8039254E-2,6.39E5,-2.7828708E-3,-6.1085265E-2,5.591303E-2,6.538883E-4,2.14E5,1.25E4,5.8E4,8.503476E1,-5.423373E-2,7.779514E-3,-6.9933005E-2,-2.0144239E-2,1.7989444E-2,-5.2816797E-2,-9.526986E-1,-2.3772137E-3,1.9700544E-2,-5.385503E-2,2.5696948E-2,-3.3074718E-2,4.6591826E-2,-4.5908358E-2,5.988868E-2,-1.45428525E-2,7.031896E-2,1.25015E-2],"split_indices":[46,51,34,0,38,0,47,47,0,29,26,12,26,8,28,24,0,0,41,47,0,29,0,26,38,40,8,49,28,0,0,0,37,0,0,0,0,37,40,46,12,0,0,0,0,0,0,64,0,0,0,0,0,0,0,0,0,0,0],"split_type":[0,0,0,0,0,0,0,0,0,0,0,0,0,0,0,0,0,0,0,0,0,0,0,0,0,0,0,0,0,0,0,0,0,0,0,0,0,0,0,0,0,0,0,0,0,0,0,0,0,0,0,0,0,0,0,0,0,0,0],"sum_hessian":[1.18150475E2,9.530653E1,2.2843935E1,7.574263E1,1.9563908E1,4.584574E0,1.8259361E1,7.35498E1,2.1928294E0,1.439589E1,5.1680183E0,1.2344277E1,5.915084E0,5.399881E1,1.9550987E1,1.2611159E1,1.784731E0,2.0444434E0,3.123575E0,1.0525306E1,1.8189716E0,4.737645E0,1.1774387E0,4.012523E0,4.9986286E1,1.6161053E1,3.3899348E0,8.89194E0,3.7192192E0,1.1956642E0,1.9279109E0,1.6381993E0,8.887106E0,1.1498212E0,3.5878239E0,2.8699875E0,1.1425354E0,2.2379622E1,2.7606667E1,4.692893E0,1.1468161E1,2.2469773E0,1.1429574E0,7.773517E0,1.1184227E0,1.6669204E0,2.0522985E0,6.7740803E0,2.113026E0,1.8877626E1,3.5019953E0,2.6429176E0,2.4963749E1,2.3222985E0,2.3705945E0,1.0034166E1,1.4339937E0,5.588494E0,1.1855868E0],"tree_param":{"num_deleted":"0","num_feature":"66","num_nodes":"59","size_leaf_vector":"1"}},{"base_weights":[1.9070194E-3,-3.2643494E-1,1.5028615E-1,-1.2229384E-1,-9.2488945E-1,-3.8356674E-1,3.047076E-1,-3.9761934E-1,4.638617E-1,3.550912E-3,-1.1141474E0,-6.5401417E-1,2.9955992E-1,6.266456E-2,2.2920233E-1,-7.413847E-1,1.19893946E-1,7.2788334E-1,-3.0110312E-1,-6.3645326E-2,-2.2981889E-3,2.4887374E-1,-9.826598E-1,8.429527E-1,-4.0385312E-1,3.8456458E-1,-1.7599535E-1,-9.851221E-1,1.5232972E-2,4.1435853E-1,-4.5026254E-2,-7.1923095E-3,1.0249312E0,-3.952324E-2,1.5901642E-2,4.0751368E-2,-2.2830201E-2,-1.2042891E0,-1.5649772E-1,1.1226921E-2,5.151061E-2,1.3399988E-2,-4.4527385E-2,5.733293E-1,-1.8746388E-1,-6.020034E-1,3.1843716E-1,-1.1517118E0,8.749026E-3,-3.1438988E-1,9.256892E-1,9.350006E-3,5.87457E-2,-6.944199E-2,-1.7950552E-3,-4.446268E-2,3.1477053E-2,9.300652E-2,8.95741E-1,-4.5735654E-1,5.2861013E-2,-9.2380726E-1,3.3502898E-1,9.0896964E-1,-1.9451183E-1,-8.2492875E-3,-6.872397E-2,1.5322821E-2,-3.423972E-2,6.4578086E-2,-6.453079E-3,1.3532176E-2,-4.8041526E-2,5.148315E-2,-2.145349E-2,-4.6529204E-2,7.2799907E-3,9.309339E-3,-6.2478162E-2,-2.1880498E-2,4.622894E-2,6.4682014E-2,-4.8409817E-3,-4.2360015E-2,2.9848158E-2],"categories":[],"categories_nodes":[],"categories_segments":[],"categories_sizes":[],"default_left":[0,0,0,0,0,0,0,0,0,0,0,0,0,0,0,0,0,0,0,0,0,0,0,0,0,0,0,0,0,0,0,0,0,0,0,0,0,0,0,0,0,0,0,0,0,0,0,0,0,0,0,0,0,0,0,0,0,0,0,0,0,0,0,0,0,0,0,0,0,0,0,0,0,0,0,0,0,0,0,0,0,0,0,0,0],"id":20,"left_children":[1,3,5,7,9,11,13,15,17,-1,19,21,23,-1,25,27,29,31,33,-1,-1,35,37,39,41,43,45,47,-1,49,-1,-1,51,-1,-1,-1,-1,53,55,-1,-1,-1,-1,57,59,61,63,65,-1,67,69,-1,-1,-1,-1,-1,-1,71,73,75,-1,77,79,81,83,-1,-1,-1,-1,-1,-1,-1,-1,-1,-1,-1,-1,-1,-1,-1,-1,-1,-1,-1,-1],"loss_changes":[5.9772525E0,4.5523376E0,7.082312E0,4.9658356E0,1.881197E0,3.779975E0,4.4465384E0,3.770974E0,2.2247796E0,0E0,1.3141108E0,4.4615917E0,2.705605E0,0E0,3.9986823E0,3.5063567E0,3.1140108E0,2.1348433E0,1.2377064E0,0E0,0E0,2.205602E0,1.7563009E0,2.1045971E-1,1.3415692E0,5.01525E0,3.9815493E0,2.2182446E0,0E0,3.1840668E0,0E0,0E0,5.151739E-1,0E0,0E0,0E0,0E0,1.7237301E0,2.5158148E0,0E0,0E0,0E0,0E0,5.2471075E0,4.5250354E0,3.3282578E0,2.8974562E0,1.8079624E0,0E0,1.1177089E0,2.025216E0,0E0,0E0,0E0,0E0,0E0,0E0,3.0569236E0,4.0753727E0,3.1557562E0,0E0,3.0233989E0,1.9046226E0,1.8087742E0,3.4142745E0,0E0,0E0,0E0,0E0,0E0,0E0,0E0,0E0,0E0,0E0,0E0,0E0,0E0,0E0,0E0,0E0,0E0,0E0,0E0,0E0],"parents":[2147483647,0,0,1,1,2,2,3,3,4,4,5,5,6,6,7,7,8,8,10,10,11,11,12,12,14,14,15,15,16,16,17,17,18,18,21,21,22,22,23,23,24,24,25,25,26,26,27,27,29,29,32,32,37,37,38,38,43,43,44,44,45,45,46,46,47,47,49,49,50,50,57,57,58,58,59,59,61,61,62,62,63,63,64,64],"right_children":[2,4,6,8,10,12,14,16,18,-1,20,22,24,-1,26,28,30,32,34,-1,-1,36,38,40,42,44,46,48,-1,50,-1,-1,52,-1,-1,-1,-1,54,56,-1,-1,-1,-1,58,60,62,64,66,-1,68,70,-1,-1,-1,-1,-1,-1,72,74,76,-1,78,80,82,84,-1,-1,-1,-1,-1,-1,-1,-1,-1,-1,-1,-1,-1,-1,-1,-1,-1,-1,-1,-1],"split_conditions":[-4.069098E-1,5.6129986E-1,-3.6898336E0,1.957593E0,2.1559324E0,1.2421303E-2,-7.0597014E0,5.375643E1,1.2326899E1,3.550912E-3,2.3522012E0,2.2451855E1,-8.397457E0,6.266456E-2,4.5769386E-2,-1.3210154E0,2.03E0,-8.5608584E-1,-2.4992762E0,-6.3645326E-2,-2.2981889E-3,-1.2624726E-2,2.725E0,-7.2075653E0,-4.84457E-3,6.033812E-1,1.1642743E0,3.6993043E0,1.5232972E-2,2.1164021E0,-4.5026254E-2,-7.1923095E-3,-6.375965E-2,-3.952324E-2,1.5901642E-2,4.0751368E-2,-2.2830201E-2,1.2264129E2,-5.589538E0,1.1226921E-2,5.151061E-2,1.3399988E-2,-4.4527385E-2,2.3561044E0,2.2553079E-2,2.44E0,8.905E1,4.34E4,8.749026E-3,6.33067E0,7.7153877E-3,9.350006E-3,5.87457E-2,-6.944199E-2,-1.7950552E-3,-4.446268E-2,3.1477053E-2,-1.8836332E1,3.7620742E-2,1.5850372E-3,5.2861013E-2,4.144578E1,2.923913E0,7.2086505E-3,6.089E5,-8.2492875E-3,-6.872397E-2,1.5322821E-2,-3.423972E-2,6.4578086E-2,-6.453079E-3,1.3532176E-2,-4.8041526E-2,5.148315E-2,-2.145349E-2,-4.6529204E-2,7.2799907E-3,9.309339E-3,-6.2478162E-2,-2.1880498E-2,4.622894E-2,6.4682014E-2,-4.8409817E-3,-4.2360015E-2,2.9848158E-2],"split_indices":[26,25,28,49,61,47,29,6,30,0,21,6,58,0,22,58,31,26,52,0,0,38,26,31,14,27,25,19,0,59,0,0,27,0,0,0,0,10,28,0,0,0,0,19,38,16,63,23,0,30,41,0,0,0,0,0,0,13,41,41,0,6,21,35,23,0,0,0,0,0,0,0,0,0,0,0,0,0,0,0,0,0,0,0,0],"split_type":[0,0,0,0,0,0,0,0,0,0,0,0,0,0,0,0,0,0,0,0,0,0,0,0,0,0,0,0,0,0,0,0,0,0,0,0,0,0,0,0,0,0,0,0,0,0,0,0,0,0,0,0,0,0,0,0,0,0,0,0,0,0,0,0,0,0,0,0,0,0,0,0,0,0,0,0,0,0,0,0,0,0,0,0,0],"sum_hessian":[1.20681114E2,3.718842E1,8.34927E1,2.8627523E1,8.560895E0,1.8399519E1,6.509318E1,1.9697145E1,8.930378E0,1.4668479E0,7.0940466E0,1.32116785E1,5.18784E0,3.6491854E0,6.1443993E1,1.1575421E1,8.121723E0,6.675021E0,2.2553568E0,6.0092635E0,1.0847833E0,3.5904279E0,9.621251E0,2.8149166E0,2.3729234E0,4.4451263E1,1.699273E1,9.435183E0,2.1402395E0,6.7638087E0,1.3579143E0,1.8275528E0,4.8474684E0,1.1051387E0,1.1502182E0,1.9057547E0,1.6846731E0,7.22528E0,2.3959713E0,1.1653819E0,1.649535E0,1.1856085E0,1.1873147E0,3.3420498E1,1.10307665E1,9.011106E0,7.981624E0,8.256752E0,1.1784301E0,2.947783E0,3.816026E0,1.0770371E0,3.770431E0,6.076756E0,1.1485236E0,1.1720554E0,1.2239159E0,1.3940571E1,1.9479925E1,9.584952E0,1.4458134E0,6.718048E0,2.2930572E0,3.3513436E0,4.6302805E0,1.8413409E0,6.4154115E0,1.1660222E0,1.7817608E0,2.6665378E0,1.1494882E0,1.25656595E1,1.3749112E0,1.7893864E1,1.5860627E0,5.065752E0,4.519201E0,1.6214612E0,5.096587E0,1.103967E0,1.1890903E0,2.2171762E0,1.1341674E0,2.4990427E0,2.131238E0],"tree_param":{"num_deleted":"0","num_feature":"66","num_nodes":"85","size_leaf_vector":"1"}},{"base_weights":[1.4679704E-3,8.346039E-1,-3.8326096E-2,5.132075E-2,2.7370732E-3,-1.3585521E-1,3.373855E-1,1.2207175E-1,-3.2762855E-1,5.29538E-1,-4.2419055E-1,-1.7634422E-1,4.1683528E-1,-5.5254406E-1,3.186722E-2,7.397361E-1,-3.4471115E-1,2.442447E-2,-4.6160597E-2,4.0250123E-1,-4.444635E-1,9.125861E-1,-3.5244588E-2,3.1691816E-1,-6.409187E-1,3.2312572E-1,-5.8606994E-1,1.4281318E-1,1.0514811E0,2.0336157E-2,-3.978036E-2,-2.4274956E-2,7.549743E-1,-6.554636E-1,4.7341362E-1,-1.1562866E-2,1.0843259E0,-5.608925E-1,4.7965044E-1,5.3126525E-2,-3.8958084E-2,-8.415462E-1,-1.4745633E-1,7.242433E-1,-3.5307345E-1,2.2651047E-1,-5.1362213E-2,7.017919E-1,-6.629378E-1,2.9417914E-1,7.264464E-2,5.2282453E-2,-7.847989E-3,-1.2425571E-2,-5.323719E-2,-1.0064225E-2,4.624706E-2,-8.890419E-3,6.4786755E-2,1.9292844E-2,-5.2499186E-2,5.0706286E-2,-2.9371792E-2,-1.814135E-2,-6.350943E-2,-3.2347735E-2,4.473544E-2,-2.5892264E-4,5.600327E-2,1.1078507E-2,-3.6815222E-2,-2.8721971E-2,4.6259332E-2,-4.36212E-4,5.5014532E-2,-4.4093814E-2,-6.375482E-3,4.670545E-2,-1.3878002E-2],"categories":[],"categories_nodes":[],"categories_segments":[],"categories_sizes":[],"default_left":[0,0,0,0,0,0,0,0,0,0,0,0,0,0,0,0,0,0,0,0,0,0,0,0,0,0,0,0,0,0,0,0,0,0,0,0,0,0,0,0,0,0,0,0,0,0,0,0,0,0,0,0,0,0,0,0,0,0,0,0,0,0,0,0,0,0,0,0,0,0,0,0,0,0,0,0,0,0,0],"id":21,"left_children":[1,3,5,-1,-1,7,9,11,13,15,17,19,21,23,25,27,29,-1,-1,31,33,35,37,39,41,43,45,47,49,-1,-1,-1,51,53,55,-1,57,59,61,-1,-1,63,65,67,69,71,-1,73,75,77,-1,-1,-1,-1,-1,-1,-1,-1,-1,-1,-1,-1,-1,-1,-1,-1,-1,-1,-1,-1,-1,-1,-1,-1,-1,-1,-1,-1,-1],"loss_changes":[4.079764E0,7.829349E-1,4.350672E0,0E0,0E0,4.6887007E0,3.809701E0,3.6629884E0,4.3980265E0,3.9316692E0,2.951865E0,3.4350843E0,4.699772E0,2.767991E0,4.1120863E0,2.9104662E0,1.8686609E0,0E0,0E0,2.6096282E0,3.1793907E0,2.209426E0,3.4778574E0,3.8917065E0,2.9084578E0,4.4484277E0,2.8630905E0,3.527893E0,2.8092833E0,0E0,0E0,0E0,1.6277616E0,1.8114662E0,1.2066038E0,0E0,2.5904274E0,3.3351293E0,4.31898E0,0E0,0E0,3.9642124E0,5.819007E0,2.90172E0,1.578657E0,2.4348261E0,0E0,1.2838657E0,2.743262E-1,2.0675764E0,0E0,0E0,0E0,0E0,0E0,0E0,0E0,0E0,0E0,0E0,0E0,0E0,0E0,0E0,0E0,0E0,0E0,0E0,0E0,0E0,0E0,0E0,0E0,0E0,0E0,0E0,0E0,0E0,0E0],"parents":[2147483647,0,0,1,1,2,2,5,5,6,6,7,7,8,8,9,9,10,10,11,11,12,12,13,13,14,14,15,15,16,16,19,19,20,20,21,21,22,22,23,23,24,24,25,25,26,26,27,27,28,28,32,32,33,33,34,34,36,36,37,37,38,38,41,41,42,42,43,43,44,44,45,45,47,47,48,48,49,49],"right_children":[2,4,6,-1,-1,8,10,12,14,16,18,20,22,24,26,28,30,-1,-1,32,34,36,38,40,42,44,46,48,50,-1,-1,-1,52,54,56,-1,58,60,62,-1,-1,64,66,68,70,72,-1,74,76,78,-1,-1,-1,-1,-1,-1,-1,-1,-1,-1,-1,-1,-1,-1,-1,-1,-1,-1,-1,-1,-1,-1,-1,-1,-1,-1,-1,-1,-1],"split_conditions":[5.9776E1,4.539559E0,3.93E5,5.132075E-2,2.7370732E-3,-6.8083053E0,1.09603745E2,1.4888643E0,2.2525613E0,4.987921E-2,2.336248E5,2.503151E1,3.8211694E0,-2.355655E0,1.7596666E-2,-3.8461538E-3,9.283E1,2.442447E-2,-4.6160597E-2,-1.9388434E-2,1.6589368E-2,2.0502224E1,5.430921E0,8.95E1,1.685E5,9.008122E1,1.2054106E1,-1.30308E-2,-7.918075E-3,2.0336157E-2,-3.978036E-2,-2.4274956E-2,-1.5633198E-2,-4.0232926E-3,8.3124E1,-1.1562866E-2,9.5E3,-6.2318686E-3,8.266E1,5.3126525E-2,-3.8958084E-2,-1.52207E-3,4.19031E-3,7.942E1,-4.605263E-3,-1.6776677E-2,-5.1362213E-2,-3.4269602E0,2.5444362E0,-5.045814E0,7.264464E-2,5.2282453E-2,-7.847989E-3,-1.2425571E-2,-5.323719E-2,-1.0064225E-2,4.624706E-2,-8.890419E-3,6.4786755E-2,1.9292844E-2,-5.2499186E-2,5.0706286E-2,-2.9371792E-2,-1.814135E-2,-6.350943E-2,-3.2347735E-2,4.473544E-2,-2.5892264E-4,5.600327E-2,1.1078507E-2,-3.6815222E-2,-2.8721971E-2,4.6259332E-2,-4.36212E-4,5.5014532E-2,-4.4093814E-2,-6.375482E-3,4.670545E-2,-1.3878002E-2],"split_indices":[3,19,46,0,0,64,12,65,8,47,23,6,59,8,41,41,36,0,0,41,47,6,61,63,43,12,30,41,44,0,0,0,35,41,1,0,43,38,33,0,0,44,38,45,47,38,0,28,19,29,0,0,0,0,0,0,0,0,0,0,0,0,0,0,0,0,0,0,0,0,0,0,0,0,0,0,0,0,0],"split_type":[0,0,0,0,0,0,0,0,0,0,0,0,0,0,0,0,0,0,0,0,0,0,0,0,0,0,0,0,0,0,0,0,0,0,0,0,0,0,0,0,0,0,0,0,0,0,0,0,0,0,0,0,0,0,0,0,0,0,0,0,0,0,0,0,0,0,0,0,0,0,0,0,0,0,0,0,0,0,0],"sum_hessian":[1.21090645E2,4.609624E0,1.1648102E2,3.4459314E0,1.1636925E0,9.2982544E1,2.3498476E1,3.980712E1,5.3175423E1,1.9007416E1,4.49106E0,1.998064E1,1.9826479E1,3.2380093E1,2.079533E1,1.5447251E1,3.5601645E0,1.5950023E0,2.8960576E0,6.166506E0,1.3814136E1,8.970638E0,1.0855841E1,2.7489393E0,2.9631153E1,1.4457854E1,6.3374753E0,5.7998767E0,9.647374E0,1.3718666E0,2.1882977E0,1.6449374E0,4.5215683E0,1.146457E1,2.3495648E0,1.1258109E0,7.8448267E0,5.3276234E0,5.528218E0,1.6542429E0,1.0946965E0,2.0564737E1,9.066416E0,9.030163E0,5.427692E0,2.4012632E0,3.9362123E0,3.5004847E0,2.2993922E0,3.9424403E0,5.704934E0,3.3175018E0,1.2040665E0,6.554522E0,4.9100485E0,1.1641861E0,1.1853786E0,1.1482989E0,6.696528E0,1.8866494E0,3.440974E0,3.7164016E0,1.811816E0,1.0587167E1,9.977571E0,6.385254E0,2.6811619E0,3.5236638E0,5.506499E0,2.340307E0,3.0873847E0,1.2015944E0,1.1996689E0,1.6092781E0,1.8912066E0,1.1727866E0,1.1266055E0,1.5612164E0,2.3812237E0],"tree_param":{"num_deleted":"0","num_feature":"66","num_nodes":"79","size_leaf_vector":"1"}},{"base_weights":[4.3047075E-3,-1.0039133E-1,4.3915161E-1,1.6281442E-1,-2.893826E-1,-4.0519637E-1,6.284515E-1,-2.184825E-1,4.8605946E-1,-7.94647E-1,-8.117474E-2,2.4235504E-2,-5.109557E-2,7.254578E-1,-2.4239434E-2,7.62313E-1,-4.4095868E-1,7.448262E-1,-1.3317247E-1,4.0517922E-2,-1.0260656E0,6.196294E-1,-3.455023E-1,8.9402974E-1,-6.7884006E-2,5.090761E-2,2.8276942E-3,-7.184206E-1,9.415849E-2,-2.8308297E-2,9.3275565E-1,4.7848585E-1,-7.812E-1,-1.1692762E0,1.0736835E-2,-2.1105494E-1,6.1977178E-2,-1.6208954E-1,-5.567601E-2,1.0263369E0,5.0763617E-4,-2.7133053E-2,2.1339787E-2,-1.0076627E0,2.755101E-2,4.885611E-2,-7.4661165E-1,-2.5941713E-2,3.125086E-2,-2.99433E-4,1.0667903E0,-2.4267914E-2,4.758288E-2,-4.5436467E-3,-5.1382083E-2,7.609161E-3,-1.3094014E0,5.1077474E-2,-4.751238E-2,-6.398839E-1,1.5130143E-1,5.7692444E-1,1.2596042E0,1.8478598E-3,-6.006819E-2,-4.9504157E-2,-3.195562E-3,6.0341872E-2,-5.54924E-3,-6.828053E-2,-1.8325573E-2,-4.2535808E-2,2.0461585E-2,3.3170234E-2,-1.9726764E-2,5.546813E-2,2.606284E-3,1.4754357E-2,6.909673E-2],"categories":[],"categories_nodes":[],"categories_segments":[],"categories_sizes":[],"default_left":[0,0,0,0,0,0,0,0,0,0,0,0,0,0,0,0,0,0,0,0,0,0,0,0,0,0,0,0,0,0,0,0,0,0,0,0,0,0,0,0,0,0,0,0,0,0,0,0,0,0,0,0,0,0,0,0,0,0,0,0,0,0,0,0,0,0,0,0,0,0,0,0,0,0,0,0,0,0,0],"id":22,"left_children":[1,3,5,7,9,11,13,15,17,19,21,-1,-1,23,-1,25,27,29,31,-1,33,35,37,39,41,-1,-1,43,45,47,49,51,53,55,-1,57,-1,59,-1,61,-1,-1,-1,63,-1,-1,65,-1,-1,-1,67,-1,-1,-1,-1,-1,69,-1,-1,71,73,75,77,-1,-1,-1,-1,-1,-1,-1,-1,-1,-1,-1,-1,-1,-1,-1,-1],"loss_changes":[5.4073787E0,4.810541E0,3.9381523E0,5.1178474E0,5.8369927E0,3.145317E0,2.4269795E0,4.5574207E0,3.675057E0,6.869746E0,7.7795415E0,0E0,0E0,2.4782734E0,0E0,6.544285E-1,2.502963E0,2.335247E0,3.3170161E0,0E0,2.8542519E0,6.205917E0,4.087356E0,1.7413874E0,1.1939378E0,0E0,0E0,4.563858E0,5.5436535E0,1.6311281E0,1.6185598E0,2.4868436E0,5.846267E-1,2.6599598E0,0E0,6.2439766E0,0E0,3.9341571E0,0E0,6.3818836E-1,0E0,0E0,0E0,1.9150743E0,0E0,0E0,5.830841E-1,0E0,0E0,0E0,1.9842157E0,0E0,0E0,0E0,0E0,0E0,1.4178085E-1,0E0,0E0,2.6357245E0,4.8138022E0,1.7008047E0,5.037708E-1,0E0,0E0,0E0,0E0,0E0,0E0,0E0,0E0,0E0,0E0,0E0,0E0,0E0,0E0,0E0,0E0],"parents":[2147483647,0,0,1,1,2,2,3,3,4,4,5,5,6,6,7,7,8,8,9,9,10,10,13,13,15,15,16,16,17,17,18,18,20,20,21,21,22,22,23,23,24,24,27,27,28,28,29,29,30,30,31,31,32,32,33,33,35,35,37,37,39,39,43,43,46,46,50,50,56,56,59,59,60,60,61,61,62,62],"right_children":[2,4,6,8,10,12,14,16,18,20,22,-1,-1,24,-1,26,28,30,32,-1,34,36,38,40,42,-1,-1,44,46,48,50,52,54,56,-1,58,-1,60,-1,62,-1,-1,-1,64,-1,-1,66,-1,-1,-1,68,-1,-1,-1,-1,-1,70,-1,-1,72,74,76,78,-1,-1,-1,-1,-1,-1,-1,-1,-1,-1,-1,-1,-1,-1,-1,-1],"split_conditions":[3.93E5,8.39E1,-4.1347117E0,6.29E4,6.65E4,9.4712E1,1.3515E6,-2.658623E0,1.805E5,-2.3121981E-2,8.2E4,2.4235504E-2,-5.109557E-2,1.271674E6,-2.4239434E-2,6.369427E-1,4.0482235E0,1.29E0,-1.7302534E-4,4.0517922E-2,3.99575E5,2.845999E-1,2.2918918E0,4.172486E-2,1.8270046E0,5.090761E-2,2.8276942E-3,1.2427673E0,2.43E0,-1.4957265E-2,6.458E1,-6.55E0,-1.0180707E-3,4.29E4,1.0736835E-2,-4.374559E0,6.1977178E-2,-3.0195584E0,-5.567601E-2,8.988131E-1,5.0763617E-4,-2.7133053E-2,2.1339787E-2,-2.4544344E0,2.755101E-2,4.885611E-2,-2.1041923E-3,-2.5941713E-2,3.125086E-2,-2.99433E-4,3.402439E-2,-2.4267914E-2,4.758288E-2,-4.5436467E-3,-5.1382083E-2,7.609161E-3,2.3516376E-2,5.1077474E-2,-4.751238E-2,6.1793784E-3,1.00789E1,4.34875E5,-5.763359E-1,1.8478598E-3,-6.006819E-2,-4.9504157E-2,-3.195562E-3,6.0341872E-2,-5.54924E-3,-6.828053E-2,-1.8325573E-2,-4.2535808E-2,2.0461585E-2,3.3170234E-2,-1.9726764E-2,5.546813E-2,2.606284E-3,1.4754357E-2,6.909673E-2],"split_indices":[46,33,52,23,40,1,37,7,23,38,34,0,0,46,0,21,30,18,44,0,24,8,21,47,8,0,0,25,18,26,33,31,47,23,0,58,0,58,0,8,0,0,0,8,0,0,44,0,0,0,44,0,0,0,0,0,47,0,0,47,30,24,26,0,0,0,0,0,0,0,0,0,0,0,0,0,0,0,0],"split_type":[0,0,0,0,0,0,0,0,0,0,0,0,0,0,0,0,0,0,0,0,0,0,0,0,0,0,0,0,0,0,0,0,0,0,0,0,0,0,0,0,0,0,0,0,0,0,0,0,0,0,0,0,0,0,0,0,0,0,0,0,0,0,0,0,0,0,0,0,0,0,0,0,0,0,0,0,0,0,0],"sum_hessian":[1.1680528E2,9.47596E1,2.2045687E1,3.966172E1,5.5097874E1,3.8285275E0,1.821716E1,1.834556E1,2.1316162E1,1.5256895E1,3.9840977E1,1.6547724E0,2.1737552E0,1.7077394E1,1.139765E0,2.94332E0,1.5402241E1,1.4890744E1,6.4254174E0,1.6073568E0,1.3649538E1,1.0543396E1,2.929758E1,1.3979967E1,3.0974271E0,1.8353629E0,1.1079572E0,9.917434E0,5.4848065E0,3.0778706E0,1.1812874E1,3.4400554E0,2.985362E0,1.2288833E1,1.3607051E0,4.7875824E0,5.755814E0,2.4627308E1,4.6702743E0,1.2019585E1,1.9603822E0,1.5310153E0,1.5664119E0,8.245022E0,1.6724124E0,2.596172E0,2.8886344E0,1.8755429E0,1.2023277E0,1.595278E0,1.0217595E1,1.1242398E0,2.3158154E0,1.1454613E0,1.8399007E0,1.1699063E0,1.1118927E1,1.6515839E0,3.1359982E0,9.34229E0,1.5285017E1,5.2937975E0,6.725787E0,1.4162841E0,6.8287377E0,1.797387E0,1.0912474E0,9.109701E0,1.107894E0,1.0070274E1,1.0486519E0,7.9364724E0,1.4058175E0,7.7750688E0,7.5099487E0,2.074856E0,3.2189412E0,1.1410847E0,5.5847025E0],"tree_param":{"num_deleted":"0","num_feature":"66","num_nodes":"79","size_leaf_vector":"1"}},{"base_weights":[-1.834586E-2,3.3550957E-1,-1.0586579E-1,-4.638536E-2,4.6252838E-1,-6.1097324E-2,-5.2263275E-2,7.404591E-1,-1.0539109E-1,4.7685447E-1,-1.3024071E-1,8.7126565E-1,-2.5181679E-2,-6.998556E-1,4.5431748E-1,8.3790195E-1,-5.783024E-1,-2.2152343E-1,3.3441874E-1,1.0129592E0,-8.022635E-3,7.974739E-3,-5.2951645E-2,-1.9360328E-2,5.3627934E-2,4.0629932E-1,6.606268E-2,1.1508813E-2,-5.026359E-2,-3.5432613E-1,1.72002E-1,6.2779033E-1,-4.20938E-1,1.141311E0,-8.382174E-3,8.276655E-1,-3.292528E-2,4.653178E-2,-4.1583472E-1,4.6027642E-1,-8.3544976E-1,3.514829E-2,5.7932355E-2,-4.3491405E-2,2.5509266E-2,1.07492E-2,6.1233122E-2,5.8515095E-3,4.976177E-2,-2.6595233E-2,9.127981E-3,-6.4731636E-3,3.8632885E-2,-5.1627576E-2,-5.766099E-3,4.140451E-2,-3.2126006E-2],"categories":[],"categories_nodes":[],"categories_segments":[],"categories_sizes":[],"default_left":[0,0,0,0,0,0,0,0,0,0,0,0,0,0,0,0,0,0,0,0,0,0,0,0,0,0,0,0,0,0,0,0,0,0,0,0,0,0,0,0,0,0,0,0,0,0,0,0,0,0,0,0,0,0,0,0,0],"id":23,"left_children":[1,3,5,-1,7,-1,9,11,13,15,17,19,-1,21,23,25,27,29,31,33,-1,-1,-1,-1,-1,35,-1,-1,-1,37,39,41,43,45,-1,47,-1,-1,49,51,53,55,-1,-1,-1,-1,-1,-1,-1,-1,-1,-1,-1,-1,-1,-1,-1],"loss_changes":[3.7682083E0,4.3022966E0,5.7624073E0,0E0,3.6454487E0,0E0,3.9392648E0,2.9285555E0,3.0801587E0,5.1644673E0,3.581249E0,2.2398825E0,0E0,1.533026E0,2.9553492E0,1.4577498E0,1.5167099E0,3.7041335E0,3.3611445E0,2.1053352E0,0E0,0E0,0E0,0E0,0E0,3.4591274E0,0E0,0E0,0E0,4.532317E0,5.6884255E0,3.2523022E0,2.3279986E0,6.2621975E-1,0E0,4.9043083E-1,0E0,0E0,3.621539E0,2.834709E0,5.080533E-1,3.743822E0,0E0,0E0,0E0,0E0,0E0,0E0,0E0,0E0,0E0,0E0,0E0,0E0,0E0,0E0,0E0],"parents":[2147483647,0,0,1,1,2,2,4,4,6,6,7,7,8,8,9,9,10,10,11,11,13,13,14,14,15,15,16,16,17,17,18,18,19,19,25,25,29,29,30,30,31,31,32,32,33,33,35,35,38,38,39,39,40,40,41,41],"right_children":[2,4,6,-1,8,-1,10,12,14,16,18,20,-1,22,24,26,28,30,32,34,-1,-1,-1,-1,-1,36,-1,-1,-1,38,40,42,44,46,-1,48,-1,-1,50,52,54,56,-1,-1,-1,-1,-1,-1,-1,-1,-1,-1,-1,-1,-1,-1,-1],"split_conditions":[-6.598778E-1,-8.4615386E-1,-5.552304E-1,-4.638536E-2,-5.651515E0,-6.1097324E-2,-1.5275653E-1,1.980511E0,3.54E5,4.304778E0,4.71E5,2.43E0,-2.5181679E-2,7.8E4,-9.283667E-3,1.005E5,-1.6753003E-2,9.798969E-3,7.056872E1,3.975E5,-8.022635E-3,7.974739E-3,-5.2951645E-2,-1.9360328E-2,5.3627934E-2,7.15E4,6.606268E-2,1.1508813E-2,-5.026359E-2,-2.8800335E0,5.586451E0,9.971E1,1.0045431E1,1.5E4,-8.382174E-3,1.7375188E0,-3.292528E-2,4.653178E-2,7.171468E1,-5.783985E-1,2.2097554E0,8.851E1,5.7932355E-2,-4.3491405E-2,2.5509266E-2,1.07492E-2,6.1233122E-2,5.8515095E-3,4.976177E-2,-2.6595233E-2,9.127981E-3,-6.4731636E-3,3.8632885E-2,-5.1627576E-2,-5.766099E-3,4.140451E-2,-3.2126006E-2],"split_indices":[9,26,9,0,30,0,27,25,46,19,46,20,0,43,38,37,35,47,6,37,0,0,0,0,0,37,0,0,0,7,28,51,59,37,0,19,0,0,6,26,7,33,0,0,0,0,0,0,0,0,0,0,0,0,0,0,0],"split_type":[0,0,0,0,0,0,0,0,0,