{"learner":{"attributes":{"scikit_learn":"{\"_estimator_type\": \"classifier\"}"},"feature_names":[],"feature_types":[],"gradient_booster":{"model":{"cats":{"enc":[],"feature_segments":[],"sorted_idx":[]},"gbtree_model_param":{"num_parallel_tree":"1","num_trees":"200"},"iteration_indptr":[0,1,2,3,4,5,6,7,8,9,10,11,12,13,14,15,16,17,18,19,20,21,22,23,24,25,26,27,28,29,30,31,32,33,34,35,36,37,38,39,40,41,42,43,44,45,46,47,48,49,50,51,52,53,54,55,56,57,58,59,60,61,62,63,64,65,66,67,68,69,70,71,72,73,74,75,76,77,78,79,80,81,82,83,84,85,86,87,88,89,90,91,92,93,94,95,96,97,98,99,100,101,102,103,104,105,106,107,108,109,110,111,112,113,114,115,116,117,118,119,120,121,122,123,124,125,126,127,128,129,130,131,132,133,134,135,136,137,138,139,140,141,142,143,144,145,146,147,148,149,150,151,152,153,154,155,156,157,158,159,160,161,162,163,164,165,166,167,168,169,170,171,172,173,174,175,176,177,178,179,180,181,182,183,184,185,186,187,188,189,190,191,192,193,194,195,196,197,198,199,200],"tree_info":[0,0,0,0,0,0,0,0,0,0,0,0,0,0,0,0,0,0,0,0,0,0,0,0,0,0,0,0,0,0,0,0,0,0,0,0,0,0,0,0,0,0,0,0,0,0,0,0,0,0,0,0,0,0,0,0,0,0,0,0,0,0,0,0,0,0,0,0,0,0,0,0,0,0,0,0,0,0,0,0,0,0,0,0,0,0,0,0,0,0,0,0,0,0,0,0,0,0,0,0,0,0,0,0,0,0,0,0,0,0,0,0,0,0,0,0,0,0,0,0,0,0,0,0,0,0,0,0,0,0,0,0,0,0,0,0,0,0,0,0,0,0,0,0,0,0,0,0,0,0,0,0,0,0,0,0,0,0,0,0,0,0,0,0,0,0,0,0,0,0,0,0,0,0,0,0,0,0,0,0,0,0,0,0,0,0,0,0,0,0,0,0,0,0,0,0,0,0,0,0],"trees":[{"base_weights":[-1.296606E-4,-8.982251E-2,7.0877934E-1,-6.462144E-1,-3.319615E-2,-3.571052E-1,8.229155E-1,-2.8829938E-1,-1.1540667E0,-7.504871E-2,6.2234193E-1,4.497249E-1,-6.508584E-2,9.143657E-1,-7.7013385E-1,-5.494467E-1,8.3204275E-1,2.379997E-2,-1.3338978E0,-2.1065407E-1,8.684284E-2,-2.6337916E-3,1.1377169E0,5.430138E-2,-2.9931096E-2,-1.880722E-2,9.8031557E-1,-5.2201506E-2,-7.6606893E-3,-1.5185237E-1,-7.270291E-2,-3.381012E-3,7.375003E-2,-1.4889209E0,1.4609719E-2,7.609783E-2,-2.37409E-1,-5.489492E-1,1.8330373E-1,-4.6012482E-1,7.375003E-2,-7.6606893E-3,1.2736357E0,1.6965328E0,7.9146045E-1,5.9234375E-1,-6.5127456E-1,-7.6606893E-3,-7.9956554E-2,8.318773E-2,-3.9992952E-1,1.138685E-1,-1.005946E0,8.6680335E-1,1.0388393E-1,-6.521069E-2,2.6031405E-1,1.5326558E0,2.255061E-1,3.132164E-2,9.284707E-2,-5.2201506E-2,8.750141E-1,-4.158632E-2,5.984208E-2,8.1005367E-4,-6.0255975E-2,-5.0855804E-2,7.5902934E-3,4.3886665E-2,-2.2820793E-2,-3.1357612E-2,3.6168925E-2,-7.842462E-3,-6.04634E-2,6.402576E-2,5.366997E-3,2.947688E-2,-1.0506165E-3,6.389366E-2,-1.5054429E-2,1.4609719E-2,8.361443E-2,-3.634056E-2,5.915053E-2,6.431249E-2,2.77363E-2],"categories":[],"categories_nodes":[],"categories_segments":[],"categories_sizes":[],"default_left":[0,0,0,0,0,0,0,0,0,0,0,0,0,0,0,0,0,0,0,0,0,0,0,0,0,0,0,0,0,0,0,0,0,0,0,0,0,0,0,0,0,0,0,0,0,0,0,0,0,0,0,0,0,0,0,0,0,0,0,0,0,0,0,0,0,0,0,0,0,0,0,0,0,0,0,0,0,0,0,0,0,0,0,0,0,0,0],"id":0,"left_children":[1,3,5,7,9,11,13,15,17,19,21,23,-1,25,27,29,31,-1,33,35,37,39,41,-1,-1,-1,43,-1,-1,45,-1,-1,-1,47,-1,-1,49,51,53,55,-1,-1,57,59,61,63,65,-1,-1,67,69,71,73,75,77,-1,79,81,83,-1,-1,-1,85,-1,-1,-1,-1,-1,-1,-1,-1,-1,-1,-1,-1,-1,-1,-1,-1,-1,-1,-1,-1,-1,-1,-1,-1],"loss_changes":[3.383807E1,1.48624115E1,7.5652714E0,7.589369E0,1.1839317E1,5.5230064E0,8.613647E0,8.327045E0,5.818989E0,8.907665E0,8.346153E0,3.476707E0,0E0,4.7775E0,4.2979717E-1,7.841622E0,3.2710512E0,0E0,4.5164127E0,1.0589344E1,1.1463643E1,9.266807E0,2.6864147E0,0E0,0E0,0E0,5.360832E0,0E0,0E0,6.5884213E0,0E0,0E0,0E0,1.9550934E0,0E0,0E0,1.1399711E1,7.583443E0,8.683346E0,6.7022095E0,0E0,0E0,3.1710167E0,4.6177483E-1,7.215681E0,7.2156343E0,3.8874655E0,0E0,0E0,5.7576027E0,1.0860807E1,5.4043336E0,2.3475218E0,5.1061106E0,8.864167E0,0E0,4.085709E0,1.2805214E0,4.2694902E0,0E0,0E0,0E0,4.535038E0,0E0,0E0,0E0,0E0,0E0,0E0,0E0,0E0,0E0,0E0,0E0,0E0,0E0,0E0,0E0,0E0,0E0,0E0,0E0,0E0,0E0,0E0,0E0,0E0],"parents":[2147483647,0,0,1,1,2,2,3,3,4,4,5,5,6,6,7,7,8,8,9,9,10,10,11,11,13,13,14,14,15,15,16,16,18,18,19,19,20,20,21,21,22,22,26,26,29,29,33,33,36,36,37,37,38,38,39,39,42,42,43,43,44,44,45,45,46,46,49,49,50,50,51,51,52,52,53,53,54,54,56,56,57,57,58,58,62,62],"right_children":[2,4,6,8,10,12,14,16,18,20,22,24,-1,26,28,30,32,-1,34,36,38,40,42,-1,-1,-1,44,-1,-1,46,-1,-1,-1,48,-1,-1,50,52,54,56,-1,-1,58,60,62,64,66,-1,-1,68,70,72,74,76,78,-1,80,82,84,-1,-1,-1,86,-1,-1,-1,-1,-1,-1,-1,-1,-1,-1,-1,-1,-1,-1,-1,-1,-1,-1,-1,-1,-1,-1,-1,-1],"split_conditions":[3.9982803E-2,2.501E3,3.1E3,2.2107357E-1,4.9824737E-2,-1.0344827E-3,2.22252E0,1.5704697E-1,-4.5739178E-2,-2.9799914E-1,3.4386418E0,4.77939E0,-6.508584E-2,-2.3453775E1,1.98942E2,2.2091608E1,1.001E3,2.379997E-2,-3.1142857E1,4E2,5.5E3,1.2790698E-1,-1.3628318E0,5.430138E-2,-2.9931096E-2,-1.880722E-2,-3.2500565E0,-5.2201506E-2,-7.6606893E-3,-3.9636875E-3,-7.270291E-2,-3.381012E-3,7.375003E-2,-9.8224045E1,1.4609719E-2,7.609783E-2,-2.9308555E-1,2.943637E-1,2.8757668E-1,1.235E5,7.375003E-2,-7.6606893E-3,2.741433E1,2.5454E1,-2.6075714E0,-4.9E-1,2.501E3,-7.6606893E-3,-7.9956554E-2,-4.993044E-2,1.5806E1,-6.1805557E1,-1.8392542E-2,5.015045E-4,5.126695E-1,-6.521069E-2,9.4E-1,4.48E4,6.1248527E0,3.132164E-2,9.284707E-2,-5.2201506E-2,4.1486812E-1,-4.158632E-2,5.984208E-2,8.1005367E-4,-6.0255975E-2,-5.0855804E-2,7.5902934E-3,4.3886665E-2,-2.2820793E-2,-3.1357612E-2,3.6168925E-2,-7.842462E-3,-6.04634E-2,6.402576E-2,5.366997E-3,2.947688E-2,-1.0506165E-3,6.389366E-2,-1.5054429E-2,1.4609719E-2,8.361443E-2,-3.634056E-2,5.915053E-2,6.431249E-2,2.77363E-2],"split_indices":[14,34,46,27,41,47,9,27,44,21,19,19,0,64,0,12,34,0,13,46,46,26,29,0,0,0,58,0,0,41,0,0,0,13,0,0,9,49,59,40,0,0,30,0,58,20,37,0,0,14,1,13,38,44,49,0,31,40,19,0,0,0,26,0,0,0,0,0,0,0,0,0,0,0,0,0,0,0,0,0,0,0,0,0,0,0,0],"split_type":[0,0,0,0,0,0,0,0,0,0,0,0,0,0,0,0,0,0,0,0,0,0,0,0,0,0,0,0,0,0,0,0,0,0,0,0,0,0,0,0,0,0,0,0,0,0,0,0,0,0,0,0,0,0,0,0,0,0,0,0,0,0,0,0,0,0,0,0,0,0,0,0,0,0,0,0,0,0,0,0,0,0,0,0,0,0,0],"sum_hessian":[5.301771E2,4.7140692E2,5.8770226E1,4.258351E1,4.2882343E2,5.47858E0,5.3291645E1,2.5898743E1,1.6684767E1,4.0392078E2,2.4902637E1,3.2373428E0,2.2412374E0,5.080138E1,2.4902637E0,2.1416267E1,4.482475E0,1.4941583E0,1.5190609E1,2.1964127E2,1.8427951E2,1.170424E1,1.3198398E1,1.992211E0,1.2451319E0,2.2412374E0,4.8560143E1,1.2451319E0,1.2451319E0,1.5688662E1,5.727607E0,2.2412374E0,2.2412374E0,1.3945477E1,1.2451319E0,2.4902637E0,2.17151E2,2.3657505E1,1.6062201E2,9.463002E0,2.2412374E0,1.2451319E0,1.1953266E1,8.466897E0,4.0093246E1,6.2256594E0,9.463002E0,1.2451319E0,1.2700345E1,7.321375E1,1.4393724E2,9.961055E0,1.369645E1,1.5688662E1,1.4493335E2,3.984422E0,5.47858E0,9.213976E0,2.73929E0,1.7431846E0,6.723712E0,1.2451319E0,3.8848114E1,1.7431846E0,4.482475E0,4.731501E0,4.731501E0,3.4863691E0,6.972739E1,5.47858E0,1.3845866E2,4.482475E0,5.47858E0,2.9883165E0,1.0708134E1,9.7120285E0,5.976633E0,2.888706E1,1.1604629E2,1.4941583E0,3.984422E0,1.2451319E0,7.968844E0,1.4941583E0,1.2451319E0,1.5688662E1,2.3159452E1],"tree_param":{"num_deleted":"0","num_feature":"66","num_nodes":"87","size_leaf_vector":"1"}},{"base_weights":[1.2272553E-2,-7.8707844E-2,9.723789E-1,-1.2510583E-1,6.5277004E-1,-3.635941E-2,1.0463115E0,-6.669233E-1,-7.116462E-2,4.2682562E-2,1.0500195E0,1.1005937E0,-1.5202119E-2,1.2421698E-1,-9.0788627E-1,-1.939411E-1,9.056505E-2,9.445391E-1,-5.380106E-1,1.3337713E0,3.6491975E-1,-4.210727E-3,1.1684122E0,9.8158485E-1,-4.4606173E-1,-1.1078004E0,5.4552495E-1,1.1878575E-1,-3.370707E-1,1.004279E0,1.4824704E-2,3.8668558E-3,6.348525E-2,2.5059257E-2,-8.430061E-1,1.5091403E0,3.1265605E-3,-8.0061007E-1,6.462781E-2,1.4897676E0,7.9031193E-1,1.3467987E-2,6.6751495E-2,-5.4755967E-2,2.3223801E-1,3.6244404E-2,-1.2200217E0,5.8115274E-2,-2.9454995E-2,2.9042438E-1,-6.0189366E-1,4.8295897E-1,-4.190932E-1,1.3715773E0,3.4306458E-1,-5.8631334E-2,8.226833E-1,-1.1561725E0,1.4819056E-2,9.0966225E-2,3.672376E-1,-7.913093E-3,-5.4287862E-2,1.8033123E0,5.7249856E-1,3.9662576E-1,1.5063742E0,5.9156574E-2,-2.8017342E-2,1.4558521E-2,-6.5249465E-2,1.8665334E-2,-6.5124825E-2,3.107135E-2,-4.072645E-2,-3.953437E-2,4.6486955E-2,6.5216E-2,-2.2433728E-2,8.0798745E-2,1.9238357E-2,-5.2340835E-2,4.501622E-2,-4.0110275E-2,9.92482E-4,-1.9092714E-2,5.4293968E-2,-8.114258E-3,-7.0524484E-2,3.7014533E-2,-8.450031E-3,4.1200228E-2,9.5566764E-2,6.036947E-2,-3.118259E-2,5.6105155E-2,-2.1031385E-4,8.556983E-2,2.2616934E-2],"categories":[],"categories_nodes":[],"categories_segments":[],"categories_sizes":[],"default_left":[0,0,0,0,0,0,0,0,0,0,0,0,0,0,0,0,0,0,0,0,0,0,0,0,0,0,0,0,0,0,0,0,0,0,0,0,0,0,0,0,0,0,0,0,0,0,0,0,0,0,0,0,0,0,0,0,0,0,0,0,0,0,0,0,0,0,0,0,0,0,0,0,0,0,0,0,0,0,0,0,0,0,0,0,0,0,0,0,0,0,0,0,0,0,0,0,0,0,0],"id":1,"left_children":[1,3,5,7,9,-1,11,13,15,17,19,21,-1,23,25,27,29,31,33,35,37,-1,39,41,43,45,47,49,51,53,55,-1,-1,-1,57,59,-1,61,-1,63,65,-1,-1,-1,67,-1,69,-1,-1,71,73,75,77,79,81,83,85,87,-1,-1,89,-1,-1,91,93,95,97,-1,-1,-1,-1,-1,-1,-1,-1,-1,-1,-1,-1,-1,-1,-1,-1,-1,-1,-1,-1,-1,-1,-1,-1,-1,-1,-1,-1,-1,-1,-1,-1],"loss_changes":[4.6069176E1,1.6436153E1,6.4969788E0,1.3220514E1,6.9601192E0,0E0,3.57135E0,7.9258347E0,8.237993E0,7.0233383E0,2.908018E0,3.5267982E0,0E0,5.5463567E0,9.767387E0,1.0588017E1,1.23960495E1,1.37819E0,3.0230458E0,2.5745602E0,8.052884E0,0E0,3.7343788E0,7.6966906E-1,3.319458E0,6.653919E0,3.822177E0,9.418629E0,1.1093555E1,2.8597765E0,9.935996E0,0E0,0E0,0E0,2.7390819E0,3.042904E0,0E0,4.681728E-1,0E0,4.9273834E0,5.2386065E0,0E0,0E0,0E0,3.8505294E0,0E0,3.8220406E0,0E0,0E0,8.543722E0,4.32992E0,9.377795E0,8.116919E0,1.4239006E0,5.7682247E0,8.983485E0,4.838563E0,1.1542511E0,0E0,0E0,8.234612E-1,0E0,0E0,9.544373E-3,5.874557E0,4.28392E0,7.357254E-1,0E0,0E0,0E0,0E0,0E0,0E0,0E0,0E0,0E0,0E0,0E0,0E0,0E0,0E0,0E0,0E0,0E0,0E0,0E0,0E0,0E0,0E0,0E0,0E0,0E0,0E0,0E0,0E0,0E0,0E0,0E0,0E0],"parents":[2147483647,0,0,1,1,2,2,3,3,4,4,6,6,7,7,8,8,9,9,10,10,11,11,13,13,14,14,15,15,16,16,17,17,18,18,19,19,20,20,22,22,23,23,24,24,25,25,26,26,27,27,28,28,29,29,30,30,34,34,35,35,37,37,39,39,40,40,44,44,46,46,49,49,50,50,51,51,52,52,53,53,54,54,55,55,56,56,57,57,60,60,63,63,64,64,65,65,66,66],"right_children":[2,4,6,8,10,-1,12,14,16,18,20,22,-1,24,26,28,30,32,34,36,38,-1,40,42,44,46,48,50,52,54,56,-1,-1,-1,58,60,-1,62,-1,64,66,-1,-1,-1,68,-1,70,-1,-1,72,74,76,78,80,82,84,86,88,-1,-1,90,-1,-1,92,94,96,98,-1,-1,-1,-1,-1,-1,-1,-1,-1,-1,-1,-1,-1,-1,-1,-1,-1,-1,-1,-1,-1,-1,-1,-1,-1,-1,-1,-1,-1,-1,-1,-1],"split_conditions":[4.9285963E-2,4.9782623E-2,8.6E-1,2.103E3,3.4386418E0,-3.635941E-2,2.22252E0,2.0289791E1,-7E-2,-8.214286E-3,2.71E5,-3.356695E0,-1.5202119E-2,1.2E3,2.328072E0,-3.3679548E-1,6.250651E-2,-8.999554E-1,3.801E3,2.0985916E0,4.9285963E-2,-4.210727E-3,7.5198185E-1,-2.5674108E-1,1.5217391E0,-4.5739178E-2,1.0589215E0,1.2876743E0,1.1448197E0,5.015045E-4,4.1025643E0,3.8668558E-3,6.348525E-2,2.5059257E-2,2.3225107E0,2.0219963E-2,3.1265605E-3,6.6668E1,6.462781E-2,1.5290157E0,7.253677E-3,1.3467987E-2,6.6751495E-2,-5.4755967E-2,-5.8570282E1,3.6244404E-2,-9.8224045E1,5.8115274E-2,-2.9454995E-2,7.454863E0,-7.6014437E-3,-1.223821E-2,4E2,3.5E-1,2.5330484E-1,-3.0659242E-2,3.5271318E0,-5.8867924E1,1.4819056E-2,9.0966225E-2,5.757697E0,-7.913093E-3,-5.4287862E-2,9E-1,2.7E-2,-1.7557718E0,4.73E0,5.9156574E-2,-2.8017342E-2,1.4558521E-2,-6.5249465E-2,1.8665334E-2,-6.5124825E-2,3.107135E-2,-4.072645E-2,-3.953437E-2,4.6486955E-2,6.5216E-2,-2.2433728E-2,8.0798745E-2,1.9238357E-2,-5.2340835E-2,4.501622E-2,-4.0110275E-2,9.92482E-4,-1.9092714E-2,5.4293968E-2,-8.114258E-3,-7.0524484E-2,3.7014533E-2,-8.450031E-3,4.1200228E-2,9.5566764E-2,6.036947E-2,-3.118259E-2,5.6105155E-2,-2.1031385E-4,8.556983E-2,2.2616934E-2],"split_indices":[14,41,16,34,19,0,9,10,20,44,43,52,0,37,25,9,59,8,46,26,38,0,26,7,19,47,61,53,19,44,26,0,0,0,8,47,0,0,0,8,47,0,0,0,13,0,13,0,0,19,35,47,46,20,25,47,65,13,0,0,19,0,0,20,44,64,20,0,0,0,0,0,0,0,0,0,0,0,0,0,0,0,0,0,0,0,0,0,0,0,0,0,0,0,0,0,0,0,0],"split_type":[0,0,0,0,0,0,0,0,0,0,0,0,0,0,0,0,0,0,0,0,0,0,0,0,0,0,0,0,0,0,0,0,0,0,0,0,0,0,0,0,0,0,0,0,0,0,0,0,0,0,0,0,0,0,0,0,0,0,0,0,0,0,0,0,0,0,0,0,0,0,0,0,0,0,0,0,0,0,0,0,0,0,0,0,0,0,0,0,0,0,0,0,0,0,0,0,0,0,0],"sum_hessian":[5.2552765E2,4.8087738E2,4.4650276E1,4.52974E2,2.7903387E1,1.4930109E0,4.3157265E1,3.9984283E1,4.1298972E2,1.14405985E1,1.646279E1,4.1667267E1,1.4900005E0,9.44816E0,3.0536123E1,2.346539E2,1.7833582E2,4.235697E0,7.2049017E0,1.0971733E1,5.4910555E0,2.242821E0,3.9424446E1,3.486002E0,5.962158E0,2.7052845E1,3.4832776E0,7.372993E1,1.6092398E2,1.2712742E1,1.6562308E2,1.4926658E0,2.743031E0,1.4888304E0,5.716071E0,9.477203E0,1.49453E0,2.494178E0,2.9968774E0,1.9722088E1,1.9702356E1,1.7406089E0,1.745393E0,2.7327313E0,3.229427E0,1.2459402E0,2.5806906E1,2.2407906E0,1.2424872E0,6.0030052E1,1.3699879E1,1.4188146E1,1.4673582E2,7.48215E0,5.2305923E0,1.5266881E2,1.295427E1,4.4721465E0,1.2439244E0,6.986236E0,2.4909675E0,1.2448761E0,1.2493019E0,1.3978083E1,5.744006E0,1.3715543E1,5.986813E0,1.2440927E0,1.9853345E0,1.2445784E0,2.4562326E1,5.778885E1,2.2412038E0,1.7439855E0,1.19558935E1,3.4846444E0,1.0703501E1,1.7489551E0,1.4498688E2,5.4859114E0,1.996239E0,1.2455399E0,3.9850523E0,1.3694789E1,1.3897401E2,2.242133E0,1.0712137E1,1.2449449E0,3.2272017E0,1.2445953E0,1.2463722E0,2.2458491E0,1.1732234E1,3.746205E0,1.997801E0,4.240716E0,9.474827E0,4.4898276E0,1.4969853E0],"tree_param":{"num_deleted":"0","num_feature":"66","num_nodes":"99","size_leaf_vector":"1"}},{"base_weights":[8.783673E-3,-6.6370286E-2,8.511143E-1,-1.5779391E-1,1.3278025E-1,-2.985639E-1,9.9392426E-1,-1.92941E-1,3.750754E-1,3.566535E-1,-1.0120969E-1,-5.30379E-2,3.436577E-2,-1.761384E-2,1.058342E0,8.7301224E-2,-2.5543058E-1,-1.8846723E-1,9.988493E-1,7.268673E-1,1.5083033E-1,-6.6480285E-1,1.6074331E-1,1.4483176E0,6.783329E-1,1.7511182E-1,-6.570075E-2,-7.372153E-1,-1.846338E-1,-9.963585E-1,2.7455908E-1,-1.6613072E-2,1.2729416E0,1.3118117E0,1.1139369E-1,4.3108964E-1,-4.5213196E-1,5.9833847E-2,-1.0848402E0,-8.1381135E-2,7.229625E-1,9.095859E-2,8.5234743E-1,-5.2180403E-1,9.3434197E-1,1.5251003E-2,9.851516E-1,-8.6953664E-1,2.1098213E-1,-1.3145365E-1,-7.328704E-1,-7.0650624E-3,-6.403973E-2,6.384402E-2,-4.5929796E-1,1.5398265E0,-7.6993504E-3,1.468293E0,-7.912162E-3,-7.327184E-1,6.3267577E-1,-3.4575824E-2,1.0352281E0,-9.1287977E-1,2.3786904E-1,-6.2361624E-2,5.5822676E-1,-1.228816E0,1.4571604E-2,1.8365787E-1,-1.1136546E0,1.2005101E0,-6.364799E-1,-2.4237832E-2,1.2702812E0,-5.710698E-2,1.1612592E-2,8.180824E-2,5.580209E-1,6.6175447E-3,-4.6826456E-2,-1.680042E-3,7.831605E-2,6.229496E-3,-5.432719E-2,-4.4438835E-2,6.64835E-2,-2.720138E-3,-3.1805348E-2,-5.2222855E-2,9.599472E-3,2.3344066E-2,-4.6159945E-2,1.4413464E-2,8.759346E-2,1.1393906E-2,8.561238E-2,4.4393237E-3,-6.721806E-2,-2.9343275E-2,5.1808197E-2,2.9444922E-2,-3.4219366E-2,-5.591759E-3,5.9477307E-2,-1.5280735E-3,-6.5917335E-2,-4.154095E-2,5.152235E-2,4.3405987E-2,-2.929161E-2,-7.001083E-2,1.4375125E-2,1.7014027E-2,-3.9835148E-2,-7.308816E-3,-6.384729E-2,4.607347E-3,7.797986E-2,1.4848066E-2,-5.2726623E-2,1.1076039E-2,7.341648E-2,-3.1079335E-2,4.7224596E-2],"categories":[],"categories_nodes":[],"categories_segments":[],"categories_sizes":[],"default_left":[0,0,0,0,0,0,0,0,0,0,0,0,0,0,0,0,0,0,0,0,0,0,0,0,0,0,0,0,0,0,0,0,0,0,0,0,0,0,0,0,0,0,0,0,0,0,0,0,0,0,0,0,0,0,0,0,0,0,0,0,0,0,0,0,0,0,0,0,0,0,0,0,0,0,0,0,0,0,0,0,0,0,0,0,0,0,0,0,0,0,0,0,0,0,0,0,0,0,0,0,0,0,0,0,0,0,0,0,0,0,0,0,0,0,0,0,0,0,0,0,0,0,0,0,0],"id":2,"left_children":[1,3,5,7,9,11,13,15,17,19,21,-1,-1,-1,23,25,27,29,31,33,35,37,39,41,43,45,-1,47,49,51,53,-1,55,57,59,61,63,65,67,69,71,-1,73,75,77,79,81,83,85,87,89,-1,-1,-1,91,93,-1,95,-1,97,99,101,103,105,107,-1,109,111,-1,113,115,117,119,-1,121,-1,-1,-1,123,-1,-1,-1,-1,-1,-1,-1,-1,-1,-1,-1,-1,-1,-1,-1,-1,-1,-1,-1,-1,-1,-1,-1,-1,-1,-1,-1,-1,-1,-1,-1,-1,-1,-1,-1,-1,-1,-1,-1,-1,-1,-1,-1,-1,-1,-1],"loss_changes":[3.298573E1,8.732872E0,7.3043957E0,6.222906E0,7.9508705E0,4.85064E0,3.685173E0,5.429019E0,7.450735E0,5.7908688E0,1.1128595E1,0E0,0E0,0E0,4.4565544E0,7.248549E0,8.483274E0,4.648484E0,4.058551E0,9.720765E0,8.818114E0,7.3344364E0,7.1063795E0,2.2580948E0,6.776678E0,7.0496593E0,0E0,4.203684E0,6.3662457E0,9.0785074E-1,6.6315956E0,0E0,3.4627876E0,3.4434319E0,6.820827E0,9.980335E0,5.5201187E0,7.0227957E0,3.3643951E0,1.0351056E1,1.0947163E1,0E0,5.361049E0,2.2488008E0,3.6373348E0,5.315436E0,5.3672266E0,6.243517E0,6.9993787E0,7.869686E0,5.7858315E0,0E0,0E0,0E0,2.7855601E0,1.4127903E0,0E0,3.456955E0,0E0,3.1237154E0,5.2672224E0,8.882549E0,2.8623848E0,3.6117916E0,7.1849947E0,0E0,3.2461784E0,4.0220604E0,0E0,4.9340096E0,1.032671E0,4.614132E0,2.1593907E0,0E0,1.0758438E0,0E0,0E0,0E0,6.3917837E0,0E0,0E0,0E0,0E0,0E0,0E0,0E0,0E0,0E0,0E0,0E0,0E0,0E0,0E0,0E0,0E0,0E0,0E0,0E0,0E0,0E0,0E0,0E0,0E0,0E0,0E0,0E0,0E0,0E0,0E0,0E0,0E0,0E0,0E0,0E0,0E0,0E0,0E0,0E0,0E0,0E0,0E0,0E0,0E0,0E0,0E0],"parents":[2147483647,0,0,1,1,2,2,3,3,4,4,5,5,6,6,7,7,8,8,9,9,10,10,14,14,15,15,16,16,17,17,18,18,19,19,20,20,21,21,22,22,23,23,24,24,25,25,27,27,28,28,29,29,30,30,32,32,33,33,34,34,35,35,36,36,37,37,38,38,39,39,40,40,42,42,43,43,44,44,45,45,46,46,47,47,48,48,49,49,50,50,54,54,55,55,57,57,59,59,60,60,61,61,62,62,63,63,64,64,66,66,67,67,69,69,70,70,71,71,72,72,74,74,78,78],"right_children":[2,4,6,8,10,12,14,16,18,20,22,-1,-1,-1,24,26,28,30,32,34,36,38,40,42,44,46,-1,48,50,52,54,-1,56,58,60,62,64,66,68,70,72,-1,74,76,78,80,82,84,86,88,90,-1,-1,-1,92,94,-1,96,-1,98,100,102,104,106,108,-1,110,112,-1,114,116,118,120,-1,122,-1,-1,-1,124,-1,-1,-1,-1,-1,-1,-1,-1,-1,-1,-1,-1,-1,-1,-1,-1,-1,-1,-1,-1,-1,-1,-1,-1,-1,-1,-1,-1,-1,-1,-1,-1,-1,-1,-1,-1,-1,-1,-1,-1,-1,-1,-1,-1,-1,-1],"split_conditions":[4.9285963E-2,9.352262E-1,1.31896E4,8.367641E0,-3.0317848E0,-3.5844365E-1,9.1962E0,-4.2868236E-1,4.68E4,-7.314974E-3,5.876045E-1,-5.30379E-2,3.436577E-2,-1.761384E-2,4.9974163E1,7.454863E0,-2.9082773E-2,-1.431276E-1,-4.530143E-3,-4.122497E-3,2.9365495E-2,1.9259341E0,1.7692E2,7.1474106E1,5.674E1,1.124671E-2,-6.570075E-2,5.8125606E0,3.665309E-2,6.018153E1,3.6656618E-1,-1.6613072E-2,4.135E5,2.649998E2,-4.471723E0,-1.5935822E-1,6.2995405E0,1.4119473E-1,1.3367831E-2,1.744156E2,9.856571E0,9.095859E-2,-2.5559106E0,1.4713837E0,1.6839378E0,9.29E0,-2.2603273E-2,-2.2718808E-2,3.5100034E-4,2.5773196E-2,5.4347827E-3,-7.0650624E-3,-6.403973E-2,6.384402E-2,9.125E-3,-2.2118203E-2,-7.6993504E-3,-5E-1,-7.912162E-3,1.8129079E-2,5.4124836E-3,-6.39723E0,-2.2210258E-3,1.2550491E-2,7.202426E-3,-6.2361624E-2,4.132721E-1,4.375E-2,1.4571604E-2,1.455E1,7.305712E-1,8.7E4,1.3961295E1,-2.4237832E-2,-4.983389E-3,-5.710698E-2,1.1612592E-2,8.180824E-2,6.3136E0,6.6175447E-3,-4.6826456E-2,-1.680042E-3,7.831605E-2,6.229496E-3,-5.432719E-2,-4.4438835E-2,6.64835E-2,-2.720138E-3,-3.1805348E-2,-5.2222855E-2,9.599472E-3,2.3344066E-2,-4.6159945E-2,1.4413464E-2,8.759346E-2,1.1393906E-2,8.561238E-2,4.4393237E-3,-6.721806E-2,-2.9343275E-2,5.1808197E-2,2.9444922E-2,-3.4219366E-2,-5.591759E-3,5.9477307E-2,-1.5280735E-3,-6.5917335E-2,-4.154095E-2,5.152235E-2,4.3405987E-2,-2.929161E-2,-7.001083E-2,1.4375125E-2,1.7014027E-2,-3.9835148E-2,-7.308816E-3,-6.384729E-2,4.607347E-3,7.797986E-2,1.4848066E-2,-5.2726623E-2,1.1076039E-2,7.341648E-2,-3.1079335E-2,4.7224596E-2],"split_indices":[14,8,23,28,58,30,3,9,46,44,25,0,0,0,10,19,47,8,38,41,47,19,45,6,63,44,0,26,44,6,9,0,46,3,52,9,61,25,14,10,8,0,13,49,29,18,41,44,44,38,14,0,0,0,44,14,0,26,0,41,41,58,44,44,44,0,25,38,0,32,25,40,61,0,44,0,0,0,30,0,0,0,0,0,0,0,0,0,0,0,0,0,0,0,0,0,0,0,0,0,0,0,0,0,0,0,0,0,0,0,0,0,0,0,0,0,0,0,0,0,0,0,0,0,0],"split_type":[0,0,0,0,0,0,0,0,0,0,0,0,0,0,0,0,0,0,0,0,0,0,0,0,0,0,0,0,0,0,0,0,0,0,0,0,0,0,0,0,0,0,0,0,0,0,0,0,0,0,0,0,0,0,0,0,0,0,0,0,0,0,0,0,0,0,0,0,0,0,0,0,0,0,0,0,0,0,0,0,0,0,0,0,0,0,0,0,0,0,0,0,0,0,0,0,0,0,0,0,0,0,0,0,0,0,0,0,0,0,0,0,0,0,0,0,0,0,0,0,0,0,0,0,0],"sum_hessian":[5.191724E2,4.7749115E2,4.1681248E1,3.274E2,1.5009117E2,4.484951E0,3.7196297E1,3.0773993E2,1.9660044E1,7.643585E1,7.365532E1,2.4865901E0,1.9983611E0,1.494549E0,3.5701748E1,5.6037186E1,2.5170276E2,1.0695318E1,8.964725E0,2.6406681E1,5.002917E1,2.2883497E1,5.0771824E1,1.623237E1,1.9469378E1,5.3556232E1,2.4809537E0,3.104216E1,2.206606E2,3.4769223E0,7.218396E0,1.4945104E0,7.470214E0,1.2959051E1,1.3447631E1,3.434877E1,1.56804E1,8.711761E0,1.4171737E1,3.608623E1,1.4685592E1,8.74079E0,7.4915805E0,3.2404318E0,1.6228945E1,4.55799E1,7.976335E0,2.7313507E1,3.7286537E0,2.0227887E2,1.838172E1,1.2415166E0,2.235406E0,2.7383406E0,4.4800553E0,6.22652E0,1.2436941E0,1.1713406E1,1.2456452E0,4.9792013E0,8.46843E0,1.9929798E1,1.4418972E1,9.20845E0,6.4719496E0,1.990098E0,6.7216635E0,1.292659E1,1.2451465E0,2.9368002E1,6.71823E0,1.0954413E1,3.7311785E0,1.7459233E0,5.745657E0,1.495486E0,1.7449459E0,4.4961076E0,1.1732838E1,4.135307E1,4.226828E0,3.2396395E0,4.736696E0,4.9702554E0,2.2343252E1,1.9838705E0,1.7447833E0,1.7644666E2,2.583222E1,1.3652768E1,4.728952E0,1.4929509E0,2.9871044E0,1.2439187E0,4.982601E0,2.2429535E0,9.470452E0,2.4898682E0,2.4893332E0,1.9922825E0,6.4761467E0,1.0218857E1,9.710941E0,1.7424486E0,1.2676523E1,3.2379234E0,5.9705267E0,2.7353873E0,3.7365623E0,5.4788046E0,1.2428588E0,1.1682589E1,1.2440016E0,2.588544E1,3.4825613E0,1.2438381E0,5.4743915E0,2.9880552E0,7.966358E0,1.2437495E0,2.487429E0,1.249179E0,4.496478E0,2.7452557E0,8.987582E0],"tree_param":{"num_deleted":"0","num_feature":"66","num_nodes":"125","size_leaf_vector":"1"}},{"base_weights":[-8.339441E-3,-8.047622E-2,7.631999E-1,-5.990959E-1,-2.4951158E-2,-4.1973975E-1,8.934526E-1,-1.4037916E-1,-1.008144E0,-8.590843E-1,-4.3956097E-3,-6.285765E-2,2.4068253E-2,-3.0388683E-2,9.54705E-1,-3.521752E-1,7.1658075E-2,4.2198442E-2,-1.162566E0,2.2028867E-2,-1.1182691E0,4.058328E-1,-4.912398E-2,1.5834696E0,7.039877E-1,1.5693167E-1,-7.606179E-1,2.3554342E-2,-1.2954006E0,-1.3447816E0,-4.667487E-3,5.9723802E-2,8.0098933E-1,-2.8151008E-1,4.6798944E-2,8.631027E-2,2.6946118E-2,-3.6574062E-2,8.4305084E-1,5.6532574E-1,-4.6532586E-2,-1.0360663E0,2.1491466E-2,1.5052761E-2,-1.4057003E0,-7.7197365E-2,-9.773719E-3,3.4941533E-1,-6.5828E-1,1.0395193E0,-4.5012858E-2,3.827012E-1,-3.732913E-1,1.3859044E-1,-3.7960994E-1,-9.473302E-2,1.0711408E0,-9.04686E-3,6.1235547E-2,4.5159343E-3,-6.203118E-2,6.470346E-3,-7.6535754E-2,-1.1885176E-2,5.0755054E-2,-5.3379595E-2,3.620065E-2,6.6146545E-2,-5.458792E-3,2.9944528E-2,-5.288769E-2,-2.6471136E-2,9.457934E-4,3.1142568E-2,3.8090558E-3,-8.384795E-3,-5.00557E-2,3.9970193E-2,-3.7859738E-2,2.59717E-2,6.793081E-2],"categories":[],"categories_nodes":[],"categories_segments":[],"categories_sizes":[],"default_left":[0,0,0,0,0,0,0,0,0,0,0,0,0,0,0,0,0,0,0,0,0,0,0,0,0,0,0,0,0,0,0,0,0,0,0,0,0,0,0,0,0,0,0,0,0,0,0,0,0,0,0,0,0,0,0,0,0,0,0,0,0,0,0,0,0,0,0,0,0,0,0,0,0,0,0,0,0,0,0,0,0],"id":3,"left_children":[1,3,5,7,9,11,13,15,17,19,21,-1,-1,-1,23,25,-1,-1,27,-1,29,31,33,35,37,39,41,-1,43,45,-1,47,49,51,53,-1,-1,-1,55,57,-1,59,-1,-1,61,-1,-1,63,65,67,-1,69,71,73,75,77,79,-1,-1,-1,-1,-1,-1,-1,-1,-1,-1,-1,-1,-1,-1,-1,-1,-1,-1,-1,-1,-1,-1,-1,-1],"loss_changes":[2.9879633E1,1.4119807E1,7.44796E0,8.757431E0,7.6163673E0,4.554326E0,4.412014E0,8.342456E0,8.105232E0,4.0914235E0,7.9969473E0,0E0,0E0,0E0,5.258095E0,4.596439E0,0E0,0E0,5.6908646E0,0E0,2.0079327E0,5.812493E0,8.771211E0,6.6858673E-1,6.7454453E0,5.15126E0,4.418689E0,0E0,4.2827873E0,1.4039335E0,0E0,5.205914E0,9.021895E0,7.1495466E0,1.0971213E1,0E0,0E0,0E0,6.187969E0,4.2529316E0,0E0,2.446947E0,0E0,0E0,4.166504E0,0E0,0E0,7.1585665E0,4.860216E0,5.9848995E0,0E0,5.132579E0,6.224695E0,6.912076E0,6.3753324E0,4.4469543E0,2.9372768E0,0E0,0E0,0E0,0E0,0E0,0E0,0E0,0E0,0E0,0E0,0E0,0E0,0E0,0E0,0E0,0E0,0E0,0E0,0E0,0E0,0E0,0E0,0E0,0E0],"parents":[2147483647,0,0,1,1,2,2,3,3,4,4,5,5,6,6,7,7,8,8,9,9,10,10,14,14,15,15,18,18,20,20,21,21,22,22,23,23,24,24,25,25,26,26,28,28,29,29,31,31,32,32,33,33,34,34,38,38,39,39,41,41,44,44,47,47,48,48,49,49,51,51,52,52,53,53,54,54,55,55,56,56],"right_children":[2,4,6,8,10,12,14,16,18,20,22,-1,-1,-1,24,26,-1,-1,28,-1,30,32,34,36,38,40,42,-1,44,46,-1,48,50,52,54,-1,-1,-1,56,58,-1,60,-1,-1,62,-1,-1,64,66,68,-1,70,72,74,76,78,80,-1,-1,-1,-1,-1,-1,-1,-1,-1,-1,-1,-1,-1,-1,-1,-1,-1,-1,-1,-1,-1,-1,-1,-1],"split_conditions":[4.9285963E-2,2.404E3,1.41E4,6.6825205E-1,-4.989605E-2,1.5E-1,-4.2103453E0,3.6712397E-2,1.94805E3,1.255E4,-1.056E1,-6.285765E-2,2.4068253E-2,-3.0388683E-2,1.36E0,-3.2750175E0,7.1658075E-2,4.2198442E-2,-4.2799823E-2,2.2028867E-2,3.06596E5,7.1300143E-1,-1.4E0,5.179338E-1,-1.4529915E-2,7.973068E-3,2.6400285E-2,2.3554342E-2,-4.840064E-2,-2.1727679E0,-4.667487E-3,-6.826087E0,2.016415E-2,1.1602597E-1,3.0828517E-2,8.631027E-2,2.6946118E-2,-3.6574062E-2,1.2880714E1,1.398E3,-4.6532586E-2,1.67165E1,2.1491466E-2,1.5052761E-2,-8.709678E0,-7.7197365E-2,-9.773719E-3,-2.0676541E0,1.3183213E1,6.0456272E-2,-4.5012858E-2,-3.1257064E0,6.095026E-1,-6.029805E0,7.6467123E0,9.1035E4,-6.4906967E-3,-9.04686E-3,6.1235547E-2,4.5159343E-3,-6.203118E-2,6.470346E-3,-7.6535754E-2,-1.1885176E-2,5.0755054E-2,-5.3379595E-2,3.620065E-2,6.6146545E-2,-5.458792E-3,2.9944528E-2,-5.288769E-2,-2.6471136E-2,9.457934E-4,3.1142568E-2,3.8090558E-3,-8.384795E-3,-5.00557E-2,3.9970193E-2,-3.7859738E-2,2.59717E-2,6.793081E-2],"split_indices":[14,34,23,61,14,32,52,47,24,46,32,0,0,0,32,58,0,0,44,0,46,25,32,27,35,44,14,0,47,21,0,58,35,25,44,0,0,0,65,43,0,2,0,0,52,0,0,8,61,22,0,58,26,58,61,23,47,0,0,0,0,0,0,0,0,0,0,0,0,0,0,0,0,0,0,0,0,0,0,0,0],"split_type":[0,0,0,0,0,0,0,0,0,0,0,0,0,0,0,0,0,0,0,0,0,0,0,0,0,0,0,0,0,0,0,0,0,0,0,0,0,0,0,0,0,0,0,0,0,0,0,0,0,0,0,0,0,0,0,0,0,0,0,0,0,0,0,0,0,0,0,0,0,0,0,0,0,0,0,0,0,0,0,0,0],"sum_hessian":[5.347557E2,4.8985162E2,4.4904064E1,4.642639E1,4.4342523E2,4.233491E0,4.0670574E1,2.2517685E1,2.3908709E1,9.683432E0,4.337418E2,1.989494E0,2.2439969E0,1.2445922E0,3.942598E1,2.0530502E1,1.987183E0,1.4963517E0,2.2412355E1,1.4936721E0,8.18976E0,4.184894E1,3.9189285E2,9.723931E0,2.970205E1,9.413164E0,1.1117337E1,1.4938612E0,2.0918495E1,6.451794E0,1.737966E0,2.2922642E1,1.89263E1,1.139351E2,2.7795776E2,7.980783E0,1.7431487E0,2.2470431E0,2.7455006E1,7.1925273E0,2.2206368E0,9.133655E0,1.9836826E0,1.2401007E0,1.9678394E1,5.206225E0,1.2455689E0,1.669863E1,6.224011E0,1.6940111E1,1.9861892E0,1.3447466E1,1.0048763E2,2.292771E2,4.8680664E1,5.4856424E0,2.1969364E1,3.7143679E0,3.4781594E0,1.489617E0,7.6440377E0,1.4792271E0,1.8199167E1,9.214543E0,7.484087E0,4.9777203E0,1.2462907E0,1.3466026E1,3.4740849E0,1.2200587E1,1.2468785E0,7.162501E1,2.886262E1,2.5149685E1,2.0412741E2,3.7249527E1,1.1431137E1,2.2466202E0,3.239022E0,8.487502E0,1.3481863E1],"tree_param":{"num_deleted":"0","num_feature":"66","num_nodes":"81","size_leaf_vector":"1"}},{"base_weights":[-1.0579267E-2,-8.547168E-2,7.24947E-1,-5.8438545E-1,-3.9837617E-2,8.945977E-1,-1.9443244E-1,6.1178036E-2,-6.856647E-1,-1.3265847E-1,1.9012846E-1,-2.5141388E-2,9.6823245E-1,6.71909E-1,-7.259825E-1,-4.5661426E-1,-1.341799E0,6.464691E-2,-1.492521E-1,6.114146E-1,6.770044E-2,1.1554555E0,2.9094633E-1,-9.534477E-3,5.880159E-2,-6.841068E-2,1.58298E-2,4.7072057E-2,-6.9327974E-1,-7.554444E-2,-1.22984415E-2,9.66645E-1,-1.676419E-1,8.0724186E-1,-7.0991045E-1,3.3101183E-1,-2.4208635E-1,8.3104275E-2,8.2512236E-1,-6.8742937E-1,9.8788416E-1,6.437586E-1,-6.2704414E-2,3.6256132E-1,-8.910136E-1,7.510963E-2,-3.5737385E-3,-2.9412255E-1,1.997799E-2,-2.8914407E-2,9.493517E-1,-6.1026275E-2,1.4262835E-2,-1.5496945E-1,6.8112856E-1,-4.826521E-1,2.6166886E-1,7.373126E-2,4.946289E-1,1.0950235E-2,-5.3677846E-2,3.5189494E-4,6.482729E-2,6.561544E-2,-1.790076E-2,-2.7644226E-2,4.870982E-2,-5.21467E-2,2.2738412E-2,-9.741538E-3,-4.484115E-2,1.8470628E-2,-6.841458E-3,2.439338E-2,7.138599E-2,-5.1556367E-2,1.4584839E-2,4.5975786E-2,-1.5167457E-2,4.438596E-2,-3.1475708E-2,4.8668552E-2,-1.5513951E-2,-3.1462435E-2,3.9607275E-2],"categories":[],"categories_nodes":[],"categories_segments":[],"categories_sizes":[],"default_left":[0,0,0,0,0,0,0,0,0,0,0,0,0,0,0,0,0,0,0,0,0,0,0,0,0,0,0,0,0,0,0,0,0,0,0,0,0,0,0,0,0,0,0,0,0,0,0,0,0,0,0,0,0,0,0,0,0,0,0,0,0,0,0,0,0,0,0,0,0,0,0,0,0,0,0,0,0,0,0,0,0,0,0,0,0],"id":4,"left_children":[1,3,5,7,9,11,13,-1,15,17,19,-1,21,23,25,27,29,-1,31,33,35,37,39,-1,-1,-1,-1,41,43,-1,-1,45,47,49,51,53,55,-1,57,59,61,63,-1,65,67,-1,-1,69,71,-1,73,-1,-1,75,77,79,81,-1,83,-1,-1,-1,-1,-1,-1,-1,-1,-1,-1,-1,-1,-1,-1,-1,-1,-1,-1,-1,-1,-1,-1,-1,-1,-1,-1],"loss_changes":[2.925108E1,1.0946434E1,7.8281116E0,8.2188835E0,9.47092E0,4.7682114E0,4.38652E0,0E0,5.219488E0,7.6647034E0,6.5429544E0,0E0,4.719036E0,1.8500216E0,4.2682266E0,3.6422734E0,1.3934345E0,0E0,6.587499E0,7.9787045E0,8.240379E0,3.7992668E0,7.4774904E0,0E0,0E0,0E0,0E0,9.049589E0,4.637332E0,0E0,0E0,3.0118299E0,7.3359194E0,5.549082E0,2.4957476E0,9.378467E0,5.7664113E0,0E0,3.7114067E0,1.8931799E0,1.8778877E0,5.7870245E0,0E0,2.7616887E0,4.091935E0,0E0,0E0,1.0870592E1,6.9172454E0,0E0,4.4715633E0,0E0,0E0,9.55069E0,7.756647E0,6.9688916E0,6.6889524E0,0E0,5.5862217E0,0E0,0E0,0E0,0E0,0E0,0E0,0E0,0E0,0E0,0E0,0E0,0E0,0E0,0E0,0E0,0E0,0E0,0E0,0E0,0E0,0E0,0E0,0E0,0E0,0E0,0E0],"parents":[2147483647,0,0,1,1,2,2,3,3,4,4,5,5,6,6,8,8,9,9,10,10,12,12,13,13,14,14,15,15,16,16,18,18,19,19,20,20,21,21,22,22,27,27,28,28,31,31,32,32,33,33,34,34,35,35,36,36,38,38,39,39,40,40,41,41,43,43,44,44,47,47,48,48,50,50,53,53,54,54,55,55,56,56,58,58],"right_children":[2,4,6,8,10,12,14,-1,16,18,20,-1,22,24,26,28,30,-1,32,34,36,38,40,-1,-1,-1,-1,42,44,-1,-1,46,48,50,52,54,56,-1,58,60,62,64,-1,66,68,-1,-1,70,72,-1,74,-1,-1,76,78,80,82,-1,84,-1,-1,-1,-1,-1,-1,-1,-1,-1,-1,-1,-1,-1,-1,-1,-1,-1,-1,-1,-1,-1,-1,-1,-1,-1,-1],"split_conditions":[4.5987997E-2,2.103E3,5.6827602E0,-4.2799823E-2,4.9226806E-1,1E0,2.168E1,6.1178036E-2,2.4805807E1,2.0501761E-1,-8.7399235E0,-2.5141388E-2,2.7E-2,-1.0564022E-2,6.7906636E-1,-2.5106382E0,1.85E4,6.464691E-2,-2.7832468E1,2.2349026E-2,7.4E4,1.5555556E-1,5.88539E0,-9.534477E-3,5.880159E-2,-6.841068E-2,1.58298E-2,3.5079244E-1,-3.410638E-1,-7.554444E-2,-1.22984415E-2,-1.6684417E-2,6.987036E-1,-4.742132E-2,-2.5771096E-2,-6.0364003E-3,1.7298E2,8.3104275E-2,1.76E0,-4.2868236E-1,6.1E4,-2.4822695E0,-6.2704414E-2,3.9507368E0,2.7025175E0,7.510963E-2,-3.5737385E-3,2.405E5,-8.801341E-3,-2.8914407E-2,-5.102764E-1,-6.1026275E-2,1.4262835E-2,4.05892E4,1.0072181E0,2.422E1,1.5648161E0,7.373126E-2,2.44E0,1.0950235E-2,-5.3677846E-2,3.5189494E-4,6.482729E-2,6.561544E-2,-1.790076E-2,-2.7644226E-2,4.870982E-2,-5.21467E-2,2.2738412E-2,-9.741538E-3,-4.484115E-2,1.8470628E-2,-6.841458E-3,2.439338E-2,7.138599E-2,-5.1556367E-2,1.4584839E-2,4.5975786E-2,-1.5167457E-2,4.438596E-2,-3.1475708E-2,4.8668552E-2,-1.5513951E-2,-3.1462435E-2,3.9607275E-2],"split_indices":[14,34,26,44,26,16,62,0,10,55,30,0,44,38,8,29,37,0,30,38,46,26,53,0,0,0,0,27,8,0,0,35,8,44,27,9,57,0,31,9,46,52,0,59,25,0,0,46,44,0,21,0,0,24,9,45,26,0,31,0,0,0,0,0,0,0,0,0,0,0,0,0,0,0,0,0,0,0,0,0,0,0,0,0,0],"split_type":[0,0,0,0,0,0,0,0,0,0,0,0,0,0,0,0,0,0,0,0,0,0,0,0,0,0,0,0,0,0,0,0,0,0,0,0,0,0,0,0,0,0,0,0,0,0,0,0,0,0,0,0,0,0,0,0,0,0,0,0,0,0,0,0,0,0,0,0,0,0,0,0,0,0,0,0,0,0,0,0,0,0,0,0,0],"sum_hessian":[5.2888904E2,4.8081546E2,4.8073574E1,3.9303825E1,4.4151163E2,4.0607357E1,7.4662175E0,1.4971418E0,3.7806683E1,3.1485168E2,1.2665996E2,1.740866E0,3.8866493E1,2.7386312E0,4.7275863E0,2.9280905E1,8.525779E0,2.737633E0,3.1211404E2,2.7620655E1,9.90393E1,2.9896235E1,8.970258E0,1.2394918E0,1.4991395E0,2.7322047E0,1.9953816E0,9.616202E0,1.9664703E1,7.0579534E0,1.4678248E0,4.224202E0,3.0788983E2,2.4394352E1,3.2263024E0,5.349841E1,4.5540894E1,1.0208292E1,1.9687943E1,3.7373424E0,5.232915E0,6.9392443E0,2.6769583E0,2.9703453E0,1.6694357E1,2.4917305E0,1.7324717E0,1.8357101E2,1.24318825E2,1.9837791E0,2.2410574E1,1.9825921E0,1.2437103E0,2.2635902E1,3.0862507E1,3.0850353E1,1.4690538E1,5.4720674E0,1.4215875E1,1.2457539E0,2.4915884E0,1.4973928E0,3.7355223E0,3.9758866E0,2.9633577E0,1.2281718E0,1.7421734E0,1.5203163E1,1.4911945E0,1.5874231E2,2.4828709E1,3.8087486E1,8.623134E1,1.2434655E1,9.975918E0,7.201436E0,1.5434467E1,2.4899244E1,5.9632626E0,2.4978948E0,2.8352459E1,6.232851E0,8.457687E0,2.7421854E0,1.147369E1],"tree_param":{"num_deleted":"0","num_feature":"66","num_nodes":"85","size_leaf_vector":"1"}},{"base_weights":[-2.9807666E-2,-9.443601E-2,6.960888E-1,-1.3038994E-1,4.5043775E-1,-3.993408E-2,7.76782E-1,-1.8226035E-1,1.4516321E-1,2.5546543E-2,9.5462805E-1,8.6597544E-1,-3.661414E-1,-7.0342414E-2,-3.4635127E-1,-6.757172E-2,2.2702403E-1,5.6701136E-1,-8.8639987E-1,4.3058428E-1,8.145674E-2,-2.91465E-1,9.7762936E-1,-3.877258E-2,1.2578234E-2,-2.0880318E-1,2.1854152E-1,-4.027598E-1,4.2535028E-1,4.497545E-1,-3.4482917E-1,1.2540966E-1,6.5532185E-2,3.2512692E-3,-1.1585071E0,6.478753E-2,6.3416205E-2,-5.4140933E-2,2.6516108E-2,-9.084414E-3,1.0417923E0,4.2921152E-2,-4.6256983E-1,4.9712422E-1,-3.0185378E-1,2.9145053E-1,-4.632624E-1,-4.5352113E-2,8.110594E-1,-3.002026E-2,7.6754934E-1,9.3386225E-2,-8.3772415E-1,1.0336117E0,-8.1305754E-1,-1.6780725E-2,-6.9138326E-2,8.565935E-1,-5.0425583E-1,8.035394E-2,8.6000997E-1,-4.232179E-3,6.459075E-2,-3.0871732E-2,1.9484043E-2,2.837242E-2,-5.3535312E-2,-3.9769564E-2,1.1899594E-2,3.552663E-2,-4.9845006E-2,-3.8913086E-2,-1.5859675E-2,6.6363506E-2,-1.5139279E-2,5.548985E-2,-1.4747942E-2,-5.789823E-4,4.7275927E-2,-4.966116E-2,3.3748344E-2,-7.102731E-2,1.7679079E-2,7.396053E-2,-6.224067E-3,3.5877966E-3,-6.2175233E-2,5.4798987E-2,1.1769299E-2,-5.4352272E-2,3.430573E-2,1.079366E-2,5.8098722E-2],"categories":[],"categories_nodes":[],"categories_segments":[],"categories_sizes":[],"default_left":[0,0,0,0,0,0,0,0,0,0,0,0,0,0,0,0,0,0,0,0,0,0,0,0,0,0,0,0,0,0,0,0,0,0,0,0,0,0,0,0,0,0,0,0,0,0,0,0,0,0,0,0,0,0,0,0,0,0,0,0,0,0,0,0,0,0,0,0,0,0,0,0,0,0,0,0,0,0,0,0,0,0,0,0,0,0,0,0,0,0,0,0,0],"id":5,"left_children":[1,3,5,7,9,-1,11,13,15,17,19,21,23,25,27,-1,29,31,33,35,-1,37,39,-1,-1,41,43,45,47,49,51,53,-1,-1,55,57,-1,-1,-1,-1,59,61,63,65,67,69,71,-1,73,75,77,79,81,83,85,-1,-1,87,89,-1,91,-1,-1,-1,-1,-1,-1,-1,-1,-1,-1,-1,-1,-1,-1,-1,-1,-1,-1,-1,-1,-1,-1,-1,-1,-1,-1,-1,-1,-1,-1,-1,-1],"loss_changes":[2.5083517E1,9.668942E0,5.893408E0,6.615093E0,6.528923E0,0E0,4.597025E0,7.1082067E0,9.321671E0,9.207223E0,4.233799E0,5.356346E0,1.141207E0,9.331603E0,7.0156193E0,0E0,9.150298E0,3.6681972E0,1.8765583E0,2.7422533E0,0E0,3.320465E0,2.8686028E0,0E0,0E0,1.0077467E1,1.112558E1,6.310652E0,6.4896846E0,7.8387537E0,4.476405E0,8.023916E0,0E0,0E0,5.4413605E-1,3.7974157E0,0E0,0E0,0E0,0E0,2.1403809E0,1.2847646E1,1.06000595E1,6.0859804E0,7.3881693E0,7.403921E0,5.9938126E0,0E0,5.697884E0,6.7859406E0,4.291868E0,8.050843E0,7.225813E0,2.621653E0,1.8811111E0,0E0,0E0,2.6159E-1,4.1974945E0,0E0,5.2126923E0,0E0,0E0,0E0,0E0,0E0,0E0,0E0,0E0,0E0,0E0,0E0,0E0,0E0,0E0,0E0,0E0,0E0,0E0,0E0,0E0,0E0,0E0,0E0,0E0,0E0,0E0,0E0,0E0,0E0,0E0,0E0,0E0],"parents":[2147483647,0,0,1,1,2,2,3,3,4,4,6,6,7,7,8,8,9,9,10,10,11,11,12,12,13,13,14,14,16,16,17,17,18,18,19,19,21,21,22,22,25,25,26,26,27,27,28,28,29,29,30,30,31,31,34,34,35,35,40,40,41,41,42,42,43,43,44,44,45,45,46,46,48,48,49,49,50,50,51,51,52,52,53,53,54,54,57,57,58,58,60,60],"right_children":[2,4,6,8,10,-1,12,14,16,18,20,22,24,26,28,-1,30,32,34,36,-1,38,40,-1,-1,42,44,46,48,50,52,54,-1,-1,56,58,-1,-1,-1,-1,60,62,64,66,68,70,72,-1,74,76,78,80,82,84,86,-1,-1,88,90,-1,92,-1,-1,-1,-1,-1,-1,-1,-1,-1,-1,-1,-1,-1,-1,-1,-1,-1,-1,-1,-1,-1,-1,-1,-1,-1,-1,-1,-1,-1,-1,-1,-1],"split_conditions":[4.9285963E-2,4.9782623E-2,8.6E-1,3.5669525E0,4.23E0,-3.993408E-2,2.1402972E0,3.7449844E0,-4.989605E-2,1.1675446E0,5E-2,1.41E4,6.68E0,-9.2849314E-1,3.0406055E1,-6.757172E-2,1.0634525E0,-2.689687E0,3.597188E-1,5.6E-1,8.145674E-2,2.2508852E0,-2.3453775E1,-3.877258E-2,1.2578234E-2,2.95E4,5.072137E-3,2.278596E-1,-4.765687E0,6.05E4,2.29E5,3.9008386E0,6.5532185E-2,3.2512692E-3,1.691E5,-3.5698349E-3,6.3416205E-2,-5.4140933E-2,2.6516108E-2,-9.084414E-3,1.08E0,5.5040536E0,3.585E5,4.1467305E-2,4.39E4,1.20703116E-1,3.24994E4,-4.5352113E-2,2.9977689E0,4.3216176E0,-2.9276315E-2,7.83E4,5.28E5,5.4448E1,-3.866995E0,-1.6780725E-2,-6.9138326E-2,5.97E0,5.74E5,8.035394E-2,-1.5754924E0,-4.232179E-3,6.459075E-2,-3.0871732E-2,1.9484043E-2,2.837242E-2,-5.3535312E-2,-3.9769564E-2,1.1899594E-2,3.552663E-2,-4.9845006E-2,-3.8913086E-2,-1.5859675E-2,6.6363506E-2,-1.5139279E-2,5.548985E-2,-1.4747942E-2,-5.789823E-4,4.7275927E-2,-4.966116E-2,3.3748344E-2,-7.102731E-2,1.7679079E-2,7.396053E-2,-6.224067E-3,3.5877966E-3,-6.2175233E-2,5.4798987E-2,1.1769299E-2,-5.4352272E-2,3.430573E-2,1.079366E-2,5.8098722E-2],"split_indices":[14,41,16,49,31,0,9,59,14,7,22,23,18,29,65,0,9,64,25,20,0,28,64,0,0,37,44,49,58,40,37,59,0,0,40,14,0,0,0,0,31,61,37,41,40,8,23,0,55,49,38,37,34,0,52,0,0,18,40,0,13,0,0,0,0,0,0,0,0,0,0,0,0,0,0,0,0,0,0,0,0,0,0,0,0,0,0,0,0,0,0,0,0],"split_type":[0,0,0,0,0,0,0,0,0,0,0,0,0,0,0,0,0,0,0,0,0,0,0,0,0,0,0,0,0,0,0,0,0,0,0,0,0,0,0,0,0,0,0,0,0,0,0,0,0,0,0,0,0,0,0,0,0,0,0,0,0,0,0,0,0,0,0,0,0,0,0,0,0,0,0,0,0,0,0,0,0,0,0,0,0,0,0,0,0,0,0,0,0],"sum_hessian":[5.3227484E2,4.895582E2,4.2716663E1,4.5996756E2,2.9590635E1,1.7321599E0,4.0984505E1,3.8738446E2,7.2583084E1,1.6628302E1,1.2962333E1,3.824239E1,2.7421124E0,2.3115456E2,1.5622992E2,2.9599369E0,6.9623146E1,1.0670796E1,5.957505E0,8.216819E0,4.7455144E0,3.2228503E0,3.501954E1,1.4956669E0,1.2464457E0,1.5644728E2,7.470727E1,1.460335E2,1.0196422E1,5.0260685E1,1.9362465E1,7.4282303E0,3.2425663E0,1.4941671E0,4.4633384E0,6.4693365E0,1.747482E0,1.4800106E0,1.7428397E0,1.7404683E0,3.327907E1,7.89568E1,7.7490486E1,4.8687923E1,2.601934E1,1.1400973E1,1.3463252E2,1.9856334E0,8.210788E0,2.0387386E1,2.9873299E1,1.0678831E1,8.683634E0,3.723464E0,3.7047663E0,1.4905379E0,2.9728003E0,2.4938712E0,3.9754653E0,6.1898584E0,2.7089214E1,7.248523E1,6.471573E0,6.5807884E1,1.1682605E1,4.720848E1,1.4794428E0,1.3345372E1,1.2673969E1,8.941067E0,2.459907E0,4.1281174E1,9.335135E1,5.479641E0,2.731147E0,3.243657E0,1.7143728E1,5.728688E0,2.4144611E1,3.4761982E0,7.202633E0,5.701744E0,2.9818902E0,2.4886327E0,1.2348313E0,1.4851787E0,2.2195876E0,1.248486E0,1.2453853E0,2.7271094E0,1.248356E0,9.193327E0,1.7895887E1],"tree_param":{"num_deleted":"0","num_feature":"66","num_nodes":"93","size_leaf_vector":"1"}},{"base_weights":[1.5715536E-2,-5.281311E-2,7.3669994E-1,9.917573E-1,-6.903261E-2,-4.4765666E-1,8.511172E-1,1.4048786E0,-3.0015258E-2,-3.938157E-1,-1.6923947E-2,2.5909498E-2,-5.9438266E-2,9.7486293E-1,-1.1024255E-1,1.4462401E-2,8.118508E-2,-9.452162E-1,-1.2100062E-1,-3.874043E-1,2.7606409E-2,1.3056638E0,5.3682905E-1,4.2412946E-1,-5.642593E-2,-1.0332902E-1,-1.1283269E0,2.8867107E-2,-7.115433E-2,-5.048101E-1,5.909536E-1,-1.1290238E-1,1.6899878E-1,-7.153065E-3,1.4459358E0,1.1692132E0,1.2563163E-1,-3.0514454E-2,5.051465E-2,-4.5340586E-2,3.6643796E-2,-1.3628955E0,2.4968898E-2,-1.19437635E-1,6.831458E-2,-2.2816797E-1,-1.1894376E0,6.902482E-2,-1.6308248E-2,2.5613604E-2,-4.062099E-1,3.693042E-1,-5.3979702E-2,7.7997126E-2,6.2035424E-1,7.6103746E-3,7.379391E-2,1.0193025E0,-5.448529E-1,-3.1025795E-2,-8.106085E-2,-2.078761E-2,1.68986E-2,-3.1162295E-2,1.4574858E-2,-6.97415E-2,-1.2722779E-3,-3.4851835E-3,3.492549E-2,1.2565884E-2,-3.6016043E-2,-3.5098717E-2,2.1849276E-2,-4.0771905E-2,3.928346E-3,-1.4656824E-2,5.7094485E-2,-1.2152863E-3,7.077373E-2,-6.525053E-2,2.2383844E-2],"categories":[],"categories_nodes":[],"categories_segments":[],"categories_sizes":[],"default_left":[0,0,0,0,0,0,0,0,0,0,0,0,0,0,0,0,0,0,0,0,0,0,0,0,0,0,0,0,0,0,0,0,0,0,0,0,0,0,0,0,0,0,0,0,0,0,0,0,0,0,0,0,0,0,0,0,0,0,0,0,0,0,0,0,0,0,0,0,0,0,0,0,0,0,0,0,0,0,0,0,0],"id":6,"left_children":[1,3,5,7,9,11,13,15,-1,17,19,-1,-1,21,23,-1,-1,25,27,29,31,33,35,37,-1,39,41,43,-1,45,47,49,51,-1,53,55,57,-1,-1,-1,-1,59,-1,61,-1,63,65,-1,-1,67,69,71,73,-1,75,-1,-1,77,79,-1,-1,-1,-1,-1,-1,-1,-1,-1,-1,-1,-1,-1,-1,-1,-1,-1,-1,-1,-1,-1,-1],"loss_changes":[2.6194471E1,8.274723E0,6.616699E0,5.7571306E0,8.081168E0,3.986826E0,5.1404915E0,1.051528E0,0E0,9.818215E0,6.821956E0,0E0,0E0,4.745064E0,3.5928E0,0E0,0E0,3.2299442E0,8.884745E0,5.394466E0,7.359824E0,4.4164085E0,4.499718E0,3.3331077E0,0E0,4.0097857E0,7.4498634E0,8.418715E0,0E0,7.333289E0,4.2259984E0,7.5642023E0,8.263523E0,0E0,8.1835175E-1,1.933732E0,7.714917E0,0E0,0E0,0E0,0E0,2.0171967E0,0E0,5.343338E0,0E0,6.306874E0,2.6703453E0,0E0,0E0,8.20891E0,1.2511076E1,7.3655767E0,8.967411E0,0E0,2.2226498E0,0E0,0E0,2.2960505E0,6.226564E0,0E0,0E0,0E0,0E0,0E0,0E0,0E0,0E0,0E0,0E0,0E0,0E0,0E0,0E0,0E0,0E0,0E0,0E0,0E0,0E0,0E0,0E0],"parents":[2147483647,0,0,1,1,2,2,3,3,4,4,5,5,6,6,7,7,9,9,10,10,13,13,14,14,17,17,18,18,19,19,20,20,21,21,22,22,23,23,25,25,26,26,27,27,29,29,30,30,31,31,32,32,34,34,35,35,36,36,41,41,43,43,45,45,46,46,49,49,50,50,51,51,52,52,54,54,57,57,58,58],"right_children":[2,4,6,8,10,12,14,16,-1,18,20,-1,-1,22,24,-1,-1,26,28,30,32,34,36,38,-1,40,42,44,-1,46,48,50,52,-1,54,56,58,-1,-1,-1,-1,60,-1,62,-1,64,66,-1,-1,68,70,72,74,-1,76,-1,-1,78,80,-1,-1,-1,-1,-1,-1,-1,-1,-1,-1,-1,-1,-1,-1,-1,-1,-1,-1,-1,-1,-1,-1],"split_conditions":[4.9285963E-2,-2.7832468E1,1E0,1.6057626E0,-2.3584062E-2,4.8815334E-1,1.838E1,-4.9892537E-2,-3.0015258E-2,2.3913043E-2,3E3,2.5909498E-2,-5.9438266E-2,7.5198185E-1,2.9607698E1,1.4462401E-2,8.118508E-2,-3.922258E-1,2.1815086E2,2.95E4,5.9426486E-1,-3.042268E0,-1.723943E0,-7.550238E-4,-5.642593E-2,4.18E4,1.3076973E-2,1.61381E2,-7.115433E-2,3.8709676E0,-3.726012E0,-2.9878273E0,9.1E4,-7.153065E-3,2.5068328E0,-4.5210633E0,3.31E4,-3.0514454E-2,5.051465E-2,-4.5340586E-2,3.6643796E-2,-1.0526316E-2,2.4968898E-2,7.655336E0,6.831458E-2,-4.1088853E0,4.5224512E-1,6.902482E-2,-1.6308248E-2,1.4487026E1,4.945E4,-4.841402E-2,6.25E4,7.7997126E-2,2.367E5,7.6103746E-3,7.379391E-2,4.1860465E-2,2.9160464E0,-3.1025795E-2,-8.106085E-2,-2.078761E-2,1.68986E-2,-3.1162295E-2,1.4574858E-2,-6.97415E-2,-1.2722779E-3,-3.4851835E-3,3.492549E-2,1.2565884E-2,-3.6016043E-2,-3.5098717E-2,2.1849276E-2,-4.0771905E-2,3.928346E-3,-1.4656824E-2,5.7094485E-2,-1.2152863E-3,7.077373E-2,-6.525053E-2,2.2383844E-2],"split_indices":[14,30,16,25,47,61,32,44,0,22,43,0,0,26,65,0,0,9,5,37,25,52,64,35,0,43,14,3,0,53,64,58,43,0,7,30,43,0,0,0,0,35,0,65,0,58,27,0,0,30,24,14,40,0,40,0,0,22,25,0,0,0,0,0,0,0,0,0,0,0,0,0,0,0,0,0,0,0,0,0,0],"split_type":[0,0,0,0,0,0,0,0,0,0,0,0,0,0,0,0,0,0,0,0,0,0,0,0,0,0,0,0,0,0,0,0,0,0,0,0,0,0,0,0,0,0,0,0,0,0,0,0,0,0,0,0,0,0,0,0,0,0,0,0,0,0,0,0,0,0,0,0,0,0,0,0,0,0,0,0,0,0,0,0,0],"sum_hessian":[5.283782E2,4.83362E2,4.501619E1,6.4709816E0,4.76891E2,3.7091825E0,4.1307007E1,5.231137E0,1.2398448E0,6.502781E1,4.118632E2,1.7410097E0,1.9681728E0,3.65839E1,4.723108E0,1.2385325E0,3.992604E0,2.0708378E1,4.431943E1,4.336645E1,3.6849673E2,1.9714716E1,1.6869184E1,3.480231E0,1.2428765E0,3.9789011E0,1.6729475E1,4.062177E1,3.6976612E0,3.9152107E1,4.2143435E0,1.8492694E2,1.8356981E2,1.738602E0,1.7976114E1,5.9205236E0,1.0948661E1,1.2439106E0,2.2363205E0,1.9860916E0,1.9928095E0,1.4764458E1,1.9650179E0,3.7386715E1,3.2350538E0,2.8834166E1,1.0317944E1,1.9931751E0,2.2211685E0,1.2622785E2,5.8699085E1,9.6355644E1,8.721417E1,1.5013372E1,2.9627414E0,1.7183194E0,4.202204E0,4.470202E0,6.4784594E0,4.689525E0,1.0074933E1,2.2743998E1,1.4642718E1,1.626744E1,1.2566723E1,8.601797E0,1.7161461E0,1.1135113E2,1.4876727E1,1.9040846E1,3.9658237E1,5.168914E0,9.118673E1,1.21666565E1,7.5047516E1,1.2359173E0,1.7268239E0,1.4883074E0,2.9818945E0,3.4904017E0,2.9880576E0],"tree_param":{"num_deleted":"0","num_feature":"66","num_nodes":"81","size_leaf_vector":"1"}},{"base_weights":[-1.2411473E-2,-6.389368E-2,6.052042E-1,-5.6213176E-1,-1.0084954E-2,-2.582017E-1,7.5135857E-1,-7.805593E-2,-8.9614385E-1,-1.3838531E-1,1.3594729E-1,2.49881E-1,-4.849438E-2,1.2139369E0,4.8982254E-1,-6.8951255E-1,5.3724176E-1,-2.4986304E-1,-1.3937104E0,1.0208707E0,-1.6645147E-1,-4.6873552E-1,1.9352385E-1,4.3623436E-2,-2.5894914E-2,-7.476727E-3,1.3803602E0,-5.045903E-1,6.7986846E-1,6.4952165E-1,-1.1684252E0,-3.1945458E-1,1.1669822E0,6.913997E-1,-6.132958E-1,-1.0519097E-2,-1.4994605E0,-7.805545E-3,6.909988E-2,-1.05786644E-1,-6.995934E-1,3.442328E-1,-7.758787E-1,4.452851E-1,5.1542804E-2,7.5521626E-2,1.6422806E-2,1.2620437E-2,-5.995369E-2,8.072124E-1,-1.7354762E-2,5.843116E-2,-8.091112E-3,-1.3335111E-3,-7.304581E-2,5.6821484E-2,-5.1739533E-2,1.2909472E-2,7.9104014E-2,-3.3386715E-3,6.2167425E-2,-8.901114E-1,3.890711E-2,-2.3558361E-2,-7.7917695E-2,-1.0315694E0,-7.0468575E-2,-1.2338568E0,-1.6385683E-1,-5.836346E-1,6.9350325E-2,3.488554E-2,-9.7924435E-1,5.2598125E-1,-6.924361E-1,9.6455836E-1,-2.4332676E-2,7.386165E-2,4.458854E-1,-6.0423434E-2,1.4444249E-2,-6.516474E-2,2.6539366E-3,1.2907425E-2,-8.986357E-3,-3.0287884E-3,-7.16258E-2,3.1229896E-2,-3.6764722E-2,1.3602222E-2,-5.6011762E-2,-1.5753357E-2,-6.7282446E-2,1.2490365E-2,4.3237023E-2,2.2374168E-2,-6.558905E-2,8.137842E-2,9.277566E-3,-2.6458437E-2,6.610098E-3,-1.9235043E-2,4.1428223E-2],"categories":[],"categories_nodes":[],"categories_segments":[],"categories_sizes":[],"default_left":[0,0,0,0,0,0,0,0,0,0,0,0,0,0,0,0,0,0,0,0,0,0,0,0,0,0,0,0,0,0,0,0,0,0,0,0,0,0,0,0,0,0,0,0,0,0,0,0,0,0,0,0,0,0,0,0,0,0,0,0,0,0,0,0,0,0,0,0,0,0,0,0,0,0,0,0,0,0,0,0,0,0,0,0,0,0,0,0,0,0,0,0,0,0,0,0,0,0,0,0,0,0,0],"id":7,"left_children":[1,3,5,7,9,11,13,15,17,19,21,23,-1,25,27,29,31,33,35,37,39,41,43,-1,-1,-1,45,47,49,51,53,55,57,59,61,-1,63,-1,-1,65,67,69,71,73,75,-1,-1,-1,-1,77,-1,-1,-1,-1,-1,-1,-1,-1,-1,-1,-1,79,-1,-1,-1,81,83,85,87,89,-1,-1,91,93,95,97,99,-1,101,-1,-1,-1,-1,-1,-1,-1,-1,-1,-1,-1,-1,-1,-1,-1,-1,-1,-1,-1,-1,-1,-1,-1,-1],"loss_changes":[1.690248E1,1.3143557E1,5.3556633E0,7.656804E0,8.331588E0,2.652711E0,3.6684914E0,8.123211E0,8.714083E0,7.8703284E0,7.332533E0,2.6910486E0,0E0,2.940897E0,4.914024E0,7.66775E0,6.217216E0,5.034424E0,1.6497383E0,2.6532388E0,7.4276032E0,4.855557E0,6.791151E0,0E0,0E0,0E0,9.867306E-1,2.6446457E0,2.991497E0,1.6551363E0,2.7303944E0,6.7733393E0,2.0279102E0,1.850765E0,4.6418095E0,0E0,1.2890244E-1,0E0,0E0,6.7747526E0,6.5290756E0,6.355101E0,4.7721987E0,6.6631613E0,8.545767E0,0E0,0E0,0E0,0E0,3.8796053E0,0E0,0E0,0E0,0E0,0E0,0E0,0E0,0E0,0E0,0E0,0E0,3.734007E0,0E0,0E0,0E0,2.3157072E0,7.3277636E0,2.622055E0,6.2694287E0,2.020495E0,0E0,0E0,2.595108E0,5.8308296E0,4.0998416E0,4.5859003E0,9.122723E0,0E0,4.6448574E0,0E0,0E0,0E0,0E0,0E0,0E0,0E0,0E0,0E0,0E0,0E0,0E0,0E0,0E0,0E0,0E0,0E0,0E0,0E0,0E0,0E0,0E0,0E0,0E0],"parents":[2147483647,0,0,1,1,2,2,3,3,4,4,5,5,6,6,7,7,8,8,9,9,10,10,11,11,13,13,14,14,15,15,16,16,17,17,18,18,19,19,20,20,21,21,22,22,26,26,27,27,28,28,29,29,30,30,31,31,32,32,33,33,34,34,36,36,39,39,40,40,41,41,42,42,43,43,44,44,49,49,61,61,65,65,66,66,67,67,68,68,69,69,72,72,73,73,74,74,75,75,76,76,78,78],"right_children":[2,4,6,8,10,12,14,16,18,20,22,24,-1,26,28,30,32,34,36,38,40,42,44,-1,-1,-1,46,48,50,52,54,56,58,60,62,-1,64,-1,-1,66,68,70,72,74,76,-1,-1,-1,-1,78,-1,-1,-1,-1,-1,-1,-1,-1,-1,-1,-1,80,-1,-1,-1,82,84,86,88,90,-1,-1,92,94,96,98,100,-1,102,-1,-1,-1,-1,-1,-1,-1,-1,-1,-1,-1,-1,-1,-1,-1,-1,-1,-1,-1,-1,-1,-1,-1,-1],"split_conditions":[4.9285963E-2,2.501E3,-2.3166023E-2,1.512E3,-2.9799914E-1,4.999354E-2,2.5980413E1,4.11195E3,2.293E1,1.07E1,6.2511367E-1,6.245539E-3,-4.849438E-2,-3.127547E-1,4.1923E1,1.8072E1,1.7375673E-1,-3.2E-1,5E2,4.5445566E-3,-5.102764E-1,3.0916843E0,4.78552E1,4.3623436E-2,-2.5894914E-2,-7.476727E-3,5.0647747E1,8.92E4,4.996035E-2,4E2,-7.818809E-3,-4.817553E0,-4.3858034E-3,-5.3E-1,-3.1142857E1,-1.0519097E-2,-1.7294465E-1,-7.805545E-3,6.909988E-2,-4.993044E-2,1.1209E5,1.8900343E0,-3.5106048E-2,4.974271E-2,-6.8618484E0,7.5521626E-2,1.6422806E-2,1.2620437E-2,-5.995369E-2,-3.1630511E0,-1.7354762E-2,5.843116E-2,-8.091112E-3,-1.3335111E-3,-7.304581E-2,5.6821484E-2,-5.1739533E-2,1.2909472E-2,7.9104014E-2,-3.3386715E-3,6.2167425E-2,1.06E4,3.890711E-2,-2.3558361E-2,-7.7917695E-2,6.8540436E1,-4.4422987E-1,1.8066263E-1,-3.0503902E-3,1.991984E-1,6.9350325E-2,3.488554E-2,4.43899E-1,3.7016575E0,3.3518884E-3,1.0125811E0,1.1627316E-1,7.386165E-2,1.2880714E1,-6.0423434E-2,1.4444249E-2,-6.516474E-2,2.6539366E-3,1.2907425E-2,-8.986357E-3,-3.0287884E-3,-7.16258E-2,3.1229896E-2,-3.6764722E-2,1.3602222E-2,-5.6011762E-2,-1.5753357E-2,-6.7282446E-2,1.2490365E-2,4.3237023E-2,2.2374168E-2,-6.558905E-2,8.137842E-2,9.277566E-3,-2.6458437E-2,6.610098E-3,-1.9235043E-2,4.1428223E-2],"split_indices":[14,34,38,40,21,14,5,24,1,42,61,44,0,7,3,0,25,16,43,35,21,65,3,0,0,0,65,43,38,34,35,58,41,16,13,0,27,0,0,14,24,65,38,35,28,0,0,0,0,64,0,0,0,0,0,0,0,0,0,0,0,43,0,0,0,6,9,25,41,49,0,0,61,19,41,25,27,0,65,0,0,0,0,0,0,0,0,0,0,0,0,0,0,0,0,0,0,0,0,0,0,0,0],"split_type":[0,0,0,0,0,0,0,0,0,0,0,0,0,0,0,0,0,0,0,0,0,0,0,0,0,0,0,0,0,0,0,0,0,0,0,0,0,0,0,0,0,0,0,0,0,0,0,0,0,0,0,0,0,0,0,0,0,0,0,0,0,0,0,0,0,0,0,0,0,0,0,0,0,0,0,0,0,0,0,0,0,0,0,0,0,0,0,0,0,0,0,0,0,0,0,0,0,0,0,0,0,0,0],"sum_hessian":[5.293716E2,4.8946786E2,3.990372E1,4.678828E1,4.4267957E2,5.665889E0,3.4237835E1,1.9606598E1,2.7181683E1,2.3567429E2,2.070053E2,3.6844187E0,1.9814701E0,1.10507765E1,2.3187057E1,9.773497E0,9.8331E0,1.24773E1,1.4704383E1,4.734745E0,2.3093953E2,1.7376116E1,1.8962918E2,1.9592892E0,1.7251295E0,1.2131525E0,9.837624E0,3.4547942E0,1.9732264E1,2.4808443E0,7.292653E0,4.374614E0,5.4584866E0,3.2242715E0,9.253028E0,1.4515187E0,1.3252865E1,1.2449448E0,3.4898005E0,2.0842215E2,2.251739E1,4.731552E0,1.2644564E1,6.76088E1,1.2202037E2,8.367096E0,1.4705279E0,1.9575655E0,1.4972285E0,1.7745762E1,1.9865013E0,1.2443489E0,1.2364954E0,1.7097461E0,5.5829067E0,1.2473285E0,3.127285E0,2.2200427E0,3.2384439E0,1.7287002E0,1.4955714E0,8.01817E0,1.2348576E0,1.2054663E0,1.2047399E1,6.622424E0,2.0179973E2,1.0621748E1,1.1895641E1,2.7367122E0,1.9948401E0,1.2386287E0,1.1405934E1,6.363313E1,3.9756734E0,8.463695E0,1.1355668E2,5.1351438E0,1.2610619E1,6.293718E0,1.7244524E0,5.1345396E0,1.4878842E0,5.0012962E1,1.5178676E2,1.727002E0,8.894746E0,4.9595513E0,6.9360895E0,1.2447768E0,1.4919354E0,4.7164207E0,6.6895137E0,3.601184E1,2.762129E1,1.497316E0,2.4783573E0,3.9838061E0,4.4798884E0,2.6313412E1,8.724326E1,3.9758804E0,8.634738E0],"tree_param":{"num_deleted":"0","num_feature":"66","num_nodes":"103","size_leaf_vector":"1"}},{"base_weights":[-7.4532144E-3,-6.5754876E-2,6.206054E-1,-9.727921E-2,4.0139863E-1,-1.0528132E-1,8.012671E-1,1.3876219E-1,-1.611206E-1,-6.2500387E-3,9.644535E-1,-4.91091E-2,3.1670848E-1,8.748006E-1,-1.5196656E-2,2.298525E-1,-8.170582E-1,-2.8987187E-1,3.7460245E-2,5.493838E-1,-7.237359E-1,1.2337534E0,-2.4639312E-2,8.854859E-1,-5.8519626E-1,1.0777099E0,4.4067234E-1,1.3120988E-1,9.0699416E-1,1.1757919E-1,-1.210259E0,-3.1819385E-1,1.0497068E0,8.470817E-1,-4.1905735E-2,-4.0199062E-1,1.1806799E0,-1.0285408E0,2.234083E-2,7.465703E-2,9.942556E-4,6.2070467E-2,1.9392057E-3,-5.3251304E-2,8.203651E-3,1.1636869E0,-1.1098708E-2,-1.8031703E-1,6.449353E-2,2.4620889E-1,-4.3870994E-1,-3.0866474E-2,1.3036493E0,-2.837118E-2,3.746392E-2,-7.297461E-2,-5.8045755E-3,-1.683874E-1,-5.535698E-1,7.2718404E-2,4.9962713E-3,-4.0920833E-1,1.413727E0,-7.862674E-1,2.1031722E-2,2.504359E-2,-6.2227506E-2,8.015905E-2,9.831229E-3,1.2515331E-2,-6.694064E-2,1.2529343E0,4.735038E-3,3.054052E-1,-9.177886E-1,2.4472076E-2,-5.767733E-3,3.3355325E-2,-4.22437E-2,7.6808415E-2,2.7341044E-3,-4.9050185E-3,-5.780631E-2,1.4997353E-2,-3.2688353E-2,-6.1535537E-2,3.178833E-2,8.3490185E-2,-5.35271E-3,-6.8861715E-2,5.4952544E-3,-3.2541793E-2,4.6519707E-3,1.0210854E-2,6.564724E-2,3.5531048E-2,-3.1583976E-2,-1.4379307E-2,-5.6932904E-2],"categories":[],"categories_nodes":[],"categories_segments":[],"categories_sizes":[],"default_left":[0,0,0,0,0,0,0,0,0,0,0,0,0,0,0,0,0,0,0,0,0,0,0,0,0,0,0,0,0,0,0,0,0,0,0,0,0,0,0,0,0,0,0,0,0,0,0,0,0,0,0,0,0,0,0,0,0,0,0,0,0,0,0,0,0,0,0,0,0,0,0,0,0,0,0,0,0,0,0,0,0,0,0,0,0,0,0,0,0,0,0,0,0,0,0,0,0,0,0],"id":8,"left_children":[1,3,5,7,9,11,13,15,17,19,21,-1,23,25,-1,27,29,31,33,35,37,39,-1,41,43,45,47,49,51,53,55,57,59,61,63,65,67,69,-1,-1,-1,-1,-1,-1,-1,71,-1,73,-1,75,77,-1,79,-1,-1,-1,-1,81,83,-1,-1,85,87,89,91,-1,-1,-1,-1,-1,-1,93,-1,95,97,-1,-1,-1,-1,-1,-1,-1,-1,-1,-1,-1,-1,-1,-1,-1,-1,-1,-1,-1,-1,-1,-1,-1,-1],"loss_changes":[1.9356909E1,7.161093E0,5.973196E0,6.8614745E0,7.06797E0,3.9496138E0,3.1974468E0,8.646768E0,9.156147E0,7.9083514E0,5.681041E0,0E0,4.3113956E0,2.5271225E0,0E0,5.8580017E0,3.3296118E0,8.57118E0,9.132804E0,7.1929464E0,3.547215E0,3.4955788E0,0E0,1.4383407E0,1.4193481E0,2.7762032E0,6.8490753E0,5.3036513E0,7.5819683E0,1.9308761E0,1.5194836E0,7.4309273E0,1.6717834E0,9.609864E0,6.1017194E0,4.585086E0,2.5860386E0,3.1796765E0,0E0,0E0,0E0,0E0,0E0,0E0,0E0,1.912983E0,0E0,3.190566E0,0E0,5.9139137E0,6.7032757E0,0E0,2.5923176E0,0E0,0E0,0E0,0E0,9.039043E0,7.2560654E0,0E0,0E0,4.8335648E0,3.6711025E0,5.528187E0,5.9018593E0,0E0,0E0,0E0,0E0,0E0,0E0,9.636421E-1,0E0,2.5938065E0,1.563549E-1,0E0,0E0,0E0,0E0,0E0,0E0,0E0,0E0,0E0,0E0,0E0,0E0,0E0,0E0,0E0,0E0,0E0,0E0,0E0,0E0,0E0,0E0,0E0,0E0],"parents":[2147483647,0,0,1,1,2,2,3,3,4,4,5,5,6,6,7,7,8,8,9,9,10,10,12,12,13,13,15,15,16,16,17,17,18,18,19,19,20,20,21,21,23,23,24,24,25,25,26,26,27,27,28,28,29,29,30,30,31,31,32,32,33,33,34,34,35,35,36,36,37,37,45,45,47,47,49,49,50,50,52,52,57,57,58,58,61,61,62,62,63,63,64,64,71,71,73,73,74,74],"right_children":[2,4,6,8,10,12,14,16,18,20,22,-1,24,26,-1,28,30,32,34,36,38,40,-1,42,44,46,48,50,52,54,56,58,60,62,64,66,68,70,-1,-1,-1,-1,-1,-1,-1,72,-1,74,-1,76,78,-1,80,-1,-1,-1,-1,82,84,-1,-1,86,88,90,92,-1,-1,-1,-1,-1,-1,94,-1,96,98,-1,-1,-1,-1,-1,-1,-1,-1,-1,-1,-1,-1,-1,-1,-1,-1,-1,-1,-1,-1,-1,-1,-1,-1],"split_conditions":[4.8857015E-2,4.9782623E-2,1.09E4,-4.6791944E-1,8.83004E0,-4.40367E0,2.1402972E0,2.2349026E-2,2.186589E-3,-6.2695923E-3,4.9954586E-2,-4.91091E-2,9.924038E0,1.1470232E0,-1.5196656E-2,4.46E5,-1.8610066E0,1.176E1,8.0418307E-1,-6.940874E0,5.6285176E0,8.306822E1,-2.4639312E-2,2.3028E1,-1.6775979E-2,9E0,3.99E0,2.4392E5,2.3686724E1,1.617644E5,1.3805994E0,7.4885967E-3,5.338003E0,4.3413174E1,-2.9082773E-2,2.115E5,3.9E0,1.4485723E0,2.234083E-2,7.465703E-2,9.942556E-4,6.2070467E-2,1.9392057E-3,-5.3251304E-2,8.203651E-3,4.996035E-2,-1.1098708E-2,2.9846659E0,6.449353E-2,-9.122402E0,2.6562624E0,-3.0866474E-2,2.4590164E-2,-2.837118E-2,3.746392E-2,-7.297461E-2,-5.8045755E-3,3.409E5,1.0982531E0,7.2718404E-2,4.9962713E-3,-3.6935547E-1,1.20263435E-2,7.305712E-1,1.9E3,2.504359E-2,-6.2227506E-2,8.015905E-2,9.831229E-3,1.2515331E-2,-6.694064E-2,4.9285963E-2,4.735038E-3,1E0,-1.6430853E-2,2.4472076E-2,-5.767733E-3,3.3355325E-2,-4.22437E-2,7.6808415E-2,2.7341044E-3,-4.9050185E-3,-5.780631E-2,1.4997353E-2,-3.2688353E-2,-6.1535537E-2,3.178833E-2,8.3490185E-2,-5.35271E-3,-6.8861715E-2,5.4952544E-3,-3.2541793E-2,4.6519707E-3,1.0210854E-2,6.564724E-2,3.5531048E-2,-3.1583976E-2,-1.4379307E-2,-5.6932904E-2],"split_indices":[14,41,46,9,28,64,9,35,14,35,44,0,28,8,0,37,9,18,53,64,19,6,0,2,8,18,18,23,6,23,25,44,49,6,44,40,18,53,0,0,0,0,0,0,0,38,0,49,0,64,19,0,47,0,0,0,0,23,19,0,0,26,41,25,46,0,0,0,0,0,0,14,0,26,47,0,0,0,0,0,0,0,0,0,0,0,0,0,0,0,0,0,0,0,0,0,0,0,0],"split_type":[0,0,0,0,0,0,0,0,0,0,0,0,0,0,0,0,0,0,0,0,0,0,0,0,0,0,0,0,0,0,0,0,0,0,0,0,0,0,0,0,0,0,0,0,0,0,0,0,0,0,0,0,0,0,0,0,0,0,0,0,0,0,0,0,0,0,0,0,0,0,0,0,0,0,0,0,0,0,0,0,0,0,0,0,0,0,0,0,0,0,0,0,0,0,0,0,0,0,0],"sum_hessian":[5.2651935E2,4.8261432E2,4.3905E1,4.5284717E2,2.9767157E1,8.8327675E0,3.507223E1,9.615579E1,3.5669138E2,1.7839996E1,1.192716E1,2.438347E0,6.394421E0,3.3079765E1,1.9924651E0,8.848284E1,7.6729507E0,2.1611316E2,1.405782E2,1.0186039E1,7.653957E0,1.0196243E1,1.7309171E0,3.9325814E0,2.4618394E0,2.1532925E1,1.1546842E1,7.827404E1,1.0208801E1,2.4796934E0,5.193257E0,2.1238528E2,3.727879E0,1.1686791E1,1.2889142E2,4.2078958E0,5.9781437E0,6.168926E0,1.4850312E0,8.211492E0,1.9847518E0,2.4405077E0,1.4920738E0,1.2438574E0,1.2179819E0,2.0295004E1,1.2379209E0,7.124559E0,4.4222827E0,6.5604324E1,1.2669714E1,1.9930984E0,8.215703E0,1.2384701E0,1.2412235E0,3.9578428E0,1.2354143E0,1.3083192E2,8.155337E1,2.2415738E0,1.486305E0,3.7191129E0,7.967679E0,9.152453E0,1.1973896E2,2.2270203E0,1.9808753E0,3.742259E0,2.2358844E0,1.242204E0,4.9267216E0,1.8572357E1,1.722646E0,4.648671E0,2.4758875E0,3.9008606E1,2.6595722E1,3.2308877E0,9.438826E0,6.7323904E0,1.4833124E0,1.2316675E2,7.6651697E0,8.358556E0,7.319481E1,1.9826889E0,1.7364239E0,6.735527E0,1.2321521E0,5.191925E0,3.9605289E0,1.0812696E1,1.0892626E2,1.2435545E0,1.7328802E1,3.4140363E0,1.2346351E0,1.2399696E0,1.235918E0],"tree_param":{"num_deleted":"0","num_feature":"66","num_nodes":"99","size_leaf_vector":"1"}},{"base_weights":[9.714499E-3,-4.919317E-2,5.9899783E-1,-4.571363E-1,-9.451593E-3,-4.8133392E-2,6.604956E-1,6.282684E-2,-5.618392E-1,-1.3133669E-1,1.3619609E-1,8.631717E-1,2.4621233E-1,3.26621E-2,-8.2634306E-1,1.0069919E0,-1.6381551E-1,3.0755383E-1,-2.4050066E-1,1.3089188E0,3.9856315E-1,-5.5306472E-2,5.6122214E-1,6.595633E-1,-6.32106E-1,2.5373561E-2,-9.193883E-1,7.186257E-2,-7.230829E-3,-2.1117906E-1,4.3524042E-1,1.1537256E-1,6.484141E-1,-3.5297865E-1,1.0614598E0,7.276036E-2,4.495585E-3,-4.5209993E-2,6.134733E-1,-2.5151587E-1,1.0524626E0,1.3004434E0,-2.9639784E-2,-6.0293972E-2,-1.50357E-2,-1.7562409E-1,-1.2144325E0,6.455504E-2,-2.2950651E-1,-7.63947E-1,7.0875645E-1,3.8239056E-1,-2.7964276E-1,1.646312E-1,1.0124079E0,6.556236E-2,-4.3495095E-1,7.092609E-2,1.0980788E-2,1.004481E0,-1.3739217E-2,5.5048425E-2,-1.0163587E0,1.3149728E0,-1.7399346E-2,2.3503527E-2,7.513404E-2,3.8382076E-2,-2.7920831E-2,-4.343069E-2,2.1056866E-2,-6.4663246E-2,-1.7780978E-3,-6.910687E-2,-1.0269496E-2,-4.3608453E-3,-5.316611E-2,-6.997626E-3,5.0422378E-2,3.6758006E-2,-4.3084016E-3,-3.223569E-3,-4.5520958E-2,-1.3508524E-2,4.2211544E-2,-5.1511426E-2,5.7302058E-2,-1.521812E-4,-3.833425E-2,-1.0688894E-2,6.0998138E-2,5.5087388E-2,-2.7224122E-2,-6.3941225E-2,-9.182358E-3,7.0750886E-3,7.553325E-2],"categories":[],"categories_nodes":[],"categories_segments":[],"categories_sizes":[],"default_left":[0,0,0,0,0,0,0,0,0,0,0,0,0,0,0,0,0,0,0,0,0,0,0,0,0,0,0,0,0,0,0,0,0,0,0,0,0,0,0,0,0,0,0,0,0,0,0,0,0,0,0,0,0,0,0,0,0,0,0,0,0,0,0,0,0,0,0,0,0,0,0,0,0,0,0,0,0,0,0,0,0,0,0,0,0,0,0,0,0,0,0,0,0,0,0,0,0],"id":9,"left_children":[1,3,5,7,9,-1,11,-1,13,15,17,19,21,23,25,27,29,31,33,35,37,-1,39,41,43,-1,45,-1,-1,47,49,51,53,55,57,-1,-1,-1,59,61,63,65,-1,-1,67,69,71,-1,73,75,77,79,81,83,85,-1,87,-1,-1,89,91,-1,93,95,-1,-1,-1,-1,-1,-1,-1,-1,-1,-1,-1,-1,-1,-1,-1,-1,-1,-1,-1,-1,-1,-1,-1,-1,-1,-1,-1,-1,-1,-1,-1,-1,-1],"loss_changes":[1.8196507E1,7.724207E0,5.2109013E0,8.295156E0,7.747421E0,0E0,3.685629E0,0E0,6.4037704E0,8.947605E0,1.2910323E1,5.8518467E0,7.7138305E0,6.0216293E0,3.954361E0,3.5423613E0,6.669484E0,8.9076185E0,9.562093E0,2.591978E0,5.176205E0,0E0,5.9212813E0,6.718989E0,2.4736996E0,0E0,5.6297493E0,0E0,0E0,6.2299175E0,6.2198668E0,9.483842E0,8.500853E0,8.550802E0,1.2631245E0,0E0,0E0,0E0,3.6348586E0,7.475133E0,3.774907E0,1.694622E-1,0E0,0E0,2.3014946E0,3.9767544E0,1.7099838E0,0E0,5.658147E0,6.5617466E-1,3.858675E0,8.90104E0,4.886301E0,6.825603E0,8.79468E0,0E0,8.0934515E0,0E0,0E0,2.651927E0,4.5407505E0,0E0,7.3662376E-1,1.5793285E0,0E0,0E0,0E0,0E0,0E0,0E0,0E0,0E0,0E0,0E0,0E0,0E0,0E0,0E0,0E0,0E0,0E0,0E0,0E0,0E0,0E0,0E0,0E0,0E0,0E0,0E0,0E0,0E0,0E0,0E0,0E0,0E0,0E0],"parents":[2147483647,0,0,1,1,2,2,3,3,4,4,6,6,8,8,9,9,10,10,11,11,12,12,13,13,14,14,15,15,16,16,17,17,18,18,19,19,20,20,22,22,23,23,24,24,26,26,29,29,30,30,31,31,32,32,33,33,34,34,38,38,39,39,40,40,41,41,44,44,45,45,46,46,48,48,49,49,50,50,51,51,52,52,53,53,54,54,56,56,59,59,60,60,62,62,63,63],"right_children":[2,4,6,8,10,-1,12,-1,14,16,18,20,22,24,26,28,30,32,34,36,38,-1,40,42,44,-1,46,-1,-1,48,50,52,54,56,58,-1,-1,-1,60,62,64,66,-1,-1,68,70,72,-1,74,76,78,80,82,84,86,-1,88,-1,-1,90,92,-1,94,96,-1,-1,-1,-1,-1,-1,-1,-1,-1,-1,-1,-1,-1,-1,-1,-1,-1,-1,-1,-1,-1,-1,-1,-1,-1,-1,-1,-1,-1,-1,-1,-1,-1],"split_conditions":[4.5987997E-2,2.103E3,5.71E2,-4.2799823E-2,-2.9799914E-1,-4.8133392E-2,4.7090354E0,6.282684E-2,4.811442E-1,1.187E1,7.4885967E-3,4.6153846E-1,4.829045E0,2.231E1,-4.840064E-2,2.7E-1,6.085E5,9.23643E-2,3.8888888E0,4.997284E-2,1.0202297E0,-5.5306472E-2,3.5100034E-4,6.0517764E-1,2.2872E1,2.5373561E-2,5E2,7.186257E-2,-7.230829E-3,4E2,3.00275E5,1.3E-1,3.3442877E-2,-1.295E1,1.904481E-2,7.276036E-2,4.495585E-3,-4.5209993E-2,1.121E5,-2.8145027E-1,4.9285963E-2,1.313E3,-2.9639784E-2,-6.0293972E-2,2.253E1,-1.8769345E-1,6.5106384E1,6.455504E-2,-4.996259E-2,-3.8510686E-1,1.1470232E0,1.3832384E0,1.5972697E0,2.8994512E-3,2.7691511E1,6.556236E-2,5.193E1,7.092609E-2,1.0980788E-2,6.5E3,2.4590163E0,5.5048425E-2,1.2550491E-2,1.3E0,-1.7399346E-2,2.3503527E-2,7.513404E-2,3.8382076E-2,-2.7920831E-2,-4.343069E-2,2.1056866E-2,-6.4663246E-2,-1.7780978E-3,-6.910687E-2,-1.0269496E-2,-4.3608453E-3,-5.316611E-2,-6.997626E-3,5.0422378E-2,3.6758006E-2,-4.3084016E-3,-3.223569E-3,-4.5520958E-2,-1.3508524E-2,4.2211544E-2,-5.1511426E-2,5.7302058E-2,-1.521812E-4,-3.833425E-2,-1.0688894E-2,6.0998138E-2,5.5087388E-2,-2.7224122E-2,-6.3941225E-2,-9.182358E-3,7.0750886E-3,7.553325E-2],"split_indices":[14,34,46,44,21,0,19,0,61,57,44,26,19,36,47,31,43,9,26,38,19,0,35,30,1,0,34,0,0,46,24,31,26,31,44,0,0,0,40,8,38,46,0,0,62,8,6,0,35,7,8,53,26,47,6,0,33,0,0,46,21,0,41,18,0,0,0,0,0,0,0,0,0,0,0,0,0,0,0,0,0,0,0,0,0,0,0,0,0,0,0,0,0,0,0,0,0],"split_type":[0,0,0,0,0,0,0,0,0,0,0,0,0,0,0,0,0,0,0,0,0,0,0,0,0,0,0,0,0,0,0,0,0,0,0,0,0,0,0,0,0,0,0,0,0,0,0,0,0,0,0,0,0,0,0,0,0,0,0,0,0,0,0,0,0,0,0,0,0,0,0,0,0,0,0,0,0,0,0,0,0,0,0,0,0,0,0,0,0,0,0,0,0,0,0,0,0],"sum_hessian":[5.223451E2,4.7570755E2,4.6637558E1,4.1296864E1,4.344107E2,1.2117923E0,4.5425762E1,1.7444516E0,3.955241E1,2.3655128E2,1.978594E2,2.9775454E1,1.565031E1,1.2448824E1,2.7103586E1,5.7297173E0,2.3082156E2,1.3612175E2,6.173765E1,1.4268731E1,1.5506722E1,2.4823086E0,1.3168001E1,6.410918E0,6.037906E0,1.476974E0,2.5626612E1,3.9906917E0,1.7390254E0,2.1450917E2,1.6312399E1,8.790071E1,4.8221043E1,5.749912E1,4.238534E0,1.2566867E1,1.7018648E0,1.7416544E0,1.3765068E1,5.1445475E0,8.023454E0,4.215361E0,2.195557E0,2.6342695E0,3.4036365E0,7.731601E0,1.7895012E1,1.7484003E0,2.1276077E2,2.6965866E0,1.3615813E1,5.2466778E1,3.5433937E1,2.1327297E1,2.6893747E1,1.9952259E0,5.550389E1,2.4951966E0,1.7433373E0,8.108614E0,5.6564546E0,1.6996168E0,3.4449308E0,6.8082933E0,1.2151601E0,1.4766572E0,2.7387037E0,1.2255952E0,2.1780412E0,3.3665943E0,4.365007E0,1.6682404E1,1.2126077E0,3.206334E0,2.0955444E2,1.223109E0,1.4734775E0,3.6923337E0,9.923479E0,2.9607117E1,2.2859661E1,2.7242981E1,8.190956E0,1.3373505E1,7.9537916E0,1.2394167E0,2.5654331E1,2.4549887E1,3.0954006E1,1.2198595E0,6.8887544E0,1.4767803E0,4.179674E0,2.2119896E0,1.2329412E0,1.2193751E0,5.588918E0],"tree_param":{"num_deleted":"0","num_feature":"66","num_nodes":"97","size_leaf_vector":"1"}},{"base_weights":[-4.1730283E-3,-5.5585977E-2,5.609287E-1,-4.4453937E-1,-1.1948737E-2,6.3104814E-1,-5.082673E-2,-1.7094257E-1,-1.1409061E0,2.9212825E-2,-3.294404E-1,-1.9397777E-1,7.868295E-1,8.0235645E-2,-7.416742E-1,-1.3170664E0,3.2663194E-3,-7.10607E-3,5.217828E-1,-5.754103E-1,8.5447955E-1,-5.5578496E-2,3.1803662E-1,-3.1838622E-2,8.5536164E-1,1.1573988E0,-1.3909335E-1,-1.101855E0,1.982552E-1,-1.1846996E-2,-7.225393E-2,1.9825827E-1,-9.6095465E-2,6.743766E-1,-4.5041926E-2,-6.8424404E-1,5.3143848E-2,-1.3277399E-2,1.2125548E0,8.659513E-1,-2.9563112E-2,1.0168535E0,1.4608616E-1,1.4924051E-2,6.957109E-2,-3.4793466E-1,7.783144E-1,-3.8395926E-1,-6.699296E-2,-3.0421635E-2,4.5656245E-2,-2.1466567E-1,4.02986E-1,-1.7714837E-1,2.9399887E-1,-2.080823E-1,1.0202222E0,5.746866E-2,-7.7361906E-1,6.98651E-2,9.941239E-3,7.1894205E-3,5.6509443E-2,4.6802434E-1,1.1595849E0,5.0195713E-2,-2.1885535E-1,-3.473216E-2,2.9247964E-2,7.117009E-2,-2.5935894E-2,1.7286643E-2,-4.708683E-2,8.545286E-3,-2.7144117E-2,2.0762763E-3,3.911969E-2,-3.638059E-2,-5.238164E-3,2.2740575E-2,-3.0957833E-2,2.1958016E-2,-6.2220216E-2,-8.803849E-3,5.607692E-2,3.3859447E-2,-4.3009296E-2,4.846793E-2,-2.0462824E-2,1.3891289E-2,6.05005E-2,-6.4019084E-2,2.9989883E-2],"categories":[],"categories_nodes":[],"categories_segments":[],"categories_sizes":[],"default_left":[0,0,0,0,0,0,0,0,0,0,0,0,0,0,0,0,0,0,0,0,0,0,0,0,0,0,0,0,0,0,0,0,0,0,0,0,0,0,0,0,0,0,0,0,0,0,0,0,0,0,0,0,0,0,0,0,0,0,0,0,0,0,0,0,0,0,0,0,0,0,0,0,0,0,0,0,0,0,0,0,0,0,0,0,0,0,0,0,0,0,0,0,0],"id":10,"left_children":[1,3,5,7,9,11,-1,13,15,17,19,21,23,25,27,29,-1,31,33,35,37,-1,39,-1,41,43,45,47,49,-1,-1,51,53,55,-1,57,-1,-1,59,61,-1,63,65,-1,-1,67,69,71,-1,-1,-1,73,75,77,79,81,83,-1,85,-1,-1,-1,-1,87,89,-1,91,-1,-1,-1,-1,-1,-1,-1,-1,-1,-1,-1,-1,-1,-1,-1,-1,-1,-1,-1,-1,-1,-1,-1,-1,-1,-1],"loss_changes":[1.5184273E1,8.124228E0,5.462384E0,9.005057E0,5.651075E0,5.5951443E0,0E0,5.197935E0,2.942852E0,6.8564987E0,1.4942798E1,3.890374E0,4.039198E0,6.2545033E0,3.9599252E0,1.2861996E0,0E0,6.5568724E0,6.32075E0,8.159878E0,3.9069557E0,0E0,3.3067298E0,0E0,3.8146114E0,4.8330688E-1,4.5474806E0,8.767767E-1,2.8099449E0,0E0,0E0,9.2570305E0,7.9649477E0,7.640918E0,0E0,7.3947697E0,0E0,0E0,1.024373E0,5.8285093E-1,0E0,1.6518707E0,2.5941422E0,0E0,0E0,6.5108757E0,4.460039E0,1.721214E0,0E0,0E0,0E0,4.725712E0,9.961001E0,8.204949E0,6.6590753E0,5.7005653E0,2.3375359E0,0E0,5.4115257E0,0E0,0E0,0E0,0E0,3.6772046E0,6.2228584E-1,0E0,6.105498E0,0E0,0E0,0E0,0E0,0E0,0E0,0E0,0E0,0E0,0E0,0E0,0E0,0E0,0E0,0E0,0E0,0E0,0E0,0E0,0E0,0E0,0E0,0E0,0E0,0E0,0E0],"parents":[2147483647,0,0,1,1,2,2,3,3,4,4,5,5,7,7,8,8,9,9,10,10,11,11,12,12,13,13,14,14,15,15,17,17,18,18,19,19,20,20,22,22,24,24,25,25,26,26,27,27,28,28,31,31,32,32,33,33,35,35,38,38,39,39,41,41,42,42,45,45,46,46,47,47,51,51,52,52,53,53,54,54,55,55,56,56,58,58,63,63,64,64,66,66],"right_children":[2,4,6,8,10,12,-1,14,16,18,20,22,24,26,28,30,-1,32,34,36,38,-1,40,-1,42,44,46,48,50,-1,-1,52,54,56,-1,58,-1,-1,60,62,-1,64,66,-1,-1,68,70,72,-1,-1,-1,74,76,78,80,82,84,-1,86,-1,-1,-1,-1,88,90,-1,92,-1,-1,-1,-1,-1,-1,-1,-1,-1,-1,-1,-1,-1,-1,-1,-1,-1,-1,-1,-1,-1,-1,-1,-1,-1,-1],"split_conditions":[4.9285963E-2,2.501E3,2.22252E0,2.4805807E1,1.0634525E0,5.5E3,-5.082673E-2,3.302853E-1,1.4168531E-2,-1.29449835E1,4.9824737E-2,5.0617283E1,-7.377049E0,-4.3666887E0,1.8E-1,-7.0101967E0,3.2663194E-3,2.35E4,2.3672758E1,8.7976875E1,6.146481E0,-5.5578496E-2,9.87234E0,-3.1838622E-2,1.041E1,-2.5771096E-2,1.3326783E-1,2E-2,1.124671E-2,-1.1846996E-2,-7.225393E-2,5.826E3,3.6153243E0,1.92E0,-4.5041926E-2,1.1052632E-2,5.3143848E-2,-1.3277399E-2,1.2950257E1,7.9E-1,-2.9563112E-2,-1.5608632E-2,8.34E4,1.4924051E-2,6.957109E-2,1.6455382E-1,7.945654E-3,-4.817553E0,-6.699296E-2,-3.0421635E-2,4.5656245E-2,-4.333606E0,3.7430316E-1,-9.4067795E1,3.8961038E-2,3.0701755E-2,4.1376104E0,5.746866E-2,-5.2233677E0,6.98651E-2,9.941239E-3,7.1894205E-3,5.6509443E-2,-2.53418E-2,3.5E-1,5.0195713E-2,2.829E5,-3.473216E-2,2.9247964E-2,7.117009E-2,-2.5935894E-2,1.7286643E-2,-4.708683E-2,8.545286E-3,-2.7144117E-2,2.0762763E-3,3.911969E-2,-3.638059E-2,-5.238164E-3,2.2740575E-2,-3.0957833E-2,2.1958016E-2,-6.2220216E-2,-8.803849E-3,5.607692E-2,3.3859447E-2,-4.3009296E-2,4.846793E-2,-2.0462824E-2,1.3891289E-2,6.05005E-2,-6.4019084E-2,2.9989883E-2],"split_indices":[14,34,9,10,9,46,0,27,14,13,41,6,28,29,31,52,0,37,29,6,28,0,29,0,31,27,9,18,41,0,0,43,49,31,0,22,0,0,53,18,0,44,23,0,0,27,38,58,0,0,0,58,25,13,41,35,28,0,52,0,0,0,0,44,18,0,23,0,0,0,0,0,0,0,0,0,0,0,0,0,0,0,0,0,0,0,0,0,0,0,0,0,0],"split_type":[0,0,0,0,0,0,0,0,0,0,0,0,0,0,0,0,0,0,0,0,0,0,0,0,0,0,0,0,0,0,0,0,0,0,0,0,0,0,0,0,0,0,0,0,0,0,0,0,0,0,0,0,0,0,0,0,0,0,0,0,0,0,0,0,0,0,0,0,0,0,0,0,0,0,0,0,0,0,0,0,0,0,0,0,0,0,0,0,0,0,0,0,0],"sum_hessian":[5.205575E2,4.779731E2,4.2584354E1,4.7288414E1,4.3068472E2,4.134643E1,1.2379199E0,3.484398E1,1.2444435E1,3.820601E2,4.8624622E1,6.5280986E0,3.4818336E1,2.4792324E1,1.0051653E1,1.0778448E1,1.6659874E0,3.5674185E2,2.531824E1,4.068577E1,7.9388523E0,1.9186573E0,4.6094413E0,1.2183462E0,3.3599987E1,3.4706001E0,2.1321724E1,7.142409E0,2.9092443E0,1.4441421E0,9.334306E0,1.0747944E2,2.4926242E2,2.334063E1,1.9776099E0,3.8697388E1,1.9883802E0,1.9858114E0,5.9530406E0,2.9060307E0,1.7034106E0,2.7015333E1,6.584656E0,1.2303542E0,2.240246E0,1.7873655E1,3.4480681E0,2.4290051E0,4.7134037E0,1.4367958E0,1.4724486E0,3.5609203E1,7.187023E1,2.0683301E2,4.2429405E1,6.684024E0,1.6656605E1,1.2473179E0,3.745007E1,4.71532E0,1.2377207E0,1.1921206E0,1.71391E0,6.458859E0,2.0556475E1,1.4426607E0,5.1419954E0,1.3216977E1,4.656679E0,2.2377026E0,1.2103657E0,1.2170297E0,1.2119755E0,1.6594345E1,1.9014858E1,3.7373795E1,3.4496437E1,2.2985361E1,1.8384766E2,3.6502934E1,5.92647E0,4.4690666E0,2.214957E0,1.242913E0,1.5413692E1,1.7245712E0,3.57255E1,4.0433E0,2.4155583E0,1.4641016E0,1.9092373E1,1.9933105E0,3.1486847E0],"tree_param":{"num_deleted":"0","num_feature":"66","num_nodes":"93","size_leaf_vector":"1"}},{"base_weights":[1.3869714E-2,-4.2797204E-2,6.2492615E-1,-5.4510677E-1,2.8163402E-3,-3.6903298E-1,7.166205E-1,1.8110165E-1,-7.71311E-1,-1.6520873E-1,1.2565304E-1,2.8645271E-2,-4.556508E-2,-2.5848663E-1,7.977734E-1,6.9064575E-1,-4.6704623E-1,-9.2613983E-1,4.2017797E-1,9.305176E-2,-2.9719988E-1,3.519631E-1,-5.3091682E-3,2.5481565E-2,-3.956646E-2,9.677597E-1,1.5029137E-1,6.287613E-2,-1.2057087E-2,-5.0840426E-2,3.4963865E-2,1.596648E-2,-1.0211118E0,4.8746176E-2,-2.6046043E-2,-4.7139928E-2,1.0128734E0,-3.946402E-1,2.837447E-1,2.1908348E-2,6.3216984E-1,-4.626649E-1,1.7069721E-1,-3.234429E-3,1.0419532E0,6.9292E-1,-4.9870852E-1,4.793029E-4,-1.1182177E0,6.0565454E-1,-3.536838E-1,-2.81789E-2,1.3589787E0,-1.2738428E0,-3.2538956E-1,-1.3560666E-2,7.239191E-2,-4.7086352E-1,4.4724977E-1,7.4564314E-1,-1.2517801E-1,-5.8750784E-1,8.8689995E-1,5.009973E-1,-6.474262E-2,7.275986E-2,7.721794E-1,5.985887E-2,-5.916955E-3,-5.0679415E-2,1.8774627E-2,-6.202788E-2,-5.1634684E-3,-1.3348251E-2,6.456657E-2,-2.9891152E-2,1.6332377E-2,1.9712714E-2,8.250316E-2,-7.3314674E-2,-2.0284543E-2,2.7627854E-2,-1.8870797E-2,-1.5408645E-2,5.015626E-2,1.8343525E-2,-6.150539E-2,9.65058E-3,6.360664E-2,4.0680714E-2,-3.5898503E-2,4.832488E-2,-3.1414118E-2,9.2473775E-3,-4.6272688E-2,6.7880504E-2,-6.9145053E-3,-5.7053793E-2,2.9643998E-2,-6.4753905E-2,-1.0369658E-5,-2.6328268E-3,5.6068726E-2],"categories":[],"categories_nodes":[],"categories_segments":[],"categories_sizes":[],"default_left":[0,0,0,0,0,0,0,0,0,0,0,0,0,0,0,0,0,0,0,0,0,0,0,0,0,0,0,0,0,0,0,0,0,0,0,0,0,0,0,0,0,0,0,0,0,0,0,0,0,0,0,0,0,0,0,0,0,0,0,0,0,0,0,0,0,0,0,0,0,0,0,0,0,0,0,0,0,0,0,0,0,0,0,0,0,0,0,0,0,0,0,0,0,0,0,0,0,0,0,0,0,0,0],"id":11,"left_children":[1,3,5,7,9,11,13,15,17,19,21,-1,-1,23,25,27,29,31,33,35,37,39,41,-1,-1,43,45,-1,-1,-1,-1,-1,47,-1,-1,49,51,53,55,57,59,61,63,-1,65,67,69,-1,71,73,75,-1,77,79,81,83,-1,85,87,89,91,93,95,97,99,-1,101,-1,-1,-1,-1,-1,-1,-1,-1,-1,-1,-1,-1,-1,-1,-1,-1,-1,-1,-1,-1,-1,-1,-1,-1,-1,-1,-1,-1,-1,-1,-1,-1,-1,-1,-1,-1],"loss_changes":[1.8063162E1,1.0944656E1,4.2991695E0,6.67202E0,9.078411E0,2.7690573E0,3.440382E0,3.7091842E0,6.017729E0,6.3600616E0,7.5323486E0,0E0,0E0,1.9975986E0,4.034174E0,3.5488112E0,3.9875193E0,3.55694E0,2.698847E0,8.247948E0,7.08457E0,8.601113E0,1.3113949E1,0E0,0E0,2.357336E0,3.5433779E0,0E0,0E0,0E0,0E0,0E0,2.5746746E0,0E0,0E0,1.1447734E1,5.3789473E0,6.0332966E0,6.3441057E0,9.392399E0,4.419853E0,8.148079E0,9.182476E0,0E0,1.9921036E0,2.3359964E0,2.5034924E0,0E0,2.77993E0,1.1298106E1,6.644814E0,0E0,1.3785839E0,6.3969517E-1,4.7538614E0,4.9659233E0,0E0,1.3669569E1,4.7929306E0,4.954235E0,4.6805205E0,1.1144872E1,2.2297332E0,8.081729E0,5.52444E0,0E0,5.543165E0,0E0,0E0,0E0,0E0,0E0,0E0,0E0,0E0,0E0,0E0,0E0,0E0,0E0,0E0,0E0,0E0,0E0,0E0,0E0,0E0,0E0,0E0,0E0,0E0,0E0,0E0,0E0,0E0,0E0,0E0,0E0,0E0,0E0,0E0,0E0,0E0],"parents":[2147483647,0,0,1,1,2,2,3,3,4,4,5,5,6,6,7,7,8,8,9,9,10,10,13,13,14,14,15,15,16,16,17,17,18,18,19,19,20,20,21,21,22,22,25,25,26,26,32,32,35,35,36,36,37,37,38,38,39,39,40,40,41,41,42,42,44,44,45,45,46,46,48,48,49,49,50,50,52,52,53,53,54,54,55,55,57,57,58,58,59,59,60,60,61,61,62,62,63,63,64,64,66,66],"right_children":[2,4,6,8,10,12,14,16,18,20,22,-1,-1,24,26,28,30,32,34,36,38,40,42,-1,-1,44,46,-1,-1,-1,-1,-1,48,-1,-1,50,52,54,56,58,60,62,64,-1,66,68,70,-1,72,74,76,-1,78,80,82,84,-1,86,88,90,92,94,96,98,100,-1,102,-1,-1,-1,-1,-1,-1,-1,-1,-1,-1,-1,-1,-1,-1,-1,-1,-1,-1,-1,-1,-1,-1,-1,-1,-1,-1,-1,-1,-1,-1,-1,-1,-1,-1,-1,-1],"split_conditions":[4.7701012E-2,2.103E3,9.7E-1,2.0289791E1,-3.117011E-1,4.8815334E-1,1.41E4,2.2534E3,2.328072E0,2.1193457E-1,5.08476E1,2.8645271E-2,-4.556508E-2,-8.637934E-3,1.391E1,2.1254839E-1,1.65E3,-4.065146E-2,6.3186E-1,5.8842125E0,4.81E5,-3.7002775E-3,3.3660877E0,2.5481565E-2,-3.956646E-2,-2.3453775E1,4.6373484E-1,6.287613E-2,-1.2057087E-2,-5.0840426E-2,3.4963865E-2,1.596648E-2,-9.698113E1,4.8746176E-2,-2.6046043E-2,3.052545E4,2.1276596E1,-3.9754176E0,5.6285176E0,2.4225585E-1,5.733453E-1,3.85E5,-2.4390244E0,-3.234429E-3,-1.723943E0,2.9607698E1,2.715E5,4.793029E-4,2.8146477E-2,8.5826E3,7.94E4,-2.81789E-2,7.004731E0,1.1001763E0,2.420124E-1,6.930814E-1,7.239191E-2,-3.4829644E-3,3.959E1,6.514E1,-1.9875776E-2,9.2061394E-1,3.85E5,-5.118388E-2,9.5E3,7.275986E-2,7.8125E0,5.985887E-2,-5.916955E-3,-5.0679415E-2,1.8774627E-2,-6.202788E-2,-5.1634684E-3,-1.3348251E-2,6.456657E-2,-2.9891152E-2,1.6332377E-2,1.9712714E-2,8.250316E-2,-7.3314674E-2,-2.0284543E-2,2.7627854E-2,-1.8870797E-2,-1.5408645E-2,5.015626E-2,1.8343525E-2,-6.150539E-2,9.65058E-3,6.360664E-2,4.0680714E-2,-3.5898503E-2,4.832488E-2,-3.1414118E-2,9.2473775E-3,-4.6272688E-2,6.7880504E-2,-6.9145053E-3,-5.7053793E-2,2.9643998E-2,-6.4753905E-2,-1.0369658E-5,-2.6328268E-3,5.6068726E-2],"split_indices":[15,34,16,10,26,61,23,23,25,25,3,0,0,47,32,27,34,47,61,61,37,47,61,0,0,64,27,0,0,0,0,0,13,0,0,24,6,21,19,27,27,37,52,0,64,65,34,0,15,24,34,0,61,25,49,27,0,8,56,63,35,49,34,15,46,0,29,0,0,0,0,0,0,0,0,0,0,0,0,0,0,0,0,0,0,0,0,0,0,0,0,0,0,0,0,0,0,0,0,0,0,0,0],"split_type":[0,0,0,0,0,0,0,0,0,0,0,0,0,0,0,0,0,0,0,0,0,0,0,0,0,0,0,0,0,0,0,0,0,0,0,0,0,0,0,0,0,0,0,0,0,0,0,0,0,0,0,0,0,0,0,0,0,0,0,0,0,0,0,0,0,0,0,0,0,0,0,0,0,0,0,0,0,0,0,0,0,0,0,0,0,0,0,0,0,0,0,0,0,0,0,0,0,0,0,0,0,0,0],"sum_hessian":[5.1988196E2,4.766128E2,4.3269188E1,3.8765484E1,4.378473E2,3.399059E0,3.987013E1,9.254411E0,2.9511072E1,1.8476593E2,2.5308138E2,1.2212355E0,2.1778235E0,2.8953516E0,3.6974777E1,5.144485E0,4.109926E0,2.631434E1,3.1967306E0,6.2591427E1,1.2217451E2,9.215127E1,1.609301E2,1.203709E0,1.6916425E0,2.8894363E1,8.080415E0,2.9812093E0,2.1632757E0,2.8804028E0,1.2295232E0,1.6970296E0,2.4617311E1,1.9885858E0,1.2081449E0,5.5136696E1,7.4547334E0,1.04900505E2,1.7274002E1,4.2807095E1,4.9344173E1,4.426862E1,1.1666148E2,1.9457757E0,2.694859E1,4.364001E0,3.7164137E0,2.1971955E0,2.2420116E1,1.7306412E1,3.783028E1,1.2289109E0,6.2258224E0,6.3891783E0,9.851132E1,1.454708E1,2.7269216E0,1.978199E1,2.3025105E1,4.292777E1,6.4164047E0,4.103711E1,3.2315118E0,4.8080753E1,6.858073E1,8.908404E0,1.8040184E1,2.3978546E0,1.9661465E0,2.2385347E0,1.477879E0,1.9809977E1,2.6101398E0,7.8838124E0,9.4226E0,2.7929104E1,9.901178E0,1.9888204E0,4.237002E0,4.6658726E0,1.7233061E0,4.9728928E0,9.353843E1,1.181907E1,2.7280104E0,9.650561E0,1.0131429E1,1.854371E1,4.481393E0,4.144705E1,1.480721E0,1.7336109E0,4.682794E0,1.2627256E1,2.8409851E1,1.9924415E0,1.2390702E0,1.9427215E0,4.613803E1,2.4676828E0,6.6113045E1,5.618319E0,1.24218645E1],"tree_param":{"num_deleted":"0","num_feature":"66","num_nodes":"103","size_leaf_vector":"1"}},{"base_weights":[-9.484744E-3,-1.4418884E-1,1.779384E-1,4.7483107E-1,-1.7823105E-1,-2.4802871E-1,2.6180157E-1,7.702383E-2,6.1190695E-2,-1.1207172E0,-1.4014643E-1,-3.9743924E-1,8.0258447E-1,4.1353887E-1,3.005802E-2,-7.943336E-1,4.190481E-1,-1.216438E-3,-1.2493486E0,-3.4558833E-1,-3.0021809E-2,-9.650492E-2,-9.867565E-1,1.4630195E-3,5.2378703E-2,6.752355E-1,1.322569E-1,-1.314891E-1,6.308387E-1,-2.277653E-3,-5.4234963E-2,7.695974E-1,-4.3360814E-1,-4.5538894E-3,-1.4024855E0,5.0633585E-1,-4.133144E-1,-7.021324E-1,2.9704016E-2,-5.103981E-1,5.169633E-1,8.226828E-4,-1.1710962E0,3.183949E-1,1.0865508E0,-2.2044947E-2,8.646328E-1,-4.3351406E-1,2.3267044E-1,-3.4968127E-2,7.9113793E-1,7.227798E-2,1.658493E-1,-4.9519684E-2,1.6172858E-2,-2.3245003E-2,-7.44485E-2,9.0189916E-1,-4.4730373E-2,-9.7515695E-2,-6.925148E-1,2.9241025E-2,-9.159734E-1,2.0047769E-1,-1.8811375E-1,-9.2445827E-1,6.002646E-1,-4.136116E-2,9.1458434E-1,-7.321706E-2,-3.2645792E-1,5.599027E-1,-5.212757E-1,1.1732529E0,4.803692E-3,-1.5425822E-1,9.581702E-1,1.1264168E0,-1.0095101E-2,-1.2178213E-1,-1.2754459E0,4.1756332E-1,-9.6010995E-1,-1.913128E-2,1.0358095E0,-2.9729715E-2,3.2679453E-2,6.1992027E-2,-9.81097E-4,-4.094195E-2,7.5583085E-3,-4.0564522E-2,2.5993502E-2,-5.86142E-2,1.2031893E-2,1.33024445E-2,-3.1007541E-2,2.5903968E-2,-1.5606433E-2,-4.2999857E-3,-6.5437816E-2,-1.7610526E-2,6.545745E-2,6.1131895E-2,-5.859427E-3,1.9463481E-2,-4.832531E-2,8.50274E-3,6.4527646E-2,-4.926056E-2,4.173197E-2,2.8334264E-2,7.159396E-2,-4.9708847E-2,3.571532E-4,6.551828E-2,5.1711164E-3,4.9361964E-3,7.569557E-2,8.919726E-3,-5.7928246E-2,-5.693996E-3,-7.26534E-2,4.618779E-3,4.6068307E-2,-6.1374288E-2,-9.957591E-3,6.275641E-2,9.536679E-3],"categories":[],"categories_nodes":[],"categories_segments":[],"categories_sizes":[],"default_left":[0,0,0,0,0,0,0,0,0,0,0,0,0,0,0,0,0,0,0,0,0,0,0,0,0,0,0,0,0,0,0,0,0,0,0,0,0,0,0,0,0,0,0,0,0,0,0,0,0,0,0,0,0,0,0,0,0,0,0,0,0,0,0,0,0,0,0,0,0,0,0,0,0,0,0,0,0,0,0,0,0,0,0,0,0,0,0,0,0,0,0,0,0,0,0,0,0,0,0,0,0,0,0,0,0,0,0,0,0,0,0,0,0,0,0,0,0,0,0,0,0,0,0,0,0,0,0,0,0],"id":12,"left_children":[1,3,5,7,9,11,13,-1,15,17,19,21,23,25,27,29,31,-1,33,35,37,39,41,-1,-1,43,45,47,49,-1,-1,51,53,-1,55,57,59,61,63,65,67,-1,69,71,73,75,77,79,81,-1,83,-1,85,-1,-1,-1,-1,87,-1,89,91,-1,93,95,97,99,101,-1,103,-1,105,107,109,111,-1,113,115,117,-1,119,121,123,125,-1,127,-1,-1,-1,-1,-1,-1,-1,-1,-1,-1,-1,-1,-1,-1,-1,-1,-1,-1,-1,-1,-1,-1,-1,-1,-1,-1,-1,-1,-1,-1,-1,-1,-1,-1,-1,-1,-1,-1,-1,-1,-1,-1,-1,-1],"loss_changes":[1.3193917E1,6.491299E0,7.8724966E0,7.011721E0,1.0212937E1,6.0429454E0,6.425913E0,0E0,4.2071085E0,1.5319223E0,6.297859E0,5.685085E0,8.9224243E-1,8.049679E0,7.218945E0,8.3711743E-1,3.1962504E0,0E0,1.6273489E0,5.8179464E0,7.3515925E0,6.0236077E0,2.0367346E0,0E0,0E0,8.0252495E0,6.1817327E0,6.5649443E0,3.912426E0,0E0,0E0,2.6770873E0,1.7661088E0,0E0,1.0791779E-2,5.022998E0,7.9207773E0,4.648386E0,6.311979E0,7.0156097E0,5.9065647E0,0E0,1.8080206E0,6.7717505E0,2.1269855E0,6.111704E0,2.8840108E0,8.3682785E0,6.4206805E0,0E0,4.568719E0,0E0,2.2078166E0,0E0,0E0,0E0,0E0,2.0270486E0,0E0,7.958658E0,7.3227005E0,0E0,4.196615E0,5.2785864E0,6.6988196E0,3.31172E0,3.4464092E0,0E0,2.6576867E0,0E0,2.055395E0,6.986633E0,5.638111E0,2.9366302E0,0E0,5.6208873E0,1.5527105E0,2.9534063E0,0E0,7.926863E0,1.6232815E0,3.900823E0,5.6255484E-1,0E0,2.0388489E0,0E0,0E0,0E0,0E0,0E0,0E0,0E0,0E0,0E0,0E0,0E0,0E0,0E0,0E0,0E0,0E0,0E0,0E0,0E0,0E0,0E0,0E0,0E0,0E0,0E0,0E0,0E0,0E0,0E0,0E0,0E0,0E0,0E0,0E0,0E0,0E0,0E0,0E0,0E0,0E0,0E0,0E0,0E0,0E0],"parents":[2147483647,0,0,1,1,2,2,3,3,4,4,5,5,6,6,8,8,9,9,10,10,11,11,12,12,13,13,14,14,15,15,16,16,18,18,19,19,20,20,21,21,22,22,25,25,26,26,27,27,28,28,31,31,32,32,34,34,35,35,36,36,37,37,38,38,39,39,40,40,42,42,43,43,44,44,45,45,46,46,47,47,48,48,50,50,52,52,57,57,59,59,60,60,62,62,63,63,64,64,65,65,66,66,68,68,70,70,71,71,72,72,73,73,75,75,76,76,77,77,79,79,80,80,81,81,82,82,84,84],"right_children":[2,4,6,8,10,12,14,-1,16,18,20,22,24,26,28,30,32,-1,34,36,38,40,42,-1,-1,44,46,48,50,-1,-1,52,54,-1,56,58,60,62,64,66,68,-1,70,72,74,76,78,80,82,-1,84,-1,86,-1,-1,-1,-1,88,-1,90,92,-1,94,96,98,100,102,-1,104,-1,106,108,110,112,-1,114,116,118,-1,120,122,124,126,-1,128,-1,-1,-1,-1,-1,-1,-1,-1,-1,-1,-1,-1,-1,-1,-1,-1,-1,-1,-1,-1,-1,-1,-1,-1,-1,-1,-1,-1,-1,-1,-1,-1,-1,-1,-1,-1,-1,-1,-1,-1,-1,-1,-1,-1],"split_conditions":[9.56023E-2,4.5275065E-1,6E3,-2.946056E0,1.846077E-1,-1.5754924E0,1.1651658E2,7.702383E-2,-7.7553856E1,-1.2586251E-2,1.8300426E-1,5.1512966E0,-1.7248295E-2,1.21085E5,5.66E0,-1.2763064E-1,3.3590657E-1,-1.216438E-3,-2.6765475E-1,4.7024E3,4.502E3,2.2883015E0,4.4666472E-1,1.4630195E-3,5.2378703E-2,4.86156E4,5.9352517E-2,5.2978645E1,1.5146E2,-2.277653E-3,-5.4234963E-2,4.558902E1,7.4286276E-1,-4.5538894E-3,5.079826E-1,2.162768E1,-6.343125E0,-2.7589327E-2,5.2084297E-1,2.45192E1,6.576267E-3,8.226828E-4,2.502428E0,2.09E4,3.04E0,9.119686E1,8.587E1,1.38543565E-2,7.54491E0,-3.4968127E-2,3.82358E4,7.227798E-2,4.401376E0,-4.9519684E-2,1.6172858E-2,-2.3245003E-2,-7.44485E-2,8.721247E-4,-4.4730373E-2,-9.298946E0,7.740005E0,2.9241025E-2,1.1317242E0,4.1025643E0,5.993E4,1.8072E1,-4.4649807E-1,-4.136116E-2,6.6079297E0,-7.321706E-2,1.3716185E1,8.641E3,4.66E4,3.81E4,4.803692E-3,-3.108749E-2,7.032193E1,8.45E4,-1.0095101E-2,5.990266E-3,-3.9993193E0,6.928856E-1,1.6951E2,-1.913128E-2,8.895009E-3,-2.9729715E-2,3.2679453E-2,6.1992027E-2,-9.81097E-4,-4.094195E-2,7.5583085E-3,-4.0564522E-2,2.5993502E-2,-5.86142E-2,1.2031893E-2,1.33024445E-2,-3.1007541E-2,2.5903968E-2,-1.5606433E-2,-4.2999857E-3,-6.5437816E-2,-1.7610526E-2,6.545745E-2,6.1131895E-2,-5.859427E-3,1.9463481E-2,-4.832531E-2,8.50274E-3,6.4527646E-2,-4.926056E-2,4.173197E-2,2.8334264E-2,7.159396E-2,-4.9708847E-2,3.571532E-4,6.551828E-2,5.1711164E-3,4.9361964E-3,7.569557E-2,8.919726E-3,-5.7928246E-2,-5.693996E-3,-7.26534E-2,4.618779E-3,4.6068307E-2,-6.1374288E-2,-9.957591E-3,6.275641E-2,9.536679E-3],"split_indices":[21,61,46,29,49,13,12,0,13,14,27,53,44,24,20,27,25,0,27,23,40,29,25,0,0,23,22,6,45,0,0,6,25,0,61,12,58,44,27,3,14,0,25,34,20,4,39,7,53,0,23,0,65,0,0,0,0,35,0,28,53,0,25,26,24,0,7,0,29,0,28,34,34,40,0,44,6,34,0,35,29,26,42,0,44,0,0,0,0,0,0,0,0,0,0,0,0,0,0,0,0,0,0,0,0,0,0,0,0,0,0,0,0,0,0,0,0,0,0,0,0,0,0,0,0,0,0,0,0],"split_type":[0,0,0,0,0,0,0,0,0,0,0,0,0,0,0,0,0,0,0,0,0,0,0,0,0,0,0,0,0,0,0,0,0,0,0,0,0,0,0,0,0,0,0,0,0,0,0,0,0,0,0,0,0,0,0,0,0,0,0,0,0,0,0,0,0,0,0,0,0,0,0,0,0,0,0,0,0,0,0,0,0,0,0,0,0,0,0,0,0,0,0,0,0,0,0,0,0,0,0,0,0,0,0,0,0,0,0,0,0,0,0,0,0,0,0,0,0,0,0,0,0,0,0,0,0,0,0,0,0],"sum_hessian":[5.2058417E2,3.0302548E2,2.175587E2,1.5120872E1,2.879046E2,3.5464737E1,1.8209396E2,3.4663804E0,1.1654491E1,1.0077907E1,2.778267E2,3.1593452E1,3.8712826E0,1.095682E2,7.2525764E1,3.0774899E0,8.577002E0,1.1830794E0,8.894827E0,9.620824E1,1.8161845E2,2.1684195E1,9.909258E0,1.2006848E0,2.6705978E0,5.6034634E1,5.353357E1,5.7772217E1,1.4753544E1,1.1831983E0,1.8942914E0,6.1471567E0,2.429845E0,1.2248979E0,7.6699295E0,6.6081614E0,8.960008E1,1.3944244E1,1.6767421E2,1.3048607E1,8.635589E0,1.6795554E0,8.229702E0,3.0954151E1,2.5080484E1,4.501864E1,8.514929E0,3.1476189E1,2.6296028E1,1.2250377E0,1.3528506E1,2.2423222E0,3.9048343E0,1.2225306E0,1.2073144E0,1.186164E0,6.4837656E0,5.430931E0,1.1772301E0,4.267753E1,4.692255E1,1.7396609E0,1.2204584E1,9.403131E1,7.364291E1,9.627195E0,3.421411E0,1.7246966E0,6.910892E0,5.5642085E0,2.665494E0,2.4298542E1,6.655609E0,2.2892075E1,2.1884089E0,4.0410606E1,4.6080313E0,6.7917323E0,1.7231961E0,2.3806347E1,7.669842E0,2.3329628E1,2.966401E0,2.2363288E0,1.1292177E1,1.4402438E0,2.4645905E0,3.720951E0,1.7099799E0,1.0353522E1,3.232401E1,4.3037094E1,3.885454E0,9.979524E0,2.22506E0,8.76996E1,6.3317175E0,1.0525981E1,6.311692E1,3.4103353E0,6.2168603E0,1.6745675E0,1.7468436E0,5.1794815E0,1.7314106E0,1.4433237E0,1.2221701E0,1.6648344E1,7.6501966E0,5.1625915E0,1.4930178E0,7.7968674E0,1.5095207E1,5.6820483E0,3.472856E1,2.885875E0,1.7221563E0,2.203226E0,4.588506E0,1.9103346E1,4.703001E0,1.2349524E0,6.4348893E0,1.4897286E1,8.432341E0,1.7414377E0,1.2249634E0,8.580179E0,2.7119982E0],"tree_param":{"num_deleted":"0","num_feature":"66","num_nodes":"129","size_leaf_vector":"1"}},{"base_weights":[1.4311047E-2,-2.979695E-2,5.177775E-1,-1.2240708E-3,-4.5546204E-1,-6.649642E-1,6.4456993E-1,-4.412572E-2,4.1648313E-1,-1.0787579E0,-1.0678701E-1,2.7035818E-2,-6.1582346E-2,-3.3934187E-2,7.140848E-1,2.1377824E-2,-4.4873178E-1,-4.184485E-1,5.5770034E-1,7.1197473E-3,-1.3629376E0,-5.5685606E-2,1.5635952E-1,8.639224E-1,-1.773116E-2,-1.1201174E-1,2.1819396E-1,-9.1952014E-1,-9.338491E-2,3.6213163E-2,-1.0512818E0,1.2363957E0,3.3454216E-1,-1.5698172E-2,-7.647267E-2,5.4347837E-1,-5.896908E-1,-1.1949066E-2,9.17052E-1,4.798235E-2,-4.157216E-1,2.0151606E-1,-2.655695E-1,1.4104696E-1,9.6104234E-1,4.0533325E-1,-1.1188064E0,6.0040813E-2,-2.5695488E-1,-8.353771E-3,-6.594439E-2,7.8290634E-2,3.7111018E-3,-4.0284168E-2,4.4659746E-1,7.873301E-2,1.0470649E-1,3.2247603E-2,-1.0146073E0,6.9510005E-2,6.9241565E-1,-6.1757613E-2,3.1659326E-1,1.9214956E-2,-2.167718E-2,4.658003E-2,-1.5859766E-2,1.4709124E-2,-1.8766765E-2,-2.1511015E-2,7.2061695E-2,5.9041645E-2,-1.9398065E-2,1.3217926E-2,-6.262373E-2,2.1292502E-3,-3.8925406E-2,-3.0201364E-2,2.7693221E-2,3.1108582E-2,-3.4362625E-2,-6.322151E-2,-5.848396E-3,-1.549459E-2,4.5174923E-2,5.2782632E-2,-3.5334315E-2],"categories":[],"categories_nodes":[],"categories_segments":[],"categories_sizes":[],"default_left":[0,0,0,0,0,0,0,0,0,0,0,0,0,0,0,0,0,0,0,0,0,0,0,0,0,0,0,0,0,0,0,0,0,0,0,0,0,0,0,0,0,0,0,0,0,0,0,0,0,0,0,0,0,0,0,0,0,0,0,0,0,0,0,0,0,0,0,0,0,0,0,0,0,0,0,0,0,0,0,0,0,0,0,0,0,0,0],"id":13,"left_children":[1,3,5,7,9,11,13,15,17,19,21,-1,-1,-1,23,25,27,29,31,-1,33,-1,35,37,39,41,43,45,47,-1,49,51,53,-1,-1,55,57,-1,59,-1,61,63,65,67,69,71,73,-1,75,-1,-1,-1,-1,-1,77,-1,79,-1,81,-1,83,-1,85,-1,-1,-1,-1,-1,-1,-1,-1,-1,-1,-1,-1,-1,-1,-1,-1,-1,-1,-1,-1,-1,-1,-1,-1],"loss_changes":[1.1650731E1,5.870155E0,6.765954E0,8.14221E0,6.4828587E0,3.7978528E0,4.042238E0,1.0929174E1,5.223129E0,3.935422E0,5.626876E0,0E0,0E0,0E0,4.097994E0,9.358964E0,9.525753E0,5.601854E0,5.133608E0,0E0,1.0639763E0,0E0,5.285693E0,2.0312595E0,3.2414985E0,1.0288463E1,8.115145E0,6.948408E0,7.475218E0,0E0,8.95494E-1,3.2113924E0,4.0566683E0,0E0,0E0,5.191785E0,3.9871836E0,0E0,2.1952076E0,0E0,3.925951E0,8.345274E0,9.141585E0,1.0516624E1,9.554177E0,2.8884888E0,4.333702E0,0E0,4.857292E0,0E0,0E0,0E0,0E0,0E0,3.3760638E0,0E0,4.2701683E0,0E0,9.991121E-1,0E0,4.9637375E0,0E0,3.7005053E0,0E0,0E0,0E0,0E0,0E0,0E0,0E0,0E0,0E0,0E0,0E0,0E0,0E0,0E0,0E0,0E0,0E0,0E0,0E0,0E0,0E0,0E0,0E0,0E0],"parents":[2147483647,0,0,1,1,2,2,3,3,4,4,5,5,6,6,7,7,8,8,9,9,10,10,14,14,15,15,16,16,17,17,18,18,20,20,22,22,23,23,24,24,25,25,26,26,27,27,28,28,30,30,31,31,32,32,35,35,36,36,38,38,40,40,41,41,42,42,43,43,44,44,45,45,46,46,48,48,54,54,56,56,58,58,60,60,62,62],"right_children":[2,4,6,8,10,12,14,16,18,20,22,-1,-1,-1,24,26,28,30,32,-1,34,-1,36,38,40,42,44,46,48,-1,50,52,54,-1,-1,56,58,-1,60,-1,62,64,66,68,70,72,74,-1,76,-1,-1,-1,-1,-1,78,-1,80,-1,82,-1,84,-1,86,-1,-1,-1,-1,-1,-1,-1,-1,-1,-1,-1,-1,-1,-1,-1,-1,-1,-1,-1,-1,-1,-1,-1,-1],"split_conditions":[4.8109896E-2,4.9751244E-2,1.72659E4,4.595E5,-1.141649E-2,1.5555556E-1,8.6E-1,2.16E5,1.84E5,3.42E4,4.984498E-2,2.7035818E-2,-6.1582346E-2,-3.3934187E-2,1.143E1,2.7215183E-2,1.7840264E0,5.1724E1,4.0508E5,7.1197473E-3,-4.7487322E-2,-5.5685606E-2,7.869363E0,-4.021938E0,8.34E4,-1.4132492E-2,2.819E5,-2.1032177E1,5.3243618E1,3.6213163E-2,-5.2916665E0,-1.6673793E0,-4.211516E0,-1.5698172E-2,-7.647267E-2,-1.06E0,-4.9913545E0,-1.1949066E-2,1.36E0,4.798235E-2,2.66131E5,1.12314485E-2,1.04E1,9.1E4,4.1923E1,1.0038824E0,2.396E1,6.0040813E-2,6.577936E-1,-8.353771E-3,-6.594439E-2,7.8290634E-2,3.7111018E-3,-4.0284168E-2,4.42942E1,7.873301E-2,9.3068254E-1,3.2247603E-2,9.59E0,6.9510005E-2,-1.5608632E-2,-6.1757613E-2,2.913585E1,1.9214956E-2,-2.167718E-2,4.658003E-2,-1.5859766E-2,1.4709124E-2,-1.8766765E-2,-2.1511015E-2,7.2061695E-2,5.9041645E-2,-1.9398065E-2,1.3217926E-2,-6.262373E-2,2.1292502E-3,-3.8925406E-2,-3.0201364E-2,2.7693221E-2,3.1108582E-2,-3.4362625E-2,-6.322151E-2,-5.848396E-3,-1.549459E-2,4.5174923E-2,5.2782632E-2,-3.5334315E-2],"split_indices":[15,44,24,37,38,26,16,34,34,37,44,0,0,0,31,9,49,0,23,0,38,0,61,52,23,38,43,64,4,0,64,64,7,0,0,20,52,0,32,0,34,35,39,43,3,49,45,0,9,0,0,0,0,0,3,0,49,0,31,0,44,0,65,0,0,0,0,0,0,0,0,0,0,0,0,0,0,0,0,0,0,0,0,0,0,0,0],"split_type":[0,0,0,0,0,0,0,0,0,0,0,0,0,0,0,0,0,0,0,0,0,0,0,0,0,0,0,0,0,0,0,0,0,0,0,0,0,0,0,0,0,0,0,0,0,0,0,0,0,0,0,0,0,0,0,0,0,0,0,0,0,0,0,0,0,0,0,0,0,0,0,0,0,0,0,0,0,0,0,0,0,0,0,0,0,0,0],"sum_hessian":[5.2294995E2,4.8169052E2,4.1259422E1,4.523306E2,2.9359934E1,3.5838778E0,3.7675545E1,4.1101105E2,4.1319546E1,9.781149E0,1.9578785E1,1.160534E0,2.423344E0,1.4430555E0,3.623249E1,3.5455728E2,5.645376E1,5.6935983E0,3.5625946E1,1.940693E0,7.840456E0,3.3868353E0,1.6191948E1,2.9924915E1,6.307574E0,2.1158751E2,1.4296979E2,2.3599638E1,3.285412E1,1.9777975E0,3.7158008E0,7.691918E0,2.7934029E1,1.4693985E0,6.3710575E0,1.0839141E1,5.3528075E0,1.2145385E0,2.8710377E1,1.4168547E0,4.890719E0,6.945825E1,1.4212926E2,1.3059679E2,1.2372992E1,2.9505417E0,2.0649097E1,2.974885E0,2.9879234E1,1.2406981E0,2.4751024E0,5.722553E0,1.9693655E0,1.9456723E0,2.5988356E1,2.4626775E0,8.376464E0,1.2379553E0,4.114852E0,7.5722938E0,2.1138084E1,1.9840295E0,2.9066896E0,5.4241352E1,1.5216903E1,5.1710315E0,1.3695822E2,1.0105791E2,2.9538883E1,3.2014554E0,9.1715355E0,1.2449756E0,1.7055662E0,1.7335044E0,1.8915592E1,1.9562433E1,1.0316801E1,1.9785365E0,2.4009819E1,5.195874E0,3.1805897E0,2.8993218E0,1.2155302E0,3.5957737E0,1.754231E1,1.6693627E0,1.2373269E0],"tree_param":{"num_deleted":"0","num_feature":"66","num_nodes":"87","size_leaf_vector":"1"}},{"base_weights":[-2.0673912E-2,-5.934363E-2,4.4471395E-1,-6.786124E-1,-3.834558E-2,-6.3324124E-1,5.743102E-1,-1.05976164E-1,-1.103999E0,3.7815782E-1,-6.625326E-2,-5.4654874E-2,6.4402693E-3,7.0572406E-1,1.3052882E-2,4.1613396E-2,-6.232854E-1,-6.670092E-2,-3.8887535E-3,-1.5984996E-1,6.7596793E-1,-9.701955E-2,4.477378E-1,1.0427046E0,2.9060325E-1,-5.4042625E-1,4.6311352E-2,-5.5762053E-2,3.1237666E-2,-1.0096014E0,3.7967217E-1,8.8499284E-1,-3.232279E-2,-7.641325E-2,-9.206394E-1,9.423346E-2,1.0544317E0,2.3055215E-1,1.2022123E0,7.53193E-1,-1.1488141E-1,1.665442E-2,-9.88726E-1,-6.263555E-2,-9.278092E-3,7.208612E-2,-4.0500623E-1,1.290014E0,5.9969343E-2,-9.473272E-2,8.8778067E-1,-1.1352662E0,1.7234607E-2,-2.511878E-1,9.262503E-1,1.2494724E0,1.4924809E-3,-3.9711174E-2,5.004534E-2,6.4484835E-2,1.4665619E-2,5.6366857E-2,-1.4765154E-2,-7.016959E-1,5.1362026E-1,-1.3427875E-2,-6.053249E-2,-4.9799033E-2,1.8680336E-2,8.0879524E-2,-2.4188373E-3,4.8391487E-2,-2.2688743E-2,-2.2644063E-2,-2.8029603E-3,-3.4016233E-2,6.8414725E-2,1.6867967E-2,-7.083736E-2,2.8822793E-2,-3.250278E-2,-1.0953552E-2,6.698625E-2,6.67474E-3,7.20261E-2,-5.9592485E-2,1.3407213E-2,-2.0114673E-2,4.6605192E-2],"categories":[],"categories_nodes":[],"categories_segments":[],"categories_sizes":[],"default_left":[0,0,0,0,0,0,0,0,0,0,0,0,0,0,0,0,0,0,0,0,0,0,0,0,0,0,0,0,0,0,0,0,0,0,0,0,0,0,0,0,0,0,0,0,0,0,0,0,0,0,0,0,0,0,0,0,0,0,0,0,0,0,0,0,0,0,0,0,0,0,0,0,0,0,0,0,0,0,0,0,0,0,0,0,0,0,0,0,0],"id":14,"left_children":[1,3,5,7,9,11,13,15,17,19,21,-1,-1,23,25,-1,27,-1,-1,29,31,33,35,37,39,41,-1,-1,-1,43,45,47,-1,49,51,53,55,57,59,61,63,-1,65,-1,-1,-1,67,69,71,73,75,77,-1,79,81,83,-1,-1,-1,-1,-1,-1,-1,85,87,-1,-1,-1,-1,-1,-1,-1,-1,-1,-1,-1,-1,-1,-1,-1,-1,-1,-1,-1,-1,-1,-1,-1,-1],"loss_changes":[9.447289E0,6.2703648E0,5.9904804E0,3.7366576E0,5.4810677E0,1.8222744E0,2.6814232E0,4.3284426E0,2.0138502E0,4.854744E0,7.0135055E0,0E0,0E0,3.8292618E0,4.5135126E0,0E0,4.154283E0,0E0,0E0,5.5935016E0,5.896165E0,7.0016623E0,5.27762E0,1.784935E0,2.8291888E0,2.512497E0,0E0,0E0,0E0,7.064376E-1,6.982381E0,5.621272E0,0E0,7.283972E0,3.1288748E0,5.100914E0,1.7876005E0,3.8346033E0,6.607914E-1,3.0641425E0,3.5541534E0,0E0,3.039689E-1,0E0,0E0,0E0,2.7630897E0,5.071844E0,3.5474098E0,5.527644E0,6.730215E0,4.146991E0,0E0,4.585888E0,2.74783E0,1.4381208E0,0E0,0E0,0E0,0E0,0E0,0E0,0E0,2.64933E0,2.198932E0,0E0,0E0,0E0,0E0,0E0,0E0,0E0,0E0,0E0,0E0,0E0,0E0,0E0,0E0,0E0,0E0,0E0,0E0,0E0,0E0,0E0,0E0,0E0,0E0],"parents":[2147483647,0,0,1,1,2,2,3,3,4,4,5,5,6,6,7,7,8,8,9,9,10,10,13,13,14,14,16,16,19,19,20,20,21,21,22,22,23,23,24,24,25,25,29,29,30,30,31,31,33,33,34,34,35,35,36,36,37,37,38,38,39,39,40,40,42,42,46,46,47,47,48,48,49,49,50,50,51,51,53,53,54,54,55,55,63,63,64,64],"right_children":[2,4,6,8,10,12,14,16,18,20,22,-1,-1,24,26,-1,28,-1,-1,30,32,34,36,38,40,42,-1,-1,-1,44,46,48,-1,50,52,54,56,58,60,62,64,-1,66,-1,-1,-1,68,70,72,74,76,78,-1,80,82,84,-1,-1,-1,-1,-1,-1,-1,86,88,-1,-1,-1,-1,-1,-1,-1,-1,-1,-1,-1,-1,-1,-1,-1,-1,-1,-1,-1,-1,-1,-1,-1,-1],"split_conditions":[4.9285963E-2,-4.8982188E-2,1.72659E4,-1.2219451E-1,-7.603143E0,-3.5844365E-1,1.143E1,1.3E0,7.7414815E-3,-1.1544461E-2,4.9824737E-2,-5.4654874E-2,6.4402693E-3,4.396733E0,6.68E0,4.1613396E-2,5.0157313E0,-6.670092E-2,-3.8887535E-3,-4.9338442E-1,4.9782623E-2,1.9802555E1,1.2790698E-1,3.5E-1,1.0357142E1,-2.8235294E-2,4.6311352E-2,-5.5762053E-2,3.1237666E-2,-2.0641195E-2,-1.0439921E-1,1.589E5,-3.232279E-2,3.0406055E1,7.635E5,5.15E5,3.02882E1,1.195E5,4.81E5,4.9967125E-2,4.8304856E-1,1.665442E-2,1.4928426E1,-6.263555E-2,-9.278092E-3,7.208612E-2,6.666667E-1,-1.508982E-2,4.521739E0,2.404E3,-8.029078E-3,1.09E5,1.7234607E-2,2.5E4,4.1994753E0,1.7407467E1,1.4924809E-3,-3.9711174E-2,5.004534E-2,6.4484835E-2,1.4665619E-2,5.6366857E-2,-1.4765154E-2,1.617644E5,5.2190123E0,-1.3427875E-2,-6.053249E-2,-4.9799033E-2,1.8680336E-2,8.0879524E-2,-2.4188373E-3,4.8391487E-2,-2.2688743E-2,-2.2644063E-2,-2.8029603E-3,-3.4016233E-2,6.8414725E-2,1.6867967E-2,-7.083736E-2,2.8822793E-2,-3.250278E-2,-1.0953552E-2,6.698625E-2,6.67474E-3,7.20261E-2,-5.9592485E-2,1.3407213E-2,-2.0114673E-2,4.6605192E-2],"split_indices":[14,14,24,26,52,30,31,18,35,44,41,0,0,19,18,0,55,0,0,26,44,59,26,18,30,44,0,0,0,44,26,34,0,65,43,34,30,34,40,14,27,0,30,0,0,0,26,38,19,34,14,23,0,43,19,12,0,0,0,0,0,0,0,23,19,0,0,0,0,0,0,0,0,0,0,0,0,0,0,0,0,0,0,0,0,0,0,0,0],"split_type":[0,0,0,0,0,0,0,0,0,0,0,0,0,0,0,0,0,0,0,0,0,0,0,0,0,0,0,0,0,0,0,0,0,0,0,0,0,0,0,0,0,0,0,0,0,0,0,0,0,0,0,0,0,0,0,0,0,0,0,0,0,0,0,0,0,0,0,0,0,0,0,0,0,0,0,0,0,0,0,0,0,0,0,0,0,0,0,0,0],"sum_hessian":[5.224875E2,4.8320947E2,3.9278053E1,1.4820135E1,4.683893E2,3.7983007E0,3.547975E1,6.8491917E0,7.9709435E0,2.8625317E1,4.39764E2,2.097901E0,1.7003995E0,2.8539955E1,6.939798E0,2.217845E0,4.6313467E0,6.2664447E0,1.7044985E0,1.036454E1,1.8260777E1,4.1569284E2,2.4071156E1,1.491813E1,1.3621825E1,4.5750365E0,2.3647618E0,3.3982282E0,1.2331187E0,3.686689E0,6.677851E0,1.6054024E1,2.2067513E0,4.0661252E2,9.080339E0,1.5939157E1,8.131999E0,2.8503969E0,1.2067733E1,5.962314E0,7.6595106E0,1.6388072E0,2.9362292E0,2.4451187E0,1.2415704E0,2.4816434E0,4.1962075E0,1.0389832E1,5.664193E0,3.9991595E2,6.696563E0,7.8513737E0,1.2289662E0,1.1756435E1,4.18272E0,6.647145E0,1.4848537E0,1.2099109E0,1.640486E0,1.0625985E1,1.441748E0,4.33885E0,1.6234646E0,3.900895E0,3.7586155E0,1.212302E0,1.7239271E0,2.2268414E0,1.9693662E0,8.179305E0,2.2105255E0,1.7275275E0,3.936666E0,3.7931225E1,3.619847E2,1.4731777E0,5.223385E0,1.2280526E0,6.623321E0,3.6784618E0,8.077974E0,1.2341912E0,2.9485292E0,1.2199271E0,5.427218E0,2.4392126E0,1.4616827E0,1.1908814E0,2.5677342E0],"tree_param":{"num_deleted":"0","num_feature":"66","num_nodes":"89","size_leaf_vector":"1"}},{"base_weights":[-1.7537467E-2,-9.3562506E-2,2.4093911E-1,-7.3512346E-2,-9.7865313E-1,-2.5122145E-1,4.007421E-1,-5.0481874E-1,-3.177035E-2,-7.575172E-2,1.7124943E-1,-7.149966E-1,4.4005102E-1,8.0895555E-1,2.5984612E-1,-6.06063E-1,4.6283763E-2,1.0046502E-1,-2.0252049E-1,4.1871186E-2,-3.2328457E-2,-8.613374E-1,2.3160927E-2,1.3417151E0,-2.5758895E-1,-5.2496266E-1,9.9444246E-1,-2.6346183E-1,4.5572123E-1,-2.899078E-1,-1.1695721E0,-7.118294E-2,2.7741262E-1,-5.445017E-1,3.7660595E-2,-1.0210903E0,1.1873408E-2,1.7967723E-2,7.6466076E-2,-5.4800577E-2,1.847303E-1,9.700699E-3,-5.002272E-2,1.1264855E0,-2.1244677E-2,-8.669938E-1,4.6995682E-1,1.0739917E0,2.4970488E-1,-5.093992E-1,8.957176E-1,-8.8053383E-4,-1.2952685E0,-5.8469076E-2,-2.56332E-2,-4.1627848E-1,3.566978E-1,-7.2678345E-1,-3.9587233E-2,2.0713955E-1,-3.9789218E-1,-1.9495188E-1,-1.2342304E0,8.408264E-1,-3.3992838E-2,-1.1106209E-2,1.2345284E0,-1.3098172E0,-1.04267664E-1,9.322886E-1,-5.089776E-1,-4.047889E-3,1.336203E0,-7.8686917E-1,3.8711178E-1,2.1364598E-2,-3.621288E-2,6.521254E-2,-1.6380072E-3,-6.835055E-2,-1.8980753E-2,4.5674234E-3,-2.4638252E-2,-5.5059403E-2,1.12894755E-2,3.7167225E-2,6.892331E-3,9.1964E-3,-4.1762315E-2,3.9849203E-2,-1.7071275E-2,-1.034471E-2,2.5814205E-2,2.949451E-2,-3.4354758E-2,2.1763291E-2,-4.768662E-2,-7.033704E-2,-1.2508075E-2,5.7640612E-2,3.3696447E-3,3.0403147E-2,7.458245E-2,-9.787021E-3,-7.562416E-2,5.5992108E-2,-4.4731583E-2,7.030007E-2,-2.3413027E-2,1.1079826E-2,-5.3523716E-2,1.10616535E-2,7.710897E-2,9.952301E-3,-5.795997E-2,-2.6280968E-2,2.5157472E-2],"categories":[],"categories_nodes":[],"categories_segments":[],"categories_sizes":[],"default_left":[0,0,0,0,0,0,0,0,0,0,0,0,0,0,0,0,0,0,0,0,0,0,0,0,0,0,0,0,0,0,0,0,0,0,0,0,0,0,0,0,0,0,0,0,0,0,0,0,0,0,0,0,0,0,0,0,0,0,0,0,0,0,0,0,0,0,0,0,0,0,0,0,0,0,0,0,0,0,0,0,0,0,0,0,0,0,0,0,0,0,0,0,0,0,0,0,0,0,0,0,0,0,0,0,0,0,0,0,0,0,0,0,0,0,0,0,0],"id":15,"left_children":[1,3,5,7,9,11,13,15,17,-1,19,21,23,25,27,29,-1,31,33,-1,-1,35,-1,37,39,41,43,45,47,49,51,53,55,57,59,61,-1,-1,-1,-1,63,-1,-1,65,-1,67,69,71,73,75,77,-1,79,-1,81,83,85,87,89,91,93,95,97,99,-1,-1,101,103,105,107,109,-1,111,113,115,-1,-1,-1,-1,-1,-1,-1,-1,-1,-1,-1,-1,-1,-1,-1,-1,-1,-1,-1,-1,-1,-1,-1,-1,-1,-1,-1,-1,-1,-1,-1,-1,-1,-1,-1,-1,-1,-1,-1,-1,-1,-1],"loss_changes":[1.0319286E1,7.126234E0,9.489063E0,7.1442413E0,5.7511854E0,9.892014E0,4.994809E0,5.633997E0,8.232101E0,0E0,2.573923E0,3.5473652E0,8.280247E0,6.1503325E0,7.167132E0,5.5964613E0,0E0,6.265199E0,1.3085239E1,0E0,0E0,3.155016E0,0E0,4.9419022E-1,3.1509104E0,1.3672132E0,4.2861347E0,8.976204E0,6.1503944E0,6.3562922E0,1.6632795E0,5.2310314E0,5.7284384E0,6.016878E0,7.048682E0,2.343359E0,0E0,0E0,0E0,0E0,4.0094504E0,0E0,0E0,3.0223732E0,0E0,3.5689049E0,4.723117E0,3.830573E0,5.873722E0,4.2878633E0,1.5235996E0,0E0,1.6984367E-1,0E0,5.61924E0,5.0278482E0,7.647444E0,4.915327E0,4.9388523E0,8.886667E0,8.054817E0,2.4221897E0,1.5965462E0,8.6163235E-1,0E0,0E0,1.9302444E0,1.2516184E0,5.95188E0,5.12288E0,1.7378266E0,0E0,1.9724941E0,2.0317132E0,3.991891E0,0E0,0E0,0E0,0E0,0E0,0E0,0E0,0E0,0E0,0E0,0E0,0E0,0E0,0E0,0E0,0E0,0E0,0E0,0E0,0E0,0E0,0E0,0E0,0E0,0E0,0E0,0E0,0E0,0E0,0E0,0E0,0E0,0E0,0E0,0E0,0E0,0E0,0E0,0E0,0E0,0E0,0E0],"parents":[2147483647,0,0,1,1,2,2,3,3,4,4,5,5,6,6,7,7,8,8,10,10,11,11,12,12,13,13,14,14,15,15,17,17,18,18,21,21,23,23,24,24,25,25,26,26,27,27,28,28,29,29,30,30,31,31,32,32,33,33,34,34,35,35,40,40,43,43,45,45,46,46,47,47,48,48,49,49,50,50,52,52,54,54,55,55,56,56,57,57,58,58,59,59,60,60,61,61,62,62,63,63,66,66,67,67,68,68,69,69,70,70,72,72,73,73,74,74],"right_children":[2,4,6,8,10,12,14,16,18,-1,20,22,24,26,28,30,-1,32,34,-1,-1,36,-1,38,40,42,44,46,48,50,52,54,56,58,60,62,-1,-1,-1,-1,64,-1,-1,66,-1,68,70,72,74,76,78,-1,80,-1,82,84,86,88,90,92,94,96,98,100,-1,-1,102,104,106,108,110,-1,112,114,116,-1,-1,-1,-1,-1,-1,-1,-1,-1,-1,-1,-1,-1,-1,-1,-1,-1,-1,-1,-1,-1,-1,-1,-1,-1,-1,-1,-1,-1,-1,-1,-1,-1,-1,-1,-1,-1,-1,-1,-1,-1,-1],"split_conditions":[1.535433E0,2.17E0,1.09E4,2.103E3,1.931E5,3.6259213E-1,1.39E0,1.3883945E0,1.103E5,-7.575172E-2,2.7237E2,3.3159425E0,9.166667E0,-9.213401E0,2.45E0,2.311E1,4.6283763E-2,-2.7052385E-1,1.7359378E0,4.1871186E-2,-3.2328457E-2,-2.5559106E0,2.3160927E-2,5.2658E3,1.2912455E1,-3.0659242E-2,8.1879196E1,9.23643E-2,7.5241905E1,2.275E1,-2.6168223E-2,-4.001602E-1,4.1955003E-1,3.72959E5,1.0902922E0,3.0904553E0,1.1873408E-2,1.7967723E-2,7.6466076E-2,-5.4800577E-2,5.169777E0,9.700699E-3,-5.002272E-2,-2.5644606E-1,-2.1244677E-2,3.8834952E-3,2.5832621E-2,1.44E0,2.8620317E0,3.8152707E-1,-3.7E-1,-8.8053383E-4,3.2774888E-2,-5.8469076E-2,3.509434E0,-1.2708682E-3,1.8475562E0,2.332E1,2.993974E-1,-1.3345455E0,-2.300752E0,9.368E3,1.75E4,1.26E0,-3.3992838E-2,-1.1106209E-2,-1.1363637E-2,-2.2812394E-2,6.6705003E0,1.6315789E0,1.1250908E-2,-4.047889E-3,6.41E4,-2.1364969E-1,3.1883E4,2.1364598E-2,-3.621288E-2,6.521254E-2,-1.6380072E-3,-6.835055E-2,-1.8980753E-2,4.5674234E-3,-2.4638252E-2,-5.5059403E-2,1.12894755E-2,3.7167225E-2,6.892331E-3,9.1964E-3,-4.1762315E-2,3.9849203E-2,-1.7071275E-2,-1.034471E-2,2.5814205E-2,2.949451E-2,-3.4354758E-2,2.1763291E-2,-4.768662E-2,-7.033704E-2,-1.2508075E-2,5.7640612E-2,3.3696447E-3,3.0403147E-2,7.458245E-2,-9.787021E-3,-7.562416E-2,5.5992108E-2,-4.4731583E-2,7.030007E-2,-2.3413027E-2,1.1079826E-2,-5.3523716E-2,1.10616535E-2,7.710897E-2,9.952301E-3,-5.795997E-2,-2.6280968E-2,2.5157472E-2],"split_indices":[21,20,46,34,34,27,18,21,23,0,42,25,59,58,18,36,0,26,49,0,0,13,0,23,59,44,6,9,12,36,35,27,55,37,9,59,0,0,0,0,19,0,0,27,0,38,44,20,61,61,31,0,47,0,53,47,61,39,25,21,21,34,34,16,0,0,41,35,65,26,47,0,34,9,23,0,0,0,0,0,0,0,0,0,0,0,0,0,0,0,0,0,0,0,0,0,0,0,0,0,0,0,0,0,0,0,0,0,0,0,0,0,0,0,0,0,0],"split_type":[0,0,0,0,0,0,0,0,0,0,0,0,0,0,0,0,0,0,0,0,0,0,0,0,0,0,0,0,0,0,0,0,0,0,0,0,0,0,0,0,0,0,0,0,0,0,0,0,0,0,0,0,0,0,0,0,0,0,0,0,0,0,0,0,0,0,0,0,0,0,0,0,0,0,0,0,0,0,0,0,0,0,0,0,0,0,0,0,0,0,0,0,0,0,0,0,0,0,0,0,0,0,0,0,0,0,0,0,0,0,0,0,0,0,0,0,0],"sum_hessian":[5.2298883E2,4.046177E2,1.1837113E2,3.9671393E2,7.903795E0,2.8873766E1,8.949737E1,3.402729E1,3.6268665E2,5.1731873E0,2.7306075E0,1.7259823E1,1.1613944E1,2.1747505E1,6.774986E1,3.23164E1,1.7108912E0,2.046272E2,1.5805943E2,1.4916086E0,1.238999E0,1.5592139E1,1.6676831E0,4.6634517E0,6.950493E0,2.4314787E0,1.9316027E1,1.8358225E1,4.9391636E1,2.1671907E1,1.0644493E1,1.04172455E2,1.0045474E2,6.468739E1,9.337203E1,1.3674729E1,1.9174104E0,1.2152944E0,3.448157E0,1.8900332E0,5.0604596E0,1.2035697E0,1.2279091E0,1.7860743E1,1.4552832E0,9.970965E0,8.387259E0,1.1291591E1,3.8100044E1,1.8767828E1,2.9040794E0,1.1593719E0,9.485122E0,3.166078E0,