{"learner":{"attributes":{"scikit_learn":"{\"_estimator_type\": \"classifier\"}"},"feature_names":[],"feature_types":[],"gradient_booster":{"model":{"cats":{"enc":[],"feature_segments":[],"sorted_idx":[]},"gbtree_model_param":{"num_parallel_tree":"1","num_trees":"200"},"iteration_indptr":[0,1,2,3,4,5,6,7,8,9,10,11,12,13,14,15,16,17,18,19,20,21,22,23,24,25,26,27,28,29,30,31,32,33,34,35,36,37,38,39,40,41,42,43,44,45,46,47,48,49,50,51,52,53,54,55,56,57,58,59,60,61,62,63,64,65,66,67,68,69,70,71,72,73,74,75,76,77,78,79,80,81,82,83,84,85,86,87,88,89,90,91,92,93,94,95,96,97,98,99,100,101,102,103,104,105,106,107,108,109,110,111,112,113,114,115,116,117,118,119,120,121,122,123,124,125,126,127,128,129,130,131,132,133,134,135,136,137,138,139,140,141,142,143,144,145,146,147,148,149,150,151,152,153,154,155,156,157,158,159,160,161,162,163,164,165,166,167,168,169,170,171,172,173,174,175,176,177,178,179,180,181,182,183,184,185,186,187,188,189,190,191,192,193,194,195,196,197,198,199,200],"tree_info":[0,0,0,0,0,0,0,0,0,0,0,0,0,0,0,0,0,0,0,0,0,0,0,0,0,0,0,0,0,0,0,0,0,0,0,0,0,0,0,0,0,0,0,0,0,0,0,0,0,0,0,0,0,0,0,0,0,0,0,0,0,0,0,0,0,0,0,0,0,0,0,0,0,0,0,0,0,0,0,0,0,0,0,0,0,0,0,0,0,0,0,0,0,0,0,0,0,0,0,0,0,0,0,0,0,0,0,0,0,0,0,0,0,0,0,0,0,0,0,0,0,0,0,0,0,0,0,0,0,0,0,0,0,0,0,0,0,0,0,0,0,0,0,0,0,0,0,0,0,0,0,0,0,0,0,0,0,0,0,0,0,0,0,0,0,0,0,0,0,0,0,0,0,0,0,0,0,0,0,0,0,0,0,0,0,0,0,0,0,0,0,0,0,0,0,0,0,0,0,0],"trees":[{"base_weights":[7.943784E-2,5.284012E-1,-3.590833E-1,2.2425146E-1,1.065776E0,3.9611524E-1,-5.355849E-1,7.868868E-1,-2.0347552E-1,1.2158833E0,-4.263146E-2,-4.2956542E-2,8.098154E-1,-8.250892E-1,-8.2740135E-2,1.317505E0,9.451892E-2,9.195246E-1,-5.107366E-1,1.4713185E0,-1.9812024E-1,1.4725945E0,-2.2586228E-3,5.448041E-1,-9.674381E-1,7.016861E-1,-7.6652145E-1,1.6498005E0,-1.1092442E-2,5.3224463E-2,-3.2642046E-1,-3.0103892E-2,8.659375E-2,4.3260034E-2,-7.3038524E-1,8.678078E-1,1.957109E0,4.9777973E-2,-5.156622E-2,3.5732575E-3,9.19378E-2,-5.156622E-2,8.255911E-1,-1.95291E-2,5.8102734E-2,-1.1745349E0,-1.9508759E-2,1.2398895E0,-4.4643596E-1,4.9777973E-2,-1.055427E0,1.9001685E0,3.5732575E-3,-5.543923E-2,3.258542E-1,-8.564665E-1,2.6675615E-2,1.5235094E0,-5.528215E-2,2.6675615E-2,2.1020823E0,-4.4718995E-3,7.288033E-2,8.2912314E-4,-1.2785515E0,9.942254E-1,-4.5183737E-2,-4.4718995E-3,1.5703983E0,-5.156622E-2,2.6675615E-2,-1.3024422E0,1.6386312E-2,2.6675615E-2,1.039869E-1,7.288033E-2,-2.5396228E-2,-1.4850817E-2,-6.4364605E-2,3.5732575E-3,9.4194375E-2,5.8102734E-2,-4.2956542E-2,1.14914656E-1,2.6675615E-2,8.2912314E-4,-7.0115566E-2,3.5732575E-3,7.288033E-2,9.977149E-2,2.710863E-2,-6.9323875E-2,-1.95291E-2],"categories":[],"categories_nodes":[],"categories_segments":[],"categories_sizes":[],"default_left":[0,0,0,0,0,0,0,0,0,0,0,0,0,0,0,0,0,0,0,0,0,0,0,0,0,0,0,0,0,0,0,0,0,0,0,0,0,0,0,0,0,0,0,0,0,0,0,0,0,0,0,0,0,0,0,0,0,0,0,0,0,0,0,0,0,0,0,0,0,0,0,0,0,0,0,0,0,0,0,0,0,0,0,0,0,0,0,0,0,0,0,0,0],"id":0,"left_children":[1,3,5,7,9,11,13,15,17,19,-1,-1,21,23,25,27,29,31,33,35,37,39,41,43,45,47,49,51,-1,-1,53,-1,-1,-1,55,57,59,-1,-1,-1,-1,-1,61,-1,-1,63,65,67,69,-1,71,73,-1,-1,75,77,-1,79,81,-1,83,-1,-1,-1,85,87,-1,-1,89,-1,-1,91,-1,-1,-1,-1,-1,-1,-1,-1,-1,-1,-1,-1,-1,-1,-1,-1,-1,-1,-1,-1,-1],"loss_changes":[2.427172E1,9.7055E0,8.5395565E0,9.815126E0,7.292534E0,7.140171E0,6.6262608E0,6.316721E0,8.608449E0,7.7174606E0,0E0,0E0,5.304062E0,6.579649E0,1.1815504E1,5.403734E0,3.8932416E0,7.7475233E0,6.4233594E0,3.4418678E0,5.0320444E0,2.6514587E0,5.4724503E0,2.5101254E0,5.567501E0,6.926945E0,7.0127134E0,3.1118813E0,0E0,0E0,3.8423767E0,0E0,0E0,0E0,3.1766396E0,5.904319E0,7.188606E-1,0E0,0E0,0E0,0E0,0E0,2.1899784E0,0E0,0E0,2.914692E0,6.3864117E0,3.342081E0,2.8584166E0,0E0,4.030368E0,6.216183E-1,0E0,0E0,4.979941E0,3.450632E0,0E0,2.8256578E0,5.8505745E0,0E0,1.1599274E0,0E0,0E0,0E0,3.4680061E0,1.3190911E0,0E0,0E0,1.4922218E0,0E0,0E0,1.5961456E-1,0E0,0E0,0E0,0E0,0E0,0E0,0E0,0E0,0E0,0E0,0E0,0E0,0E0,0E0,0E0,0E0,0E0,0E0,0E0,0E0,0E0],"parents":[2147483647,0,0,1,1,2,2,3,3,4,4,5,5,6,6,7,7,8,8,9,9,12,12,13,13,14,14,15,15,16,16,17,17,18,18,19,19,20,20,21,21,22,22,23,23,24,24,25,25,26,26,27,27,30,30,34,34,35,35,36,36,42,42,45,45,46,46,47,47,48,48,50,50,51,51,54,54,55,55,57,57,58,58,60,60,64,64,65,65,68,68,71,71],"right_children":[2,4,6,8,10,12,14,16,18,20,-1,-1,22,24,26,28,30,32,34,36,38,40,42,44,46,48,50,52,-1,-1,54,-1,-1,-1,56,58,60,-1,-1,-1,-1,-1,62,-1,-1,64,66,68,70,-1,72,74,-1,-1,76,78,-1,80,82,-1,84,-1,-1,-1,86,88,-1,-1,90,-1,-1,92,-1,-1,-1,-1,-1,-1,-1,-1,-1,-1,-1,-1,-1,-1,-1,-1,-1,-1,-1,-1,-1],"split_conditions":[-4.7801147E0,1.35E4,-1.229507E0,-2.1125747E-2,1.4750958E1,1.0885769E-1,6.748212E0,-6.721777E-3,1.06269926E-1,8.5525E4,-4.263146E-2,-4.2956542E-2,2.8806555E0,4.78E0,2.051693E-1,5.95E4,-1.5209545E-1,3.235E3,4.6664E3,1.0515247E-3,5.025126E-1,-1.2341494E-3,4.011E3,-8.7628865E-1,1.9480519E-2,1.4302103E-1,-9.1851854E-1,5.394985E-2,-1.1092442E-2,5.3224463E-2,-8.7628865E-1,-3.0103892E-2,8.659375E-2,4.3260034E-2,9.453777E0,2.966498E-1,-9.166665E1,4.9777973E-2,-5.156622E-2,3.5732575E-3,9.19378E-2,-5.156622E-2,1.8E4,-1.95291E-2,5.8102734E-2,-1.7953505E-1,1.001E3,1.1353404E-1,3.488372E0,4.9777973E-2,4.5504995E-2,-9.9751246E-1,3.5732575E-3,-5.543923E-2,5.685E0,-2.1484308E0,2.6675615E-2,5E1,-1.6067146E1,2.6675615E-2,3.15E4,-4.4718995E-3,7.288033E-2,8.2912314E-4,-4.894282E-1,-1.9047601E0,-4.5183737E-2,-4.4718995E-3,1.3888889E-2,-5.156622E-2,2.6675615E-2,9.661E0,1.6386312E-2,2.6675615E-2,1.039869E-1,7.288033E-2,-2.5396228E-2,-1.4850817E-2,-6.4364605E-2,3.5732575E-3,9.4194375E-2,5.8102734E-2,-4.2956542E-2,1.14914656E-1,2.6675615E-2,8.2912314E-4,-7.0115566E-2,3.5732575E-3,7.288033E-2,9.977149E-2,2.710863E-2,-6.9323875E-2,-1.95291E-2],"split_indices":[58,43,21,9,65,55,12,8,59,24,0,0,29,45,55,46,27,40,24,41,59,9,46,26,38,27,26,44,0,0,26,0,0,0,59,55,13,0,0,0,0,0,34,0,0,8,40,55,19,0,41,26,0,0,2,30,0,40,30,0,46,0,0,0,27,58,0,0,14,0,0,1,0,0,0,0,0,0,0,0,0,0,0,0,0,0,0,0,0,0,0,0,0],"split_type":[0,0,0,0,0,0,0,0,0,0,0,0,0,0,0,0,0,0,0,0,0,0,0,0,0,0,0,0,0,0,0,0,0,0,0,0,0,0,0,0,0,0,0,0,0,0,0,0,0,0,0,0,0,0,0,0,0,0,0,0,0,0,0,0,0,0,0,0,0,0,0,0,0,0,0,0,0,0,0,0,0,0,0,0,0,0,0,0,0,0,0,0,0],"sum_hessian":[1.213181E2,5.9844055E1,6.147405E1,3.911985E1,2.0724205E1,1.1409956E1,5.006409E1,1.6532793E1,2.2587055E1,1.9559925E1,1.1642812E0,2.5614188E0,8.848537E0,3.0038456E1,2.0025637E1,8.848537E0,7.684256E0,4.4242687E0,1.8162786E1,1.6532793E1,3.027131E0,4.4242687E0,4.4242687E0,2.5614188E0,2.7477037E1,9.31425E0,1.0711388E1,7.2185435E0,1.6299937E0,1.86285E0,5.821406E0,1.6299937E0,2.7942748E0,2.0957062E0,1.6067081E1,8.615681E0,7.9171124E0,1.1642812E0,1.86285E0,1.1642812E0,3.2599874E0,1.86285E0,2.5614188E0,1.1642812E0,1.3971374E0,2.2354198E1,5.1228375E0,6.2871184E0,3.027131E0,1.1642812E0,9.547106E0,6.054262E0,1.1642812E0,2.3285625E0,3.4928436E0,1.49028E1,1.1642812E0,4.657125E0,3.9585562E0,1.1642812E0,6.752831E0,1.3971374E0,1.1642812E0,1.86285E0,2.049135E1,2.3285625E0,2.7942748E0,1.3971374E0,4.8899813E0,1.86285E0,1.1642812E0,8.149968E0,1.3971374E0,1.1642812E0,4.8899813E0,1.1642812E0,2.3285625E0,7.2185435E0,7.684256E0,1.1642812E0,3.4928436E0,1.3971374E0,2.5614188E0,5.5885496E0,1.1642812E0,1.86285E0,1.86285E1,1.1642812E0,1.1642812E0,2.7942748E0,2.0957062E0,6.9856873E0,1.1642812E0],"tree_param":{"num_deleted":"0","num_feature":"66","num_nodes":"93","size_leaf_vector":"1"}},{"base_weights":[-2.8347438E-2,7.3520905E-1,-2.5010514E-1,9.996588E-1,-3.4189257E-1,4.653253E-1,-4.2914093E-1,1.1248488E0,-2.510179E-2,5.612294E-2,-5.1114272E-2,7.157422E-1,-5.3588945E-2,1.2266502E-1,-5.757368E-1,2.8362304E-1,1.5128912E0,-9.485534E-2,1.3487877E0,-8.6080307E-1,6.639018E-1,-4.239343E-1,-1.1696639E0,-4.5062396E-1,1.1583029E0,4.2310357E-2,1.9177828E0,5.5178684E-1,-5.6913566E-2,-1.8704208E-2,1.6256781E0,3.4168453E-3,-5.4148573E-2,-4.0485635E-1,1.2427905E0,-9.763059E-1,-1.8539685E-1,-1.3161566E0,4.04114E-3,-5.3118635E-2,1.830304E-2,8.1923574E-2,2.1479193E-3,3.66202E-2,-3.0199585E-2,3.141506E-3,2.1334965E0,7.870476E-2,-5.6655E-1,1.0876833E-2,1.0253556E-1,2.6677167E-2,-5.3627796E-2,8.811258E-2,4.2563292E-1,9.5418276E-4,-1.1232154E0,-3.8985372E-1,7.711964E-1,-1.8773513E-2,-6.962686E-2,1.14463106E-1,3.5585828E-2,3.5352856E-3,-4.5367848E-2,-2.5301013E-2,5.2783847E-2,-9.514074E-3,-6.2038798E-2,-3.9374866E-3,-5.7611763E-2,6.6903554E-2,-2.9844448E-2],"categories":[],"categories_nodes":[],"categories_segments":[],"categories_sizes":[],"default_left":[0,0,0,0,0,0,0,0,0,0,0,0,0,0,0,0,0,0,0,0,0,0,0,0,0,0,0,0,0,0,0,0,0,0,0,0,0,0,0,0,0,0,0,0,0,0,0,0,0,0,0,0,0,0,0,0,0,0,0,0,0,0,0,0,0,0,0,0,0,0,0,0,0],"id":1,"left_children":[1,3,5,7,9,11,13,15,-1,-1,-1,17,-1,19,21,23,25,27,29,31,33,35,37,39,41,43,45,47,-1,-1,49,-1,-1,51,53,55,57,59,-1,-1,-1,-1,-1,-1,-1,-1,61,-1,63,-1,-1,-1,-1,-1,65,-1,67,69,71,-1,-1,-1,-1,-1,-1,-1,-1,-1,-1,-1,-1,-1,-1],"loss_changes":[2.0474209E1,8.096055E0,1.2189674E1,4.7216854E0,7.2365513E0,8.163766E0,6.169223E0,6.334217E0,0E0,0E0,0E0,8.914925E0,0E0,9.43366E0,4.890476E0,5.512773E0,8.22378E0,6.3248296E0,5.226244E0,1.383884E0,7.496629E0,6.2949953E0,2.2300282E0,2.8592415E0,1.9788895E0,2.241448E0,4.233124E0,7.6213984E0,0E0,0E0,4.65753E0,0E0,0E0,3.5332556E0,2.4666119E0,2.1548195E0,7.255638E0,2.268982E-1,0E0,0E0,0E0,0E0,0E0,0E0,0E0,0E0,5.2926254E-1,0E0,8.343679E-1,0E0,0E0,0E0,0E0,0E0,3.036798E0,0E0,1.1600227E0,7.0157895E0,5.9155264E0,0E0,0E0,0E0,0E0,0E0,0E0,0E0,0E0,0E0,0E0,0E0,0E0,0E0,0E0],"parents":[2147483647,0,0,1,1,2,2,3,3,4,4,5,5,6,6,7,7,11,11,13,13,14,14,15,15,16,16,17,17,18,18,19,19,20,20,21,21,22,22,23,23,24,24,25,25,26,26,27,27,30,30,33,33,34,34,35,35,36,36,37,37,46,46,48,48,54,54,56,56,57,57,58,58],"right_children":[2,4,6,8,10,12,14,16,-1,-1,-1,18,-1,20,22,24,26,28,30,32,34,36,38,40,42,44,46,48,-1,-1,50,-1,-1,52,54,56,58,60,-1,-1,-1,-1,-1,-1,-1,-1,62,-1,64,-1,-1,-1,-1,-1,66,-1,68,70,72,-1,-1,-1,-1,-1,-1,-1,-1,-1,-1,-1,-1,-1,-1],"split_conditions":[-2.4144847E-2,8.97155E0,-8E-2,9.73E0,-4.9069367E-2,6.756757E0,-1.9011666E-1,6.438E0,-2.510179E-2,5.612294E-2,-5.1114272E-2,1.24533E-1,-5.3588945E-2,-4.491635E-1,2.9E-1,6.5E3,-9.754768E1,2.857143E-1,1E3,1.8836136E-1,6E3,3.5523977E-2,1.7731829E-1,-7.6E1,5.6272674E0,7.9224E0,-3.0303031E-2,-1.6908448E-2,-5.6913566E-2,-1.8704208E-2,1.1E4,3.4168453E-3,-5.4148573E-2,6.75E3,7.022641E-3,-4.791667E-2,2.97E4,-3.6775105E-2,4.04114E-3,-5.3118635E-2,1.830304E-2,8.1923574E-2,2.1479193E-3,3.66202E-2,-3.0199585E-2,3.141506E-3,9.5614366E-2,7.870476E-2,-6.060606E-3,1.0876833E-2,1.0253556E-1,2.6677167E-2,-5.3627796E-2,8.811258E-2,6.1403507E-1,9.5418276E-4,1E0,3.960392E0,5.925E4,-1.8773513E-2,-6.962686E-2,1.14463106E-1,3.5585828E-2,3.5352856E-3,-4.5367848E-2,-2.5301013E-2,5.2783847E-2,-9.514074E-3,-6.2038798E-2,-3.9374866E-3,-5.7611763E-2,6.6903554E-2,-2.9844448E-2],"split_indices":[14,65,20,0,14,53,8,3,0,0,0,53,0,8,20,34,13,25,37,49,43,25,8,13,10,3,38,8,0,0,23,0,0,46,9,35,23,44,0,0,0,0,0,0,0,0,8,0,35,0,0,0,0,0,25,0,37,19,24,0,0,0,0,0,0,0,0,0,0,0,0,0,0],"split_type":[0,0,0,0,0,0,0,0,0,0,0,0,0,0,0,0,0,0,0,0,0,0,0,0,0,0,0,0,0,0,0,0,0,0,0,0,0,0,0,0,0,0,0,0,0,0,0,0,0,0,0,0,0,0,0,0,0,0,0,0,0,0,0,0,0,0,0,0,0,0,0,0,0],"sum_hessian":[1.1883101E2,2.6223349E1,9.260766E1,2.1111868E1,5.1114817E0,1.8216223E1,7.439143E1,1.971893E1,1.3929386E0,1.4154366E0,3.696045E0,1.612378E1,2.0924442E0,1.5649168E1,5.8742264E1,6.771056E0,1.2947872E1,7.443167E0,8.680612E0,5.345519E0,1.0303649E1,4.814947E1,1.0592794E1,3.9445937E0,2.8264627E0,3.0337353E0,9.914138E0,4.886192E0,2.5569751E0,1.1533293E0,7.5272827E0,1.1651413E0,4.1803775E0,3.7257364E0,6.5779123E0,1.3589027E1,3.4560444E1,9.434983E0,1.1578104E0,2.0832622E0,1.8613313E0,1.647967E0,1.1784958E0,1.4027337E0,1.6310015E0,1.1673337E0,8.746803E0,2.3397853E0,2.5464065E0,2.0957708E0,5.431512E0,1.6324201E0,2.0933163E0,3.314406E0,3.2635064E0,1.8595676E0,1.172946E1,2.8962599E1,5.5978465E0,1.1528251E0,8.282159E0,7.3332577E0,1.4135458E0,1.1634574E0,1.3829491E0,1.3960303E0,1.8674761E0,1.6056852E0,1.0123774E1,2.1352575E1,7.610022E0,3.973388E0,1.6244586E0],"tree_param":{"num_deleted":"0","num_feature":"66","num_nodes":"73","size_leaf_vector":"1"}},{"base_weights":[3.0404327E-2,9.315451E-1,-1.5181173E-1,-6.7594457E-1,1.2444118E0,3.0861077E-1,-3.6009154E-1,-5.0614715E-2,4.0038587E-3,1.4564989E0,-1.7479049E-2,1.3304931E0,1.054066E-1,-1.0916396E0,-1.7205957E-1,-1.13663E-2,1.6676711E0,9.366249E-2,-4.9089724E-3,1.1565527E0,-9.381027E-2,2.31953E-3,-1.1973674E0,-5.7946566E-2,-1.0240108E0,8.33533E-1,1.0144142E-1,2.652586E-3,7.625122E-2,-5.761535E-2,1.054353E-1,-1.4700137E-2,-1.3179935E0,6.09505E-2,-9.6760297E-1,-6.240225E-2,-9.491182E-3,1.7753987E-1,7.845011E-2,-5.021912E-1,7.489729E-1,-1.701566E-2,-6.967353E-2,-6.34973E-2,1.1107526E0,-4.896864E-3,-6.041822E-2,4.0674604E-2,-4.1539546E-2,-4.1251432E-2,4.6110358E-2,4.9095247E-2,-2.45266E-2,2.3206199E-2,-1.8860135E-2,7.793451E-2,6.24403E-3],"categories":[],"categories_nodes":[],"categories_segments":[],"categories_sizes":[],"default_left":[0,0,0,0,0,0,0,0,0,0,0,0,0,0,0,0,0,0,0,0,0,0,0,0,0,0,0,0,0,0,0,0,0,0,0,0,0,0,0,0,0,0,0,0,0,0,0,0,0,0,0,0,0,0,0,0,0],"id":2,"left_children":[1,3,5,7,9,11,13,-1,-1,15,-1,17,19,21,23,-1,25,-1,-1,27,29,-1,31,33,35,37,-1,-1,-1,-1,39,-1,41,43,45,-1,-1,47,-1,49,51,-1,-1,53,55,-1,-1,-1,-1,-1,-1,-1,-1,-1,-1,-1,-1],"loss_changes":[2.0091442E1,1.1189117E1,9.885041E0,1.098256E0,6.450718E0,6.563505E0,9.528672E0,0E0,0E0,5.9634056E0,0E0,4.2694902E0,5.97499E0,1.770916E0,5.519162E0,0E0,2.548996E0,0E0,0E0,1.7645168E0,5.2835774E0,0E0,1.0380383E0,5.6466103E0,1.0185838E0,2.5921016E0,0E0,0E0,0E0,0E0,8.789188E0,0E0,3.5622978E-1,6.1627507E0,1.1445045E0,0E0,0E0,3.4155989E0,0E0,6.1249585E0,3.6143184E0,0E0,0E0,7.2320023E0,2.0116868E0,0E0,0E0,0E0,0E0,0E0,0E0,0E0,0E0,0E0,0E0,0E0,0E0],"parents":[2147483647,0,0,1,1,2,2,3,3,4,4,5,5,6,6,9,9,11,11,12,12,13,13,14,14,16,16,19,19,20,20,22,22,23,23,24,24,25,25,30,30,32,32,33,33,34,34,37,37,39,39,40,40,43,43,44,44],"right_children":[2,4,6,8,10,12,14,-1,-1,16,-1,18,20,22,24,-1,26,-1,-1,28,30,-1,32,34,36,38,-1,-1,-1,-1,40,-1,42,44,46,-1,-1,48,-1,50,52,-1,-1,54,56,-1,-1,-1,-1,-1,-1,-1,-1,-1,-1,-1,-1],"split_conditions":[-3.4391534E-2,1E1,-1.3E-1,8.579175E-3,5.3846154E0,-1.4012739E1,-9.698191E-1,-5.0614715E-2,4.0038587E-3,1E0,-1.7479049E-2,1.4285715E-1,4.75E0,-1.8404908E-2,7.0103124E-2,-1.13663E-2,5.000019E-2,9.366249E-2,-4.9089724E-3,1E3,5.15E0,2.31953E-3,8.403353E-1,1.269919E-1,1.0661268E-1,8.514489E-2,1.0144142E-1,2.652586E-3,7.625122E-2,-5.761535E-2,-8.144795E0,-1.4700137E-2,4.95E0,1.0177304E-1,2.3345235E-1,-6.240225E-2,-9.491182E-3,4.6391754E1,7.845011E-2,3.0927856E-2,-5E0,-1.701566E-2,-6.967353E-2,-1.21951215E-2,2.41226E4,-4.896864E-3,-6.041822E-2,4.0674604E-2,-4.1539546E-2,-4.1251432E-2,4.6110358E-2,4.9095247E-2,-2.45266E-2,2.3206199E-2,-1.8860135E-2,7.793451E-2,6.24403E-3],"split_indices":[14,40,31,9,29,58,26,0,0,46,0,26,62,14,14,0,18,0,0,37,0,0,65,9,14,41,0,0,0,0,58,0,51,9,49,0,0,6,0,14,64,0,0,44,23,0,0,0,0,0,0,0,0,0,0,0,0],"split_type":[0,0,0,0,0,0,0,0,0,0,0,0,0,0,0,0,0,0,0,0,0,0,0,0,0,0,0,0,0,0,0,0,0,0,0,0,0,0,0,0,0,0,0,0,0,0,0,0,0,0,0,0,0,0,0,0,0],"sum_hessian":[1.204966E2,1.9575348E1,1.0092125E2,3.0001717E0,1.6575176E1,3.1283768E1,6.963748E1,1.8417932E0,1.1583785E0,1.4704891E1,1.8702859E0,4.268844E0,2.7014923E1,1.32565565E1,5.6380928E1,1.6301398E0,1.3074751E1,2.8680732E0,1.400771E0,3.5385664E0,2.3476357E1,1.1746037E0,1.2081953E1,5.0662987E1,5.7179413E0,4.950018E0,8.124733E0,1.1721584E0,2.366408E0,2.961257E0,2.05151E1,1.8281686E0,1.0253784E1,4.563167E1,5.031313E0,4.116318E0,1.6016233E0,3.2725246E0,1.6774933E0,1.0664936E1,9.850164E0,1.1296667E0,9.124118E0,4.163554E1,3.9961312E0,1.3958993E0,3.6354136E0,2.125319E0,1.1472056E0,9.03741E0,1.6275256E0,8.4668665E0,1.3832978E0,1.5345853E1,2.6289688E1,2.3481889E0,1.6479424E0],"tree_param":{"num_deleted":"0","num_feature":"66","num_nodes":"57","size_leaf_vector":"1"}},{"base_weights":[5.427785E-2,5.3605765E-1,-2.8402132E-1,-7.5280696E-1,7.1483594E-1,9.9329233E-1,-3.5929042E-1,-5.4123055E-2,1.4551736E-2,9.6752274E-1,-6.480928E-2,7.877328E-2,-6.370786E-3,1.08762406E-1,-5.6446624E-1,-3.8560208E-2,1.1138384E0,5.7675564E-1,-5.29509E-2,3.8086662E-1,-5.008884E-2,-8.369887E-1,-1.6696402E-1,1.2704846E0,-1.364346E-1,-3.3234768E-2,1.0532346E0,1.2753639E0,4.651452E-2,1.2490624E-1,-1.0259473E0,5.7208943E-1,-4.5065415E-1,1.3679945E0,-1.1249582E-2,3.5570305E-2,-3.7636615E-2,1.4473969E0,-1.8244125E-2,8.095729E-2,3.4686686E-3,-6.6416115E-1,7.086821E-1,-4.174364E-2,5.881228E-2,1.2541658E-1,-1.2238796E0,-4.107468E-2,1.0372056E0,-6.10343E-2,-1.1952065E-1,3.8997546E-2,8.3112024E-2,1.5008831E-2,9.042103E-2,3.998169E-2,-5.5847686E-2,7.092639E-2,-2.9096937E-2,5.6234386E-2,-3.536298E-2,-1.5237941E-2,-6.4846985E-2,8.482178E-2,7.008376E-3,3.993685E-2,-2.2375261E-2],"categories":[],"categories_nodes":[],"categories_segments":[],"categories_sizes":[],"default_left":[0,0,0,0,0,0,0,0,0,0,0,0,0,0,0,0,0,0,0,0,0,0,0,0,0,0,0,0,0,0,0,0,0,0,0,0,0,0,0,0,0,0,0,0,0,0,0,0,0,0,0,0,0,0,0,0,0,0,0,0,0,0,0,0,0,0,0],"id":3,"left_children":[1,3,5,7,9,11,13,-1,-1,15,17,-1,-1,19,21,-1,23,25,-1,27,-1,29,31,33,35,-1,37,39,41,43,45,47,49,51,-1,-1,-1,53,-1,-1,-1,55,57,-1,-1,59,61,-1,63,-1,65,-1,-1,-1,-1,-1,-1,-1,-1,-1,-1,-1,-1,-1,-1,-1,-1],"loss_changes":[2.039465E1,1.2423314E1,7.434596E0,2.6447136E0,9.087559E0,3.0469117E0,6.8081827E0,0E0,0E0,9.676552E0,8.36084E0,0E0,0E0,7.1049747E0,5.1689043E0,0E0,6.5147095E0,5.451352E0,0E0,5.5021343E0,0E0,5.3671303E0,4.6987367E0,4.5177994E0,2.8910584E0,0E0,3.9889064E0,1.969655E0,7.3288703E0,6.656994E0,5.6684456E0,4.9459124E0,3.8995125E0,3.4176483E0,0E0,0E0,0E0,1.5471201E0,0E0,0E0,0E0,5.8943434E0,8.180388E0,0E0,0E0,4.503977E0,9.9765396E-1,0E0,2.8239088E0,0E0,4.032674E0,0E0,0E0,0E0,0E0,0E0,0E0,0E0,0E0,0E0,0E0,0E0,0E0,0E0,0E0,0E0,0E0],"parents":[2147483647,0,0,1,1,2,2,3,3,4,4,5,5,6,6,9,9,10,10,13,13,14,14,16,16,17,17,19,19,21,21,22,22,23,23,24,24,26,26,27,27,28,28,29,29,30,30,31,31,32,32,33,33,37,37,41,41,42,42,45,45,46,46,48,48,50,50],"right_children":[2,4,6,8,10,12,14,-1,-1,16,18,-1,-1,20,22,-1,24,26,-1,28,-1,30,32,34,36,-1,38,40,42,44,46,48,50,52,-1,-1,-1,54,-1,-1,-1,56,58,-1,-1,60,62,-1,64,-1,66,-1,-1,-1,-1,-1,-1,-1,-1,-1,-1,-1,-1,-1,-1,-1,-1],"split_conditions":[0E0,2.2E3,-1.4012739E1,5.033512E-1,5.2060685E0,-2.9E-1,1.3925152E0,-5.4123055E-2,1.4551736E-2,2E0,9.999752E-3,7.877328E-2,-6.370786E-3,2.712932E-1,2E-2,-3.8560208E-2,9.52E0,-3.999996E-2,-5.29509E-2,-1.1000013E-1,-5.008884E-2,-3.549383E-2,1.001E3,7.3825502E0,-9.0000015E1,-3.3234768E-2,1.035E5,1.92E4,5.304E0,-5.060241E-2,-4.109589E-2,3.27E2,2E-1,-1.1000013E-1,-1.1249582E-2,3.5570305E-2,-3.7636615E-2,-7.4309977E-3,-1.8244125E-2,8.095729E-2,3.4686686E-3,7.746678E-2,2E4,-4.174364E-2,5.881228E-2,8.099174E0,4.5443764E0,-4.107468E-2,3E3,-6.10343E-2,-4.2753613E1,3.8997546E-2,8.3112024E-2,1.5008831E-2,9.042103E-2,3.998169E-2,-5.5847686E-2,7.092639E-2,-2.9096937E-2,5.6234386E-2,-3.536298E-2,-1.5237941E-2,-6.4846985E-2,8.482178E-2,7.008376E-3,3.993685E-2,-2.2375261E-2],"split_indices":[14,23,58,53,59,31,53,0,0,40,20,0,0,55,26,0,50,31,0,20,0,35,40,30,13,0,40,23,2,35,44,46,31,20,0,0,0,44,0,0,0,55,46,0,0,53,12,0,46,0,13,0,0,0,0,0,0,0,0,0,0,0,0,0,0,0,0],"split_type":[0,0,0,0,0,0,0,0,0,0,0,0,0,0,0,0,0,0,0,0,0,0,0,0,0,0,0,0,0,0,0,0,0,0,0,0,0,0,0,0,0,0,0,0,0,0,0,0,0,0,0,0,0,0,0,0,0,0,0,0,0,0,0,0,0,0,0],"sum_hessian":[1.23197395E2,5.0580273E1,7.261712E1,5.7702236E0,4.4810047E1,3.36231E0,6.9254814E1,4.3571887E0,1.413035E0,3.3659775E1,1.1150272E1,1.9457669E0,1.416543E0,2.1249582E1,4.800523E1,2.28115E0,3.1378626E1,7.032239E0,4.1180334E0,1.7595402E1,3.6541805E0,2.78239E1,2.0181328E1,2.7870567E1,3.508057E0,1.8408767E0,5.1913624E0,4.0216875E0,1.3573715E1,4.624061E0,2.3199839E1,5.315941E0,1.4865388E1,2.6244581E1,1.6259874E0,1.411683E0,2.0963743E0,4.0461087E0,1.1452535E0,2.8629758E0,1.1587113E0,6.5455985E0,7.0281167E0,2.5249257E0,2.0991356E0,3.456998E0,1.9742842E1,1.1385127E0,4.177428E0,3.6623704E0,1.1203017E1,9.970148E0,1.6274433E1,1.4068952E0,2.6392138E0,1.3654253E0,5.180173E0,4.4703207E0,2.557796E0,1.4119121E0,2.045086E0,1.834577E0,1.7908264E1,1.8942202E0,2.2832077E0,2.5706594E0,8.632358E0],"tree_param":{"num_deleted":"0","num_feature":"66","num_nodes":"67","size_leaf_vector":"1"}},{"base_weights":[4.8925458E-3,5.7057965E-1,-2.9078206E-1,-8.3754534E-1,7.417676E-1,2.7618644E-1,-4.5398217E-1,-5.6276526E-2,3.51483E-3,8.7249154E-1,-5.124348E-1,6.2435484E-1,-4.949084E-2,-2.951792E-1,-1.2063661E0,1.130046E0,4.7287554E-2,1.5243851E-2,-5.1132172E-2,-1.3249402E-1,1.2681103E0,3.858649E-1,-4.4681436E-1,-6.8107836E-2,-9.981315E-3,1.2965748E0,-3.531771E-2,-2.72271E-1,5.3780854E-2,6.028985E-2,-6.8066216E-1,1.6836777E0,1.1657839E-1,-5.3809893E-1,9.253603E-1,-6.665678E-1,2.687522E-1,1.4905916E0,4.3890035E-1,-5.3911157E-2,2.407079E-1,-5.242299E-2,2.4726348E-2,2.4125874E-2,9.375708E-2,2.6888222E-2,-1.8174814E-2,2.4864458E-2,-5.313183E-2,1.4695436E0,-2.752301E-2,3.453299E-1,-7.7372885E-1,8.221891E-2,-1.4252308E-1,8.053102E-2,5.3395485E-3,5.537876E-2,-3.4264777E-2,5.002094E-2,-3.6704905E-2,8.822208E-2,2.5206495E-2,-2.7233167E-2,5.782081E-2,2.8327907E-2,-4.2167146E-2,-3.5492253E-2,2.379308E-2],"categories":[],"categories_nodes":[],"categories_segments":[],"categories_sizes":[],"default_left":[0,0,0,0,0,0,0,0,0,0,0,0,0,0,0,0,0,0,0,0,0,0,0,0,0,0,0,0,0,0,0,0,0,0,0,0,0,0,0,0,0,0,0,0,0,0,0,0,0,0,0,0,0,0,0,0,0,0,0,0,0,0,0,0,0,0,0,0,0],"id":4,"left_children":[1,3,5,7,9,11,13,-1,-1,15,17,19,-1,21,23,25,27,-1,-1,29,31,33,35,-1,-1,37,-1,39,-1,-1,41,43,45,47,49,51,53,55,57,-1,59,-1,-1,-1,-1,-1,-1,-1,-1,61,-1,63,65,-1,67,-1,-1,-1,-1,-1,-1,-1,-1,-1,-1,-1,-1,-1,-1],"loss_changes":[2.068591E1,1.0854125E1,7.64184E0,1.4049225E0,6.7395725E0,8.895096E0,7.225563E0,0E0,0E0,7.412237E0,2.085133E0,7.6425676E0,0E0,5.72008E0,1.4117746E0,9.089489E0,3.3815596E0,0E0,0E0,6.657739E0,3.8160238E0,5.641827E0,7.161063E0,0E0,0E0,3.4822388E0,0E0,3.5541558E0,0E0,0E0,3.2345166E0,4.950161E-1,8.622951E-1,2.937873E0,6.3366385E0,3.9817839E0,6.539539E0,3.1258125E0,5.271719E0,0E0,4.9460235E0,0E0,0E0,0E0,0E0,0E0,0E0,0E0,0E0,6.197119E-1,0E0,3.4969249E0,3.396717E0,0E0,3.6705327E0,0E0,0E0,0E0,0E0,0E0,0E0,0E0,0E0,0E0,0E0,0E0,0E0,0E0,0E0],"parents":[2147483647,0,0,1,1,2,2,3,3,4,4,5,5,6,6,9,9,10,10,11,11,13,13,14,14,15,15,16,16,19,19,20,20,21,21,22,22,25,25,27,27,30,30,31,31,32,32,33,33,34,34,35,35,36,36,37,37,38,38,40,40,49,49,51,51,52,52,54,54],"right_children":[2,4,6,8,10,12,14,-1,-1,16,18,20,-1,22,24,26,28,-1,-1,30,32,34,36,-1,-1,38,-1,40,-1,-1,42,44,46,48,50,52,54,56,58,-1,60,-1,-1,-1,-1,-1,-1,-1,-1,62,-1,64,66,-1,68,-1,-1,-1,-1,-1,-1,-1,-1,-1,-1,-1,-1,-1,-1],"split_conditions":[-5.9999943E-2,1E1,-1.9011666E-1,8.762701E-3,9.804E0,9.52E0,8.890799E0,-5.6276526E-2,3.51483E-3,5.313925E-2,-9.584664E-3,9.03996E0,-4.949084E-2,-1.2195122E0,3.5083E4,8.4112205E-2,-2.204402E0,1.5243851E-2,-5.1132172E-2,1.6318694E-1,-2.6666641E0,-3.0549822E0,7.6E0,-6.8107836E-2,-9.981315E-3,3.723404E-2,-3.531771E-2,4.747E3,5.3780854E-2,6.028985E-2,1.4285715E0,-4.9140047E-2,8.70322E-4,2.2744503E-2,-2.9962606E0,4.8695407E0,-8.666667E-1,4.0030745E-1,-3.3707865E-2,-5.3911157E-2,3.1644784E-2,-5.242299E-2,2.4726348E-2,2.4125874E-2,9.375708E-2,2.6888222E-2,-1.8174814E-2,2.4864458E-2,-5.313183E-2,4.2E-1,-2.752301E-2,-2.5382683E-2,5.015536E-2,8.221891E-2,9.99001E-2,8.053102E-2,5.3395485E-3,5.537876E-2,-3.4264777E-2,5.002094E-2,-3.6704905E-2,8.822208E-2,2.5206495E-2,-2.7233167E-2,5.782081E-2,2.8327907E-2,-4.2167146E-2,-3.5492253E-2,2.379308E-2],"split_indices":[16,40,8,9,0,36,10,0,0,7,35,10,0,21,40,35,64,0,0,49,58,30,36,0,0,41,0,37,0,0,25,41,38,25,64,5,26,27,14,0,9,0,0,0,0,0,0,0,0,18,0,7,55,0,21,0,0,0,0,0,0,0,0,0,0,0,0,0,0],"split_type":[0,0,0,0,0,0,0,0,0,0,0,0,0,0,0,0,0,0,0,0,0,0,0,0,0,0,0,0,0,0,0,0,0,0,0,0,0,0,0,0,0,0,0,0,0,0,0,0,0,0,0,0,0,0,0,0,0,0,0,0,0,0,0,0,0,0,0,0,0],"sum_hessian":[1.2168372E2,4.145051E1,8.0233215E1,4.0710535E0,3.7379456E1,1.77782E1,6.2455013E1,2.9086015E0,1.1624521E0,3.4126804E1,3.2526493E0,1.4341044E1,3.4371557E0,5.271993E1,9.735083E0,2.572756E1,8.399245E0,1.4047703E0,1.847879E0,6.9565597E0,7.3844852E0,9.319274E0,4.3400658E1,8.124758E0,1.6103252E0,2.385802E1,1.8695391E0,6.968865E0,1.43038E0,1.6728352E0,5.2837243E0,5.086675E0,2.2978103E0,3.436448E0,5.882826E0,3.325606E1,1.0144597E1,1.8854864E1,5.0031567E0,2.2818756E0,4.6869893E0,4.1063895E0,1.1773347E0,1.1833024E0,3.9033728E0,1.1599648E0,1.1378455E0,1.1730013E0,2.2634468E0,4.3011165E0,1.5817094E0,2.9717703E0,3.028429E1,1.6448133E0,8.4997835E0,1.7199127E1,1.6557378E0,3.1464336E0,1.8567232E0,2.6193419E0,2.0676477E0,2.660714E0,1.6404024E0,1.5735803E0,1.39819E0,1.1428243E0,2.9141466E1,4.3557787E0,4.144005E0],"tree_param":{"num_deleted":"0","num_feature":"66","num_nodes":"69","size_leaf_vector":"1"}},{"base_weights":[-6.017162E-3,7.7796924E-1,-1.8427832E-1,-5.1302034E-1,9.5794827E-1,6.4616364E-1,-2.8342372E-1,5.4995604E-3,-4.3138247E-2,1.1276447E0,-3.1312626E-2,-4.8273948E-1,1.1302922E0,-7.262162E-1,-1.2223962E-1,1.2425302E0,-8.317354E-3,-5.1379323E-2,2.243455E-2,1.533093E0,-2.3174866E-3,-8.300582E-1,1.6734315E-2,6.0252454E-2,-1.8841812E-1,5.5853075E-1,1.6196704E0,1.556244E-2,9.1487706E-2,-9.247334E-1,1.7742867E-2,-3.758372E-2,-6.993279E-1,1.0269346E0,-4.620525E-2,2.0510798E-2,8.9927666E-2,8.562316E-3,-1.0253013E0,7.0586234E-2,-1.0455806E0,1.0649893E-1,-1.0701938E0,6.462359E-2,-2.8005221E-3,-8.057405E-3,-5.8633476E-2,4.2060252E-2,-4.975873E-3,-5.8234293E-2,-1.6447661E-2,3.7653588E-2,-3.481316E-2,-6.1173018E-2,4.0493873E-3],"categories":[],"categories_nodes":[],"categories_segments":[],"categories_sizes":[],"default_left":[0,0,0,0,0,0,0,0,0,0,0,0,0,0,0,0,0,0,0,0,0,0,0,0,0,0,0,0,0,0,0,0,0,0,0,0,0,0,0,0,0,0,0,0,0,0,0,0,0,0,0,0,0,0,0],"id":5,"left_children":[1,3,5,7,9,11,13,-1,-1,15,-1,17,19,21,23,25,-1,-1,-1,27,-1,29,-1,-1,31,33,35,-1,-1,37,-1,39,41,43,-1,-1,-1,-1,45,47,49,51,53,-1,-1,-1,-1,-1,-1,-1,-1,-1,-1,-1,-1],"loss_changes":[1.7409058E1,5.8537607E0,8.537182E0,8.5207826E-1,6.245096E0,6.6267242E0,6.4301243E0,0E0,0E0,3.0263615E0,0E0,2.5114312E0,3.9036303E0,2.9408722E0,6.214522E0,3.6196632E0,0E0,0E0,0E0,1.6247253E0,0E0,2.8304043E0,0E0,0E0,5.0438633E0,6.3379087E0,1.5942097E0,0E0,0E0,2.48275E0,0E0,5.7275777E0,4.578723E0,1.904284E0,0E0,0E0,0E0,0E0,2.2709084E0,6.3449225E0,5.118847E-2,3.440376E0,1.9201803E0,0E0,0E0,0E0,0E0,0E0,0E0,0E0,0E0,0E0,0E0,0E0,0E0],"parents":[2147483647,0,0,1,1,2,2,3,3,4,4,5,5,6,6,9,9,11,11,12,12,13,13,14,14,15,15,19,19,21,21,24,24,25,25,26,26,29,29,31,31,32,32,33,33,38,38,39,39,40,40,41,41,42,42],"right_children":[2,4,6,8,10,12,14,-1,-1,16,-1,18,20,22,24,26,-1,-1,-1,28,-1,30,-1,-1,32,34,36,-1,-1,38,-1,40,42,44,-1,-1,-1,-1,46,48,50,52,54,-1,-1,-1,-1,-1,-1,-1,-1,-1,-1,-1,-1],"split_conditions":[-3.2665964E-2,7E0,-6.6386557E0,4.083864E-1,9.107468E-2,2.0000458E-1,5.5E3,5.4995604E-3,-4.3138247E-2,9.45E0,-3.1312626E-2,-5.037783E-3,1.1654938E-2,9.312246E0,4.8695407E0,6.39E0,-8.317354E-3,-5.1379323E-2,2.243455E-2,-5.882301E-3,-2.3174866E-3,7.5848227E0,1.6734315E-2,6.0252454E-2,7.256894E0,2.912215E-1,-2.999997E-1,1.556244E-2,9.1487706E-2,-3.125E-2,1.7742867E-2,6.8999064E-1,-4.9999714E-2,1.0515247E-3,-4.620525E-2,2.0510798E-2,8.9927666E-2,8.562316E-3,1.4861996E0,-3.141361E-2,3.684211E-2,6.4332194E0,5.2E4,6.462359E-2,-2.8005221E-3,-8.057405E-3,-5.8633476E-2,4.2060252E-2,-4.975873E-3,-5.8234293E-2,-1.6447661E-2,3.7653588E-2,-3.481316E-2,-6.1173018E-2,4.0493873E-3],"split_indices":[14,40,28,25,35,65,23,0,0,42,0,35,8,10,5,36,0,0,0,44,0,28,0,0,30,55,20,0,0,41,0,61,20,44,0,0,0,0,65,44,41,10,37,0,0,0,0,0,0,0,0,0,0,0,0],"split_type":[0,0,0,0,0,0,0,0,0,0,0,0,0,0,0,0,0,0,0,0,0,0,0,0,0,0,0,0,0,0,0,0,0,0,0,0,0,0,0,0,0,0,0,0,0,0,0,0,0,0,0,0,0,0,0],"sum_hessian":[1.2254318E2,2.2078499E1,1.0046468E2,2.4749854E0,1.9603514E1,1.0126636E1,9.033805E1,1.1363239E0,1.3386614E0,1.7967108E1,1.6364067E0,3.040227E0,7.0864086E0,2.3173124E1,6.7164925E1,1.6538523E1,1.4285842E0,1.853042E0,1.1871849E0,5.0535E0,2.0329084E0,2.1305334E1,1.867792E0,2.3725019E0,6.479243E1,6.759724E0,9.778799E0,1.387606E0,3.6658943E0,1.9932314E1,1.37302E0,5.0852848E1,1.3939576E1,5.370424E0,1.3893002E0,1.6842881E0,8.09451E0,1.616211E0,1.8316103E1,4.6764446E1,4.0884023E0,4.618097E0,9.321479E0,4.157524E0,1.2128999E0,2.9734693E0,1.5342633E1,7.7426696E0,3.9021774E1,2.9696136E0,1.1187888E0,2.5921707E0,2.0259264E0,8.17084E0,1.150639E0],"tree_param":{"num_deleted":"0","num_feature":"66","num_nodes":"55","size_leaf_vector":"1"}},{"base_weights":[3.0070613E-3,6.119129E-1,-2.5336963E-1,-4.5433214E-1,7.54603E-1,-8.48319E-1,-1.2999007E-1,2.6165828E-2,-5.4666616E-2,-2.6791144E-2,1.1051126E0,-9.969663E-1,1.2054823E-2,4.401861E-2,-7.4293935E-1,6.0573035E-1,-8.756496E-1,1.4007486E0,2.010958E-1,-2.707912E-4,-1.1091472E0,1.3997829E-1,-5.809138E-2,4.1143313E-2,-9.8040503E-1,1.0664054E0,-2.8398285E-2,2.108469E-3,-5.7836264E-2,1.9442376E-3,1.5009427E0,-4.5113783E-2,1.2000772E0,-1.1680287E0,-1.34994155E-2,-9.3945146E-1,2.6765597E-1,-1.0817993E0,5.5425046E-3,-5.070473E-3,7.524815E-2,1.6374751E0,1.621465E-2,7.1936406E-2,1.8309249E-2,-1.233341E0,-1.5690673E-2,-6.0143735E-2,4.4408846E-3,-5.706606E-1,3.899982E-1,-1.2039205E0,6.439169E-3,8.9194946E-2,1.8806348E-2,-6.549862E-2,-1.7664714E-2,-6.0270645E-2,3.4912907E-2,2.792855E-2,-1.3589727E-2,-6.697338E-2,-4.28096E-3],"categories":[],"categories_nodes":[],"categories_segments":[],"categories_sizes":[],"default_left":[0,0,0,0,0,0,0,0,0,0,0,0,0,0,0,0,0,0,0,0,0,0,0,0,0,0,0,0,0,0,0,0,0,0,0,0,0,0,0,0,0,0,0,0,0,0,0,0,0,0,0,0,0,0,0,0,0,0,0,0,0,0,0],"id":6,"left_children":[1,3,5,7,9,11,13,-1,-1,15,17,19,-1,21,23,25,27,29,31,-1,33,35,-1,-1,37,39,-1,-1,-1,-1,41,-1,43,45,-1,47,49,51,-1,-1,-1,53,-1,-1,-1,55,-1,-1,-1,57,59,61,-1,-1,-1,-1,-1,-1,-1,-1,-1,-1,-1],"loss_changes":[1.9114967E1,5.8623314E0,6.215332E0,3.6370938E0,8.895927E0,2.6079588E0,7.771229E0,0E0,0E0,6.4370008E0,5.6973057E0,1.4466572E0,0E0,6.810947E0,6.7926826E0,4.333648E0,1.3660209E0,2.2190933E0,8.446614E0,0E0,2.641077E-1,7.7092123E0,0E0,0E0,1.7171202E0,2.8664694E0,0E0,0E0,0E0,0E0,1.9623299E0,0E0,2.5633955E-1,2.0756912E-1,0E0,1.7172446E0,5.265237E0,2.121416E0,0E0,0E0,0E0,1.8518562E0,0E0,0E0,0E0,1.8188477E-1,0E0,0E0,0E0,6.2120647E0,5.004668E0,1.73139E0,0E0,0E0,0E0,0E0,0E0,0E0,0E0,0E0,0E0,0E0,0E0],"parents":[2147483647,0,0,1,1,2,2,3,3,4,4,5,5,6,6,9,9,10,10,11,11,13,13,14,14,15,15,16,16,17,17,18,18,20,20,21,21,24,24,25,25,30,30,32,32,33,33,35,35,36,36,37,37,41,41,45,45,49,49,50,50,51,51],"right_children":[2,4,6,8,10,12,14,-1,-1,16,18,20,-1,22,24,26,28,30,32,-1,34,36,-1,-1,38,40,-1,-1,-1,-1,42,-1,44,46,-1,48,50,52,-1,-1,-1,54,-1,-1,-1,56,-1,-1,-1,58,60,62,-1,-1,-1,-1,-1,-1,-1,-1,-1,-1,-1],"split_conditions":[-4.8076925E0,3E0,-9.98E-1,-2.0040061E-2,-2.0576112E-2,8.223715E-3,7.256894E0,2.6165828E-2,-5.4666616E-2,1.0515247E-3,8.178E0,9E2,1.2054823E-2,1.7066213E-1,-8.9999676E-2,2.25E4,-1.1931818E1,1.4812507E-1,9.11836E0,-2.707912E-4,2.2378907E-2,2.0592E3,-5.809138E-2,4.1143313E-2,1.5508018E-1,7.1218E0,-2.8398285E-2,2.108469E-3,-5.7836264E-2,1.9442376E-3,4.6336648E-1,-4.5113783E-2,-9.584664E-3,4.3E4,-1.34994155E-2,1E-1,8E0,6.207827E-2,5.5425046E-3,-5.070473E-3,7.524815E-2,8.6666666E-2,1.621465E-2,7.1936406E-2,1.8309249E-2,2E0,-1.5690673E-2,-6.0143735E-2,4.4408846E-3,5E0,2.8E4,6.85E4,6.439169E-3,8.9194946E-2,1.8806348E-2,-6.549862E-2,-1.7664714E-2,-6.0270645E-2,3.4912907E-2,2.792855E-2,-1.3589727E-2,-6.697338E-2,-4.28096E-3],"split_indices":[52,46,26,38,38,44,30,0,0,35,1,23,0,9,32,43,30,61,10,0,7,23,0,0,22,3,0,0,0,0,27,0,35,37,0,16,43,44,0,0,0,38,0,0,0,25,0,0,0,62,37,37,0,0,0,0,0,0,0,0,0,0,0],"split_type":[0,0,0,0,0,0,0,0,0,0,0,0,0,0,0,0,0,0,0,0,0,0,0,0,0,0,0,0,0,0,0,0,0,0,0,0,0,0,0,0,0,0,0,0,0,0,0,0,0,0,0,0,0,0,0,0,0,0,0,0,0,0,0],"sum_hessian":[1.20452934E2,3.5278404E1,8.517453E1,3.9061122E0,3.1372292E1,1.36203E1,7.155423E1,1.615496E0,2.2906163E0,1.0000855E1,2.1371435E1,1.2059659E1,1.5606415E0,5.645542E1,1.5098806E1,5.8948E0,4.1060557E0,1.5690709E1,5.680726E0,1.3322617E0,1.0727397E1,5.3112698E1,3.3427231E0,1.6636696E0,1.3435137E1,4.2988977E0,1.5959022E0,1.1619194E0,2.9441364E0,1.1704016E0,1.4520308E1,2.7453268E0,2.9353993E0,9.657828E0,1.0695691E0,4.9453197E0,4.8167377E1,1.2300864E1,1.134273E0,1.3835291E0,2.915369E0,1.26596985E1,1.860609E0,1.7183187E0,1.2170806E0,8.559547E0,1.0982809E0,3.8016129E0,1.1437068E0,5.6675544E0,4.2499825E1,1.1178683E1,1.1221807E0,1.0971761E1,1.6879379E0,7.4245186E0,1.1350285E0,3.811148E0,1.8564065E0,3.3996227E1,8.503595E0,9.793824E0,1.3848593E0],"tree_param":{"num_deleted":"0","num_feature":"66","num_nodes":"63","size_leaf_vector":"1"}},{"base_weights":[-3.1340457E-2,3.584033E-1,-2.4383515E-1,7.039098E-2,1.0721263E0,-9.3828076E-1,-9.526815E-2,7.219327E-1,-2.97485E-1,3.7156993E-1,8.54053E-2,-1.1103958E0,1.8394168E-2,2.3034117E-1,-4.1281003E-1,-9.5065504E-2,1.3799422E0,4.4733826E-2,-4.6486488E-1,8.384036E-1,-4.5602124E-2,-4.6796945E-1,-1.2185391E0,8.361421E-1,-2.1779919E-1,9.014542E-1,-5.6736994E-1,-5.20315E-2,6.266997E-1,8.212207E-2,1.9257251E-2,-6.3491035E-1,4.6668366E-2,-2.2339158E-2,1.3311881E0,7.4703568E-3,-4.154399E-2,-1.3276796E-2,-6.512933E-2,3.8292462E-1,9.327831E-2,1.8576054E-1,-9.99713E-1,-3.8518577E-3,6.7970656E-2,-6.418582E-2,-3.7983018E-1,6.893805E-2,-1.5402831E-2,-8.661448E-1,3.4431998E-2,7.787155E-2,1.9630412E-2,-3.752542E-1,9.5300204E-1,-4.0078422E-1,1.0709957E0,-6.075848E-2,-3.422739E-3,-5.665635E-1,5.267563E-1,-5.8111873E-2,-1.2818351E-2,2.3611397E-2,-3.5618737E-2,-5.562555E-3,7.298937E-2,1.6606843E-2,-5.8115926E-2,8.105489E-2,-3.6749158E-2,1.3343935E-2,-3.5701398E-2,-4.0367026E-2,5.6423586E-2],"categories":[],"categories_nodes":[],"categories_segments":[],"categories_sizes":[],"default_left":[0,0,0,0,0,0,0,0,0,0,0,0,0,0,0,0,0,0,0,0,0,0,0,0,0,0,0,0,0,0,0,0,0,0,0,0,0,0,0,0,0,0,0,0,0,0,0,0,0,0,0,0,0,0,0,0,0,0,0,0,0,0,0,0,0,0,0,0,0,0,0,0,0,0,0],"id":7,"left_children":[1,3,5,7,9,11,13,15,17,19,-1,21,-1,23,25,27,29,-1,31,33,-1,35,37,39,41,43,45,-1,47,-1,-1,49,-1,-1,51,-1,-1,-1,-1,53,-1,55,57,-1,-1,-1,59,-1,-1,61,-1,-1,-1,63,65,67,69,-1,-1,71,73,-1,-1,-1,-1,-1,-1,-1,-1,-1,-1,-1,-1,-1,-1],"loss_changes":[1.0096647E1,8.773627E0,8.041496E0,7.822836E0,4.848465E0,3.5054436E0,6.922587E0,6.4459777E0,4.605392E0,5.039638E0,0E0,2.9268265E-1,0E0,9.207436E0,7.375108E0,4.8669252E0,1.0832586E0,0E0,5.1264043E0,4.237923E0,0E0,8.888502E-1,4.5570564E-1,5.977083E0,6.4657936E0,1.8710763E0,3.6565266E0,0E0,3.3256054E0,0E0,0E0,5.981771E0,0E0,0E0,3.248663E-1,0E0,0E0,0E0,0E0,5.205577E0,0E0,7.683046E0,1.3076487E0,0E0,0E0,0E0,4.677498E0,0E0,0E0,2.4865093E0,0E0,0E0,0E0,1.9167663E0,3.7679024E0,5.4821587E0,6.9932294E0,0E0,0E0,2.8859506E0,4.87357E0,0E0,0E0,0E0,0E0,0E0,0E0,0E0,0E0,0E0,0E0,0E0,0E0,0E0,0E0],"parents":[2147483647,0,0,1,1,2,2,3,3,4,4,5,5,6,6,7,7,8,8,9,9,11,11,13,13,14,14,15,15,16,16,18,18,19,19,21,21,22,22,23,23,24,24,25,25,26,26,28,28,31,31,34,34,39,39,41,41,42,42,46,46,49,49,53,53,54,54,55,55,56,56,59,59,60,60],"right_children":[2,4,6,8,10,12,14,16,18,20,-1,22,-1,24,26,28,30,-1,32,34,-1,36,38,40,42,44,46,-1,48,-1,-1,50,-1,-1,52,-1,-1,-1,-1,54,-1,56,58,-1,-1,-1,60,-1,-1,62,-1,-1,-1,64,66,68,70,-1,-1,72,74,-1,-1,-1,-1,-1,-1,-1,-1,-1,-1,-1,-1,-1,-1],"split_conditions":[-2.4615386E0,2.004054E-3,-9.8767966E-1,-3.1578917E-2,9.706E3,3.6E-1,1.540475E4,1E4,4.92E0,8.1E0,8.54053E-2,-1.7241444E-2,1.8394168E-2,7.311828E0,-3.8461503E-2,5.908E0,3.7198117E-1,4.4733826E-2,4.0636048E-2,2.253E3,-4.5602124E-2,-1.4665724E-1,-2.3397762E-2,1.0125E4,4.235537E0,-8.0394216E-2,-1.1E-1,-5.20315E-2,3.4464476E-1,8.212207E-2,1.9257251E-2,5.919715E-1,4.6668366E-2,-2.2339158E-2,9.999752E-3,7.4703568E-3,-4.154399E-2,-1.3276796E-2,-6.512933E-2,-2.4518697E-2,9.327831E-2,1.2515645E-1,1.3625E4,-3.8518577E-3,6.7970656E-2,-6.418582E-2,3.868468E-2,6.893805E-2,-1.5402831E-2,7.26E0,3.4431998E-2,7.787155E-2,1.9630412E-2,-6.4133015E0,4.0758293E1,7.2727275E-1,1.0129564E1,-6.075848E-2,-3.422739E-3,-5.882301E-3,-9.169884E0,-5.8111873E-2,-1.2818351E-2,2.3611397E-2,-3.5618737E-2,-5.562555E-3,7.298937E-2,1.6606843E-2,-5.8115926E-2,8.105489E-2,-3.6749158E-2,1.3343935E-2,-3.5701398E-2,-4.0367026E-2,5.6423586E-2],"split_indices":[28,35,26,35,34,31,24,34,1,42,0,35,0,65,14,0,49,0,41,40,0,27,38,24,19,27,16,0,49,0,0,61,0,0,20,0,0,0,0,7,0,19,24,0,0,0,41,0,0,62,0,0,0,30,6,30,29,0,0,14,30,0,0,0,0,0,0,0,0,0,0,0,0,0,0],"split_type":[0,0,0,0,0,0,0,0,0,0,0,0,0,0,0,0,0,0,0,0,0,0,0,0,0,0,0,0,0,0,0,0,0,0,0,0,0,0,0,0,0,0,0,0,0,0,0,0,0,0,0,0,0,0,0,0,0,0,0,0,0,0,0,0,0,0,0,0,0,0,0,0,0,0,0],"sum_hessian":[1.19857765E2,4.204851E1,7.780925E1,3.0741756E1,1.1306755E1,1.2775815E1,6.503344E1,1.0746427E1,1.9995329E1,6.1340775E0,5.1726775E0,1.1420766E1,1.3550496E0,3.2244423E1,3.2789013E1,5.1756983E0,5.570728E0,1.9267666E0,1.8068563E1,4.7524953E0,1.3815821E0,2.4130902E0,9.007675E0,1.3342323E1,1.89021E1,2.9417903E0,2.9847221E1,2.0492492E0,3.126449E0,3.892559E0,1.6781689E0,1.6596148E1,1.4724146E0,1.3430799E0,3.4094155E0,1.1111426E0,1.3019476E0,1.0671186E0,7.940557E0,1.0216399E1,3.1259246E0,1.2970316E1,5.931784E0,1.2030632E0,1.738727E0,4.9800124E0,2.486721E1,1.4693131E0,1.657136E0,1.4422088E1,2.1740603E0,2.215923E0,1.1934925E0,4.5314765E0,5.684923E0,8.130448E0,4.8398676E0,4.569673E0,1.3621107E0,2.093102E1,3.9361887E0,9.098221E0,5.3238664E0,1.1755387E0,3.3559377E0,2.0856078E0,3.5993152E0,4.430385E0,3.7000635E0,3.7883162E0,1.0515515E0,3.0249238E0,1.7906097E1,1.1172781E0,2.8189108E0],"tree_param":{"num_deleted":"0","num_feature":"66","num_nodes":"75","size_leaf_vector":"1"}},{"base_weights":[8.851671E-3,-7.252223E-1,1.4503214E-1,4.1158792E-1,-1.0867032E0,3.0602753E-1,-4.202699E-1,-3.9605397E-1,5.529496E-2,6.495205E-3,-1.1956846E0,-2.9577714E-1,4.5519432E-1,5.64373E-1,-7.010348E-1,-3.80025E-2,7.664695E-3,-3.9461976E-1,-6.577801E-2,5.4829645E-1,-5.345399E-1,1.3233035E0,3.089893E-1,-3.8522035E-2,6.772249E-2,7.9255655E-2,-9.814861E-1,8.386715E-3,-3.8508542E-2,-4.8687793E-3,5.652476E-2,9.105457E-2,-9.5358163E-1,1.6559885E0,-2.3579808E-2,1.4068705E0,1.8446971E-1,4.7338095E-2,-4.595257E-2,5.426938E-1,-4.245357E-2,-1.0940149E0,7.3486045E-3,3.8581397E-2,-4.4221228E-1,-6.409141E-2,2.8252542E-2,9.038403E-2,2.2129087E-2,8.944815E-2,-4.3260213E-4,5.9094375E-1,-1.786479E-1,-1.5367211E-1,6.607554E-2,-1.2241396E0,-7.596787E-6,-4.9894184E-2,2.6569793E-2,-2.496843E-2,4.3587234E-2,-2.5998894E-2,2.8161783E-2,2.4555946E-2,-3.7762225E-2,-6.48759E-2,-1.33942515E-2],"categories":[],"categories_nodes":[],"categories_segments":[],"categories_sizes":[],"default_left":[0,0,0,0,0,0,0,0,0,0,0,0,0,0,0,0,0,0,0,0,0,0,0,0,0,0,0,0,0,0,0,0,0,0,0,0,0,0,0,0,0,0,0,0,0,0,0,0,0,0,0,0,0,0,0,0,0,0,0,0,0,0,0,0,0,0,0],"id":8,"left_children":[1,3,5,7,9,11,13,15,-1,-1,17,19,21,23,25,-1,-1,27,-1,29,31,33,35,37,-1,39,41,-1,-1,-1,-1,43,45,47,-1,49,51,-1,-1,53,-1,55,-1,-1,57,-1,-1,-1,-1,-1,-1,59,61,63,-1,65,-1,-1,-1,-1,-1,-1,-1,-1,-1,-1,-1],"loss_changes":[1.2074489E1,8.215147E0,9.396287E0,3.4020636E0,2.0933628E0,7.301509E0,6.7523117E0,7.5234723E-1,0E0,0E0,7.785187E-1,3.6111758E0,7.7613773E0,2.7462034E0,4.0907307E0,0E0,0E0,8.02357E-1,0E0,1.6603215E0,3.5839784E0,6.1397285E0,7.4505477E0,4.4967656E0,0E0,2.9447453E0,1.8832283E0,0E0,0E0,0E0,0E0,2.6146357E0,4.7501473E0,6.3427544E-1,0E0,3.0410976E0,7.7517543E0,0E0,0E0,2.6225657E0,0E0,1.7723112E0,0E0,0E0,2.7742746E0,0E0,0E0,0E0,0E0,0E0,0E0,7.989827E0,7.415942E0,1.6319765E0,0E0,4.332981E-1,0E0,0E0,0E0,0E0,0E0,0E0,0E0,0E0,0E0,0E0,0E0],"parents":[2147483647,0,0,1,1,2,2,3,3,4,4,5,5,6,6,7,7,10,10,11,11,12,12,13,13,14,14,17,17,19,19,20,20,21,21,22,22,23,23,25,25,26,26,31,31,32,32,33,33,35,35,36,36,39,39,41,41,44,44,51,51,52,52,53,53,55,55],"right_children":[2,4,6,8,10,12,14,16,-1,-1,18,20,22,24,26,-1,-1,28,-1,30,32,34,36,38,-1,40,42,-1,-1,-1,-1,44,46,48,-1,50,52,-1,-1,54,-1,56,-1,-1,58,-1,-1,-1,-1,-1,-1,60,62,64,-1,66,-1,-1,-1,-1,-1,-1,-1,-1,-1,-1,-1],"split_conditions":[-9.98E-1,-8.571427E1,5.721393E0,5.1905003E0,4.99E0,7.91E2,-9.4736844E-1,-9.4488174E1,5.529496E-2,6.495205E-3,-1.7241444E-2,-3.2665964E-2,-8.666667E-1,7.587475E-2,9.791662E0,-3.80025E-2,7.664695E-3,4.216E3,-6.577801E-2,-4.709419E0,9.000015E-2,7.7715974E0,-5.6603808E-2,1.5366E4,6.772249E-2,-3.6363636E1,1.113402E1,8.386715E-3,-3.8508542E-2,-4.8687793E-3,5.652476E-2,-7.500001E1,2.0487164E-1,3.3333335E-2,-2.3579808E-2,-2.524373E-2,-2.5575447E-3,4.7338095E-2,-4.595257E-2,-4.594598E1,-4.245357E-2,5.052627E-2,7.3486045E-3,3.8581397E-2,4.171779E0,-6.409141E-2,2.8252542E-2,9.038403E-2,2.2129087E-2,8.944815E-2,-4.3260213E-4,1.2448133E-1,1.1764706E-2,2.459014E0,6.607554E-2,8.3965E0,-7.596787E-6,-4.9894184E-2,2.6569793E-2,-2.496843E-2,4.3587234E-2,-2.5998894E-2,2.8161783E-2,2.4555946E-2,-3.7762225E-2,-6.48759E-2,-1.33942515E-2],"split_indices":[26,13,30,2,57,43,21,13,0,0,35,14,26,9,65,0,0,34,0,29,18,12,35,23,0,13,19,0,0,0,0,13,27,35,0,7,14,0,0,13,0,44,0,0,28,0,0,0,0,0,0,25,44,53,0,2,0,0,0,0,0,0,0,0,0,0,0],"split_type":[0,0,0,0,0,0,0,0,0,0,0,0,0,0,0,0,0,0,0,0,0,0,0,0,0,0,0,0,0,0,0,0,0,0,0,0,0,0,0,0,0,0,0,0,0,0,0,0,0,0,0,0,0,0,0,0,0,0,0,0,0,0,0,0,0,0,0],"sum_hessian":[1.1873315E2,1.7902918E1,1.0083023E2,4.285853E0,1.3617065E1,7.8836586E1,2.1993643E1,2.1798105E0,2.1060424E0,1.1037238E0,1.2513342E1,1.5464224E1,6.337236E1,4.65576E0,1.7337883E1,1.0803951E0,1.0994153E0,2.1874824E0,1.0325859E1,3.1239686E0,1.2340255E1,7.9741178E0,5.5398243E1,3.180224E0,1.475536E0,4.773667E0,1.2564217E1,1.0974756E0,1.0900066E0,1.8760881E0,1.2478803E0,5.2641E0,7.076155E0,6.7925158E0,1.1816021E0,4.594086E0,5.0804157E1,1.4653386E0,1.7148854E0,3.4611852E0,1.3124815E0,1.1452688E1,1.1115288E0,2.1162663E0,3.1478336E0,5.946726E0,1.1294293E0,5.6023865E0,1.1901294E0,3.4098473E0,1.1842389E0,2.3674969E1,2.7129187E1,2.2510934E0,1.2100917E0,1.0128694E1,1.3239952E0,1.9881787E0,1.159655E0,4.689171E0,1.8985798E1,1.8785404E1,8.343782E0,1.1751381E0,1.0759554E0,9.075414E0,1.0532794E0],"tree_param":{"num_deleted":"0","num_feature":"66","num_nodes":"67","size_leaf_vector":"1"}},{"base_weights":[9.077188E-2,7.6490945E-1,-5.9000608E-2,-2.333329E-2,9.1966647E-1,-5.052841E-1,1.17065854E-1,-2.825749E-1,1.1579115E0,-6.3378984E-1,6.4120823E-1,-3.2081857E-1,3.2485518E-1,2.7024588E-2,-4.790787E-2,3.12352E-1,1.368918E0,2.1927543E-1,-7.64102E-1,-1.8452745E-2,6.591472E-2,-4.717017E-1,7.6980364E-1,4.840542E-1,-5.1353365E-1,5.6110885E-2,-3.49026E-2,1.5258949E0,1.3950954E-2,4.0115483E-2,-3.7960026E-2,-2.6526457E-1,-1.1671326E0,1.4016144E-1,-8.47369E-1,7.2649874E-2,-1.543622E-2,1.3008605E0,2.0389292E-1,-9.994985E-1,1.952813E-1,8.464464E-2,1.8491365E-2,-5.0087035E-1,2.7002199E-2,-1.2288854E0,-1.3172592E-2,-6.148621E-1,9.1241807E-1,2.8120784E-2,-1.0253298E0,1.5370326E0,-6.692891E-3,-1.997103E-1,7.293805E-1,-1.4965235E-2,-5.5623103E-2,-4.2473685E-2,4.825936E-2,-3.8631417E-2,1.7332016E-2,-6.4892165E-2,-1.5836911E-2,-5.286507E-2,1.7095478E-2,7.037589E-2,-1.8479582E-2,3.924121E-3,-5.7312097E-2,8.652216E-2,4.0683197E-3,5.2481692E-2,-1.8086145E-2,-4.494925E-2,4.850244E-2],"categories":[],"categories_nodes":[],"categories_segments":[],"categories_sizes":[],"default_left":[0,0,0,0,0,0,0,0,0,0,0,0,0,0,0,0,0,0,0,0,0,0,0,0,0,0,0,0,0,0,0,0,0,0,0,0,0,0,0,0,0,0,0,0,0,0,0,0,0,0,0,0,0,0,0,0,0,0,0,0,0,0,0,0,0,0,0,0,0,0,0,0,0,0,0],"id":9,"left_children":[1,3,5,-1,7,9,11,13,15,17,19,21,23,-1,-1,25,27,29,31,-1,-1,33,35,37,39,-1,-1,41,-1,-1,-1,43,45,47,49,-1,-1,51,53,55,57,-1,-1,59,-1,61,-1,63,65,-1,67,69,-1,71,73,-1,-1,-1,-1,-1,-1,-1,-1,-1,-1,-1,-1,-1,-1,-1,-1,-1,-1,-1,-1],"loss_changes":[1.2104137E1,4.580865E0,7.8107896E0,0E0,5.9663277E0,4.545999E0,6.614817E0,2.7754567E0,2.5391083E0,3.0320816E0,2.7636724E0,4.2352476E0,6.791844E0,0E0,0E0,4.560884E0,1.800354E0,3.0004203E0,4.2293625E0,0E0,0E0,5.0126576E0,2.8357182E0,9.280792E0,3.057179E0,0E0,0E0,1.5264626E0,0E0,0E0,0E0,2.4303014E0,3.5669518E-1,5.7838216E0,3.9218817E0,0E0,0E0,3.7527485E0,6.9849367E0,6.984472E-2,4.2111135E0,0E0,0E0,2.4156625E0,0E0,2.896633E-1,0E0,2.531681E0,3.5863943E0,0E0,1.7173376E0,2.4123764E0,0E0,4.230291E0,6.4461417E0,0E0,0E0,0E0,0E0,0E0,0E0,0E0,0E0,0E0,0E0,0E0,0E0,0E0,0E0,0E0,0E0,0E0,0E0,0E0,0E0],"parents":[2147483647,0,0,1,1,2,2,4,4,5,5,6,6,7,7,8,8,9,9,10,10,11,11,12,12,15,15,16,16,17,17,18,18,21,21,22,22,23,23,24,24,27,27,31,31,32,32,33,33,34,34,37,37,38,38,39,39,40,40,43,43,45,45,47,47,48,48,50,50,51,51,53,53,54,54],"right_children":[2,4,6,-1,8,10,12,14,16,18,20,22,24,-1,-1,26,28,30,32,-1,-1,34,36,38,40,-1,-1,42,-1,-1,-1,44,46,48,50,-1,-1,52,54,56,58,-1,-1,60,-1,62,-1,64,66,-1,68,70,-1,72,74,-1,-1,-1,-1,-1,-1,-1,-1,-1,-1,-1,-1,-1,-1,-1,-1,-1,-1,-1,-1],"split_conditions":[-3.2665964E-2,2E0,1E-1,-2.333329E-2,-2.2556458E-2,9.312246E0,5.53E0,-4.889976E-3,5.11E2,-3.6727846E-2,-1.3173653E-2,5.4188237E0,9.714281E0,2.7024588E-2,-4.790787E-2,1.519E3,4.516129E0,1.5126077E0,1.9417456E0,-1.8452745E-2,6.591472E-2,-4.659091E0,4.98E0,8.14E0,1.1818182E1,5.6110885E-2,-3.49026E-2,7.867961E0,1.3950954E-2,4.0115483E-2,-3.7960026E-2,1.45E4,8.4E-1,5.45E2,4.857448E0,7.2649874E-2,-1.543622E-2,3.43075E-2,1.0515247E-3,6.34404E0,1.5126077E0,8.464464E-2,1.8491365E-2,-1.9639994E0,2.7002199E-2,7.6510797E0,-1.3172592E-2,9E0,-5E-2,2.8120784E-2,2.4899852E-2,1.7191978E0,-6.692891E-3,-9.346984E-1,-2.7586207E-2,-1.4965235E-2,-5.5623103E-2,-4.2473685E-2,4.825936E-2,-3.8631417E-2,1.7332016E-2,-6.4892165E-2,-1.5836911E-2,-5.286507E-2,1.7095478E-2,7.037589E-2,-1.8479582E-2,3.924121E-3,-5.7312097E-2,8.652216E-2,4.0683197E-3,5.2481692E-2,-1.8086145E-2,-4.494925E-2,4.850244E-2],"split_indices":[14,46,19,0,38,10,48,44,34,35,44,25,19,0,0,37,30,30,53,0,0,58,33,63,19,0,0,12,0,0,0,43,32,40,5,0,0,47,41,10,30,0,0,58,0,12,0,26,31,0,49,25,0,26,14,0,0,0,0,0,0,0,0,0,0,0,0,0,0,0,0,0,0,0,0],"split_type":[0,0,0,0,0,0,0,0,0,0,0,0,0,0,0,0,0,0,0,0,0,0,0,0,0,0,0,0,0,0,0,0,0,0,0,0,0,0,0,0,0,0,0,0,0,0,0,0,0,0,0,0,0,0,0,0,0,0,0,0,0,0,0,0,0,0,0,0,0,0,0,0,0,0,0],"sum_hessian":[1.18434814E2,2.0782778E1,9.765204E1,2.0950043E0,1.8687773E1,2.7097347E1,7.055469E1,3.0600362E0,1.5627737E1,2.4768353E1,2.3289948E0,2.2530703E1,4.802399E1,1.4695885E0,1.5904477E0,3.6163483E0,1.2011389E1,3.1917086E0,2.1576645E1,1.1171138E0,1.2118809E0,2.0291016E1,2.2396863E0,4.071532E1,7.3086667E0,1.945953E0,1.6703953E0,1.014953E1,1.861859E0,2.1128113E0,1.0788971E0,1.0383274E1,1.1193371E1,7.9574027E0,1.2333612E1,1.1585796E0,1.0811065E0,9.468063E0,3.124726E1,4.092644E0,3.2160223E0,8.4627075E0,1.686822E0,8.325543E0,2.0577304E0,1.0140552E1,1.0528193E0,4.1266503E0,3.8307521E0,1.1402612E0,1.1193352E1,8.068565E0,1.3994974E0,1.8023884E1,1.3223376E1,1.0755457E0,3.0170987E0,1.3206141E0,1.8954083E0,6.371008E0,1.9545356E0,9.034689E0,1.1058625E0,2.7499304E0,1.3767202E0,2.692886E0,1.1378661E0,1.1397188E0,1.0053633E1,6.9556255E0,1.1129401E0,1.4400859E0,1.6583797E1,1.3505001E0,1.1872876E1],"tree_param":{"num_deleted":"0","num_feature":"66","num_nodes":"75","size_leaf_vector":"1"}},{"base_weights":[-1.9027904E-2,3.7075597E-1,-2.4673219E-1,7.399192E-1,-1.8257655E-1,-9.194344E-1,-1.19709074E-1,-3.854248E-2,1.0255368E0,8.4993625E-1,-4.3529958E-1,1.4136481E-2,-1.1823926E0,8.257138E-2,-6.1380714E-1,-5.638154E-1,6.659254E-1,1.2047887E0,-2.2914095E-2,6.4377137E-3,6.298896E-2,-6.27065E-1,3.7713375E-2,-1.0390757E-2,-6.332983E-2,6.977255E-2,-1.1472941E-2,-1.961068E-1,-9.696048E-1,2.0578744E-2,-4.710289E-2,-7.206291E-3,6.1338004E-2,5.301386E-1,1.600321E0,-9.16558E-1,1.6878973E-1,-6.1536247E-1,1.6388373E-1,5.480693E-1,-7.075035E-1,6.625951E-4,-1.1833694E0,8.4793866E-1,-3.9894708E-2,2.1768676E-2,8.807284E-2,1.10837474E-1,-6.5504655E-2,-4.143606E-2,7.934558E-1,-9.241614E-1,2.830029E-1,6.050189E-1,-1.6870724E-1,5.3723723E-2,-2.2857936E-2,-1.0136955E0,1.7946081E-2,-6.3609526E-2,-1.4192492E-2,-8.632999E-3,5.8183473E-2,-4.027072E-2,4.330793E-2,5.8814503E-2,1.1486731E-3,-6.026882E-2,-3.046231E-3,5.1333647E-2,-3.680343E-2,4.411037E-2,-3.5495218E-2,-2.214813E-2,2.3439689E-2,-1.3133881E-2,-5.6830466E-2],"categories":[],"categories_nodes":[],"categories_segments":[],"categories_sizes":[],"default_left":[0,0,0,0,0,0,0,0,0,0,0,0,0,0,0,0,0,0,0,0,0,0,0,0,0,0,0,0,0,0,0,0,0,0,0,0,0,0,0,0,0,0,0,0,0,0,0,0,0,0,0,0,0,0,0,0,0,0,0,0,0,0,0,0,0,0,0,0,0,0,0,0,0,0,0,0,0],"id":10,"left_children":[1,3,5,7,9,11,13,15,17,19,21,-1,23,25,27,29,31,33,-1,-1,-1,35,-1,-1,-1,-1,37,39,41,-1,-1,-1,-1,43,45,47,49,51,53,55,57,-1,59,61,-1,-1,-1,63,-1,-1,65,67,69,71,73,-1,-1,75,-1,-1,-1,-1,-1,-1,-1,-1,-1,-1,-1,-1,-1,-1,-1,-1,-1,-1,-1],"loss_changes":[1.0994878E1,9.470386E0,6.5674906E0,6.178442E0,5.351462E0,4.2107525E0,6.7355227E0,3.4744675E0,5.9342785E0,1.047445E0,4.1223993E0,0E0,5.783205E-1,5.984186E0,2.7148318E0,2.3575094E0,2.0102558E0,4.042862E0,0E0,0E0,0E0,3.4546638E0,0E0,0E0,0E0,0E0,4.9824734E0,4.2866006E0,2.1801348E0,0E0,0E0,0E0,0E0,4.166898E0,1.3092136E0,4.454501E0,3.5642776E0,3.1976862E0,5.45936E0,2.997398E0,2.4890838E0,0E0,3.1582928E-1,2.5074377E0,0E0,0E0,0E0,3.3785737E0,0E0,0E0,9.6978474E-1,1.895544E0,3.3877246E0,6.426622E0,3.9842222E0,0E0,0E0,1.923604E-1,0E0,0E0,0E0,0E0,0E0,0E0,0E0,0E0,0E0,0E0,0E0,0E0,0E0,0E0,0E0,0E0,0E0,0E0,0E0],"parents":[2147483647,0,0,1,1,2,2,3,3,4,4,5,5,6,6,7,7,8,8,9,9,10,10,12,12,13,13,14,14,15,15,16,16,17,17,21,21,26,26,27,27,28,28,33,33,34,34,35,35,36,36,37,37,38,38,39,39,40,40,42,42,43,43,47,47,50,50,51,51,52,52,53,53,54,54,57,57],"right_children":[2,4,6,8,10,12,14,16,18,20,22,-1,24,26,28,30,32,34,-1,-1,-1,36,-1,-1,-1,-1,38,40,42,-1,-1,-1,-1,44,46,48,50,52,54,56,58,-1,60,62,-1,-1,-1,64,-1,-1,66,68,70,72,74,-1,-1,76,-1,-1,-1,-1,-1,-1,-1,-1,-1,-1,-1,-1,-1,-1,-1,-1,-1,-1,-1],"split_conditions":[-2.4615386E0,-4.598405E-2,2.8708134E-2,-2.3397762E-2,4.85E0,2.3703704E0,3.5464555E-1,1.0515247E-3,3.5781544E-2,4.9106E0,5.7785473E1,1.4136481E-2,7.4251E3,-2.6999998E-1,3.000021E-2,-3.1578917E-2,8.15E3,1.9000006E-1,-2.2914095E-2,6.4377137E-3,6.298896E-2,1.45E4,3.7713375E-2,-1.0390757E-2,-6.332983E-2,6.977255E-2,4.7084E3,4.011E3,-6.799998E-1,2.0578744E-2,-4.710289E-2,-7.206291E-3,6.1338004E-2,9.83E0,-1.118493E0,4.7084E3,-6.542054E0,2.001E3,9E3,-5.025126E-1,1.5013E4,6.625951E-4,4.1258937E-1,5E3,-3.9894708E-2,2.1768676E-2,8.807284E-2,-6.837607E1,-6.5504655E-2,-4.143606E-2,-2.0789506E-3,1.04601905E-2,2.546804E-1,6.625E0,6.2261056E-2,5.3723723E-2,-2.2857936E-2,3.8E3,1.7946081E-2,-6.3609526E-2,-1.4192492E-2,-8.632999E-3,5.8183473E-2,-4.027072E-2,4.330793E-2,5.8814503E-2,1.1486731E-3,-6.026882E-2,-3.046231E-3,5.1333647E-2,-3.680343E-2,4.411037E-2,-3.5495218E-2,-2.214813E-2,2.3439689E-2,-1.3133881E-2,-5.6830466E-2],"split_indices":[28,7,25,38,50,65,61,35,41,3,6,0,24,16,20,35,34,18,0,0,0,34,0,0,0,0,23,46,32,0,0,0,0,42,7,23,30,34,37,30,34,0,49,23,0,0,0,13,0,0,14,38,61,30,7,0,0,23,0,0,0,0,0,0,0,0,0,0,0,0,0,0,0,0,0,0,0],"split_type":[0,0,0,0,0,0,0,0,0,0,0,0,0,0,0,0,0,0,0,0,0,0,0,0,0,0,0,0,0,0,0,0,0,0,0,0,0,0,0,0,0,0,0,0,0,0,0,0,0,0,0,0,0,0,0,0,0,0,0,0,0,0,0,0,0,0,0,0,0,0,0,0,0,0,0,0,0],"sum_hessian":[1.2184767E2,4.4700752E1,7.714692E1,2.6610197E1,1.8090555E1,1.1262654E1,6.588426E1,7.374841E0,1.9235355E1,3.092574E0,1.4997981E1,2.007911E0,9.254743E0,4.7337494E1,1.854677E1,4.3391185E0,3.0357227E0,1.7329878E1,1.9054778E0,1.5968409E0,1.495733E0,1.3323083E1,1.6748984E0,1.0118289E0,8.242914E0,2.2392225E0,4.509827E1,9.244759E0,9.302012E0,1.1878451E0,3.1512733E0,1.5458963E0,1.4898263E0,7.269974E0,1.0059903E1,9.658227E0,3.6648562E0,9.583976E0,3.5514294E1,3.736196E0,5.508562E0,1.8292782E0,7.472734E0,6.1578903E0,1.1120838E0,1.6722318E0,8.387671E0,2.8738549E0,6.784372E0,1.2854676E0,2.3793886E0,7.110976E0,2.4729998E0,1.491394E1,2.0600355E1,2.4068964E0,1.3292996E0,4.3181734E0,1.1903889E0,6.4241E0,1.0486339E0,1.56197E0,4.5959206E0,1.2686194E0,1.6052355E0,1.2377079E0,1.1416807E0,5.0647097E0,2.0462663E0,1.4253719E0,1.0476279E0,1.2589193E1,2.324747E0,1.4617156E1,5.9831986E0,1.0485425E0,3.269631E0],"tree_param":{"num_deleted":"0","num_feature":"66","num_nodes":"77","size_leaf_vector":"1"}},{"base_weights":[1.2683778E-2,4.4265723E-1,-2.211649E-1,7.7632374E-1,-1.541073E-1,-8.564637E-1,-8.7202445E-2,1.4619675E-1,1.0397234E0,-5.282007E-1,6.7647445E-1,-1.0424865E0,2.9174576E-2,2.2956714E-1,-4.1336077E-1,7.591378E-1,-4.753733E-1,1.2360884E0,-1.3901605E-1,4.6778932E-1,-9.546206E-1,1.030985E0,-1.6916648E-2,-1.1020994E0,-1.0003145E-2,7.205456E-1,-1.8190955E-1,5.209281E-1,-5.9543943E-1,-7.5180824E-3,6.898575E-2,-5.1102817E-2,1.5041663E-2,1.3597953E0,5.17053E-3,2.1175476E-2,-3.720846E-2,6.15877E-2,-1.5142775E-2,-6.1421216E-2,-4.1863634E-3,6.2929176E-2,2.1217043E-2,-4.207912E-1,-6.1990947E-2,-3.6035812E-1,1.0930917E0,-4.4790047E-1,5.6957144E-2,9.352321E-1,-2.3260115E-2,-7.773225E-2,-7.7988917E-1,4.7138032E-1,1.5123533E0,-4.0069815E-2,9.95056E-3,4.673831E-2,-5.3682692E-2,-6.507305E-3,1.2944282E0,-8.38201E-2,-5.8065392E-2,6.9971584E-2,-2.942316E-3,-5.593272E-1,5.488686E-2,-9.230305E-1,2.033372E-2,5.1314145E-2,-1.9646052E-2,2.3321882E-2,8.097171E-2,7.650361E-2,3.2050707E-3,-5.8260467E-2,2.5782863E-2,1.5383619E-2,-4.8925683E-2,-4.985377E-2,3.8965375E-3],"categories":[],"categories_nodes":[],"categories_segments":[],"categories_sizes":[],"default_left":[0,0,0,0,0,0,0,0,0,0,0,0,0,0,0,0,0,0,0,0,0,0,0,0,0,0,0,0,0,0,0,0,0,0,0,0,0,0,0,0,0,0,0,0,0,0,0,0,0,0,0,0,0,0,0,0,0,0,0,0,0,0,0,0,0,0,0,0,0,0,0,0,0,0,0,0,0,0,0,0,0],"id":11,"left_children":[1,3,5,7,9,11,13,15,17,19,21,23,-1,25,27,29,31,33,35,37,39,41,-1,43,-1,45,47,49,51,-1,-1,-1,-1,53,-1,-1,-1,-1,-1,-1,-1,-1,-1,55,-1,57,59,61,-1,63,-1,65,67,69,71,-1,-1,-1,-1,-1,73,75,-1,-1,-1,77,-1,79,-1,-1,-1,-1,-1,-1,-1,-1,-1,-1,-1,-1,-1],"loss_changes":[1.1602427E1,8.211827E0,6.289362E0,4.201743E0,5.14493E0,4.066081E0,6.59033E0,3.750222E0,4.4157295E0,5.196976E0,2.2279475E0,3.7163448E-1,0E0,6.7042923E0,5.640282E0,2.9529333E0,2.4427285E0,2.0757904E0,1.5124513E0,2.7423139E0,1.8431239E0,3.4520626E-2,0E0,4.9069118E-1,0E0,6.448961E0,7.010833E0,2.7408414E0,2.4879189E0,0E0,0E0,0E0,0E0,1.2087345E0,0E0,0E0,0E0,0E0,0E0,0E0,0E0,0E0,0E0,9.445775E-1,0E0,5.2588906E0,2.9835749E0,4.088848E0,0E0,2.0694692E0,0E0,5.2116337E0,3.6987953E0,2.0965722E0,5.4912376E-1,0E0,0E0,0E0,0E0,0E0,2.7739468E0,8.217284E0,0E0,0E0,0E0,2.6356444E0,0E0,1.3944979E0,0E0,0E0,0E0,0E0,0E0,0E0,0E0,0E0,0E0,0E0,0E0,0E0,0E0],"parents":[2147483647,0,0,1,1,2,2,3,3,4,4,5,5,6,6,7,7,8,8,9,9,10,10,11,11,13,13,14,14,15,15,16,16,17,17,18,18,19,19,20,20,21,21,23,23,25,25,26,26,27,27,28,28,33,33,43,43,45,45,46,46,47,47,49,49,51,51,52,52,53,53,54,54,60,60,61,61,65,65,67,67],"right_children":[2,4,6,8,10,12,14,16,18,20,22,24,-1,26,28,30,32,34,36,38,40,42,-1,44,-1,46,48,50,52,-1,-1,-1,-1,54,-1,-1,-1,-1,-1,-1,-1,-1,-1,56,-1,58,60,62,-1,64,-1,66,68,70,72,-1,-1,-1,-1,-1,74,76,-1,-1,-1,78,-1,80,-1,-1,-1,-1,-1,-1,-1,-1,-1,-1,-1,-1,-1],"split_conditions":[-2.4615386E0,-1.7658286E-2,-9.799866E-1,-1.5923567E-2,3.04426E4,3.5E-1,1.595E4,-6.6386557E0,1.4306152E-1,4.0659325E1,-5.9999986E0,-1.6806705E1,2.9174576E-2,7.002181E0,-8.333333E-1,-1.1029411E1,-3.75E0,9.804E0,-1.3999987E-1,-7.4626865E0,7.5E-3,-2.0789506E-3,-1.6916648E-2,-1.6363664E0,-1.0003145E-2,1.0490203E-1,2.8310502E0,3.5987034E-1,-5.000019E-2,-7.5180824E-3,6.898575E-2,-5.1102817E-2,1.5041663E-2,5E1,5.17053E-3,2.1175476E-2,-3.720846E-2,6.15877E-2,-1.5142775E-2,-6.1421216E-2,-4.1863634E-3,6.2929176E-2,2.1217043E-2,-3.976059E-2,-6.1990947E-2,1.7010936E-1,2.0592E3,3.960392E0,5.6957144E-2,1.6694874E-1,-2.3260115E-2,3.55115E-1,1.1032028E1,1.075E4,-9.754768E1,-4.0069815E-2,9.95056E-3,4.673831E-2,-5.3682692E-2,-6.507305E-3,2.5641026E-2,7.5E-1,-5.8065392E-2,6.9971584E-2,-2.942316E-3,-1.8003294E-2,5.488686E-2,2.06075E5,2.033372E-2,5.1314145E-2,-1.9646052E-2,2.3321882E-2,8.097171E-2,7.650361E-2,3.2050707E-3,-5.8260467E-2,2.5782863E-2,1.5383619E-2,-4.8925683E-2,-4.985377E-2,3.8965375E-3],"split_indices":[28,8,26,38,24,31,24,28,29,6,58,13,0,65,26,28,28,0,16,28,47,38,0,28,0,55,25,55,20,0,0,0,0,46,0,0,0,0,0,0,0,0,0,8,0,25,23,19,0,30,0,55,19,24,13,0,0,0,0,0,38,28,0,0,0,38,0,24,0,0,0,0,0,0,0,0,0,0,0,0,0],"split_type":[0,0,0,0,0,0,0,0,0,0,0,0,0,0,0,0,0,0,0,0,0,0,0,0,0,0,0,0,0,0,0,0,0,0,0,0,0,0,0,0,0,0,0,0,0,0,0,0,0,0,0,0,0,0,0,0,0,0,0,0,0,0,0,0,0,0,0,0,0,0,0,0,0,0,0,0,0,0,0,0,0],"sum_hessian":[1.1341743E2,3.9639694E1,7.377773E1,2.5231321E1,1.4408373E1,1.1908756E1,6.1868977E1,7.8962584E0,1.7335064E1,1.018508E1,4.223293E0,1.0790763E1,1.1179934E0,3.1536465E1,3.0332512E1,3.864291E0,4.0319676E0,1.4817909E1,2.5171537E0,3.0242696E0,7.1608105E0,3.1180863E0,1.1052067E0,9.789758E0,1.0010054E0,1.40366535E1,1.749981E1,4.6436796E0,2.5688831E1,1.8746161E0,1.9896747E0,2.179917E0,1.8520504E0,1.3178128E1,1.6397805E0,1.4600824E0,1.0570714E0,1.2182438E0,1.8060257E0,5.1356564E0,2.025154E0,1.4859344E0,1.6321518E0,2.328067E0,7.461691E0,3.6062398E0,1.0430414E1,1.511699E1,2.3828201E0,3.3062396E0,1.3374399E0,7.1216E0,1.8567232E1,2.5306776E0,1.0647451E1,1.2608339E0,1.0672331E0,1.1704946E0,2.4357452E0,1.5241146E0,8.9063E0,1.0748893E1,4.368098E0,1.9758291E0,1.3304104E0,5.4236674E0,1.697933E0,1.6766678E1,1.8005539E0,1.4270581E0,1.1036196E0,1.4862636E0,9.161187E0,7.270209E0,1.6360908E0,3.496997E0,7.2518954E0,1.8543524E0,3.569315E0,1.5615429E1,1.1512486E0],"tree_param":{"num_deleted":"0","num_feature":"66","num_nodes":"81","size_leaf_vector":"1"}},{"base_weights":[-2.63416E-2,6.9897664E-1,-1.8051599E-1,9.430231E-1,-1.6753533E-1,3.3491606E-1,-3.2187167E-1,-3.703462E-2,1.1073289E0,-4.8339535E-2,4.1982758E-1,6.3120425E-1,-5.0711226E-1,-5.294924E-1,1.3500537E-2,1.249789E0,-8.650602E-3,4.432765E-2,-1.8799683E-2,-1.7007345E-1,1.0669081E0,-8.298058E-1,2.3805242E-2,-1.9483836E-1,-9.341589E-1,1.8442556E-1,-9.62115E-1,1.3607796E0,7.5190794E-4,5.7383116E-2,-6.886033E-1,-4.1372534E-3,1.2407355E0,2.4052742E-3,-5.5229057E-2,-5.7671826E-2,5.319206E-2,-7.0823856E-2,-1.1190976E0,-3.633788E-2,1.2195876E0,-1.5490654E-2,-5.3572495E-2,3.7733994E-3,1.5197325E0,-5.618752E-2,2.3890786E-2,1.4582131E0,6.0924375E-3,3.0491963E-1,-8.4484434E-1,-5.7435983E-1,3.9298486E-2,-8.269899E-3,-1.2021469E0,-3.291127E-1,5.4254645E-1,6.5122843E-3,7.542684E-2,8.0942385E-2,1.8081006E-2,8.326217E-2,5.3297584E-3,3.1366542E-2,-3.899717E-2,-5.4192275E-2,9.993408E-4,1.1966677E-3,-4.293205E-2,-1.2859272E-2,-6.256851E-2,-2.4195412E-2,4.244722E-2,4.4971835E-2,-2.8816728E-2],"categories":[],"categories_nodes":[],"categories_segments":[],"categories_sizes":[],"default_left":[0,0,0,0,0,0,0,0,0,0,0,0,0,0,0,0,0,0,0,0,0,0,0,0,0,0,0,0,0,0,0,0,0,0,0,0,0,0,0,0,0,0,0,0,0,0,0,0,0,0,0,0,0,0,0,0,0,0,0,0,0,0,0,0,0,0,0,0,0,0,0,0,0,0,0],"id":12,"left_children":[1,3,5,7,9,11,13,-1,15,-1,17,19,21,23,25,27,-1,-1,-1,29,31,33,-1,35,37,39,41,43,-1,-1,45,-1,47,-1,-1,-1,49,51,53,55,57,-1,-1,-1,59,-1,-1,61,-1,63,65,67,-1,-1,69,71,73,-1,-1,-1,-1,-1,-1,-1,-1,-1,-1,-1,-1,-1,-1,-1,-1,-1,-1],"loss_changes":[1.3248345E1,4.5514193E0,7.216626E0,5.3463993E0,2.9478025E0,5.681284E0,5.3742523E0,0E0,3.008232E0,0E0,1.7515543E0,5.8865438E0,2.3456514E0,6.2685165E0,5.254819E0,1.883955E0,0E0,0E0,0E0,5.3125734E0,2.2455435E0,1.2576575E0,0E0,6.56058E0,3.3211536E0,6.15688E0,3.2496452E-3,2.4879227E0,0E0,0E0,3.264854E0,0E0,2.1040668E0,0E0,0E0,0E0,5.382871E0,2.533007E0,1.185051E0,4.0795765E0,1.2925415E0,0E0,0E0,0E0,7.0991516E-1,0E0,0E0,1.9939079E0,0E0,6.940159E0,1.1024718E0,6.356894E-1,0E0,0E0,4.1835785E-1,3.3118627E0,3.7562993E0,0E0,0E0,0E0,0E0,0E0,0E0,0E0,0E0,0E0,0E0,0E0,0E0,0E0,0E0,0E0,0E0,0E0,0E0],"parents":[2147483647,0,0,1,1,2,2,3,3,4,4,5,5,6,6,8,8,10,10,11,11,12,12,13,13,14,14,15,15,19,19,20,20,21,21,23,23,24,24,25,25,26,26,27,27,30,30,32,32,36,36,37,37,38,38,39,39,40,40,44,44,47,47,49,49,50,50,51,51,54,54,55,55,56,56],"right_children":[2,4,6,8,10,12,14,-1,16,-1,18,20,22,24,26,28,-1,-1,-1,30,32,34,-1,36,38,40,42,44,-1,-1,46,-1,48,-1,-1,-1,50,52,54,56,58,-1,-1,-1,60,-1,-1,62,-1,64,66,68,-1,-1,70,72,74,-1,-1,-1,-1,-1,-1,-1,-1,-1,-1,-1,-1,-1,-1,-1,-1,-1,-1],"split_conditions":[-3.2665964E-2,-9.999752E-3,-8E-2,5E0,-1.999998E-2,1.5833334E0,8.3333336E-2,-3.703462E-2,9.45E0,-4.8339535E-2,-2.48341E-3,1.18913725E-1,1.0526356E0,2.7972845E-2,5.925E4,8.4112205E-2,-8.650602E-3,4.432765E-2,-1.8799683E-2,4.85E0,4.99E0,-8.093522E0,2.3805242E-2,1.9E3,-2.804878E-2,2.6124818E-2,8.70322E-4,6.2E3,7.5190794E-4,5.7383116E-2,2.166065E-2,-4.1372534E-3,9.100101E-3,2.4052742E-3,-5.5229057E-2,-5.7671826E-2,4.7999956E-2,4.9999714E-2,7.556675E-1,2.1075E4,1.535E3,-1.5490654E-2,-5.3572495E-2,3.7733994E-3,4.4295016E-1,-5.618752E-2,2.3890786E-2,1.6503558E-1,6.0924375E-3,3.0438462E-1,8.795211E0,2.007E3,3.9298486E-2,-8.269899E-3,1.3E3,5.4188237E0,1.1826544E-2,6.5122843E-3,7.542684E-2,8.0942385E-2,1.8081006E-2,8.326217E-2,5.3297584E-3,3.1366542E-2,-3.899717E-2,-5.4192275E-2,9.993408E-4,1.1966677E-3,-4.293205E-2,-1.2859272E-2,-6.256851E-2,-2.4195412E-2,4.244722E-2,4.4971835E-2,-2.8816728E-2],"split_indices":[14,32,20,40,20,26,26,0,42,0,27,25,29,27,24,35,0,0,0,33,56,29,0,23,35,35,14,24,0,0,14,0,14,0,0,0,22,20,65,24,46,0,0,0,27,0,0,7,0,49,10,46,0,0,23,25,38,0,0,0,0,0,0,0,0,0,0,0,0,0,0,0,0,0,0],"split_type":[0,0,0,0,0,0,0,0,0,0,0,0,0,0,0,0,0,0,0,0,0,0,0,0,0,0,0,0,0,0,0,0,0,0,0,0,0,0,0,0,0,0,0,0,0,0,0,0,0,0,0,0,0,0,0,0,0,0,0,0,0,0,0,0,0,0,0,0,0,0,0,0,0,0,0],"sum_hessian":[1.16345055E2,1.977575E1,9.6569305E1,1.5361112E1,4.414637E0,2.0489208E1,7.60801E1,1.0538478E0,1.4307264E1,1.5963776E0,2.8182592E0,1.5341354E1,5.147853E0,4.6632343E1,2.9447758E1,1.2896201E1,1.4110627E0,1.7045698E0,1.1136895E0,5.61845E0,9.722905E0,3.9932811E0,1.1545717E0,2.6335062E1,2.029728E1,2.5747784E1,3.6999726E0,1.1738931E1,1.1572706E0,1.2439384E0,4.3745117E0,1.3458372E0,8.377068E0,1.1485559E0,2.8447254E0,4.6629844E0,2.167208E1,3.824874E0,1.6472404E1,2.2017193E1,3.7305918E0,1.0814657E0,2.618507E0,1.454275E0,1.0284656E1,3.212594E0,1.1619176E0,6.7598815E0,1.6171862E0,1.7443087E1,4.228992E0,2.6166902E0,1.2081836E0,1.5591706E0,1.4913235E1,1.4908555E1,7.108637E0,1.0862339E0,2.644358E0,9.107384E0,1.1772723E0,5.660772E0,1.0991094E0,1.3771936E1,3.6711495E0,3.1149206E0,1.1140714E0,1.1378345E0,1.4788556E0,1.0465747E0,1.386666E1,1.3697898E1,1.2106578E0,5.5382314E0,1.5704056E0],"tree_param":{"num_deleted":"0","num_feature":"66","num_nodes":"75","size_leaf_vector":"1"}},{"base_weights":[-3.176018E-2,3.1318587E-1,-2.9110742E-1,-2.8252456E-1,5.426377E-1,-3.7937376E-1,5.378505E-1,6.234263E-1,-6.5723777E-1,-3.507617E-2,6.412779E-1,-1.1949517E-1,-8.351971E-1,1.1291318E0,-4.768266E-1,-1.8810695E-2,1.0367115E0,-1.1244916E0,2.0362842E-1,3.6773756E-2,8.1220186E-1,1.34330895E-2,-9.919962E-1,-9.356929E-1,2.6131196E-2,7.4181035E-2,9.054209E-4,-3.980064E-2,3.673488E-3,6.458976E-2,1.4148469E-2,-6.1476905E-2,-1.2868121E-2,-1.8308425E-2,3.7717324E-2,5.3190124E-1,-6.8541896E-1,-1.4202492E-2,9.0140307E-1,-4.2177695E-1,3.992035E-1,-1.2114942E-2,-5.592422E-2,-1.2100995E0,-4.9067566E-1,9.851004E-1,-1.5288609E-2,1.6354913E-3,-4.9515765E-2,1.0192816E0,-3.4967404E-2,8.490192E-2,-7.848799E-1,1.2372452E0,3.5519954E-2,-1.4578153E-2,-6.407558E-2,1.730623E-1,-8.701199E-1,1.4067361E-2,5.958582E-2,1.4439873E-2,5.962005E-2,3.5501536E-2,-4.1342627E-2,3.6691982E-2,-3.422473E-2,-4.9617067E-2,7.2843754E-3,4.901751E-3,8.254253E-2,-1.9120602E-2,4.8812393E-2,-3.2679413E-2,6.197035E-2,-5.574718E-2,7.081613E-3],"categories":[],"categories_nodes":[],"categories_segments":[],"categories_sizes":[],"default_left":[0,0,0,0,0,0,0,0,0,0,0,0,0,0,0,0,0,0,0,0,0,0,0,0,0,0,0,0,0,0,0,0,0,0,0,0,0,0,0,0,0,0,0,0,0,0,0,0,0,0,0,0,0,0,0,0,0,0,0,0,0,0,0,0,0,0,0,0,0,0,0,0,0,0,0,0,0],"id":13,"left_children":[1,3,5,7,9,11,13,15,17,-1,19,21,23,25,27,-1,29,31,33,35,37,39,41,43,-1,-1,-1,-1,-1,-1,-1,-1,-1,-1,-1,45,47,-1,49,51,53,-1,-1,55,57,59,-1,-1,-1,61,63,65,67,69,71,-1,-1,73,75,-1,-1,-1,-1,-1,-1,-1,-1,-1,-1,-1,-1,-1,-1,-1,-1,-1,-1],"loss_changes":[1.0423696E1,6.994544E0,5.065939E0,5.3575644E0,4.926283E0,7.0834627E0,4.6229095E0,2.3638937E0,4.5721207E0,0E0,3.5160503E0,4.6278896E0,3.470809E0,1.784164E0,6.2224793E-1,0E0,3.355682E-1,3.350277E-1,1.733915E0,3.4440532E0,2.8675747E0,6.130841E0,2.2908592E-1,1.934557E0,0E0,0E0,0E0,0E0,0E0,0E0,0E0,0E0,0E0,0E0,0E0,2.4546013E0,8.950256E-1,0E0,2.788065E0,3.226227E0,5.8505406E0,0E0,0E0,4.2170143E-1,2.5631213E0,2.3437834E-1,0E0,0E0,0E0,2.4607124E0,2.8023849E0,4.5325136E0,2.094831E0,2.5820484E0,6.0806847E0,0E0,0E0,4.6167192E0,1.7087145E0,0E0,0E0,0E0,0E0,0E0,0E0,0E0,0E0,0E0,0E0,0E0,0E0,0E0,0E0,0E0,0E0,0E0,0E0],"parents":[2147483647,0,0,1,1,2,2,3,3,4,4,5,5,6,6,7,7,8,8,10,10,11,11,12,12,13,13,14,14,16,16,17,17,18,18,19,19,20,20,21,21,22,22,23,23,35,35,36,36,38,38,39,39,40,40,43,43,44,44,45,45,49,49,50,50,51,51,52,52,53,53,54,54,57,57,58,58],"right_children":[2,4,6,8,10,12,14,16,18,-1,20,22,24,26,28,-1,30,32,34,36,38,40,42,44,-1,-1,-1,-1,-1,-1,-1,-1,-1,-1,-1,46,48,-1,50,52,54,-1,-1,56,58,60,-1,-1,-1,62,64,66,68,70,72,-1,-1,74,76,-1,-1,-1,-1,-1,-1,-1,-1,-1,-1,-1,-1,-1,-1,-1,-1,-1,-1],"split_conditions":[0E0,1.094E3,4.5203245E-1,-1.5048541E1,7E0,6.916994E0,-1.9883852E-1,-1.2857143E-2,7.5E3,-3.507617E-2,1.2448133E-1,9.45E0,8.918469E0,1.2738854E-2,4.7200012E1,-1.8810695E-2,1.0001E4,-2.1148036E0,3.5015447E0,8.1E0,6.7082085E-2,8.699435E-4,1.1235955E0,5.1904917E-2,2.6131196E-2,7.4181035E-2,9.054209E-4,-3.980064E-2,3.673488E-3,6.458976E-2,1.4148469E-2,-6.1476905E-2,-1.2868121E-2,-1.8308425E-2,3.7717324E-2,6.5668463E-3,-2.9300255E-1,-1.4202492E-2,5.0434776E-2,-1.9000006E-1,1.4198818E0,-1.2114942E-2,-5.592422E-2,2E0,3.0042918E0,5.276E0,-1.5288609E-2,1.6354913E-3,-4.9515765E-2,-8.974359E0,-3.6813937E-2,1.2269939E-1,1.05E4,2.5E3,2.6000023E-1,-1.4578153E-2,-6.407558E-2,-1.1778563E-1,3.2894738E-2,1.4067361E-2,5.958582E-2,1.4439873E-2,5.962005E-2,3.5501536E-2,-4.1342627E-2,3.6691982E-2,-3.422473E-2,-4.9617067E-2,7.2843754E-3,4.901751E-3,8.254253E-2,-1.9120602E-2,4.8812393E-2,-3.2679413E-2,6.197035E-2,-5.574718E-2,7.081613E-3],"split_indices":[15,34,55,64,40,59,8,38,43,0,25,36,25,38,6,0,46,52,19,45,49,15,19,9,0,0,0,0,0,0,0,0,0,0,0,9,8,0,38,31,53,0,0,43,30,0,0,0,0,29,15,19,43,40,16,0,0,30,44,0,0,0,0,0,0,0,0,0,0,0,0,0,0,0,0,0,0],"split_type":[0,0,0,0,0,0,0,0,0,0,0,0,0,0,0,0,0,0,0,0,0,0,0,0,0,0,0,0,0,0,0,0,0,0,0,0,0,0,0,0,0,0,0,0,0,0,0,0,0,0,0,0,0,0,0,0,0,0,0,0,0,0,0,0,0,0,0,0,0,0,0,0,0,0,0,0,0],"sum_hessian":[1.1449778E2,4.9050426E1,6.544735E1,1.3575072E1,3.5475353E1,5.9639378E1,5.807975E0,3.7777634E0,9.797309E0,2.1569927E0,3.3318363E1,3.8787567E1,2.0851809E1,3.5983276E0,2.2096472E0,1.1312451E0,2.6465182E0,6.151964E0,3.6453447E0,7.6120586E0,2.5706305E1,3.4513878E1,4.273693E0,1.9704329E1,1.1474811E0,2.4736938E0,1.1246338E0,1.1158869E0,1.0937601E0,1.4439948E0,1.2025234E0,5.1144447E0,1.0375196E0,1.9563385E0,1.6890062E0,4.672283E0,2.9397755E0,1.7699444E0,2.393636E1,1.6173864E1,1.8340012E1,1.037861E0,3.235832E0,1.1125129E1,8.5792E0,2.9177322E0,1.7545508E0,1.1422136E0,1.7975619E0,2.1181324E1,2.7550359E0,7.071864E0,9.101999E0,4.8233976E0,1.3516615E1,1.1691972E0,9.955932E0,3.3184133E0,5.260786E0,1.1982102E0,1.719522E0,4.5692763E0,1.6612047E1,1.4728031E0,1.2822328E0,3.8613071E0,3.210557E0,7.3884335E0,1.7135663E0,1.6142442E0,3.2091534E0,9.769753E0,3.746861E0,2.0873423E0,1.2310711E0,4.1536846E0,1.1071014E0],"tree_param":{"num_deleted":"0","num_feature":"66","num_nodes":"77","size_leaf_vector":"1"}},{"base_weights":[-5.053406E-3,-6.015577E-1,1.0079279E-1,1.0489693E-1,-8.8438E-1,3.3706802E-1,-2.1905741E-1,-2.6711432E-2,4.848661E-1,-1.0726324E0,2.1394841E-2,5.08513E-1,-2.9030347E-1,5.308382E-2,-2.8354305E-1,5.274716E-2,-5.3313193E-3,-1.0260066E-2,-1.13787E0,6.7986935E-1,-5.1554E-1,1.2790976E-1,-9.909122E-1,1.9432992E-1,-4.8828167E-1,-6.073242E-2,-1.1129916E-2,-4.584399E-1,8.416829E-1,-8.8242304E-1,2.214057E-2,-5.6690216E-1,6.4124775E-1,-1.5146163E-2,-5.531108E-2,1.1689821E0,-2.9378012E-1,3.4795573E-1,-6.455983E-1,-4.5867812E-2,2.5346562E-2,-1.3090315E-1,9.8081756E-1,1.8388625E-3,-5.696556E-2,5.9617306E-3,-4.754019E-2,1.2283685E0,-3.9331608E-2,1.3295901E-2,7.290166E-2,-6.532466E-1,4.5500312E-2,8.3848834E-1,-2.634328E-2,-1.0540036E0,-2.9636306E-1,3.1878646E-2,-3.768834E-2,1.0008811E-3,5.744176E-2,1.7891701E-2,7.148625E-2,-5.0228782E-2,9.079642E-3,6.3892975E-2,6.209049E-3,3.256907E-3,-6.336378E-2,-2.8072579E-2,2.049447E-2],"categories":[],"categories_nodes":[],"categories_segments":[],"categories_sizes":[],"default_left":[0,0,0,0,0,0,0,0,0,0,0,0,0,0,0,0,0,0,0,0,0,0,0,0,0,0,0,0,0,0,0,0,0,0,0,0,0,0,0,0,0,0,0,0,0,0,0,0,0,0,0,0,0,0,0,0,0,0,0,0,0,0,0,0,0,0,0,0,0,0,0],"id":14,"left_children":[1,3,5,7,9,11,13,-1,15,17,-1,19,21,-1,23,-1,-1,-1,25,27,29,31,33,35,37,-1,-1,39,41,43,-1,45,47,-1,-1,49,51,53,55,-1,-1,57,59,-1,-1,-1,-1,61,-1,-1,-1,63,-1,65,-1,67,69,-1,-1,-1,-1,-1,-1,-1,-1,-1,-1,-1,-1,-1,-1],"loss_changes":[7.3097997E0,3.5785942E0,7.507824E0,1.6873894E0,3.562971E0,6.275268E0,3.8027189E0,0E0,1.5330697E0,4.0446758E-1,0E0,8.265623E0,3.8958418E0,0E0,4.121526E0,0E0,0E0,0E0,4.5097733E-1,7.582611E0,2.864089E0,3.5525098E0,5.5427074E-2,6.5562367E0,4.052389E0,0E0,0E0,2.9062111E0,4.8052483E0,1.3220096E0,0E0,1.2538574E0,5.6703444E0,0E0,0E0,8.022256E-1,4.705615E0,2.6976264E0,3.2304897E0,0E0,0E0,2.9732738E0,4.8770294E0,0E0,0E0,0E0,0E0,2.5380993E-1,0E0,0E0,0E0,2.4989834E0,0E0,1.0195186E0,0E0,2.722045E0,2.9974065E0,0E0,0E0,0E0,0E0,0E0,0E0,0E0,0E0,0E0,0E0,0E0,0E0,0E0,0E0],"parents":[2147483647,0,0,1,1,2,2,3,3,4,4,5,5,6,6,8,8,9,9,11,11,12,12,14,14,18,18,19,19,20,20,21,21,22,22,23,23,24,24,27,27,28,28,29,29,31,31,32,32,35,35,36,36,37,37,38,38,41,41,42,42,47,47,51,51,53,53,55,55,56,56],"right_children":[2,4,6,8,10,12,14,-1,16,18,-1,20,22,-1,24,-1,-1,-1,26,28,30,32,34,36,38,-1,-1,40,42,44,-1,46,48,-1,-1,50,52,54,56,-1,-1,58,60,-1,-1,-1,-1,62,-1,-1,-1,64,-1,66,-1,68,70,-1,-1,-1,-1,-1,-1,-1,-1,-1,-1,-1,-1,-1,-1],"split_conditions":[-9.8767966E-1,-1.500001E-1,7.311828E0,3.8E3,3.6E-1,3.5E0,-3.9E-1,-2.6711432E-2,-9.090909E0,4.5299206E0,2.1394841E-2,9.59E0,1.815E4,5.308382E-2,2.0722774E-1,5.274716E-2,-5.3313193E-3,-1.0260066E-2,1.910828E0,-4.5751635E-2,2.7070278E-1,1.1857697E0,1.1E4,1.6847172E0,-8.4615386E-1,-6.073242E-2,-1.1129916E-2,4.1000032E-1,1.0490203E-1,1.8844391E-1,2.214057E-2,-3.7383142E0,1.9607843E0,-1.5146163E-2,-5.531108E-2,-4.889976E-3,6.000004E-2,3.180212E-2,1.9259259E-1,-4.5867812E-2,2.5346562E-2,1.1857697E0,5.226481E-2,1.8388625E-3,-5.696556E-2,5.9617306E-3,-4.754019E-2,-4.5671415E-2,-3.9331608E-2,1.3295901E-2,7.290166E-2,1.55E4,4.5500312E-2,3.4046215E-1,-2.634328E-2,5.95E0,4.0090036E-1,3.1878646E-2,-3.768834E-2,1.0008811E-3,5.744176E-2,1.7891701E-2,7.148625E-2,-5.0228782E-2,9.079642E-3,6.3892975E-2,6.209049E-3,3.256907E-3,-6.336378E-2,-2.8072579E-2,2.049447E-2],"split_indices":[26,31,65,23,31,26,16,0,30,12,0,36,24,0,55,0,0,0,25,41,49,65,23,53,26,0,0,18,55,55,0,29,21,0,0,14,14,35,26,0,0,65,25,0,0,0,0,8,0,0,0,40,0,61,0,36,55,0,0,0,0,0,0,0,0,0,0,0,0,0,0],"split_type":[0,0,0,0,0,0,0,0,0,0,0,0,0,0,0,0,0,0,0,0,0,0,0,0,0,0,0,0,0,0,0,0,0,0,0,0,0,0,0,0,0,0,0,0,0,0,0,0,0,0,0,0,0,0,0,0,0,0,0,0,0,0,0,0,0,0,0,0,0,0,0],"sum_hessian":[1.1381518E2,1.644648E1,9.73687E1,4.881703E0,1.1564776E1,5.596971E1,4.1398987E1,1.6687725E0,3.2129307E0,1.0273596E1,1.2911804E0,4.4106075E1,1.1863636E1,1.2432543E0,4.0155735E1,1.2370964E0,1.9758343E0,1.0085701E0,9.265026E0,3.8071598E1,6.0344787E0,7.9409113E0,3.9227247E0,1.2059329E1,2.8096405E1,8.246195E0,1.0188314E0,4.5102463E0,3.356135E1,4.421165E0,1.613314E0,3.3297253E0,4.611186E0,1.0837313E0,2.8389935E0,3.5586147E0,8.500714E0,4.256832E0,2.3839573E1,3.090722E0,1.4195243E0,4.2076926E0,2.9353659E1,1.152852E0,3.2683127E0,1.4419614E0,1.887764E0,3.3666148E0,1.2445712E0,1.3283871E0,2.2302275E0,6.89817E0,1.6025444E0,2.7540846E0,1.5027473E0,1.0058661E1,1.3780911E1,1.8730937E0,2.334599E0,4.5356894E0,2.481797E1,1.1541097E0,2.212505E0,4.7119174E0,2.1862526E0,1.2167263E0,1.5373583E0,1.7212098E0,8.337452E0,1.0169038E1,3.6118734E0],"tree_param":{"num_deleted":"0","num_feature":"66","num_nodes":"71","size_leaf_vector":"1"}},{"base_weights":[7.528086E-2,7.9789495E-1,-5.545808E-2,9.2628455E-1,-2.2817595E-2,4.100021E-1,-2.0236221E-1,-2.4945451E-2,1.0679084E0,1.0617157E0,5.9826273E-2,5.9791803E-2,-2.700786E-1,3.17547E-1,1.2845699E0,1.3101959E0,-1.5900997E-2,6.978167E-1,-2.60553E-1,-8.4679055E-1,-1.3443421E-1,4.5444388E-2,-2.133751E-2,9.224533E-3,1.4190615E0,7.525704E-2,1.2567214E-2,-3.4881182E-2,1.1299313E0,-5.6341285E-1,3.897063E-2,4.6246048E-2,-1.1197568E0,8.847075E-2,-5.012396E-1,7.558634E-2,1.8737739E-2,1.3587807E-2,6.931639E-2,-1.0054976E0,3.912124E-1,3.1259775E-2,-2.609144E-2,-5.9764035E-2,-1.0213239E-2,-2.4502502E-1,6.0839736E-1,2.6076509E-2,-5.939666E-1,-8.257741E-4,-5.9812516E-2,-2.135559E-2,4.4009272E-2,-2.885052E-2,1.19152265E-2,-1.2878025E-3,6.867033E-2,-4.1337952E-2,3.9862693E-4],"categories":[],"categories_nodes":[],"categories_segments":[],"categories_sizes":[],"default_left":[0,0,0,0,0,0,0,0,0,0,0,0,0,0,0,0,0,0,0,0,0,0,0,0,0,0,0,0,0,0,0,0,0,0,0,0,0,0,0,0,0,0,0,0,0,0,0,0,0,0,0,0,0,0,0,0,0,0,0],"id":15,"left_children":[1,3,5,7,-1,9,11,-1,13,15,17,-1,19,21,23,25,-1,27,29,31,33,-1,-1,-1,35,-1,-1,-1,37,39,-1,41,43,45,47,-1,-1,-1,-1,49,51,-1,-1,-1,-1,53,55,-1,57,-1,-1,-1,-1,-1,-1,-1,-1,-1,-1],"loss_changes":[1.0953494E1,3.2820463E0,6.8330755E0,3.8505602E0,0E0,5.416468E0,7.490795E0,0E0,2.074623E0,3.273531E0,3.591078E0,0E0,5.59864E0,2.4783492E0,1.4426746E0,1.1195889E0,0E0,4.314399E0,4.165688E0,3.3953657E0,4.97525E0,0E0,0E0,0E0,4.1241455E-1,0E0,0E0,0E0,6.897135E-1,4.5054135E0,0E0,1.6981488E0,4.8493385E-1,6.800753E0,2.4859033E0,0E0,0E0,0E0,0E0,1.2894197E0,1.8980399E0,0E0,0E0,0E0,0E0,4.0019627E0,7.4472017E0,0E0,3.0201373E0,0E0,0E0,0E0,0E0,0E0,0E0,0E0,0E0,0E0,0E0],"parents":[2147483647,0,0,1,1,2,2,3,3,5,5,6,6,8,8,9,9,10,10,12,12,13,13,14,14,15,15,17,17,18,18,19,19,20,20,24,24,28,28,29,29,31,31,32,32,33,33,34,34,39,39,40,40,45,45,46,46,48,48],"right_children":[2,4,6,8,-1,10,12,-1,14,16,18,-1,20,22,24,26,-1,28,30,32,34,-1,-1,-1,36,-1,-1,-1,38,40,-1,42,44,46,48,-1,-1,-1,-1,50,52,-1,-1,-1,-1,54,56,-1,58,-1,-1,-1,-1,-1,-1,-1,-1,-1,-1],"split_conditions":[-2.5999975E-1,9.107468E-2,-1.1976048E0,-5.500002E-1,-2.2817595E-2,-9.584664E-3,-1.3182914E-1,-2.4945451E-2,-1.2857143E-2,-1.2024037E0,4.7827497E0,5.9791803E-2,2.8708134E-2,-6.060606E-3,5.35E0,9.532058E0,-1.5900997E-2,4.9E0,5.9999943E-2,3.765542E1,3E-1,4.5444388E-2,-2.133751E-2,9.224533E-3,1.8272102E-2,7.525704E-2,1.2567214E-2,-3.4881182E-2,-3.5000038E-1,1.8E4,3.897063E-2,7.479E3,2.5751151E-2,5.839416E-3,-1.8999958E-1,7.558634E-2,1.8737739E-2,1.3587807E-2,6.931639E-2,2.2355776E1,1.0616025E-1,3.1259775E-2,-2.609144E-2,-5.9764035E-2,-1.0213239E-2,6E-2,3.594203E-1,2.6076509E-2,5.945946E1,-8.257741E-4,-5.9812516E-2,-2.135559E-2,4.4009272E-2,-2.885052E-2,1.19152265E-2,-1.2878025E-3,6.867033E-2,-4.1337952E-2,3.9862693E-4],"split_indices":[16,35,21,20,0,47,9,0,38,58,12,0,25,44,42,19,0,42,32,6,18,0,0,0,7,0,0,0,20,34,0,34,44,47,16,0,0,0,0,6,49,0,0,0,0,31,26,0,6,0,0,0,0,0,0,0,0,0,0],"split_type":[0,0,0,0,0,0,0,0,0,0,0,0,0,0,0,0,0,0,0,0,0,0,0,0,0,0,0,0,0,0,0,0,0,0,0,0,0,0,0,0,0,0,0,0,0,0,0,0,0,0,0,0,0,0,0,0,0,0,0],"sum_hessian":[1.1447376E2,1.675628E1,9.771748E1,1.5437517E1,1.3187631E0,2.301245E1,7.470503E1,1.1673572E0,1.4270161E1,7.333009E0,1.5679441E1,2.6813543E0,7.202368E1,3.749655E0,1.0520506E1,6.2566357E0,1.0763727E0,4.8477435E0,1.0831697E1,1.2716196E1,5.9307484E1,1.9663017E0,1.7833533E0,1.4044583E0,9.116047E0,4.9278812E0,1.3287547E0,1.0009396E0,3.8468041E0,8.743612E0,2.0880852E0,3.1713579E0,9.544838E0,3.73618E1,2.1945684E1,7.9619637E0,1.1540835E0,1.3587816E0,2.4880226E0,5.9396734E0,2.8039396E0,1.5208465E0,1.6505114E0,8.535114E0,1.0097234E0,2.3083876E1,1.4277925E1,1.4398557E0,2.0505829E1,1.136083E0,4.8035903E0,1.0960875E0,1.7078521E0,1.3569528E1,9.514347E0,8.334984E0,5.942941E0,1.451777E1,5.9880586E0],"tree_param":{"num_deleted":"0","num_feature":"66","num_nodes":"59","size_leaf_vector":"1"}},{"base_weights":[1.7524252E-2,1.3337974E-1,-6.421359E-1,7.261742E-2,8.675143E-2,-8.9303124E-1,5.3882685E-2,1.0601273E0,2.4539173E-2,1.03242025E-2,-1.0108331E0,4.4881072E-2,-5.401505E-1,6.668674E-2,1.31623E-2,-2.287533E-1,2.5775632E-1,-1.138448E0,-8.303816E-3,8.47207E-3,-4.3454044E-2,-5.313512E-1,1.2216654E-1,4.481886E-1,-3.7498713E-1,-1.2592062E-2,-6.0677327E-2,2.9499382E-2,-6.129604E-1,5.301089E-1,-3.7630102E-1,-3.7300404E-2,5.4847777E-1,-9.853894E-1,4.0222654E-1,-4.1162085E-2,2.7586455E-3,3.6344685E-2,-1.6505102E-2,4.8461404E-2,-3.363411E-2,1.4582488E-2,4.6932504E-2,4.2472663E-3,-5.993829E-2,4.7852542E-2,-2.4348116E-2],"categories":[],"categories_nodes":[],"categories_segments":[],"categories_sizes":[],"default_left":[0,0,0,0,0,0,0,0,0,0,0,0,0,0,0,0,0,0,0,0,0,0,0,0,0,0,0,0,0,0,0,0,0,0,0,0,0,0,0,0,0,0,0,0,0,0,0],"id":16,"left_children":[1,3,5,-1,7,9,11,13,15,-1,17,-1,19,-1,-1,21,23,25,-1,-1,-1,27,29,31,33,-1,-1,-1,35,37,39,-1,41,43,45,-1,-1,-1,-1,-1,-1,-1,-1,-1,-1,-1,-1],"loss_changes":[8.590648E0,5.7466493E0,2.9813523E0,0E0,5.623321E0,1.8152704E0,3.1882021E0,8.6567783E-1,5.299283E0,0E0,1.0369492E0,0E0,1.0317558E0,0E0,0E0,4.636799E0,5.7898364E0,3.4085655E-1,0E0,0E0,0E0,2.4944148E0,4.4186463E0,4.7587924E0,5.775117E0,0E0,0E0,0E0,3.1665993E0,2.2417462E0,4.609205E0,0E0,3.1413631E0,1.6183491E0,3.276881E0,0E0,0E0,0E0,0E0,0E0,0E0,0E0,0E0,0E0,0E0,0E0,0E0],"parents":[2147483647,0,0,1,1,2,2,4,4,5,5,6,6,7,7,8,8,10,10,12,12,15,15,16,16,17,17,21,21,22,22,23,23,24,24,28,28,29,29,30,30,32,32,33,33,34,34],"right_children":[2,4,6,-1,8,10,12,14,16,-1,18,-1,20,-1,-1,22,24,26,-1,-1,-1,28,30,32,34,-1,-1,-1,36,38,40,-1,42,44,46,-1,-1,-1,-1,-1,-1,-1,-1,-1,-1,-1,-1],"split_conditions":[-2.0039584E-1,4.8542495E0,6.077515E-2,7.261742E-2,-5.500002E-1,3.275E3,8.613441E0,8.99E0,5E3,1.03242025E-2,2.7428571E-2,4.4881072E-2,1.0101049E-2,6.668674E-2,1.31623E-2,3E3,3.25E4,-6.338022E0,-8.303816E-3,8.47207E-3,-4.3454044E-2,1.8421053E1,2.983539E0,4.9E0,2E4,-1.2592062E-2,-6.0677327E-2,2.9499382E-2,1.4084507E-2,3.0438462E-1,-1.1902114E1,-3.7300404E-2,4.1407826E-3,-3.4545455E-2,-3.4416792E0,-4.1162085E-2,2.7586455E-3,3.6344685E-2,-1.6505102E-2,4.8461404E-2,-3.363411E-2,1.4582488E-2,4.6932504E-2,4.2472663E-3,-5.993829E-2,4.7852542E-2,-2.4348116E-2],"split_indices":[58,5,8,0,16,24,59,57,43,0,41,0,14,0,0,40,40,64,0,0,0,6,19,39,34,0,0,0,47,49,58,0,41,41,30,0,0,0,0,0,0,0,0,0,0,0,0],"split_type":[0,0,0,0,0,0,0,0,0,0,0,0,0,0,0,0,0,0,0,0,0,0,0,0,0,0,0,0,0,0,0,0,0,0,0,0,0,0,0,0,0,0,0,0,0,0,0],"sum_hessian":[1.1028521E2,9.448815E1,1.5797058E1,2.1969166E0,9.229124E1,1.1403396E1,4.3936625E0,4.580713E0,8.771052E1,1.0306752E0,1.037272E1,1.6041441E0,2.7895184E0,2.9084196E0,1.672293E0,4.2054794E1,4.5655727E1,8.709359E0,1.663361E0,1.0370948E0,1.7524235E0,2.2306095E1,1.9748697E1,3.5317997E1,1.0337732E1,1.0200629E0,7.6892962E0,1.0906574E0,2.1215439E1,1.0825613E1,8.923084E0,2.237408E0,3.308059E1,5.6402144E0,4.6975183E0,1.59601555E1,5.2552834E0,8.936297E0,1.889315E0,1.2009108E0,7.7221737E0,2.1003006E1,1.2077582E1,1.0375538E0,4.6026607E0,2.8456244E0,1.8518939E0],"tree_param":{"num_deleted":"0","num_feature":"66","num_nodes":"47","size_leaf_vector":"1"}},{"base_weights":[-6.562887E-3,2.2990522E-1,-2.657326E-1,6.7459744E-1,2.9074512E-2,6.739879E-1,-3.509517E-1,1.1950167E0,-6.134938E-1,1.3012181E-1,-6.827087E-1,1.1283852E0,-1.794227E-2,-1.084158E0,-1.343278E-1,1.8476294E-1,1.5234662E0,1.9953122E-2,-4.7862012E-2,-2.6080074E-2,7.49822E-1,-5.508206E-2,2.1615354E-2,6.61006E-2,1.847613E-2,-6.094231E-2,-6.1680435E-4,9.358687E-2,-5.867219E-1,5.400771E-2,-4.980999E-1,8.1746764E-2,1.8589353E-2,-2.532739E-1,5.856222E-1,1.1170532E0,-2.4017049E-2,-3.144474E-1,4.109328E-1,2.1521011E-1,-9.555396E-1,-4.0342502E-2,2.9549783E-3,7.101346E-3,-1.0028518E0,1.2659078E0,-1.3428518E-1,8.198657E-3,6.7996666E-2,3.2179695E-2,-3.840698E-2,-8.159177E-1,1.23107076E-1,6.6043884E-1,-3.5541672E-2,-4.854995E-1,5.2037586E-2,-6.120957E-2,2.7668564E-2,-1.9136868E-2,3.3357363E-2,-1.0498692E-2,-5.6049228E-2,1.6513152E-2,7.404859E-2,-3.841455E-2,3.8556214E-2,8.450511E-3,-5.2797265E-2,2.8541407E-2,-4.344994E-2,4.8033457E-2,-2.5551772E-2,-4.035547E-2,6.8017067E-3],"categories":[],"categories_nodes":[],"categories_segments":[],"categories_sizes":[],"default_left":[0,0,0,0,0,0,0,0,0,0,0,0,0,0,0,0,0,0,0,0,0,0,0,0,0,0,0,0,0,0,0,0,0,0,0,0,0,0,0,0,0,0,0,0,0,0,0,0,0,0,0,0,0,0,0,0,0,0,0,0,0,0,0,0,0,0,0,0,0,0,0,0,0,0,0],"id":17,"left_children":[1,3,5,7,9,11,13,15,17,19,21,23,-1,25,27,29,31,-1,-1,33,35,-1,-1,-1,-1,-1,-1,37,39,-1,41,-1,-1,43,45,47,49,51,53,55,57,-1,-1,59,61,63,65,-1,-1,-1,-1,67,69,71,-1,73,-1,-1,-1,-1,-1,-1,-1,-1,-1,-1,-1,-1,-1,-1,-1,-1,-1,-1,-1],"loss_changes":[6.911881E0,5.2485414E0,4.5446653E0,1.3005268E1,3.0867312E0,2.6648335E0,7.792851E0,4.1576633E0,2.4456112E0,3.633989E0,2.971463E0,3.830862E-2,0E0,1.6101246E0,4.150687E0,3.240764E0,6.7051315E-1,0E0,0E0,4.4272375E0,2.1725798E0,0E0,0E0,0E0,0E0,0E0,0E0,3.661376E0,4.1823993E0,0E0,5.968565E-1,0E0,0E0,4.5250955E0,4.4015465E0,9.6723604E-1,2.187912E0,2.8432646E0,4.885413E0,3.4276307E0,4.485367E0,0E0,0E0,4.9316554E0,3.242693E-1,4.241104E-1,3.521189E0,0E0,0E0,0E0,0E0,1.5864806E0,3.8472E0,5.2127447E0,0E0,7.923129E-1,0E0,0E0,0E0,0E0,0E0,0E0,0E0,0E0,0E0,0E0,0E0,0E0,0E0,0E0,0E0,0E0,0E0,0E0,0E0],"parents":[2147483647,0,0,1,1,2,2,3,3,4,4,5,5,6,6,7,7,8,8,9,9,10,10,11,11,13,13,14,14,15,15,16,16,19,19,20,20,27,27,28,28,30,30,33,33,34,34,35,35,36,36,37,37,38,38,39,39,40,40,43,43,44,44,45,45,46,46,51,51,52,52,53,53,55,55],"right_children":[2,4,6,8,10,12,14,16,18,20,22,24,-1,26,28,30,32,-1,-1,34,36,-1,-1,-1,-1,-1,-1,38,40,-1,42,-1,-1,44,46,48,50,52,54,56,58,-1,-1,60,62,64,66,-1,-1,-1,-1,68,70,72,-1,74,-1,-1,-1,-1,-1,-1,-1,-1,-1,-1,-1,-1,-1,-1,-1,-1,-1,-1,-1],"split_conditions":[-2.0855057E-1,-1.8335992E-1,4.78E0,9.821055E0,7.96E0,-1.5920398E0,5.21E0,4.747E3,-9.0000015E1,2.7E4,9.51E0,-7.556973E-2,-1.794227E-2,2.580645E0,6.122394E-1,-6.1032843E-2,-1E-1,1.9953122E-2,-4.7862012E-2,-2.824471E-3,-8.247415E-3,-5.508206E-2,2.1615354E-2,6.61006E-2,1.847613E-2,-6.094231E-2,-6.1680435E-4,5.2674896E1,2.3999977E-1,5.400771E-2,1.62187E4,8.1746764E-2,1.8589353E-2,-1.3999676E-2,2.6748896E0,-4.024768E0,1.5E3,3.4351146E0,8.8E-1,6.501E3,1.68529E-1,-4.0342502E-2,2.9549783E-3,-9.775281E0,9E2,-7.5E-3,4.9211353E1,8.198657E-3,6.7996666E-2,3.2179695E-2,-3.840698E-2,1E0,5.046729E1,3.26E4,-3.5541672E-2,1.1520737E-3,5.2037586E-2,-6.120957E-2,2.7668564E-2,-1.9136868E-2,3.3357363E-2,-1.0498692E-2,-5.6049228E-2,1.6513152E-2,7.404859E-2,-3.841455E-2,3.8556214E-2,8.450511E-3,-5.2797265E-2,2.8541407E-2,-4.344994E-2,4.8033457E-2,-2.5551772E-2,-4.035547E-2,6.8017067E-3],"split_indices":[29,8,45,4,50,64,36,40,13,34,42,27,0,25,21,44,32,0,0,9,14,0,0,0,0,0,0,6,32,0,24,0,0,9,59,21,43,59,32,43,8,0,0,64,23,35,6,0,0,0,0,37,6,23,0,38,0,0,0,0,0,0,0,0,0,0,0,0,0,0,0,0,0,0,0],"split_type":[0,0,0,0,0,0,0,0,0,0,0,0,0,0,0,0,0,0,0,0,0,0,0,0,0,0,0,0,0,0,0,0,0,0,0,0,0,0,0,0,0,0,0,0,0,0,0,0,0,0,0,0,0,0,0,0,0,0,0,0,0,0,0,0,0,0,0,0,0,0,0,0,0,0,0],"sum_hessian":[1.1078506E2,5.79887E1,5.2796352E1,1.7307123E1,4.0681576E1,3.815337E0,4.8981014E1,1.2378269E1,4.928855E0,3.6339832E1,4.341744E0,2.5853794E0,1.2299576E0,1.0257544E1,3.8723473E1,3.4203613E0,8.957908E0,1.2084029E0,3.720452E0,2.9789097E1,6.5507364E0,3.164701E0,1.1770431E0,1.4685712E0,1.1168082E0,8.990588E0,1.266955E0,2.6277887E1,1.2445584E1,1.2281585E0,2.1922028E0,7.7848186E0,1.173089E0,2.2148735E1,7.6403627E0,4.1417274E0,2.4090092E0,1.1500285E1,1.4777602E1,4.051899E0,8.393685E0,1.1222867E0,1.0699161E0,1.7173746E1,4.974989E0,3.5383363E0,4.102027E0,1.1813068E0,2.9604204E0,1.3409945E0,1.0680149E0,4.9558206E0,6.5444646E0,1.2425208E1,2.352394E0,2.4144473E0,1.6374516E0,7.2852807E0,1.1084052E0,1.1060995E1,6.1127496E0,1.0052744E0,3.9697146E0,1.1352099E0,2.4031262E0,2.5016851E0,1.6003416E0,1.0290588E0,3.9267616E0,4.802021E0,1.7424436E0,1.0033682E1,2.391526E0,1.394363E0,1.0200841E0],"tree_param":{"num_deleted":"0","num_feature":"66","num_nodes":"75","size_leaf_vector":"1"}},{"base_weights":[-7.35092E-3,3.474566E-1,-2.1133526E-1,9.27917E-1,1.1615529E-1,-1.0092819E-1,-8.7277454E-1,1.2509172E0,-1.4116289E-1,2.3507841E-1,-4.78183E-2,1.0155888E-1,-6.015709E-1,1.8501606E-2,-1.0628146E0,7.176726E-2,-2.1691206E-3,3.4459706E-2,-4.183117E-2,-6.072086E-1,4.0459248E-1,-7.9609007E-1,2.3793453E-1,-9.1089016E-1,2.2009462E-1,-5.9773028E-2,-1.7057028E-2,1.6297724E-2,-4.6622917E-2,-5.5085486E-1,5.5949897E-1,9.730478E-3,-5.578659E-2,4.3161625E-1,-4.7445765E-1,-1.3668019E-1,-1.1808732E0,6.987075E-1,-3.9666068E-2,9.768625E-3,-5.0304335E-2,-5.693038E-1,7.2899544E-1,-3.3147043E-1,7.186633E-1,6.9222134E-1,-9.2983615E-1,2.6595255E-2,-3.687757E-2,-6.2861435E-2,-1.4917187E-2,-1.703495E-2,5.9011873E-2,-4.507168E-2,3.7036557E-3,4.0992644E-2,-1.9795358E-2,4.5042574E-2,-3.0267445E-2,1.1783906E-2,5.9493076E-2,3.5152396E-3,4.8360836E-2,-1.4917336E-2,-5.580304E-2],"categories":[],"categories_nodes":[],"categories_segments":[],"categories_sizes":[],"default_left":[0,0,0,0,0,0,0,0,0,0,0,0,0,0,0,0,0,0,0,0,0,0,0,0,0,0,0,0,0,0,0,0,0,0,0,0,0,0,0,0,0,0,0,0,0,0,0,0,0,0,0,0,0,0,0,0,0,0,0,0,0,0,0,0,0],"id":18,"left_children":[1,3,5,7,9,11,13,15,17,19,-1,21,23,-1,25,-1,-1,-1,-1,27,29,31,33,35,37,-1,-1,-1,-1,39,41,-1,-1,43,45,47,49,51,-1,-1,-1,53,55,57,59,61,63,-1,-1,-1,-1,-1,-1,-1,-1,-1,-1,-1,-1,-1,-1,-1,-1,-1,-1],"loss_changes":[8.392329E0,5.5764346E0,5.2870593E0,4.292819E0,4.231943E0,6.569947E0,2.8490615E0,2.271697E0,2.6927319E0,4.3982067E0,0E0,5.8906336E0,4.936599E0,0E0,4.802389E-1,0E0,0E0,0E0,0E0,1.9041834E0,3.980371E0,2.2350707E0,5.889385E0,2.7090626E0,3.416911E0,0E0,0E0,0E0,0E0,1.5436037E0,4.5947337E0,0E0,0E0,7.448279E0,5.5756044E0,2.2730575E0,3.0221844E-1,2.6745906E0,0E0,0E0,0E0,7.961904E-1,2.3106756E0,3.8130088E0,5.2349195E0,4.757552E-1,5.024185E-1,0E0,0E0,0E0,0E0,0E0,0E0,0E0,0E0,0E0,0E0,0E0,0E0,0E0,0E0,0E0,0E0,0E0,0E0],"parents":[2147483647,0,0,1,1,2,2,3,3,4,4,5,5,6,6,7,7,8,8,9,9,11,11,12,12,14,14,19,19,20,20,21,21,22,22,23,23,24,24,29,29,30,30,33,33,34,34,35,35,36,36,37,37,41,41,42,42,43,43,44,44,45,45,46,46],"right_children":[2,4,6,8,10,12,14,16,18,20,-1,22,24,-1,26,-1,-1,-1,-1,28,30,32,34,36,38,-1,-1,-1,-1,40,42,-1,-1,44,46,48,50,52,-1,-1,-1,54,56,58,60,62,64,-1,-1,-1,-1,-1,-1,-1,-1,-1,-1,-1,-1,-1,-1,-1,-1,-1,-1],"split_conditions":[-2.4615386E0,-1.6670722E-1,3.999996E-2,1.4263009E-1,-8.080801E-1,1.7E4,-3.6608875E-2,7.5268817E0,-5.8971143E0,-4.5751635E-2,-4.78183E-2,3.9583332E1,3.0213024E-2,1.8501606E-2,3.8018265E-1,7.176726E-2,-2.1691206E-3,3.4459706E-2,-4.183117E-2,5.675E3,-1.3635121E-1,-5.3192742E-2,1.3999987E-1,3.75E1,4.950495E-3,-5.9773028E-2,-1.7057028E-2,1.6297724E-2,-4.6622917E-2,9.000015E-2,-5.970149E-2,9.730478E-3,-5.578659E-2,1.5832256E-1,-1.3064133E-2,2.77298E4,6.2590976E0,-5.882301E-3,-3.9666068E-2,9.768625E-3,-5.0304335E-2,7.399998E-2,3.310066E-2,5E0,1.0416606E-2,3.43075E-2,7.3150263E0,2.6595255E-2,-3.687757E-2,-6.2861435E-2,-1.4917187E-2,-1.703495E-2,5.9011873E-2,-4.507168E-2,3.7036557E-3,4.0992644E-2,-1.9795358E-2,4.5042574E-2,-3.0267445E-2,1.1783906E-2,5.9493076E-2,3.5152396E-3,4.8360836E-2,-1.4917336E-2,-5.580304E-2],"split_indices":[28,8,38,9,52,46,44,59,52,41,0,6,7,0,55,0,0,0,0,24,7,9,20,6,44,0,0,0,0,18,14,0,0,61,35,24,30,44,0,0,0,22,9,63,22,14,10,0,0,0,0,0,0,0,0,0,0,0,0,0,0,0,0,0,0],"split_type":[0,0,0,0,0,0,0,0,0,0,0,0,0,0,0,0,0,0,0,0,0,0,0,0,0,0,0,0,0,0,0,0,0,0,0,0,0,0,0,0,0,0,0,0,0,0,0,0,0,0,0,0,0,0,0,0,0,0,0,0,0,0,0,0,0],"sum_hessian":[1.1394134E2,4.1336994E1,7.260434E1,1.0920305E1,3.0416687E1,6.320653E1,9.397809E0,8.255877E0,2.6644287E0,2.808355E1,2.3331382E0,4.557192E1,1.7634613E1,1.1208231E0,8.276986E0,7.1308136E0,1.1250631E0,1.218541E0,1.4458877E0,4.2724433E0,2.3811106E1,5.372392E0,4.0199528E1,1.2732734E1,4.901879E0,6.437283E0,1.8397028E0,1.103697E0,3.1687462E0,2.9653125E0,2.0845793E1,1.4059488E0,3.9664433E0,3.1916386E1,8.283141E0,3.6815848E0,9.051149E0,3.540381E0,1.3614979E0,1.3398408E0,1.6254718E0,2.413528E0,1.8432266E1,8.6818285E0,2.3234558E1,2.1794057E0,6.103735E0,1.7969301E0,1.8846548E0,7.9396462E0,1.1115028E0,1.213483E0,2.326898E0,1.3272606E0,1.0862674E0,1.730568E1,1.1265861E0,1.1623905E0,7.519438E0,1.2214592E1,1.1019967E1,1.0531989E0,1.1262068E0,1.9826456E0,4.1210895E0],"tree_param":{"num_deleted":"0","num_feature":"66","num_nodes":"65","size_leaf_vector":"1"}},{"base_weights":[6.0189837E-3,3.9648202E-1,-1.9805598E-1,-5.9808886E-1,4.9998954E-1,3.8428345E-1,-3.0873957E-1,3.1282795E-3,-4.5431845E-2,7.0752656E-1,-2.5180635E-1,-4.8013437E-1,7.505195E-1,-3.6204845E-1,5.975035E-1,9.0428627E-1,-2.3373088E-1,-5.3694457E-2,2.4722774E-1,1.9950502E-2,-4.7488693E-2,9.3460935E-1,-1.6251257E-2,-2.4042201E-1,-8.3755904E-1,5.3824466E-2,-7.3589436E-3,-2.3788083E-2,9.959247E-1,-7.7339685E-1,3.441168E-2,6.53894E-1,-4.0387806E-2,-1.2117977E-2,1.1441568E0,-5.850497E-1,1.6353033E-1,3.3046107E-3,-1.005757E0,-1.2521272E-2,1.0915515E0,-4.814044E-2,-7.4630007E-3,5.5782754E-2,-1.9619869E-2,3.1814918E-1,7.34229E-2,4.5268226E-1,-7.187185E-1,8.227136E-1,-9.120028E-2,-1.1463614E0,2.9509233E-3,5.894927E-2,-1.5113944E-2,-1.6877314E-2,3.941622E-2,5.1701803E-2,-1.8778425E-2,3.293438E-2,-4.05734E-2,7.100808E-2,-2.6240526E-2,2.1094916E-2,-2.7185101E-2,-1.703487E-2,-6.055525E-2],"categories":[],"categories_nodes":[],"categories_segments":[],"categories_sizes":[],"default_left":[0,0,0,0,0,0,0,0,0,0,0,0,0,0,0,0,0,0,0,0,0,0,0,0,0,0,0,0,0,0,0,0,0,0,0,0,0,0,0,0,0,0,0,0,0,0,0,0,0,0,0,0,0,0,0,0,0,0,0,0,0,0,0,0,0,0,0],"id":19,"left_children":[1,3,5,7,9,11,13,-1,-1,15,17,19,21,23,25,27,29,-1,31,-1,-1,33,-1,35,37,-1,-1,-1,39,41,-1,43,-1,-1,45,47,49,-1,51,-1,53,-1,-1,-1,-1,55,-1,57,59,61,63,65,-1,-1,-1,-1,-1,-1,-1,-1,-1,-1,-1,-1,-1,-1,-1],"loss_changes":[8.885456E0,4.2387958E0,4.840214E0,8.9038956E-1,5.6714296E0,4.205185E0,3.2168307E0,0E0,0E0,5.369851E0,3.6927543E0,2.1230206E0,2.070055E0,3.2271051E0,1.5237845E0,3.4132595E0,3.3237393E0,0E0,3.1072073E0,0E0,0E0,2.2195315E0,0E0,6.8626566E0,1.840497E0,0E0,0E0,0E0,2.9095974E0,3.303225E-1,0E0,2.801028E0,0E0,0E0,1.3703527E0,3.994151E0,3.9638953E0,0E0,1.550087E0,0E0,2.8826332E0,0E0,0E0,0E0,0E0,1.2558657E0,0E0,2.1370158E0,3.5772505E0,6.0225954E0,4.316838E0,4.6186447E-2,0E0,0E0,0E0,0E0,0E0,0E0,0E0,0E0,0E0,0E0,0E0,0E0,0E0,0E0,0E0],"parents":[2147483647,0,0,1,1,2,2,3,3,4,4,5,5,6,6,9,9,10,10,11,11,12,12,13,13,14,14,15,15,16,16,18,18,21,21,23,23,24,24,28,28,29,29,31,31,34,34,35,35,36,36,38,38,40,40,45,45,47,47,48,48,49,49,50,50,51,51],"right_children":[2,4,6,8,10,12,14,-1,-1,16,18,20,22,24,26,28,30,-1,32,-1,-1,34,-1,36,38,-1,-1,-1,40,42,-1,44,-1,-1,46,48,50,-1,52,-1,54,-1,-1,-1,-1,56,-1,58,60,62,64,66,-1,-1,-1,-1,-1,-1,-1,-1,-1,-1,-1,-1,-1,-1,-1],"split_conditions":[-5.9999943E-2,7E0,-8E-2,5.27E0,3.2894738E-2,1E3,6.6481495E-1,3.1282795E-3,-4.5431845E-2,2.8037403E0,-3.4167215E-1,5.004E3,3.2467532E0,8.82E0,1.0206718E1,-5.500002E-1,8E3,-5.3694457E-2,4.8681498E0,1.9950502E-2,-4.7488693E-2,1.06269926E-1,-1.6251257E-2,6.08E0,1.6840757E-1,5.3824466E-2,-7.3589436E-3,-2.3788083E-2,-4.5751635E-2,1.4173228E-2,3.441168E-2,8.23E0,-4.0387806E-2,-1.2117977E-2,1.5156953E-1,4.8695407E0,7.7964306E0,3.3046107E-3,1.6427089E-2,-1.2521272E-2,1.2080537E1,-4.814044E-2,-7.4630007E-3,5.5782754E-2,-1.9619869E-2,5.178908E0,7.34229E-2,1.468181E-1,5.015536E-2,7.201644E0,-2.7118644E-1,8.07E0,2.9509233E-3,5.894927E-2,-1.5113944E-2,-1.6877314E-2,3.941622E-2,5.1701803E-2,-1.8778425E-2,3.293438E-2,-4.05734E-2,7.100808E-2,-2.6240526E-2,2.1094916E-2,-2.7185101E-2,-1.703487E-2,-6.055525E-2],"split_indices":[16,40,20,57,41,37,55,0,0,53,26,34,29,57,53,20,34,0,19,0,0,59,0,45,55,0,0,0,44,38,0,0,0,0,55,5,10,0,41,0,30,0,0,0,0,19,0,55,55,30,26,42,0,0,0,0,0,0,0,0,0,0,0,0,0,0,0],"split_type":[0,0,0,0,0,0,0,0,0,0,0,0,0,0,0,0,0,0,0,0,0,0,0,0,0,0,0,0,0,0,0,0,0,0,0,0,0,0,0,0,0,0,0,0,0,0,0,0,0,0,0,0,0,0,0,0,0,0,0,0,0,0,0,0,0,0,0],"sum_hessian":[1.0952357E2,3.72703E1,7.2253265E1,3.0627818E0,3.420752E1,1.114487E1,6.11084E1,1.2346787E0,1.8281031E0,2.6853392E1,7.354129E0,3.2241032E0,7.920767E0,5.8280594E1,2.8278034E0,2.224301E1,4.610382E0,2.3427951E0,5.0113335E0,1.1749811E0,2.049122E0,6.8750687E0,1.0456982E0,4.760879E1,1.0671802E1,1.4497463E0,1.3780571E0,1.1240114E0,2.1119E1,3.0097733E0,1.6006088E0,3.8914688E0,1.1198648E0,1.0153798E0,5.8596888E0,2.5448963E1,2.215983E1,1.7699145E0,8.901887E0,1.3895509E0,1.9729448E1,1.8927426E0,1.1170306E0,2.6539176E0,1.2375515E0,2.2104971E0,3.6491916E0,2.6316519E0,2.2817312E1,5.555013E0,1.6604816E1,7.7958207E0,1.1060661E0,1.870993E1,1.0195174E0,1.0409278E0,1.1695694E0,1.4003092E0,1.2313427E0,1.0545511E0,2.176276E1,3.811303E0,1.7437104E0,7.813079E0,8.791738E0,1.0456835E0,6.7501373E0],"tree_param":{"num_deleted":"0","num_feature":"66","num_nodes":"67","size_leaf_vector":"1"}},{"base_weights":[2.1607399E-2,2.5329405E-1,-2.6289308E-1,8.177729E-2,6.807771E-1,-8.531639E-2,-6.6397774E-1,3.2974613E-1,-3.8910973E-1,8.1364536E-1,-3.705794E-2,-3.628079E-1,5.8480996E-1,1.4309783E-1,-9.2917186E-1,3.581513E-2,8.588394E-1,-7.6486564E-1,2.8905907E-1,-1.0583154E-2,9.589976E-1,-6.4686745E-1,1.2477893E-1,8.500738E-1,-2.177062E-2,-4.317439E-1,4.2333145E-2,-1.0906979E0,-2.1997286E-1,2.2442855E-1,-4.541123E-2,7.1777426E-2,2.6067275E-1,-1.0767262E0,1.3163264E-1,-2.727205E-1,5.899427E-2,7.4198954E-2,1.1487621E0,3.8435042E-2,-8.0163777E-1,5.688245E-1,-5.8006185E-1,-1.207385E-2,1.1280205E0,7.0596123E-3,-3.832982E-2,-5.8343794E-2,-1.1291749E-2,-3.8614906E-2,2.4131022E-2,-6.264467E-1,4.7249627E-1,-5.367581E-1,5.866784E-2,-1.2318208E-2,-5.948625E-2,3.9694823E-2,-2.481454E-2,2.3807429E-2,-4.5494717E-2,3.659793E-2,-2.6293192E-2,1.255895E0,1.7403336E-3,-3.8507294E-2,-1.0452721E0,8.2698077E-1,-1.953663E-2,5.5555403E-3,-4.819157E-2,-2.7418777E-3,1.4375981E0,-5.196159E-2,9.208836E-3,-1.2348598E-2,4.5359522E-2,1.4198531E-2,-4.7179203E-2,1.4606066E-2,7.205561E-2,-3.2181464E-2,2.5224542E-2,2.600627E-3,-5.7654448E-2,-1.2672867E-2,5.5231053E-2,8.159154E-2,2.014938E-2],"categories":[],"categories_nodes":[],"categories_segments":[],"categories_sizes":[],"default_left":[0,0,0,0,0,0,0,0,0,0,0,0,0,0,0,0,0,0,0,0,0,0,0,0,0,0,0,0,0,0,0,0,0,0,0,0,0,0,0,0,0,0,0,0,0,0,0,0,0,0,0,0,0,0,0,0,0,0,0,0,0,0,0,0,0,0,0,0,0,0,0,0,0,0,0,0,0,0,0,0,0,0,0,0,0,0,0,0,0],"id":20,"left_children":[1,3,5,7,9,11,13,15,17,19,-1,21,23,25,27,29,31,33,35,-1,37,39,41,43,-1,45,-1,47,49,51,-1,-1,53,55,57,59,-1,61,63,-1,65,67,69,-1,71,-1,-1,-1,-1,-1,-1,73,75,77,-1,-1,-1,-1,-1,-1,-1,-1,-1,79,-1,81,83,85,-1,-1,-1,-1,87,-1,-1,-1,-1,-1,-1,-1,-1,-1,-1,-1,-1,-1,-1,-1,-1],"loss_changes":[7.5295663E0,4.557072E0,3.5977628E0,5.503533E0,3.9806643E0,7.0387692E0,3.4714446E0,4.7430162E0,4.3845043E0,2.710662E0,0E0,3.7618847E0,3.3830378E0,2.2762177E0,1.1202698E0,3.9033558E0,3.392559E0,3.1577125E0,3.6001205E0,0E0,2.419568E0,4.331043E0,3.6545274E0,3.0558352E0,0E0,7.340989E-1,0E0,3.570013E-1,1.7135952E0,4.120457E0,0E0,0E0,5.4200196E0,4.6807003E-1,1.92232E0,2.737741E0,0E0,1.8466897E0,1.4139919E0,0E0,2.8925686E0,2.0624998E0,1.3274131E0,0E0,2.821104E0,0E0,0E0,0E0,0E0,0E0,0E0,1.7038585E0,4.7898645E0,1.6699E0,0E0,0E0,0E0,0E0,0E0,0E0,0E0,0E0,0E0,1.5630283E0,0E0,1.9201475E0,1.4700203E0,2.0359945E0,0E0,0E0,0E0,0E0,5.425129E-1,0E0,0E0,0E0,0E0,0E0,0E0,0E0,0E0,0E0,0E0,0E0,0E0,0E0,0E0,0E0,0E0],"parents":[2147483647,0,0,1,1,2,2,3,3,4,4,5,5,6,6,7,7,8,8,9,9,11,11,12,12,13,13,14,14,15,15,16,16,17,17,18,18,20,20,21,21,22,22,23,23,25,25,27,27,28,28,29,29,32,32,33,33,34,34,35,35,37,37,38,38,40,40,41,41,42,42,44,44,51,51,52,52,53,53,63,63,65,65,66,66,67,67,72,72],"right_children":[2,4,6,8,10,12,14,16,18,20,-1,22,24,26,28,30,32,34,36,-1,38,40,42,44,-1,46,-1,48,50,52,-1,-1,54,56,58,60,-1,62,64,-1,66,68,70,-1,72,-1,-1,-1,-1,-1,-1,74,76,78,-1,-1,-1,-1,-1,-1,-1,-1,-1,80,-1,82,84,86,-1,-1,-1,-1,88,-1,-1,-1,-1,-1,-1,-1,-1,-1,-1,-1,-1,-1,-1,-1,-1],"split_conditions":[-9.999752E-3,2.0153E4,7.256894E0,3.562341E0,2.1559747E-1,3.0213024E-2,-9.4736844E-1,-2.0365573E-3,6.053855E-1,-5.000005E-2,-3.705794E-2,4.1084748E-2,8.36E0,7.587475E-2,2.5641026E-2,2.08E4,7.88E0,1.0287303E1,4.7627363E-1,-1.0583154E-2,1.37E4,5E0,2.25E4,5.0490196E1,-2.177062E-2,3.323736E-2,4.2333145E-2,1.9658682E-1,1.4198818E-2,-9.754768E1,-4.541123E-2,7.1777426E-2,5E-1,-3.8E-1,1.1199999E1,8.70322E-4,5.899427E-2,-1.8182234E-1,-4.140783E-1,3.8435042E-2,-2.0202002E-2,1.19955525E-1,-1.9628637E-1,-1.207385E-2,-8.214286E-1,7.0596123E-3,-3.832982E-2,-5.8343794E-2,-1.1291749E-2,-3.8614906E-2,2.4131022E-2,1E4,3.8E3,-6.25E0,5.866784E-2,-1.2318208E-2,-5.948625E-2,3.9694823E-2,-2.481454E-2,2.3807429E-2,-4.5494717E-2,3.659793E-2,-2.6293192E-2,-9.690931E-1,1.7403336E-3,-2.7999973E0,4.564605E0,5.666E0,-1.953663E-2,5.5555403E-3,-4.819157E-2,-2.7418777E-3,1.0206897E1,-5.196159E-2,9.208836E-3,-1.2348598E-2,4.5359522E-2,1.4198531E-2,-4.7179203E-2,1.4606066E-2,7.205561E-2,-3.2181464E-2,2.5224542E-2,2.600627E-3,-5.7654448E-2,-1.2672867E-2,5.5231053E-2,8.159154E-2,2.014938E-2],"split_indices":[32,34,30,59,9,7,21,9,25,41,0,9,42,9,41,23,50,65,61,0,23,63,43,6,0,9,0,8,35,13,0,0,26,16,59,14,0,21,30,0,35,9,7,0,26,0,0,0,0,0,0,46,23,52,0,0,0,0,0,0,0,0,0,26,0,30,12,0,0,0,0,0,65,0,0,0,0,0,0,0,0,0,0,0,0,0,0,0,0],"split_type":[0,0,0,0,0,0,0,0,0,0,0,0,0,0,0,0,0,0,0,0,0,0,0,0,0,0,0,0,0,0,0,0,0,0,0,0,0,0,0,0,0,0,0,0,0,0,0,0,0,0,0,0,0,0,0,0,0,0,0,0,0,0,0,0,0,0,0,0,0,0,0,0,0,0,0,0,0,0,0,0,0,0,0,0,0,0,0,0,0],"sum_hessian":[1.1222128E2,6.1912075E1,5.0309208E1,4.5034443E1,1.6877632E1,3.5711132E1,1.4598075E1,2.9696184E1,1.533826E1,1.5826559E1,1.0510721E0,2.5578125E1,1.0133006E1,3.724268E0,1.0873807E1,1.977701E1,9.919173E0,9.787447E0,5.5508127E0,1.9084228E0,1.3918137E1,1.5955853E1,9.6222725E0,8.174392E0,1.9586147E0,2.262258E0,1.46201E0,8.418495E0,2.4553113E0,1.7119005E1,2.6580057E0,4.337426E0,5.5817475E0,7.1122923E0,2.6751547E0,3.8296113E0,1.7212015E0,2.7035468E0,1.121459E1,1.1816318E0,1.4774221E1,6.0216455E0,3.600627E0,1.6856654E0,6.488726E0,1.0478023E0,1.2144557E0,7.416076E0,1.0024194E0,1.319114E0,1.1361973E0,3.5200129E0,1.3598991E1,3.1987896E0,2.382958E0,1.2328718E0,5.8794203E0,1.173333E0,1.5018215E0,1.8766761E0,1.9529353E0,1.1849066E0,1.5186402E0,1.011443E1,1.1001592E0,3.8555667E0,1.0918654E1,4.8539248E0,1.1677208E0,1.5391243E0,2.0615027E0,1.5166514E0,4.972075E0,2.1454785E0,1.3745345E0,5.2844596E0,8.314532E0,1.1601977E0,2.0385919E0,2.0458856E0,8.068545E0,1.7358239E0,2.1197429E0,1.023166E0,9.895489E0,1.0101242E0,3.8438005E0,3.7001796E0,1.271895E0],"tree_param":{"num_deleted":"0","num_feature":"66","num_nodes":"89","size_leaf_vector":"1"}},{"base_weights":[4.662984E-2,5.5217683E-1,-6.201339E-2,9.665652E-1,-7.88138E-3,-3.2616392E-1,1.418536E-1,-2.9567545E-4,1.1728653E0,-3.221687E-1,5.174576E-2,3.5600522E-1,-5.2656037E-1,3.3227584E-1,-2.266344E-1,4.6222886E-1,6.849798E-2,-6.441822E-1,3.54319E-2,9.4103456E-1,-4.3024257E-1,-8.2781154E-1,-1.6946389E-1,1.7218804E-1,1.2234256E0,-8.118743E-1,2.6780966E-1,5.1713686E-2,-2.0589406E-2,2.5070108E-2,-5.5376675E-2,3.0662727E-3,1.1265984E0,-4.736353E-2,1.25689795E-2,1.1142769E-1,-9.6229416E-1,-7.1692157E-1,3.74279E-1,3.297342E-1,-5.5184895E-1,7.5293116E-2,4.192425E-3,1.9970817E-2,-1.0960376E0,4.888244E-1,-3.846712E-2,-3.1234562E-2,3.2730035E-2,6.859331E-2,5.723448E-3,-1.8272216E-5,8.427878E-3,6.99177E-3,-1.0586776E0,2.3797205E-2,-9.6635747E-1,9.2905307E-1,-6.6762084E-1,-2.2366138E-1,6.10117E-1,-8.583225E-1,1.571676E-2,-1.3787034E-2,-5.902368E-2,7.231306E-1,-2.6100123E-2,-4.69259E-3,-5.7683986E-2,3.725115E-3,-5.8181103E-2,5.931242E-2,-1.3482444E-3,-4.0245842E-2,-7.826182E-3,3.7970223E-2,-2.7727837E-2,-2.3896076E-2,3.7070353E-2,-4.878144E-2,-1.2221644E-2,-1.3110349E-2,5.2106645E-2],"categories":[],"categories_nodes":[],"categories_segments":[],"categories_sizes":[],"default_left":[0,0,0,0,0,0,0,0,0,0,0,0,0,0,0,0,0,0,0,0,0,0,0,0,0,0,0,0,0,0,0,0,0,0,0,0,0,0,0,0,0,0,0,0,0,0,0,0,0,0,0,0,0,0,0,0,0,0,0,0,0,0,0,0,0,0,0,0,0,0,0,0,0,0,0,0,0,0,0,0,0,0,0],"id":21,"left_children":[1,3,5,7,9,11,13,-1,15,17,-1,19,21,23,25,27,-1,29,-1,31,33,35,37,39,41,43,45,-1,-1,47,-1,-1,49,-1,-1,51,53,55,57,59,61,-1,-1,-1,63,65,-1,-1,-1,-1,-1,-1,-1,-1,67,-1,69,71,73,75,77,79,-1,-1,-1,81,-1,-1,-1,-1,-1,-1,-1,-1,-1,-1,-1,-1,-1,-1,-1,-1,-1],"loss_changes":[6.241223E0,4.6703963E0,5.103938E0,2.3251991E0,3.4586463E0,5.821562E0,3.8436885E0,0E0,7.026863E-1,3.1418266E0,0E0,4.9838076E0,3.3300142E0,4.8985033E0,5.684152E0,2.215917E0,0E0,2.1017475E0,0E0,9.13867E-1,1.9766797E0,2.2848787E0,5.03673E0,3.777769E0,1.5763636E0,3.501072E0,2.8957868E0,0E0,0E0,1.9281143E0,0E0,0E0,1.0630751E0,0E0,0E0,1.9576635E-2,1.7610779E0,2.9370136E0,5.6453476E0,4.250683E0,1.8645527E0,0E0,0E0,0E0,1.9227791E-1,2.6684108E0,0E0,0E0,0E0,0E0,0E0,0E0,0E0,0E0,1.1823349E0,0E0,1.5681777E0,1.5296912E0,1.2680662E-1,3.559678E0,2.9066343E0,1.0037899E-1,0E0,0E0,0E0,2.8732982E0,0E0,0E0,0E0,0E0,0E0,0E0,0E0,0E0,0E0,0E0,0E0,0E0,0E0,0E0,0E0,0E0,0E0],"parents":[2147483647,0,0,1,1,2,2,3,3,4,4,5,5,6,6,8,8,9,9,11,11,12,12,13,13,14,14,15,15,17,17,19,19,20,20,21,21,22,22,23,23,24,24,25,25,26,26,29,29,32,32,35,35,36,36,37,37,38,38,39,39,40,40,44,44,45,45,54,54,56,56,57,57,58,58,59,59,60,60,61,61,65,65],"right_children":[2,4,6,8,10,12,14,-1,16,18,-1,20,22,24,26,28,-1,30,-1,32,34,36,38,40,42,44,46,-1,-1,48,-1,-1,50,-1,-1,52,54,56,58,60,62,-1,-1,-1,64,66,-1,-1,-1,-1,-1,-1,-1,-1,68,-1,70,72,74,76,78,80,-1,-1,-1,82,-1,-1,-1,-1,-1,-1,-1,-1,-1,-1,-1,-1,-1,-1,-1,-1,-1],"split_conditions":[-3.5326086E-2,-4.9153615E-2,1.04E4,-1.875902E-2,3.11E4,1.4861996E0,2.490445E4,-2.9567545E-4,5.56E0,8.438818E-3,5.174576E-2,4.0659325E1,3.046E3,2.1825E4,4.347826E0,1E1,6.849798E-2,