{"learner":{"attributes":{"scikit_learn":"{\"_estimator_type\": \"classifier\"}"},"feature_names":[],"feature_types":[],"gradient_booster":{"model":{"cats":{"enc":[],"feature_segments":[],"sorted_idx":[]},"gbtree_model_param":{"num_parallel_tree":"1","num_trees":"200"},"iteration_indptr":[0,1,2,3,4,5,6,7,8,9,10,11,12,13,14,15,16,17,18,19,20,21,22,23,24,25,26,27,28,29,30,31,32,33,34,35,36,37,38,39,40,41,42,43,44,45,46,47,48,49,50,51,52,53,54,55,56,57,58,59,60,61,62,63,64,65,66,67,68,69,70,71,72,73,74,75,76,77,78,79,80,81,82,83,84,85,86,87,88,89,90,91,92,93,94,95,96,97,98,99,100,101,102,103,104,105,106,107,108,109,110,111,112,113,114,115,116,117,118,119,120,121,122,123,124,125,126,127,128,129,130,131,132,133,134,135,136,137,138,139,140,141,142,143,144,145,146,147,148,149,150,151,152,153,154,155,156,157,158,159,160,161,162,163,164,165,166,167,168,169,170,171,172,173,174,175,176,177,178,179,180,181,182,183,184,185,186,187,188,189,190,191,192,193,194,195,196,197,198,199,200],"tree_info":[0,0,0,0,0,0,0,0,0,0,0,0,0,0,0,0,0,0,0,0,0,0,0,0,0,0,0,0,0,0,0,0,0,0,0,0,0,0,0,0,0,0,0,0,0,0,0,0,0,0,0,0,0,0,0,0,0,0,0,0,0,0,0,0,0,0,0,0,0,0,0,0,0,0,0,0,0,0,0,0,0,0,0,0,0,0,0,0,0,0,0,0,0,0,0,0,0,0,0,0,0,0,0,0,0,0,0,0,0,0,0,0,0,0,0,0,0,0,0,0,0,0,0,0,0,0,0,0,0,0,0,0,0,0,0,0,0,0,0,0,0,0,0,0,0,0,0,0,0,0,0,0,0,0,0,0,0,0,0,0,0,0,0,0,0,0,0,0,0,0,0,0,0,0,0,0,0,0,0,0,0,0,0,0,0,0,0,0,0,0,0,0,0,0,0,0,0,0,0,0],"trees":[{"base_weights":[2.5135403E-2,2.7859554E-1,-4.0656048E-1,4.344934E-1,-1.8810113E-1,-1.1660808E0,-3.1105253E-1,5.215873E-1,-3.3757368E-1,-6.008507E-1,2.052194E-1,-1.374253E0,1.974963E-2,-5.162467E-1,1.271193E-2,-5.269358E-1,5.6648654E-1,-6.8346494E-1,7.8804094E-1,-8.3355254E-1,3.104209E-1,3.7799728E-1,-6.773222E-2,-8.309076E-2,-2.8465772E-1,-3.3965517E-2,3.936372E-2,-1.3242841E-2,-6.7713535E-1,-5.30722E-1,2.4130656E-1,4.6559755E-2,-9.731818E-1,6.545258E-2,6.68519E-1,5.7366945E-2,-9.89382E-1,7.702904E-2,-1.378312E-1,2.663965E-1,-1.0352623E0,9.0595055E-1,-7.1373194E-1,-1.5080582E-1,9.3061435E-1,-4.6981253E-2,3.936372E-2,6.137931E-1,-5.026073E-1,6.617972E-1,-7.4680233E-1,-1.6517085E-1,-7.228732E-2,7.182668E-1,-8.602328E-2,1.5835663E-2,-7.315552E-2,1.4899974E0,-2.298944E-1,7.79524E-1,2.7554357E-1,-1.2156489E0,1.5011917E-1,-2.7708054E-2,1.700646E-2,6.669107E-2,-5.1786995E-1,-1.2495179E0,2.79438E-1,-2.4728195E-3,6.818993E-2,-5.006531E-2,-5.350796E-3,-5.825836E-1,7.0266676E-1,1.0911915E0,-9.786437E-3,-5.006531E-2,9.3249655E-1,5.167047E-1,-8.6747754E-1,6.669107E-2,-1.3834198E-2,4.8458132E-1,-8.27223E-1,-6.4743036E-1,9.092791E-1,-3.1479966E-2,9.58698E-1,-4.928882E-1,7.4814975E-1,8.6619906E-2,1.700646E-2,-3.3432815E-2,1.5455539E-2,4.0459305E-2,-3.9089784E-2,-3.9681487E-2,2.7598271E-2,-6.98791E-2,6.29712E-3,-2.7708054E-2,3.936372E-2,1.700646E-2,-5.409683E-2,-6.577393E-2,-5.350796E-3,5.7366945E-2,-5.006531E-2,2.7868459E-2,-4.7150664E-2,-1.5978677E-2,6.420817E-2,2.7107153E-2,7.7557676E-2,7.097006E-2,1.3319825E-2,-2.0781303E-2,6.669107E-2,-6.019927E-2,7.5059584E-3,-3.9089784E-2,7.415529E-2,2.7868459E-2,-4.4958133E-2,2.7868459E-2,-5.8178324E-2,-2.4728195E-3,7.415529E-2,-2.0781303E-2,5.839032E-2,1.6814275E-3,-4.9042605E-2,5.9491586E-2,-2.6574781E-2],"categories":[],"categories_nodes":[],"categories_segments":[],"categories_sizes":[],"default_left":[0,0,0,0,0,0,0,0,0,0,0,0,0,0,0,0,0,0,0,0,0,0,0,0,0,0,0,0,0,0,0,0,0,0,0,0,0,0,0,0,0,0,0,0,0,0,0,0,0,0,0,0,0,0,0,0,0,0,0,0,0,0,0,0,0,0,0,0,0,0,0,0,0,0,0,0,0,0,0,0,0,0,0,0,0,0,0,0,0,0,0,0,0,0,0,0,0,0,0,0,0,0,0,0,0,0,0,0,0,0,0,0,0,0,0,0,0,0,0,0,0,0,0,0,0,0,0,0,0,0,0,0,0,0,0],"id":0,"left_children":[1,3,5,7,9,11,13,15,17,19,21,23,25,27,29,31,33,35,37,39,41,43,-1,-1,45,-1,-1,47,49,51,53,-1,55,57,59,-1,61,-1,63,65,67,69,71,73,75,-1,-1,77,79,81,83,85,-1,87,89,-1,-1,91,93,95,97,99,101,-1,-1,-1,103,105,107,-1,-1,-1,-1,109,111,113,-1,-1,115,117,119,-1,-1,121,123,125,127,-1,129,131,133,-1,-1,-1,-1,-1,-1,-1,-1,-1,-1,-1,-1,-1,-1,-1,-1,-1,-1,-1,-1,-1,-1,-1,-1,-1,-1,-1,-1,-1,-1,-1,-1,-1,-1,-1,-1,-1,-1,-1,-1,-1,-1,-1,-1],"loss_changes":[4.9439426E1,2.0790741E1,1.1764095E1,1.4543243E1,1.1807116E1,4.5470295E0,9.962699E0,9.356121E0,9.207747E0,7.759589E0,1.0645019E1,4.411598E0,2.530809E0,7.4163456E0,7.4712296E0,6.3839884E0,9.412621E0,1.0974484E1,4.1827054E0,6.587635E0,5.479498E0,1.0260221E1,0E0,0E0,3.8723893E0,0E0,0E0,7.444391E0,6.976879E0,5.720174E0,6.6651964E0,0E0,4.84586E0,1.3976386E1,6.484413E0,0E0,4.201989E0,0E0,8.795401E-1,5.04708E0,7.178404E0,2.4519196E0,4.9876773E-1,7.247821E0,3.3015451E0,0E0,0E0,6.412583E0,5.51053E0,2.8712053E0,6.989212E0,7.7697525E0,0E0,6.21667E0,9.184725E0,0E0,0E0,9.9905586E-1,6.759127E0,6.1530457E0,1.0892059E1,3.3775673E0,1.9946555E0,0E0,0E0,0E0,2.1684115E0,1.4440308E0,5.8336883E0,0E0,0E0,0E0,0E0,5.8133497E0,4.3856235E0,2.9711857E0,0E0,0E0,2.6730137E0,3.765201E0,3.7408805E0,0E0,0E0,7.114348E0,6.7585335E0,6.9598675E0,2.664123E0,0E0,4.823433E0,4.6736135E0,5.67E0,0E0,0E0,0E0,0E0,0E0,0E0,0E0,0E0,0E0,0E0,0E0,0E0,0E0,0E0,0E0,0E0,0E0,0E0,0E0,0E0,0E0,0E0,0E0,0E0,0E0,0E0,0E0,0E0,0E0,0E0,0E0,0E0,0E0,0E0,0E0,0E0,0E0,0E0,0E0,0E0,0E0,0E0,0E0,0E0],"parents":[2147483647,0,0,1,1,2,2,3,3,4,4,5,5,6,6,7,7,8,8,9,9,10,10,11,11,12,12,13,13,14,14,15,15,16,16,17,17,18,18,19,19,20,20,21,21,24,24,27,27,28,28,29,29,30,30,32,32,33,33,34,34,36,36,38,38,39,39,40,40,41,41,42,42,43,43,44,44,47,47,48,48,49,49,50,50,51,51,53,53,54,54,57,57,58,58,59,59,60,60,61,61,62,62,66,66,67,67,68,68,73,73,74,74,75,75,78,78,79,79,80,80,83,83,84,84,85,85,86,86,88,88,89,89,90,90],"right_children":[2,4,6,8,10,12,14,16,18,20,22,24,26,28,30,32,34,36,38,40,42,44,-1,-1,46,-1,-1,48,50,52,54,-1,56,58,60,-1,62,-1,64,66,68,70,72,74,76,-1,-1,78,80,82,84,86,-1,88,90,-1,-1,92,94,96,98,100,102,-1,-1,-1,104,106,108,-1,-1,-1,-1,110,112,114,-1,-1,116,118,120,-1,-1,122,124,126,128,-1,130,132,134,-1,-1,-1,-1,-1,-1,-1,-1,-1,-1,-1,-1,-1,-1,-1,-1,-1,-1,-1,-1,-1,-1,-1,-1,-1,-1,-1,-1,-1,-1,-1,-1,-1,-1,-1,-1,-1,-1,-1,-1,-1,-1,-1,-1],"split_conditions":[5.4179565E-3,-1.4492754E0,9.64E2,1.9878E1,7.5E3,1.68658E1,5.344647E-2,-3.9952997E-2,2.178652E1,4.692E0,1.5E0,1.3E4,1.1E0,-3.9452055E0,5.4347828E1,1.14E1,1.117E1,-8.5263157E-1,-8E-4,-9E-2,-1.5050103E-2,-4.1379312E-1,-6.773222E-2,-8.309076E-2,1.2258E1,-3.3965517E-2,3.936372E-2,6.2E3,-1E-1,3.7538462E0,8.5E-1,4.6559755E-2,-2.4E-1,3.5080647E1,1.71E1,5.7366945E-2,6.1214954E1,7.702904E-2,2.2502E1,3.4783747E-2,2.9651595E-3,1.027027E0,5.9930086E-3,2.3571008E-3,5.85E4,-4.6981253E-2,3.936372E-2,-1.0526316E1,3.564E3,-4.166667E-3,-1.2210866E1,3.0273566E-1,-7.228732E-2,-2.1052632E-2,1.81E0,1.5835663E-2,-7.315552E-2,-2.6954177E-3,-8.764242E-4,5.3484604E-2,1.7054E1,9E-2,2.05695E1,-2.7708054E-2,1.700646E-2,6.669107E-2,-1.3404226E-1,4.533978E-1,1.6E-1,-2.4728195E-3,6.818993E-2,-5.006531E-2,-5.350796E-3,1.266E1,-1.4705883E-3,2.4E4,-9.786437E-3,-5.006531E-2,-9E-2,1.2695E1,1.875E-2,6.669107E-2,-1.3834198E-2,-5.343632E-1,2E2,-1.0619469E-2,-6.109215E1,-3.1479966E-2,1.066302E-1,1.2103321E1,8.7E-1,8.6619906E-2,1.700646E-2,-3.3432815E-2,1.5455539E-2,4.0459305E-2,-3.9089784E-2,-3.9681487E-2,2.7598271E-2,-6.98791E-2,6.29712E-3,-2.7708054E-2,3.936372E-2,1.700646E-2,-5.409683E-2,-6.577393E-2,-5.350796E-3,5.7366945E-2,-5.006531E-2,2.7868459E-2,-4.7150664E-2,-1.5978677E-2,6.420817E-2,2.7107153E-2,7.7557676E-2,7.097006E-2,1.3319825E-2,-2.0781303E-2,6.669107E-2,-6.019927E-2,7.5059584E-3,-3.9089784E-2,7.415529E-2,2.7868459E-2,-4.4958133E-2,2.7868459E-2,-5.8178324E-2,-2.4728195E-3,7.415529E-2,-2.0781303E-2,5.839032E-2,1.6814275E-3,-4.9042605E-2,5.9491586E-2,-2.6574781E-2],"split_indices":[14,58,34,2,34,3,8,38,12,26,32,46,30,58,6,57,39,26,35,20,27,26,0,0,0,0,0,34,20,59,32,0,20,6,39,0,6,0,0,9,14,19,9,44,40,0,0,58,46,38,64,26,0,35,32,0,0,14,41,47,3,20,2,0,0,0,8,8,18,0,0,0,0,0,14,34,0,0,31,1,41,0,0,7,37,44,13,0,49,30,18,0,0,0,0,0,0,0,0,0,0,0,0,0,0,0,0,0,0,0,0,0,0,0,0,0,0,0,0,0,0,0,0,0,0,0,0,0,0,0,0,0,0,0,0],"split_type":[0,0,0,0,0,0,0,0,0,0,0,0,0,0,0,0,0,0,0,0,0,0,0,0,0,0,0,0,0,0,0,0,0,0,0,0,0,0,0,0,0,0,0,0,0,0,0,0,0,0,0,0,0,0,0,0,0,0,0,0,0,0,0,0,0,0,0,0,0,0,0,0,0,0,0,0,0,0,0,0,0,0,0,0,0,0,0,0,0,0,0,0,0,0,0,0,0,0,0,0,0,0,0,0,0,0,0,0,0,0,0,0,0,0,0,0,0,0,0,0,0,0,0,0,0,0,0,0,0,0,0,0,0,0,0],"sum_hessian":[4.4980606E2,2.836325E2,1.6617354E2,2.1266257E2,7.096995E1,1.7309744E1,1.488638E2,1.9139632E2,2.1266256E1,3.4372208E1,3.6597744E1,1.4589642E1,2.7201025E0,9.075252E1,5.8111282E1,7.418462E0,1.8397784E2,1.6567898E1,4.698359E0,2.7448309E1,6.9238977E0,3.363036E1,2.9673848E0,1.1127692E1,3.4619489E0,1.4836924E0,1.2364103E0,2.2255384E1,6.849713E1,1.681518E1,4.1296104E1,1.4836924E0,5.9347696E0,3.1404821E1,1.5257303E2,1.9782565E0,1.4589642E1,2.2255385E0,2.4728205E0,4.203795E0,2.3244513E1,4.451077E0,2.4728205E0,1.7557026E1,1.6073334E1,2.2255385E0,1.2364103E0,9.644E0,1.2611385E1,2.9673848E0,6.552975E1,1.2858667E1,3.956513E0,1.6320616E1,2.4975489E1,1.7309744E0,4.203795E0,4.698359E0,2.6706463E1,1.1820082E2,3.4372208E1,1.2116821E1,2.4728205E0,1.2364103E0,1.2364103E0,1.4836924E0,2.7201025E0,2.0029846E1,3.2146668E0,1.7309744E0,2.7201025E0,1.2364103E0,1.2364103E0,1.1869539E1,5.687487E0,1.40950775E1,1.9782565E0,1.2364103E0,8.40759E0,3.2146668E0,9.396718E0,1.4836924E0,1.4836924E0,3.709231E0,6.1820515E1,9.149436E0,3.709231E0,2.2255385E0,1.40950775E1,1.7062462E1,7.913026E0,3.4619489E0,1.2364103E0,1.4589642E1,1.2116821E1,1.1646985E2,1.7309744E0,6.6766157E0,2.7695591E1,1.0633128E1,1.4836924E0,1.2364103E0,1.2364103E0,1.2364103E0,1.4836924E0,1.8793436E1,1.2364103E0,1.9782565E0,1.2364103E0,2.7201025E0,9.149436E0,2.2255385E0,3.4619489E0,7.418462E0,6.6766157E0,4.203795E0,4.203795E0,1.7309744E0,1.4836924E0,6.9238977E0,2.4728205E0,1.7309744E0,1.9782565E0,2.7201025E0,5.910041E1,2.7201025E0,6.4293337E0,1.7309744E0,1.9782565E0,1.7309744E0,1.2364103E1,8.654872E0,8.40759E0,5.9347696E0,1.9782565E0],"tree_param":{"num_deleted":"0","num_feature":"66","num_nodes":"135","size_leaf_vector":"1"}},{"base_weights":[3.0648641E-2,4.6376112E-1,-2.5087762E-1,5.196103E-1,-1.6744657E-1,3.4187144E-1,-3.6342052E-1,5.828045E-1,-1.2418381E-1,7.1504873E-1,-6.042024E-1,-6.444207E-2,4.7047856E-1,-4.821152E-1,3.278517E-2,2.5624922E-1,7.45866E-1,5.098277E-1,-6.719461E-1,6.756949E-2,-2.0737363E-2,-9.495763E-1,2.9423028E-1,-4.7036164E-2,5.747869E-1,-8.2514644E-1,-3.5745072E-1,7.346192E-1,-1.8430565E-1,1.2435399E0,8.487005E-2,8.2661796E-1,-1.550502E-1,9.010917E-1,-3.3601727E-2,3.0450944E-2,-1.2099596E0,-1.2383877E0,1.6897539E-2,-2.772297E-2,4.7030043E-2,9.418882E-1,5.328653E-3,-9.8525333E-1,-6.948537E-2,6.791028E-1,-4.4315106E-1,1.1480193E0,-3.0008176E-1,-6.189478E-1,3.1735444E-1,8.7315455E-2,2.735759E-1,-9.508791E-1,2.3121303E-1,1.7559677E-1,9.5273304E-1,-5.8512276E-1,5.151503E-2,1.3120824E0,-1.2335302E-2,-7.2737865E-2,-4.9526105E-3,-7.3823854E-2,-5.2002813E-3,1.38594825E-2,1.2166421E0,-7.3239034E-1,5.269404E-1,3.3541303E-2,-1.082914E0,6.8825436E-1,-7.142419E-1,1.227836E0,-4.1895163E-1,-7.255701E-1,-1.9240311E-1,1.442676E0,-1.2880176E-2,2.2931164E-2,-5.4483123E-2,-1.029396E0,4.446886E-2,-7.75041E-1,7.0095146E-1,-2.8459758E-2,4.6152946E-2,1.6734518E-2,-6.9169104E-2,-1.6129246E-2,2.4365405E-2,-4.0791295E-3,6.0308196E-2,1.6807385E-2,5.4780703E-2,1.3896293E-2,-5.873675E-2,7.840207E-2,1.640477E-2,-4.22115E-2,4.9341645E-2,7.04789E-2,-2.0232782E-2,-6.1104793E-2,7.118554E-3,-4.4429135E-3,8.065519E-2,-5.8556825E-2,3.9119206E-2,-1.38427885E-2,6.086718E-2,8.2710816E-4,-6.115502E-2,-1.2837979E-2,8.2884E-2,-5.309515E-2,1.5898827E-2,-1.226877E-2,-5.4084968E-2,-2.1869527E-2,1.6976774E-2,8.515062E-2,1.6144074E-2,-6.9149E-2,-1.5545661E-2,6.785096E-2,-3.339968E-2,-6.3619316E-2,1.8576033E-5,-1.728814E-2,4.8962127E-2],"categories":[],"categories_nodes":[],"categories_segments":[],"categories_sizes":[],"default_left":[0,0,0,0,0,0,0,0,0,0,0,0,0,0,0,0,0,0,0,0,0,0,0,0,0,0,0,0,0,0,0,0,0,0,0,0,0,0,0,0,0,0,0,0,0,0,0,0,0,0,0,0,0,0,0,0,0,0,0,0,0,0,0,0,0,0,0,0,0,0,0,0,0,0,0,0,0,0,0,0,0,0,0,0,0,0,0,0,0,0,0,0,0,0,0,0,0,0,0,0,0,0,0,0,0,0,0,0,0,0,0,0,0,0,0,0,0,0,0,0,0,0,0,0,0,0,0,0,0,0,0],"id":1,"left_children":[1,3,5,7,9,11,13,15,17,19,21,-1,23,25,27,29,31,33,35,-1,-1,37,39,-1,41,43,45,47,49,51,53,55,57,59,-1,-1,61,63,-1,-1,-1,65,67,69,71,73,75,77,79,81,83,-1,85,87,89,91,93,95,-1,97,-1,-1,-1,-1,-1,99,101,103,105,-1,107,109,111,113,115,117,119,121,-1,-1,-1,123,125,127,129,-1,-1,-1,-1,-1,-1,-1,-1,-1,-1,-1,-1,-1,-1,-1,-1,-1,-1,-1,-1,-1,-1,-1,-1,-1,-1,-1,-1,-1,-1,-1,-1,-1,-1,-1,-1,-1,-1,-1,-1,-1,-1,-1,-1,-1,-1],"loss_changes":[5.4582054E1,6.3027115E0,1.822707E1,6.6726E0,6.2478213E0,9.795758E0,1.0763952E1,7.684639E0,5.664897E0,4.481107E0,3.5795465E0,0E0,6.6269493E0,7.228424E0,8.305281E0,8.486781E0,7.266758E0,4.153273E0,6.700575E0,0E0,0E0,3.3631625E0,2.5603669E0,0E0,8.173311E0,5.5125885E0,1.1920206E1,5.84889E0,9.300417E0,3.1494732E0,6.941255E0,7.2392845E0,5.1469493E0,3.244238E0,0E0,0E0,1.6041727E0,1.6512442E0,0E0,0E0,0E0,6.046936E0,6.6736493E0,6.8705025E0,4.9574175E0,6.77073E0,8.458572E0,4.265709E0,3.1753848E0,6.2296314E0,8.942243E0,0E0,2.5643072E0,3.6241374E0,5.7817564E0,4.3033857E0,6.2694626E0,3.979328E0,0E0,6.735573E-1,0E0,0E0,0E0,0E0,0E0,6.2131796E0,6.3064957E0,3.252497E0,6.9346867E0,0E0,6.8825607E0,2.7428632E0,2.039223E0,5.006111E0,2.3302398E0,9.437904E0,8.707145E0,1.7601967E0,0E0,0E0,0E0,3.1447191E0,9.920006E0,2.1924937E0,4.8126426E0,0E0,0E0,0E0,0E0,0E0,0E0,0E0,0E0,0E0,0E0,0E0,0E0,0E0,0E0,0E0,0E0,0E0,0E0,0E0,0E0,0E0,0E0,0E0,0E0,0E0,0E0,0E0,0E0,0E0,0E0,0E0,0E0,0E0,0E0,0E0,0E0,0E0,0E0,0E0,0E0,0E0,0E0,0E0,0E0,0E0,0E0],"parents":[2147483647,0,0,1,1,2,2,3,3,4,4,5,5,6,6,7,7,8,8,9,9,10,10,12,12,13,13,14,14,15,15,16,16,17,17,18,18,21,21,22,22,24,24,25,25,26,26,27,27,28,28,29,29,30,30,31,31,32,32,33,33,36,36,37,37,41,41,42,42,43,43,44,44,45,45,46,46,47,47,48,48,49,49,50,50,52,52,53,53,54,54,55,55,56,56,57,57,59,59,65,65,66,66,67,67,68,68,70,70,71,71,72,72,73,73,74,74,75,75,76,76,77,77,81,81,82,82,83,83,84,84],"right_children":[2,4,6,8,10,12,14,16,18,20,22,-1,24,26,28,30,32,34,36,-1,-1,38,40,-1,42,44,46,48,50,52,54,56,58,60,-1,-1,62,64,-1,-1,-1,66,68,70,72,74,76,78,80,82,84,-1,86,88,90,92,94,96,-1,98,-1,-1,-1,-1,-1,100,102,104,106,-1,108,110,112,114,116,118,120,122,-1,-1,-1,124,126,128,130,-1,-1,-1,-1,-1,-1,-1,-1,-1,-1,-1,-1,-1,-1,-1,-1,-1,-1,-1,-1,-1,-1,-1,-1,-1,-1,-1,-1,-1,-1,-1,-1,-1,-1,-1,-1,-1,-1,-1,-1,-1,-1,-1,-1,-1,-1],"split_conditions":[7.4626863E-1,-1.7123287E1,-7.329843E-3,1.0045909E0,-2.8735632E-3,3.545E3,2.6E4,-5.8479533E-3,2.679275E0,7.1E3,1.4894E4,-6.444207E-2,1.3049904E-1,2.6838896E-1,-1.4814815E-2,-4.9E-1,-4.4609666E-1,4E-2,-3.3816423E-2,6.756949E-2,-2.0737363E-2,1.928E1,1.1E-1,-4.7036164E-2,1.6123E1,1.543E4,2.867325E-1,1.1123062E-1,4.524887E-3,4.31E3,1.162899E1,-4.3E-1,2.4327786E0,4.2786682E-1,-3.3601727E-2,3.0450944E-2,3.01E4,1E-2,1.6897539E-2,-2.772297E-2,4.7030043E-2,3.4602076E-1,3.1921968E-2,1.0994765E0,7.5E-3,1.2878788E0,3.4188035E-1,1.88526E1,3.371683E-2,8.260869E-3,-6.5438584E-3,8.7315455E-2,1.473E4,-6.5287665E-2,-1.6393442E-2,6.145893E-1,1.13086E1,6.19E3,5.151503E-2,-4.169715E0,-1.2335302E-2,-7.2737865E-2,-4.9526105E-3,-7.3823854E-2,-5.2002813E-3,1.335E1,3.348837E-2,-1.1715481E-2,-1.1E-1,3.3541303E-2,7E-1,5.66E3,-2.1008404E-1,9.7467944E-2,1.9091235E-2,2.3076923E0,1.7243953E-1,1.5557476E-2,-1.2880176E-2,2.2931164E-2,-5.4483123E-2,-1.860465E1,4.337051E0,4.1666666E-1,-6E-2,-2.8459758E-2,4.6152946E-2,1.6734518E-2,-6.9169104E-2,-1.6129246E-2,2.4365405E-2,-4.0791295E-3,6.0308196E-2,1.6807385E-2,5.4780703E-2,1.3896293E-2,-5.873675E-2,7.840207E-2,1.640477E-2,-4.22115E-2,4.9341645E-2,7.04789E-2,-2.0232782E-2,-6.1104793E-2,7.118554E-3,-4.4429135E-3,8.065519E-2,-5.8556825E-2,3.9119206E-2,-1.38427885E-2,6.086718E-2,8.2710816E-4,-6.115502E-2,-1.2837979E-2,8.2884E-2,-5.309515E-2,1.5898827E-2,-1.226877E-2,-5.4084968E-2,-2.1869527E-2,1.6976774E-2,8.515062E-2,1.6144074E-2,-6.9149E-2,-1.5545661E-2,6.785096E-2,-3.339968E-2,-6.3619316E-2,1.8576033E-5,-1.728814E-2,4.8962127E-2],"split_indices":[53,13,14,61,41,24,34,41,19,46,34,0,49,61,47,16,52,20,14,0,0,0,18,0,11,34,61,8,47,46,10,16,59,49,0,0,23,44,0,0,0,19,9,65,14,26,25,3,9,38,9,0,24,9,14,61,3,43,0,58,0,0,0,0,0,63,44,14,20,0,18,37,58,49,9,53,7,38,0,0,0,13,59,25,20,0,0,0,0,0,0,0,0,0,0,0,0,0,0,0,0,0,0,0,0,0,0,0,0,0,0,0,0,0,0,0,0,0,0,0,0,0,0,0,0,0,0,0,0,0,0],"split_type":[0,0,0,0,0,0,0,0,0,0,0,0,0,0,0,0,0,0,0,0,0,0,0,0,0,0,0,0,0,0,0,0,0,0,0,0,0,0,0,0,0,0,0,0,0,0,0,0,0,0,0,0,0,0,0,0,0,0,0,0,0,0,0,0,0,0,0,0,0,0,0,0,0,0,0,0,0,0,0,0,0,0,0,0,0,0,0,0,0,0,0,0,0,0,0,0,0,0,0,0,0,0,0,0,0,0,0,0,0,0,0,0,0,0,0,0,0,0,0,0,0,0,0,0,0,0,0,0,0,0,0],"sum_hessian":[4.4568723E2,1.7531995E2,2.7036728E2,1.6123105E2,1.4088894E1,4.2817146E1,2.2755014E2,1.4690565E2,1.43253975E1,4.45337E0,9.635524E0,2.4704742E0,4.0346672E1,1.749285E2,5.262164E1,4.978172E1,9.712393E1,6.6720448E0,7.6533527E0,2.723348E0,1.7300221E0,6.9188614E0,2.7166622E0,2.2250454E0,3.8121624E1,4.5129528E1,1.2979897E2,1.1868377E1,4.075326E1,6.4378896E0,4.334383E1,8.921021E1,7.9137206E0,5.1910696E0,1.480975E0,2.2246563E0,5.4286966E0,5.682384E0,1.2364773E0,1.2359914E0,1.4806709E0,2.2781513E1,1.5340114E1,3.6988667E1,8.140861E0,9.383271E0,1.204157E2,8.401971E0,3.4664066E0,2.1709867E1,1.9043394E1,3.7129443E0,2.724945E0,4.685362E0,3.8658466E1,1.4865433E1,7.434478E1,6.178419E0,1.7353011E0,3.7169979E0,1.474072E0,4.194813E0,1.2338836E0,4.4473786E0,1.2350056E0,5.4439783E0,1.7337534E1,6.186465E0,9.153648E0,1.732966E0,3.52557E1,3.7115076E0,4.429353E0,6.1778216E0,3.205449E0,5.5740826E1,6.467487E1,6.9241257E0,1.4778448E0,1.9815238E0,1.4848828E0,1.3071205E1,8.638663E0,4.683998E0,1.4359396E1,1.2397978E0,1.4851472E0,1.236412E0,3.4489498E0,1.2142038E1,2.6516428E1,1.2633551E1,2.2318819E0,1.4617485E1,5.9727295E1,2.7222857E0,3.4561336E0,2.4786751E0,1.2383227E0,2.9630818E0,2.4808962E0,1.5610461E1,1.7270727E0,3.7115932E0,2.4748714E0,6.4276776E0,2.7259715E0,3.4018864E1,1.2368361E0,1.4830365E0,2.228471E0,2.2153404E0,2.2140126E0,1.4774997E0,4.700322E0,1.4763687E0,1.7290804E0,2.445517E1,3.1285658E1,4.4402695E1,2.0272179E1,5.1954346E0,1.7286909E0,8.140294E0,4.930911E0,2.7210524E0,5.9176106E0,2.4631999E0,2.2207983E0,2.9649842E0,1.1394412E1],"tree_param":{"num_deleted":"0","num_feature":"66","num_nodes":"131","size_leaf_vector":"1"}},{"base_weights":[-5.0661586E-2,1.7612009E-1,-4.89764E-1,3.6312878E-1,-3.0032197E-1,-6.7660385E-1,3.16323E-2,-1.0484293E0,4.0717244E-1,-1.3192471E0,-1.8353216E-1,-7.1167207E-1,4.1982103E-2,-1.086844E0,2.5229043E-1,1.7752293E-2,-7.168868E-2,4.8405492E-1,3.60111E-2,-7.5485684E-2,-1.2853125E-2,-4.815464E-2,-9.283557E-1,-3.173526E-1,-8.782624E-1,-7.835325E-3,-7.123131E-2,8.9584535E-1,-1.188395E-1,8.292987E-2,4.4047573E-1,-5.733705E-1,3.479638E-1,-6.5305746E-1,9.894701E-2,3.8642377E-2,-1.2070622E0,-4.3156105E-1,6.494694E-2,-1.608475E-1,-9.4733566E-1,1.2192175E0,-2.2983073E-1,-1.0583416E0,2.489622E-1,-5.92347E-1,4.9106753E-1,-9.794775E-1,4.574122E-2,6.295293E-1,-4.9892592E-1,-6.831364E-2,9.914228E-2,1.8157306E-1,-5.2440524E-2,1.838941E-2,-7.301105E-2,4.0866114E-2,-5.3925127E-1,-8.054108E-1,6.8346184E-1,-6.161401E-1,-1.1183134E0,1.9083974E-1,8.597838E-2,2.6749974E-2,-4.8896536E-2,-7.182451E-2,8.145199E-3,-4.7617137E-1,7.1897197E-1,-5.5516254E-2,2.1133663E-2,-4.412316E-3,2.873882E-2,-7.027524E-2,-8.331292E-3,-1.8102141E-2,5.4271948E-2,-5.841558E-2,2.8812924E-2,6.0275424E-2,-3.213326E-2,-1.2643756E-2,2.403803E-2,-7.205319E-2,-1.5550799E-2,-6.434409E-2,1.7653149E-2,6.649714E-2,-1.2135948E-2,-3.9903488E-2,4.5120806E-2,-6.3113324E-2,-2.4254723E-2,6.246924E-2,-3.0186815E-2,-4.3784093E-2,1.5820937E-2,5.8078285E-2,-1.7407587E-2],"categories":[],"categories_nodes":[],"categories_segments":[],"categories_sizes":[],"default_left":[0,0,0,0,0,0,0,0,0,0,0,0,0,0,0,0,0,0,0,0,0,0,0,0,0,0,0,0,0,0,0,0,0,0,0,0,0,0,0,0,0,0,0,0,0,0,0,0,0,0,0,0,0,0,0,0,0,0,0,0,0,0,0,0,0,0,0,0,0,0,0,0,0,0,0,0,0,0,0,0,0,0,0,0,0,0,0,0,0,0,0,0,0,0,0,0,0,0,0,0,0],"id":2,"left_children":[1,3,5,7,9,11,13,15,17,19,21,23,-1,25,27,-1,-1,29,31,-1,-1,33,35,37,39,-1,-1,41,43,-1,45,47,49,51,53,-1,55,57,-1,59,61,63,65,67,69,71,73,75,-1,77,79,-1,81,83,-1,-1,-1,-1,85,87,89,91,93,95,-1,-1,-1,-1,-1,97,99,-1,-1,-1,-1,-1,-1,-1,-1,-1,-1,-1,-1,-1,-1,-1,-1,-1,-1,-1,-1,-1,-1,-1,-1,-1,-1,-1,-1,-1,-1],"loss_changes":[4.4088028E1,2.6136429E1,1.4707481E1,1.3496965E1,9.621492E0,6.501133E0,1.0325342E1,4.1005926E0,5.8207054E0,1.3036356E0,7.570704E0,6.88538E0,0E0,1.9443207E0,8.424551E0,0E0,0E0,7.940403E0,7.0786223E0,0E0,0E0,5.845268E0,6.4145203E0,6.8287387E0,3.618843E0,0E0,0E0,4.959694E0,8.201261E0,0E0,8.897036E0,8.529318E0,6.1698093E0,7.023535E0,5.228502E0,0E0,4.653182E0,4.8071833E0,0E0,4.8433437E0,3.2303925E0,4.891979E0,2.646055E0,3.3065853E0,6.2447047E0,4.7512703E0,7.6913605E0,3.369175E0,0E0,8.924282E0,5.4846525E0,0E0,6.6684713E0,6.673884E0,0E0,0E0,0E0,0E0,5.8276844E0,3.2054567E0,2.6914554E0,7.8459997E0,3.436905E0,4.49322E0,0E0,0E0,0E0,0E0,0E0,2.6241422E0,5.555278E0,0E0,0E0,0E0,0E0,0E0,0E0,0E0,0E0,0E0,0E0,0E0,0E0,0E0,0E0,0E0,0E0,0E0,0E0,0E0,0E0,0E0,0E0,0E0,0E0,0E0,0E0,0E0,0E0,0E0,0E0],"parents":[2147483647,0,0,1,1,2,2,3,3,4,4,5,5,6,6,7,7,8,8,9,9,10,10,11,11,13,13,14,14,17,17,18,18,21,21,22,22,23,23,24,24,27,27,28,28,30,30,31,31,32,32,33,33,34,34,36,36,37,37,39,39,40,40,41,41,42,42,43,43,44,44,45,45,46,46,47,47,49,49,50,50,52,52,53,53,58,58,59,59,60,60,61,61,62,62,63,63,69,69,70,70],"right_children":[2,4,6,8,10,12,14,16,18,20,22,24,-1,26,28,-1,-1,30,32,-1,-1,34,36,38,40,-1,-1,42,44,-1,46,48,50,52,54,-1,56,58,-1,60,62,64,66,68,70,72,74,76,-1,78,80,-1,82,84,-1,-1,-1,-1,86,88,90,92,94,96,-1,-1,-1,-1,-1,98,100,-1,-1,-1,-1,-1,-1,-1,-1,-1,-1,-1,-1,-1,-1,-1,-1,-1,-1,-1,-1,-1,-1,-1,-1,-1,-1,-1,-1,-1,-1],"split_conditions":[5.91716E-3,-1.5599785E0,7.06476E0,-3.6054385E-1,7.4E2,5.3484604E-2,1.8302828E-1,-4.7004133E-2,2.0391516E-2,1.67688E1,-1.0280374E1,-1.0989012E0,4.1982103E-2,1.3978E1,3.1910464E-1,1.7752293E-2,-7.168868E-2,1.00236E1,2.533E3,-7.5485684E-2,-1.2853125E-2,-7.874016E-3,-1.372549E0,5.600907E1,-4.8E0,-7.835325E-3,-7.123131E-2,4.83871E0,6.067E3,8.292987E-2,-3.9952997E-2,3.6124784E-1,1.77E1,1.1857708E0,3.348837E-2,3.8642377E-2,1.7E3,9.9E0,6.494694E-2,-1.0619469E1,1.951068E-1,-3.6199095E-3,7.2796936E0,3.300568E-1,-1.0526315E-3,1.551E1,1.1865725E1,3.1921968E-2,4.574122E-2,1.251E1,-6.666667E-1,-6.831364E-2,-5.3276506E-4,-5.386921E-1,-5.2440524E-2,1.838941E-2,-7.301105E-2,4.0866114E-2,1.155E1,1.835E4,1.505E3,4.8805845E-1,4.8034935E0,8.427638E-2,8.597838E-2,2.6749974E-2,-4.8896536E-2,-7.182451E-2,8.145199E-3,1.5060241E-2,8.2E-1,-5.5516254E-2,2.1133663E-2,-4.412316E-3,2.873882E-2,-7.027524E-2,-8.331292E-3,-1.8102141E-2,5.4271948E-2,-5.841558E-2,2.8812924E-2,6.0275424E-2,-3.213326E-2,-1.2643756E-2,2.403803E-2,-7.205319E-2,-1.5550799E-2,-6.434409E-2,1.7653149E-2,6.649714E-2,-1.2135948E-2,-3.9903488E-2,4.5120806E-2,-6.3113324E-2,-2.4254723E-2,6.246924E-2,-3.0186815E-2,-4.3784093E-2,1.5820937E-2,5.8078285E-2,-1.7407587E-2],"split_indices":[14,58,30,9,40,47,25,14,47,3,13,52,0,0,55,0,0,3,40,0,0,38,58,6,58,0,0,28,40,0,38,49,39,19,44,0,23,45,0,64,55,41,59,8,47,0,10,9,0,45,28,0,44,26,0,0,0,0,39,37,40,61,29,7,0,0,0,0,0,41,18,0,0,0,0,0,0,0,0,0,0,0,0,0,0,0,0,0,0,0,0,0,0,0,0,0,0,0,0,0,0],"split_type":[0,0,0,0,0,0,0,0,0,0,0,0,0,0,0,0,0,0,0,0,0,0,0,0,0,0,0,0,0,0,0,0,0,0,0,0,0,0,0,0,0,0,0,0,0,0,0,0,0,0,0,0,0,0,0,0,0,0,0,0,0,0,0,0,0,0,0,0,0,0,0,0,0,0,0,0,0,0,0,0,0,0,0,0,0,0,0,0,0,0,0,0,0,0,0,0,0,0,0,0,0],"sum_hessian":[4.408719E2,2.9111807E2,1.4975381E2,2.092306E2,8.188747E1,1.1002809E2,3.9725716E1,5.640895E0,2.0358972E2,7.362027E0,7.452544E1,1.080595E2,1.968596E0,5.899047E0,3.382667E1,1.2320893E0,4.4088054E0,1.6840259E2,3.518713E1,5.8853607E0,1.4766667E0,6.396411E1,1.0561326E1,3.295648E1,7.510302E1,1.9615455E0,3.9375012E0,1.1855281E1,2.197139E1,4.698898E0,1.6370369E2,1.16302E1,2.355693E1,1.1839386E1,5.2124725E1,1.2371116E0,9.324214E0,3.1466055E1,1.490424E0,6.8882594E0,6.821476E1,9.145082E0,2.7101989E0,5.6532955E0,1.6318094E1,7.144362E0,1.5655933E2,9.405429E0,2.224771E0,1.7871761E1,5.6851687E0,5.6581306E0,6.1812553E0,4.9409576E1,2.71515E0,1.2285916E0,8.095623E0,1.9747947E0,2.949126E1,3.9323175E0,2.9559417E0,2.4792885E1,4.3421875E1,3.4453042E0,5.699778E0,1.4809673E0,1.2292315E0,4.182094E0,1.4712013E0,6.412204E0,9.90589E0,4.668216E0,2.4761457E0,1.9759306E1,1.3680002E2,5.6926994E0,3.7127295E0,5.693872E0,1.217789E1,3.4504075E0,2.2347612E0,2.2300937E0,3.9511619E0,2.0213085E1,2.9196491E1,4.8830843E0,2.4608175E1,2.6995292E0,1.2327883E0,1.4840918E0,1.4718499E0,2.2564066E1,2.228818E0,3.456958E1,8.852296E0,1.2318393E0,2.2134647E0,4.19357E0,2.2186334E0,6.939291E0,2.9665997E0],"tree_param":{"num_deleted":"0","num_feature":"66","num_nodes":"101","size_leaf_vector":"1"}},{"base_weights":[1.7880527E-2,4.3188322E-1,-2.2219448E-1,4.6966916E-1,-8.435146E-1,6.9650966E-1,-2.9643053E-1,6.8962675E-1,2.3526956E-1,8.245772E-3,-6.4456336E-2,2.3071107E-1,1.2827848E0,-7.8116125E-1,-1.8904363E-1,7.95232E-1,-4.9941424E-1,3.3182684E-1,-6.5519345E-1,7.0108604E-1,-5.8158165E-1,1.5032105E0,-5.270284E-3,4.7085539E-1,-9.6786857E-1,-2.7970403E-1,3.4641236E-1,8.490405E-1,-4.181625E-2,3.7101995E-2,-8.6928624E-1,-5.3829676E-1,4.4929796E-1,-6.683699E-2,-7.230892E-2,1.0928477E0,-1.6669108E-2,-6.106192E-2,1.3496403E-1,8.75252E-2,6.660366E-1,1.2046604E0,-5.5504348E-2,-1.1165476E0,-3.2437455E-3,4.2338777E-2,-4.376011E-1,-1.3867007E-1,8.9248997E-1,8.9897066E-1,-4.0037107E-2,-1.4105354E-3,-6.680548E-2,5.0078522E-2,-1.0348536E0,-4.656641E-2,5.1285017E-1,-7.5921434E-1,3.7620585E-2,-5.198344E-3,1.3810418E0,3.769029E-2,-2.7344598E-2,-7.073249E-3,5.8799546E-2,7.723138E-2,1.6364075E-2,2.510635E-3,-1.1925803E0,8.454123E-1,-5.9316326E-2,-6.279271E-1,2.4381478E-1,-6.044281E-1,5.9690144E-2,4.9726167E-1,-8.139074E-1,-4.5893064E-1,1.2158096E0,2.5437653E-2,5.885878E-2,-6.695914E-2,5.4430296E-3,1.1660981E-2,4.311653E-2,-7.3694787E-3,-5.1645644E-2,1.4723781E-2,8.153889E-2,-6.2912904E-2,8.251053E-3,-4.1416674E-3,6.1230417E-2,-3.1853672E-3,-6.793421E-2,-3.696985E-2,2.0405382E-2,-4.6815663E-3,-3.8215082E-2,-4.155727E-2,1.7492462E-2,6.945678E-2,-2.0497594E-2,1.2295981E-3,-6.3836984E-2,-5.1286757E-2,1.8714776E-2,8.8049755E-2,8.495051E-3],"categories":[],"categories_nodes":[],"categories_segments":[],"categories_sizes":[],"default_left":[0,0,0,0,0,0,0,0,0,0,0,0,0,0,0,0,0,0,0,0,0,0,0,0,0,0,0,0,0,0,0,0,0,0,0,0,0,0,0,0,0,0,0,0,0,0,0,0,0,0,0,0,0,0,0,0,0,0,0,0,0,0,0,0,0,0,0,0,0,0,0,0,0,0,0,0,0,0,0,0,0,0,0,0,0,0,0,0,0,0,0,0,0,0,0,0,0,0,0,0,0,0,0,0,0,0,0,0,0],"id":3,"left_children":[1,3,5,7,9,11,13,15,17,-1,-1,19,21,23,25,27,29,31,33,35,37,39,-1,41,43,45,47,49,-1,-1,51,53,55,-1,57,59,-1,-1,61,-1,63,65,-1,67,69,71,73,75,77,79,-1,-1,-1,-1,81,-1,83,85,-1,-1,87,-1,-1,-1,-1,-1,-1,-1,89,91,-1,93,95,97,99,101,103,105,107,-1,-1,-1,-1,-1,-1,-1,-1,-1,-1,-1,-1,-1,-1,-1,-1,-1,-1,-1,-1,-1,-1,-1,-1,-1,-1,-1,-1,-1,-1],"loss_changes":[4.5229424E1,8.444881E0,1.985406E1,8.233955E0,2.53284E0,5.6673756E0,1.3763529E1,1.0881554E1,7.1263456E0,0E0,0E0,5.5230527E0,3.0497131E0,1.1711039E1,1.0781484E1,7.476185E0,4.0544558E0,7.7196054E0,3.1597197E0,3.984089E0,2.6656256E0,5.3577805E-1,0E0,9.366518E0,6.0526543E0,9.617999E0,8.684165E0,6.906601E0,0E0,0E0,2.389236E0,8.038043E0,6.180915E0,0E0,3.6731436E0,2.4587011E0,0E0,0E0,1.8781027E0,0E0,1.602882E0,1.047504E0,0E0,3.305439E0,7.672028E0,8.663435E0,1.0552456E1,8.125238E0,7.259308E0,7.366253E0,0E0,0E0,0E0,0E0,2.7269845E0,0E0,5.934597E0,4.3135905E-1,0E0,0E0,1.0066748E0,0E0,0E0,0E0,0E0,0E0,0E0,0E0,3.2737732E0,1.6683877E0,0E0,6.0340357E0,8.245217E0,7.687153E0,8.756859E0,8.563605E0,3.562789E0,2.1251473E0,6.914055E0,0E0,0E0,0E0,0E0,0E0,0E0,0E0,0E0,0E0,0E0,0E0,0E0,0E0,0E0,0E0,0E0,0E0,0E0,0E0,0E0,0E0,0E0,0E0,0E0,0E0,0E0,0E0,0E0,0E0,0E0],"parents":[2147483647,0,0,1,1,2,2,3,3,4,4,5,5,6,6,7,7,8,8,11,11,12,12,13,13,14,14,15,15,16,16,17,17,18,18,19,19,20,20,21,21,23,23,24,24,25,25,26,26,27,27,30,30,31,31,32,32,34,34,35,35,38,38,40,40,41,41,43,43,44,44,45,45,46,46,47,47,48,48,49,49,54,54,56,56,57,57,60,60,68,68,69,69,71,71,72,72,73,73,74,74,75,75,76,76,77,77,78,78],"right_children":[2,4,6,8,10,12,14,16,18,-1,-1,20,22,24,26,28,30,32,34,36,38,40,-1,42,44,46,48,50,-1,-1,52,54,56,-1,58,60,-1,-1,62,-1,64,66,-1,68,70,72,74,76,78,80,-1,-1,-1,-1,82,-1,84,86,-1,-1,88,-1,-1,-1,-1,-1,-1,-1,90,92,-1,94,96,98,100,102,104,106,108,-1,-1,-1,-1,-1,-1,-1,-1,-1,-1,-1,-1,-1,-1,-1,-1,-1,-1,-1,-1,-1,-1,-1,-1,-1,-1,-1,-1,-1,-1],"split_conditions":[6.0949063E-1,1.1891509E0,-1.7241379E0,-2.4183798E-3,1.722551E1,7.2E3,5.9E3,-2.247191E1,4.69E4,8.245772E-3,-6.4456336E-2,1.2772E4,1.8939395E-2,4.094488E1,2.2304833E-2,6.8463635E-1,-2.8793774E0,9E2,6.24418E4,3.412E3,1.5780029E1,3.7037036E0,-5.270284E-3,-1.9187687E-1,7.557E3,3.3519552E-3,5E-2,7.0010753E0,-4.181625E-2,3.7101995E-2,-1.0765924E-2,-1.8232819E-2,1.2253463E-1,-6.683699E-2,-1.4705883E-3,1.505E3,-1.6669108E-2,-6.106192E-2,5.384898E-1,8.75252E-2,3.9988E4,1.146E1,-5.5504348E-2,5.1E1,-2.4054983E0,-5.899705E-1,5.3E-1,2.4099793E-1,-7.077024E-1,9E3,-4.0037107E-2,-1.4105354E-3,-6.680548E-2,5.0078522E-2,5.753468E-2,-4.656641E-2,-1.3617021E0,3.65E4,3.7620585E-2,-5.198344E-3,5.05E3,3.769029E-2,-2.7344598E-2,-7.073249E-3,5.8799546E-2,7.723138E-2,1.6364075E-2,2.510635E-3,6.983471E1,-2.4213076E-3,-5.9316326E-2,1.7E1,1.125E3,-1.7843867E-2,-5.555556E-1,1.473E4,-1.7021277E0,-3.5874438E-3,1.35E0,2.5437653E-2,5.885878E-2,-6.695914E-2,5.4430296E-3,1.1660981E-2,4.311653E-2,-7.3694787E-3,-5.1645644E-2,1.4723781E-2,8.153889E-2,-6.2912904E-2,8.251053E-3,-4.1416674E-3,6.1230417E-2,-3.1853672E-3,-6.793421E-2,-3.696985E-2,2.0405382E-2,-4.6815663E-3,-3.8215082E-2,-4.155727E-2,1.7492462E-2,6.945678E-2,-2.0497594E-2,1.2295981E-3,-6.3836984E-2,-5.1286757E-2,1.8714776E-2,8.8049755E-2,8.495051E-3],"split_indices":[53,49,21,35,12,43,24,13,23,0,0,37,47,6,47,27,30,43,23,43,5,59,0,7,43,14,20,25,0,0,27,47,61,0,47,40,0,0,61,0,34,57,0,40,64,21,31,49,26,23,0,0,0,0,7,0,30,40,0,0,24,0,0,0,0,0,0,0,6,14,0,63,43,35,26,24,52,35,26,0,0,0,0,0,0,0,0,0,0,0,0,0,0,0,0,0,0,0,0,0,0,0,0,0,0,0,0,0,0],"split_type":[0,0,0,0,0,0,0,0,0,0,0,0,0,0,0,0,0,0,0,0,0,0,0,0,0,0,0,0,0,0,0,0,0,0,0,0,0,0,0,0,0,0,0,0,0,0,0,0,0,0,0,0,0,0,0,0,0,0,0,0,0,0,0,0,0,0,0,0,0,0,0,0,0,0,0,0,0,0,0,0,0,0,0,0,0,0,0,0,0,0,0,0,0,0,0,0,0,0,0,0,0,0,0,0,0,0,0,0,0],"sum_hessian":[4.5309683E2,1.6601303E2,2.870838E2,1.6184969E2,4.1633396E0,2.0836798E1,2.66247E2,8.249517E1,7.9354515E1,1.468961E0,2.6943784E0,1.2387995E1,8.448803E0,4.7148857E1,2.1909816E2,7.607016E1,6.425011E0,7.2157486E1,7.197035E0,7.9318166E0,4.456178E0,7.219577E0,1.2292262E0,5.9211426E0,4.1227715E1,1.8778165E2,3.1316505E1,7.410578E1,1.964383E0,1.2438599E0,5.1811514E0,8.156782E0,6.40007E1,2.7215288E0,4.475506E0,5.7121453E0,2.2196712E0,1.9822725E0,2.4739056E0,4.73109E0,2.488487E0,4.206622E0,1.7145207E0,3.5585392E1,5.642323E0,6.20197E1,1.2576195E2,1.6979567E1,1.433694E1,7.2370605E1,1.7351761E0,2.2277844E0,2.953367E0,1.74094E0,6.4158425E0,2.2155235E0,6.1785175E1,2.485104E0,1.9904017E0,1.2326081E0,4.4795375E0,1.2415626E0,1.2323431E0,1.242929E0,1.245558E0,2.483725E0,1.7228969E0,2.1978507E0,3.3387543E1,3.451726E0,2.1905973E0,1.3844729E1,4.8174973E1,9.4009125E1,3.1752827E1,8.880024E0,8.099543E0,2.6868658E0,1.1650073E1,3.1298788E1,4.1071815E1,4.932463E0,1.4833794E0,3.52488E1,2.6536377E1,1.2436234E0,1.2414807E0,1.2444143E0,3.2351232E0,3.1916662E1,1.4708793E0,1.2277743E0,2.2239518E0,8.426095E0,5.4186344E0,6.3962264E0,4.1778744E1,2.2787758E1,7.122137E1,7.3432894E0,2.4409538E1,4.2099986E0,4.6700253E0,3.21745E0,4.8820925E0,1.4615809E0,1.225285E0,7.208766E0,4.4413075E0],"tree_param":{"num_deleted":"0","num_feature":"66","num_nodes":"109","size_leaf_vector":"1"}},{"base_weights":[-2.2098133E-2,1.830172E-1,-4.3221536E-1,3.224377E-1,-1.586086E-1,-7.024336E-1,-3.122372E-2,4.897005E-1,2.4715135E-2,-5.74188E-1,1.2962903E-1,-8.3942276E-1,1.15167625E-1,-8.275773E-1,1.2745742E-1,3.3873302E-1,8.5032284E-1,-7.343892E-2,1.1667124E0,-7.362532E-1,1.4819922E-1,6.6115046E-1,-8.850656E-2,-5.203509E-1,-1.1741283E0,-7.865545E-1,5.8335626E-1,-1.2365369E0,6.322412E-2,2.2080609E-1,-5.3368498E-2,9.7267294E-1,2.1759327E-1,2.2313558E-1,1.2101839E0,5.426824E-1,-2.6827797E-1,-4.5072306E-3,7.47431E-2,-4.7271633E-1,-1.2759943E0,-6.365308E-2,1.1053106E0,-5.3234812E-2,9.210448E-1,-4.1918617E-1,5.3459144E-1,-7.476293E-1,3.3085948E-1,-1.2875557E0,-1.2636952E-1,-5.061856E-2,-1.6229767E-3,8.805892E-1,-3.1721048E-2,-1.9570392E-2,-7.163686E-2,3.485049E-2,-3.2975893E-2,-1.23337656E-1,5.572037E-1,1.4093719E0,1.4604141E-1,2.8713953E-1,-5.7846416E-2,-5.518353E-2,5.896299E-1,-1.4214727E-2,1.4614007E0,-2.3241006E-2,1.4236085E0,-7.9473853E-1,1.6270253E-1,3.164509E-1,-8.5268956E-1,-1.4444134E0,-5.4819263E-3,7.51609E-2,5.0277063E-3,1.1664687E0,-3.4040067E-2,3.8538057E-2,-9.687651E-1,1.2384673E0,-1.3329526E-2,2.5128681E-2,-8.4359884E-1,1.0117004E0,-4.9664702E-2,1.0727177E-2,-1.3636862E0,3.9158117E-2,-6.782558E-1,1.4031869E0,-3.4507044E-2,1.928202E-1,-1.0341071E0,2.5808975E-1,1.1152686E0,1.2811077E-2,8.5470505E-2,5.418427E-2,-2.5793606E-2,2.0903362E-2,-2.0649306E-2,4.3962967E-2,-4.049653E-2,-3.477841E-2,3.639511E-2,7.971691E-2,1.2536782E-2,-2.0594127E-2,3.8881384E-2,1.5561916E-2,8.050306E-2,-1.4914687E-2,-6.2046856E-2,1.8610496E-2,-4.9453642E-2,5.475841E-2,-4.0596675E-2,-5.4156628E-2,2.076807E-2,-7.732532E-2,-2.4172993E-2,6.946273E-2,-1.4277691E-2,2.4516797E-2,-5.683543E-2,6.5315925E-3,-6.040095E-2,7.234126E-2,1.2444616E-2,4.414187E-2,-2.3034595E-2,8.926835E-3,-5.1123768E-2,-1.2797676E-2,7.097595E-2,-7.047232E-2,-1.2835914E-2,-4.9098637E-2,-3.412483E-3,1.7225979E-2,8.222025E-2,-3.547432E-2,3.981941E-2,3.0777479E-2,-3.321702E-2,-7.006299E-2,7.4165105E-3,2.340925E-3,6.93107E-2,-3.853295E-3,6.6475205E-2],"categories":[],"categories_nodes":[],"categories_segments":[],"categories_sizes":[],"default_left":[0,0,0,0,0,0,0,0,0,0,0,0,0,0,0,0,0,0,0,0,0,0,0,0,0,0,0,0,0,0,0,0,0,0,0,0,0,0,0,0,0,0,0,0,0,0,0,0,0,0,0,0,0,0,0,0,0,0,0,0,0,0,0,0,0,0,0,0,0,0,0,0,0,0,0,0,0,0,0,0,0,0,0,0,0,0,0,0,0,0,0,0,0,0,0,0,0,0,0,0,0,0,0,0,0,0,0,0,0,0,0,0,0,0,0,0,0,0,0,0,0,0,0,0,0,0,0,0,0,0,0,0,0,0,0,0,0,0,0,0,0,0,0,0,0,0,0,0,0,0,0,0,0,0,0],"id":4,"left_children":[1,3,5,7,9,11,13,15,17,19,21,23,25,27,29,31,33,35,37,39,41,43,45,47,49,51,53,55,57,59,-1,61,63,65,67,69,71,-1,-1,73,75,-1,77,-1,79,81,83,85,87,89,91,-1,-1,93,-1,-1,-1,-1,-1,95,97,99,101,103,-1,-1,105,107,109,111,113,115,117,119,121,123,-1,-1,-1,125,-1,127,129,131,133,-1,135,137,-1,-1,139,-1,141,143,145,147,149,151,153,-1,-1,-1,-1,-1,-1,-1,-1,-1,-1,-1,-1,-1,-1,-1,-1,-1,-1,-1,-1,-1,-1,-1,-1,-1,-1,-1,-1,-1,-1,-1,-1,-1,-1,-1,-1,-1,-1,-1,-1,-1,-1,-1,-1,-1,-1,-1,-1,-1,-1,-1,-1,-1,-1,-1,-1],"loss_changes":[3.7776054E1,1.4312677E1,1.6198887E1,1.0593534E1,1.0549935E1,1.0108231E1,7.8534355E0,7.133007E0,8.791079E0,4.323638E0,6.14014E0,7.5780907E0,6.245559E0,3.8380733E0,6.034708E0,7.29494E0,8.659197E0,8.843676E0,2.6943445E0,3.6029148E0,1.1512558E1,7.879562E0,8.068732E0,8.189494E0,4.1902466E0,8.373711E-1,4.032248E0,6.201649E-1,2.3829725E0,5.7476096E0,0E0,5.35118E0,8.300261E0,8.260748E0,7.683609E0,8.876716E0,1.27714E1,0E0,0E0,6.7040706E0,1.6317177E0,0E0,1.837668E0,0E0,6.260248E0,6.435132E0,5.2767787E0,4.348339E0,9.429414E0,4.059513E0,2.8836956E0,0E0,0E0,3.9376054E0,0E0,0E0,0E0,0E0,0E0,7.417178E0,3.8831444E0,3.0070286E0,4.5539927E0,7.5188475E0,0E0,0E0,5.9470396E0,3.1516385E0,2.9286804E0,3.9882507E0,9.4129944E-1,5.223197E0,7.96137E0,7.657772E0,4.7612963E0,2.5484085E-2,0E0,0E0,0E0,4.4161777E0,0E0,8.43586E0,3.2077293E0,8.7303257E-1,3.878072E0,0E0,5.8047066E0,3.8099012E0,0E0,0E0,1.2331734E0,0E0,5.7265925E-1,7.6148415E-1,2.7703168E0,7.4565954E0,3.0802264E0,4.122487E0,2.2528143E0,0E0,0E0,0E0,0E0,0E0,0E0,0E0,0E0,0E0,0E0,0E0,0E0,0E0,0E0,0E0,0E0,0E0,0E0,0E0,0E0,0E0,0E0,0E0,0E0,0E0,0E0,0E0,0E0,0E0,0E0,0E0,0E0,0E0,0E0,0E0,0E0,0E0,0E0,0E0,0E0,0E0,0E0,0E0,0E0,0E0,0E0,0E0,0E0,0E0,0E0,0E0,0E0,0E0,0E0,0E0,0E0],"parents":[2147483647,0,0,1,1,2,2,3,3,4,4,5,5,6,6,7,7,8,8,9,9,10,10,11,11,12,12,13,13,14,14,15,15,16,16,17,17,18,18,19,19,20,20,21,21,22,22,23,23,24,24,25,25,26,26,27,27,28,28,29,29,31,31,32,32,33,33,34,34,35,35,36,36,39,39,40,40,42,42,44,44,45,45,46,46,47,47,48,48,49,49,50,50,53,53,59,59,60,60,61,61,62,62,63,63,66,66,67,67,68,68,69,69,70,70,71,71,72,72,73,73,74,74,75,75,79,79,81,81,82,82,83,83,84,84,86,86,87,87,90,90,92,92,93,93,94,94,95,95,96,96,97,97,98,98],"right_children":[2,4,6,8,10,12,14,16,18,20,22,24,26,28,30,32,34,36,38,40,42,44,46,48,50,52,54,56,58,60,-1,62,64,66,68,70,72,-1,-1,74,76,-1,78,-1,80,82,84,86,88,90,92,-1,-1,94,-1,-1,-1,-1,-1,96,98,100,102,104,-1,-1,106,108,110,112,114,116,118,120,122,124,-1,-1,-1,126,-1,128,130,132,134,-1,136,138,-1,-1,140,-1,142,144,146,148,150,152,154,-1,-1,-1,-1,-1,-1,-1,-1,-1,-1,-1,-1,-1,-1,-1,-1,-1,-1,-1,-1,-1,-1,-1,-1,-1,-1,-1,-1,-1,-1,-1,-1,-1,-1,-1,-1,-1,-1,-1,-1,-1,-1,-1,-1,-1,-1,-1,-1,-1,-1,-1,-1,-1,-1,-1,-1],"split_conditions":[-4.1666666E-1,1.648E1,3.9631336E0,1.3452915E0,1.89E1,1.8855219E0,-1.3385827E-2,6.7484663E-3,8.6E-1,2.9444733E0,1.933E1,-3.6630037E-1,2.0689654E0,2.2790697E0,4.385965E-2,-1.0454545E1,4.125E3,-8.31075E0,-3.7262216E-2,1.8332762E1,1.695E1,6.65E3,2.2E1,1.3297873E-2,3.25E4,2.5E-1,2.631579E-2,1.1E3,1.269E1,1.09E4,-5.3368498E-2,4.5454544E-3,6.0504913E-1,-2.375E-2,-2.1052632E-2,-2.467615E-2,3.116883E-1,-4.5072306E-3,7.47431E-2,6.2539086E-2,6.4193E4,-6.365308E-2,1.5453436E0,-5.3234812E-2,1.977552E0,-1E-1,1.56E4,3.73985E3,3.076923E-3,-2.0590253E-2,4.25E4,-5.061856E-2,-1.6229767E-3,3.0769231E0,-3.1721048E-2,-1.9570392E-2,-7.163686E-2,3.485049E-2,-3.2975893E-2,9.2E-1,7.4626864E-3,-6.760901E-1,-2.6537998E-2,1.4430786E-2,-5.7846416E-2,-5.518353E-2,5.263158E0,-6.8965517E-3,5.05E4,1.7467248E0,-2.7278548E-1,2.6423475E-1,-9.758898E-1,5.684312E-2,1.71E1,3.4482758E0,-5.4819263E-3,7.51609E-2,5.0277063E-3,3.8046565E0,-3.4040067E-2,2.15E1,-1.1469534E-2,1.6666666E0,1.925E1,2.5128681E-2,-2.1E-1,-8E-1,-4.9664702E-2,1.0727177E-2,5.35E4,3.9158117E-2,2.121212E0,-2.7067976E-2,6.8E-1,1.15E4,4.9166402E-1,1.4404852E-2,1.3524114E-1,1.2811077E-2,8.5470505E-2,5.418427E-2,-2.5793606E-2,2.0903362E-2,-2.0649306E-2,4.3962967E-2,-4.049653E-2,-3.477841E-2,3.639511E-2,7.971691E-2,1.2536782E-2,-2.0594127E-2,3.8881384E-2,1.5561916E-2,8.050306E-2,-1.4914687E-2,-6.2046856E-2,1.8610496E-2,-4.9453642E-2,5.475841E-2,-4.0596675E-2,-5.4156628E-2,2.076807E-2,-7.732532E-2,-2.4172993E-2,6.946273E-2,-1.4277691E-2,2.4516797E-2,-5.683543E-2,6.5315925E-3,-6.040095E-2,7.234126E-2,1.2444616E-2,4.414187E-2,-2.3034595E-2,8.926835E-3,-5.1123768E-2,-1.2797676E-2,7.097595E-2,-7.047232E-2,-1.2835914E-2,-4.9098637E-2,-3.412483E-3,1.7225979E-2,8.222025E-2,-3.547432E-2,3.981941E-2,3.0777479E-2,-3.321702E-2,-7.006299E-2,7.4165105E-3,2.340925E-3,6.93107E-2,-3.853295E-3,6.6475205E-2],"split_indices":[52,56,30,53,42,25,41,41,18,26,42,58,19,21,44,30,40,64,9,4,56,24,33,35,37,31,41,46,36,40,0,44,55,14,44,9,30,0,0,59,40,0,25,0,53,16,46,24,41,35,37,0,0,29,0,0,0,0,0,31,38,7,14,35,0,0,30,38,34,21,27,49,64,8,56,59,0,0,0,30,0,42,44,25,62,0,31,26,0,0,46,0,30,27,31,46,27,44,7,0,0,0,0,0,0,0,0,0,0,0,0,0,0,0,0,0,0,0,0,0,0,0,0,0,0,0,0,0,0,0,0,0,0,0,0,0,0,0,0,0,0,0,0,0,0,0,0,0,0,0,0,0,0,0,0],"split_type":[0,0,0,0,0,0,0,0,0,0,0,0,0,0,0,0,0,0,0,0,0,0,0,0,0,0,0,0,0,0,0,0,0,0,0,0,0,0,0,0,0,0,0,0,0,0,0,0,0,0,0,0,0,0,0,0,0,0,0,0,0,0,0,0,0,0,0,0,0,0,0,0,0,0,0,0,0,0,0,0,0,0,0,0,0,0,0,0,0,0,0,0,0,0,0,0,0,0,0,0,0,0,0,0,0,0,0,0,0,0,0,0,0,0,0,0,0,0,0,0,0,0,0,0,0,0,0,0,0,0,0,0,0,0,0,0,0,0,0,0,0,0,0,0,0,0,0,0,0,0,0,0,0,0,0],"sum_hessian":[4.4712598E2,2.9842563E2,1.4870035E2,2.1197353E2,8.64521E1,8.8386894E1,6.0313457E1,1.3531033E2,7.666319E1,3.4998867E1,5.1453236E1,7.568001E1,1.2706883E1,9.320826E0,5.099263E1,9.6747986E1,3.8562347E1,7.1457184E1,5.206014E0,2.857007E1,6.428797E0,1.4380931E1,3.7072304E1,4.0052734E1,3.5627274E1,4.1103787E0,8.596504E0,6.1221023E0,3.1987236E0,4.8053535E1,2.9390955E0,1.4393837E1,8.235415E1,1.4649821E1,2.3912527E1,1.6739174E1,5.4718006E1,1.2279801E0,3.978034E0,2.0457298E1,8.11277E0,2.4542518E0,3.974545E0,1.4768898E0,1.2904041E1,2.4432938E1,1.2639364E1,3.1708147E1,8.344585E0,3.1940605E1,3.6866684E0,2.8995879E0,1.210791E0,7.1325035E0,1.4640008E0,1.7177727E0,4.4043293E0,1.7232115E0,1.475512E0,2.406636E1,2.3987173E1,8.957006E0,5.43683E0,7.9140976E1,3.2131746E0,2.7354271E0,1.1914394E1,4.2316127E0,1.9680914E1,1.0784576E1,5.954596E0,2.4250721E1,3.0467287E1,6.7029996E0,1.3754299E1,6.8808E0,1.2319708E0,2.4916792E0,1.4828659E0,1.1425328E1,1.4787132E0,1.383781E1,1.0595129E1,4.980702E0,7.6586623E0,1.9584501E0,2.9749699E1,5.6668315E0,2.6777544E0,1.4530468E0,3.0487558E1,1.2339697E0,2.4526987E0,4.2003627E0,2.9321406E0,1.8450037E1,5.6163235E0,1.656895E1,7.418223E0,2.2321293E0,6.7248774E0,1.9861364E0,3.4506938E0,6.701216E1,1.2128809E1,1.01795635E1,1.7348307E0,2.2388244E0,1.9927883E0,1.744811E1,2.232805E0,7.5880103E0,3.1965666E0,1.2379988E0,4.7165976E0,1.2268827E1,1.1981894E1,2.6350908E1,4.1163797E0,3.9834144E0,2.7195852E0,1.1762524E1,1.9917753E0,5.6691556E0,1.2116439E0,9.942989E0,1.4823393E0,1.041628E1,3.42153E0,1.9747851E0,8.620344E0,3.7327027E0,1.2479991E0,2.2260194E0,5.432643E0,4.431149E0,2.5318548E1,1.4699761E0,4.1968555E0,2.9014885E1,1.472674E0,1.2303451E0,1.2223535E0,1.2300633E0,2.9702995E0,1.6984885E0,1.2336521E0,1.2545029E1,5.905009E0,4.144405E0,1.4719187E0,1.4832645E1,1.7363058E0,1.2273948E0,6.190828E0],"tree_param":{"num_deleted":"0","num_feature":"66","num_nodes":"155","size_leaf_vector":"1"}},{"base_weights":[4.1973274E-2,3.660701E-1,-1.8301015E-1,4.9660233E-1,3.0995471E-2,5.172949E-1,-2.5101876E-1,1.4134523E0,4.2524493E-1,-6.564239E-1,2.87052E-1,6.9228625E-1,-5.5652022E-2,-5.0631976E-1,-8.517822E-2,-7.89339E-3,8.3896585E-2,6.469011E-1,8.667357E-2,5.7587147E-1,-9.803573E-1,7.183874E-1,-1.6634746E-1,-3.700346E-1,9.749575E-1,-3.630541E-1,-1.2914232E0,7.699316E-1,-1.3506301E-1,6.994009E-1,-4.3562558E-2,-1.9182763E-1,4.573536E-1,-2.5253192E-2,6.544741E-2,-1.1624342E0,1.7055487E-2,-2.0589578E-1,1.0696607E0,-4.8563412E-1,7.188774E-1,2.2518057E-2,-4.848217E-2,-2.644845E-1,1.214003E0,-5.070482E-1,2.7290967E-1,-1.5283495E-2,-1.3969351E0,1.2665433E0,-3.7124705E-2,-7.9381937E-1,-4.5484655E-2,2.9812983E-1,9.6159804E-1,-5.059138E-1,4.604609E-1,6.7478114E-1,-5.504424E-1,-7.719466E-2,-2.6686308E-1,-8.353755E-1,4.76637E-2,1.3116723E0,-3.3950534E-2,1.1152604E-1,-9.319786E-1,1.1481224E0,-1.5004444E-2,2.471339E-2,-4.9514137E-2,-2.2362975E-2,1.4612311E0,-5.8183444E-1,3.7559628E-1,7.080667E-2,-9.69281E-2,-7.638211E-2,-5.8394074E-1,-2.1426573E-3,8.641482E-2,-1.1076503E0,-1.3450494E-1,-4.4663367E-1,5.165381E-2,3.5299387E-2,-2.952376E-2,5.3200126E-2,-3.3121854E-2,5.529868E-3,-4.1439082E-2,5.1751878E-2,-1.138316E-2,4.5264377E-3,5.7539083E-2,-4.91417E-2,1.605029E-2,3.1788033E-2,-5.422583E-2,1.521896E-2,-6.642317E-2,7.683842E-2,-6.438291E-3,3.165431E-2,-4.427941E-2,1.5864816E-2,-5.8787134E-2,6.9315925E-2,1.573023E-2,1.2255145E-2,7.826518E-2,2.9112179E-2,-3.2183476E-2,-2.352718E-2,4.55659E-2,-4.9218345E-2,2.1271555E-2,-5.1749934E-4,-4.4652402E-2,-6.1648477E-2,-1.5453403E-3,1.6338494E-2,-5.2075434E-2,-3.447081E-2,1.0994497E-2,3.48772E-2,-3.7916233E-3],"categories":[],"categories_nodes":[],"categories_segments":[],"categories_sizes":[],"default_left":[0,0,0,0,0,0,0,0,0,0,0,0,0,0,0,0,0,0,0,0,0,0,0,0,0,0,0,0,0,0,0,0,0,0,0,0,0,0,0,0,0,0,0,0,0,0,0,0,0,0,0,0,0,0,0,0,0,0,0,0,0,0,0,0,0,0,0,0,0,0,0,0,0,0,0,0,0,0,0,0,0,0,0,0,0,0,0,0,0,0,0,0,0,0,0,0,0,0,0,0,0,0,0,0,0,0,0,0,0,0,0,0,0,0,0,0,0,0,0,0,0,0,0,0,0,0,0],"id":5,"left_children":[1,3,5,7,9,11,13,15,17,19,21,23,-1,25,27,-1,-1,29,31,33,35,37,39,41,43,45,47,49,51,53,-1,55,57,-1,-1,59,-1,61,63,65,67,-1,-1,69,71,73,75,-1,77,79,-1,81,83,85,87,89,91,93,95,-1,97,99,-1,101,-1,103,105,107,-1,-1,-1,-1,109,111,113,-1,115,-1,117,-1,-1,119,121,123,125,-1,-1,-1,-1,-1,-1,-1,-1,-1,-1,-1,-1,-1,-1,-1,-1,-1,-1,-1,-1,-1,-1,-1,-1,-1,-1,-1,-1,-1,-1,-1,-1,-1,-1,-1,-1,-1,-1,-1,-1,-1,-1],"loss_changes":[3.3086388E1,8.114733E0,1.2891763E1,8.146385E0,9.548797E0,7.6305566E0,1.0326237E1,4.098339E0,9.3607235E0,6.447181E0,7.833006E0,7.06654E0,0E0,1.0356165E1,6.4884768E0,0E0,0E0,6.6411266E0,5.3321834E0,3.5909886E0,3.2932692E0,6.84385E0,6.0135145E0,3.101955E0,5.6284122E0,7.7189703E0,1.0770493E0,7.2490325E0,8.359356E0,7.467819E0,0E0,6.3201494E0,5.211713E0,0E0,0E0,3.2803316E0,0E0,5.50762E0,7.214918E0,4.188772E0,2.8444486E0,0E0,0E0,2.5366051E0,6.8945904E0,4.697115E0,6.8737574E0,0E0,4.6627045E-1,4.120575E0,0E0,3.3622475E0,4.944662E0,1.1498493E1,8.043549E0,4.1784887E0,4.260723E0,5.073757E0,2.0000906E0,0E0,3.9644914E0,3.055501E0,0E0,4.564806E0,0E0,4.434217E0,3.0763836E0,4.034276E-1,0E0,0E0,0E0,0E0,1.3201141E0,4.9052467E0,3.1065927E0,0E0,6.433155E0,0E0,5.9166837E-1,0E0,0E0,1.4946146E0,3.1061294E0,4.1526785E0,8.499228E0,0E0,0E0,0E0,0E0,0E0,0E0,0E0,0E0,0E0,0E0,0E0,0E0,0E0,0E0,0E0,0E0,0E0,0E0,0E0,0E0,0E0,0E0,0E0,0E0,0E0,0E0,0E0,0E0,0E0,0E0,0E0,0E0,0E0,0E0,0E0,0E0,0E0,0E0,0E0,0E0,0E0,0E0],"parents":[2147483647,0,0,1,1,2,2,3,3,4,4,5,5,6,6,7,7,8,8,9,9,10,10,11,11,13,13,14,14,17,17,18,18,19,19,20,20,21,21,22,22,23,23,24,24,25,25,26,26,27,27,28,28,29,29,31,31,32,32,35,35,37,37,38,38,39,39,40,40,43,43,44,44,45,45,46,46,48,48,49,49,51,51,52,52,53,53,54,54,55,55,56,56,57,57,58,58,60,60,61,61,63,63,65,65,66,66,67,67,72,72,73,73,74,74,76,76,78,78,81,81,82,82,83,83,84,84],"right_children":[2,4,6,8,10,12,14,16,18,20,22,24,-1,26,28,-1,-1,30,32,34,36,38,40,42,44,46,48,50,52,54,-1,56,58,-1,-1,60,-1,62,64,66,68,-1,-1,70,72,74,76,-1,78,80,-1,82,84,86,88,90,92,94,96,-1,98,100,-1,102,-1,104,106,108,-1,-1,-1,-1,110,112,114,-1,116,-1,118,-1,-1,120,122,124,126,-1,-1,-1,-1,-1,-1,-1,-1,-1,-1,-1,-1,-1,-1,-1,-1,-1,-1,-1,-1,-1,-1,-1,-1,-1,-1,-1,-1,-1,-1,-1,-1,-1,-1,-1,-1,-1,-1,-1,-1,-1,-1],"split_conditions":[8.77193E-1,1.725E1,-1.6393442E-2,-4.0315513E-2,-3.7931035E0,1.0679611E1,3.6953908E-1,-1.7E-1,-8E-2,-2.8229665E-2,-4.777778E1,-2.8784376E-2,-5.5652022E-2,3.2E-1,9.382913E0,-7.89339E-3,8.3896585E-2,4.1237112E-2,-5.4176155E-2,2.15E4,2.1368E1,-2.1E-1,4.2621205E-3,1.42E1,3.4804E3,2.1857923E-2,2.7811205E-1,1.1524163E1,1.002E3,-4.379562E-3,-4.3562558E-2,1.598E1,6.316224E-2,-2.5253192E-2,6.544741E-2,4.01E4,1.7055487E-2,7.6E-1,1.171875E0,-2E-2,1.1560693E-2,2.2518057E-2,-4.848217E-2,-3.1790745E0,2.425175E-1,7.016129E1,1.2517987E-1,-1.5283495E-2,4.2608697E-2,2.0632498E-1,-3.7124705E-2,3.1E-1,-5.764411E0,2.094241E0,7.398568E-2,3.75E1,1.2150669E-3,-1.5721098E-2,4.3956044E-1,-7.719466E-2,1.96E1,6.2E3,4.76637E-2,1.044505E-2,-3.3950534E-2,2.0089E4,1.7084E1,6.442769E-1,-1.5004444E-2,2.471339E-2,-4.9514137E-2,-2.2362975E-2,-4.848485E0,2.912333E1,1.742699E-1,7.080667E-2,7.601E3,-7.638211E-2,5.6478404E-2,-2.1426573E-3,8.641482E-2,6.382979E0,4.9327156E-1,1.2987013E-2,-1.4423077E-2,3.5299387E-2,-2.952376E-2,5.3200126E-2,-3.3121854E-2,5.529868E-3,-4.1439082E-2,5.1751878E-2,-1.138316E-2,4.5264377E-3,5.7539083E-2,-4.91417E-2,1.605029E-2,3.1788033E-2,-5.422583E-2,1.521896E-2,-6.642317E-2,7.683842E-2,-6.438291E-3,3.165431E-2,-4.427941E-2,1.5864816E-2,-5.8787134E-2,6.9315925E-2,1.573023E-2,1.2255145E-2,7.826518E-2,2.9112179E-2,-3.2183476E-2,-2.352718E-2,4.55659E-2,-4.9218345E-2,2.1271555E-2,-5.1749934E-4,-4.4652402E-2,-6.1648477E-2,-1.5453403E-3,1.6338494E-2,-5.2075434E-2,-3.447081E-2,1.0994497E-2,3.48772E-2,-3.7916233E-3],"split_indices":[53,51,14,35,52,30,25,20,16,41,13,9,0,20,12,0,0,41,7,23,0,20,35,39,23,22,61,59,34,41,0,57,9,0,0,37,0,18,28,20,35,0,0,52,61,6,49,0,14,49,0,18,64,65,22,6,14,9,53,0,39,34,0,38,0,37,0,25,0,0,0,0,29,6,49,0,37,0,14,0,0,29,61,41,35,0,0,0,0,0,0,0,0,0,0,0,0,0,0,0,0,0,0,0,0,0,0,0,0,0,0,0,0,0,0,0,0,0,0,0,0,0,0,0,0,0,0],"split_type":[0,0,0,0,0,0,0,0,0,0,0,0,0,0,0,0,0,0,0,0,0,0,0,0,0,0,0,0,0,0,0,0,0,0,0,0,0,0,0,0,0,0,0,0,0,0,0,0,0,0,0,0,0,0,0,0,0,0,0,0,0,0,0,0,0,0,0,0,0,0,0,0,0,0,0,0,0,0,0,0,0,0,0,0,0,0,0,0,0,0,0,0,0,0,0,0,0,0,0,0,0,0,0,0,0,0,0,0,0,0,0,0,0,0,0,0,0,0,0,0,0,0,0,0,0,0,0],"sum_hessian":[4.5183896E2,1.8488225E2,2.6695673E2,1.3270384E2,5.2178406E1,2.3045366E1,2.4391136E2,8.224295E0,1.2447955E2,1.3736709E1,3.84417E1,2.1331165E1,1.7142004E0,9.524093E1,1.4867043E2,1.2429287E0,6.981366E0,7.4678375E1,4.9801174E1,2.697444E0,1.1039265E1,1.9400679E1,1.904102E1,4.418125E0,1.691304E1,8.178012E1,1.3460805E1,7.399321E0,1.412711E2,7.27035E1,1.9748801E0,2.8711786E1,2.1089388E1,1.2157838E0,1.4816601E0,9.808199E0,1.2310661E0,5.456691E0,1.3943989E1,1.4325454E1,4.715565E0,1.970694E0,2.4474313E0,2.717335E0,1.4195704E1,6.684734E1,1.4932778E1,1.6782885E0,1.17825165E1,5.6926794E0,1.7066418E0,1.596958E1,1.2530153E2,2.9576365E1,4.3127132E1,1.9531496E1,9.18029E0,1.7618675E1,3.470713E0,6.370732E0,3.4374666E0,3.717344E0,1.739347E0,1.2468309E1,1.4756793E0,6.4483714E0,7.8770823E0,3.228704E0,1.4868612E0,1.4844677E0,1.2328672E0,1.7341168E0,1.2461588E1,6.1939987E1,4.9073553E0,2.958512E0,1.1974266E1,9.393302E0,2.3892145E0,1.7206405E0,3.9720385E0,1.0358821E1,5.610759E0,2.3725466E1,1.0157606E2,2.0412712E1,9.163653E0,4.0893414E1,2.2337174E0,6.939012E0,1.25924835E1,4.7281713E0,4.452119E0,8.444238E0,9.1744375E0,2.2342935E0,1.2364194E0,1.7395738E0,1.6978927E0,1.2381392E0,2.4792047E0,1.0725388E1,1.7429221E0,4.4735007E0,1.9748706E0,1.2368182E0,6.640264E0,1.995292E0,1.233412E0,1.2468452E0,1.1214743E1,2.6997461E0,5.9240242E1,1.9496561E0,2.9576993E0,4.109E0,7.865266E0,1.1985761E0,1.1906383E0,9.148913E0,1.2099081E0,4.1433177E0,1.4674408E0,1.7365648E1,6.359819E0,1.6007076E1,8.5568985E1],"tree_param":{"num_deleted":"0","num_feature":"66","num_nodes":"127","size_leaf_vector":"1"}},{"base_weights":[-1.945149E-2,3.242982E-1,-2.0747526E-1,-4.0712696E-1,3.8158566E-1,5.176157E-1,-2.7359283E-1,4.196599E-1,-8.3006996E-1,6.855056E-1,2.1610211E-1,1.2435259E0,2.4312994E-1,-4.5173743E-1,-4.7642764E-2,5.679478E-2,-3.4319624E-2,-1.1400695E0,1.0737958E-2,-4.255763E-2,7.6361907E-1,-7.473062E-1,3.191034E-1,-8.494611E-3,8.056469E-2,-2.3509549E-1,6.820282E-1,-9.5696586E-1,-3.4521747E-1,-4.6379253E-1,1.1882656E-1,-6.912836E-2,-1.8394754E-3,4.984054E-1,1.2326573E0,2.151875E-2,-1.0161855E0,-4.9767295E-1,4.1743115E-1,-8.887341E-1,4.0071046E-1,2.08088E-1,7.2114035E-2,-1.3259827E0,-2.800827E-1,-2.3449019E-1,-8.714326E-1,-6.50126E-1,3.9718866E-1,-1.0965847E-2,7.900394E-1,1.3474814E0,1.8917242E-1,1.5014108E0,3.3118016E-1,1.8688073E-2,-1.3138094E0,5.7683136E-2,-8.668532E-1,5.836795E-1,-2.7561037E-2,2.567511E-3,-6.409993E-2,1.1373383E0,-5.1442128E-2,9.5499027E-1,-8.007244E-1,-7.687407E-2,-4.6506658E-1,-9.522699E-1,3.2361546E-1,1.4943874E-1,-4.0098694E-1,2.4508683E-1,-1.0621611E0,-8.461288E-1,1.16395175E-1,8.7717795E-1,-4.7954958E-2,-2.0821907E-1,5.373204E-1,1.4281251E0,-3.0997816E-1,8.474479E-2,1.6987894E-2,-1.1905565E-2,4.87266E-2,8.3956145E-2,1.7425537E-2,-3.5361983E-2,4.6632897E-2,-7.640982E-2,-9.301077E-3,1.8045729E-2,-6.429391E-2,1.4183754E-2,4.2494215E-2,-6.434518E-2,1.8607436E-2,1.50732845E-2,6.904893E-2,7.1076475E-2,-1.0002227E-2,-5.2461564E-3,-5.5173486E-2,1.1848471E-2,-5.285557E-2,-2.8278475E-5,-6.2230524E-2,-3.8827136E-2,5.0777525E-2,1.807748E-2,-4.9565967E-2,-5.073414E-2,-1.0163061E-2,-4.4849172E-2,5.3788092E-2,1.6408265E-2,-5.9065193E-2,2.156694E-2,-4.9431995E-2,5.816524E-2,-3.3841394E-2,-4.8206286E-3,5.9159447E-2,-2.4052772E-3,-6.270127E-2,3.7672486E-2,-3.4175143E-2,2.1789733E-2,8.229414E-2,4.1313734E-2,-3.9022814E-2],"categories":[],"categories_nodes":[],"categories_segments":[],"categories_sizes":[],"default_left":[0,0,0,0,0,0,0,0,0,0,0,0,0,0,0,0,0,0,0,0,0,0,0,0,0,0,0,0,0,0,0,0,0,0,0,0,0,0,0,0,0,0,0,0,0,0,0,0,0,0,0,0,0,0,0,0,0,0,0,0,0,0,0,0,0,0,0,0,0,0,0,0,0,0,0,0,0,0,0,0,0,0,0,0,0,0,0,0,0,0,0,0,0,0,0,0,0,0,0,0,0,0,0,0,0,0,0,0,0,0,0,0,0,0,0,0,0,0,0,0,0,0,0,0,0,0,0,0,0,0,0,0,0],"id":6,"left_children":[1,3,5,7,9,11,13,15,17,19,21,23,25,27,29,-1,-1,31,-1,-1,33,35,37,-1,-1,39,41,43,45,47,49,-1,-1,51,53,-1,55,57,59,61,63,65,-1,67,69,71,73,75,77,79,81,83,85,87,89,-1,91,-1,93,95,97,-1,-1,99,-1,101,103,-1,105,107,109,111,113,115,117,119,121,123,-1,125,127,129,131,-1,-1,-1,-1,-1,-1,-1,-1,-1,-1,-1,-1,-1,-1,-1,-1,-1,-1,-1,-1,-1,-1,-1,-1,-1,-1,-1,-1,-1,-1,-1,-1,-1,-1,-1,-1,-1,-1,-1,-1,-1,-1,-1,-1,-1,-1,-1,-1,-1,-1],"loss_changes":[2.89421E1,6.7905083E0,1.4015731E1,4.539488E0,7.263439E0,4.5852013E0,1.0680172E1,4.5191665E0,2.9218726E0,6.8307266E0,9.8514805E0,3.6458998E0,4.157144E0,7.663765E0,8.252272E0,0E0,0E0,1.6968489E0,0E0,0E0,5.546711E0,3.494946E0,7.292675E0,0E0,0E0,4.452347E0,3.3699288E0,5.948221E0,7.034814E0,5.714867E0,7.441002E0,0E0,0E0,8.492954E0,3.6725388E0,0E0,3.8661518E0,7.056923E0,5.881359E0,1.9774995E0,7.1573834E0,6.372796E0,0E0,2.2176247E0,4.4450364E0,6.708678E0,4.781376E0,4.3563805E0,5.184889E0,7.950202E0,1.0155352E1,2.480978E0,8.817942E0,2.0732346E0,3.9297206E0,0E0,1.3940077E0,0E0,4.9352145E0,4.372097E0,1.1814154E1,0E0,0E0,4.4454813E-1,0E0,2.8346596E0,6.6578364E-1,0E0,2.1666203E0,1.4118891E0,5.4452434E0,8.147533E0,8.630132E0,4.6743603E0,3.4223785E0,4.5572968E0,6.309885E0,1.7379079E0,0E0,8.985344E0,5.6482224E0,1.2136707E0,3.799788E0,0E0,0E0,0E0,0E0,0E0,0E0,0E0,0E0,0E0,0E0,0E0,0E0,0E0,0E0,0E0,0E0,0E0,0E0,0E0,0E0,0E0,0E0,0E0,0E0,0E0,0E0,0E0,0E0,0E0,0E0,0E0,0E0,0E0,0E0,0E0,0E0,0E0,0E0,0E0,0E0,0E0,0E0,0E0,0E0,0E0,0E0,0E0,0E0,0E0,0E0],"parents":[2147483647,0,0,1,1,2,2,3,3,4,4,5,5,6,6,7,7,8,8,9,9,10,10,11,11,12,12,13,13,14,14,17,17,20,20,21,21,22,22,25,25,26,26,27,27,28,28,29,29,30,30,33,33,34,34,36,36,37,37,38,38,39,39,40,40,41,41,43,43,44,44,45,45,46,46,47,47,48,48,49,49,50,50,51,51,52,52,53,53,54,54,56,56,58,58,59,59,60,60,63,63,65,65,66,66,68,68,69,69,70,70,71,71,72,72,73,73,74,74,75,75,76,76,77,77,79,79,80,80,81,81,82,82],"right_children":[2,4,6,8,10,12,14,16,18,20,22,24,26,28,30,-1,-1,32,-1,-1,34,36,38,-1,-1,40,42,44,46,48,50,-1,-1,52,54,-1,56,58,60,62,64,66,-1,68,70,72,74,76,78,80,82,84,86,88,90,-1,92,-1,94,96,98,-1,-1,100,-1,102,104,-1,106,108,110,112,114,116,118,120,122,124,-1,126,128,130,132,-1,-1,-1,-1,-1,-1,-1,-1,-1,-1,-1,-1,-1,-1,-1,-1,-1,-1,-1,-1,-1,-1,-1,-1,-1,-1,-1,-1,-1,-1,-1,-1,-1,-1,-1,-1,-1,-1,-1,-1,-1,-1,-1,-1,-1,-1,-1,-1,-1,-1],"split_conditions":[6.0949063E-1,-1.88E0,-1.7241379E0,-5.3061223E-1,3.198032E-1,3.275E3,6.3736266E-1,3.9961E4,-1.2E-1,5E2,5.9737155E-4,5.1E1,7.2E3,1.5E3,-7.352941E-3,5.679478E-2,-3.4319624E-2,2.739488E0,1.0737958E-2,-4.255763E-2,-5.405405E-1,-1.7761033E-2,-2.3696683E-2,-8.494611E-3,8.056469E-2,7.471E3,4.4211394E-1,2.1633315E-3,2.7E-1,3.75E4,1.8939395E-2,-6.912836E-2,-1.8394754E-3,-6.5765767E0,2.3218517E-1,2.151875E-2,1.7723832E-1,-1.0526316E1,1.648E1,7.6E3,1.747E1,1.9983348E0,7.2114035E-2,1.675E1,5.011933E1,1.28542E1,-2.8806584E-2,3.6E-1,1.5204082E1,4.1262135E-2,1.9226402E0,-5.764411E0,1.45E4,4.7E-1,7.3E3,1.8688073E-2,1.7012098E0,5.7683136E-2,1.505E3,1.060606E0,1.716562E1,2.567511E-3,-6.409993E-2,-3.4105535E0,-5.1442128E-2,4.8780487E1,-1.2395486E-1,-7.687407E-2,1.851699E1,9.912E0,1.11855E1,5.714286E0,1.3322806E1,-1.2308305E-1,1.5676029E0,-7.352941E-1,4.1088285E0,-2.6785713E-1,-4.7954958E-2,3.70845E4,1.7097172E1,-5.2143685E-3,2.6301092E-1,8.474479E-2,1.6987894E-2,-1.1905565E-2,4.87266E-2,8.3956145E-2,1.7425537E-2,-3.5361983E-2,4.6632897E-2,-7.640982E-2,-9.301077E-3,1.8045729E-2,-6.429391E-2,1.4183754E-2,4.2494215E-2,-6.434518E-2,1.8607436E-2,1.50732845E-2,6.904893E-2,7.1076475E-2,-1.0002227E-2,-5.2461564E-3,-5.5173486E-2,1.1848471E-2,-5.285557E-2,-2.8278475E-5,-6.2230524E-2,-3.8827136E-2,5.0777525E-2,1.807748E-2,-4.9565967E-2,-5.073414E-2,-1.0163061E-2,-4.4849172E-2,5.3788092E-2,1.6408265E-2,-5.9065193E-2,2.156694E-2,-4.9431995E-2,5.816524E-2,-3.3841394E-2,-4.8206286E-3,5.9159447E-2,-2.4052772E-3,-6.270127E-2,3.7672486E-2,-3.4175143E-2,2.1789733E-2,8.229414E-2,4.1313734E-2,-3.9022814E-2],"split_indices":[53,32,21,26,25,37,25,46,16,40,22,37,43,46,38,0,0,61,0,0,28,47,44,0,0,46,27,47,20,23,47,0,0,30,25,0,61,58,56,23,1,53,0,39,6,3,38,20,30,22,26,58,37,32,23,0,25,0,40,25,4,0,0,21,0,6,8,0,12,0,2,53,12,27,21,21,53,26,0,24,65,14,61,0,0,0,0,0,0,0,0,0,0,0,0,0,0,0,0,0,0,0,0,0,0,0,0,0,0,0,0,0,0,0,0,0,0,0,0,0,0,0,0,0,0,0,0,0,0,0,0,0,0],"split_type":[0,0,0,0,0,0,0,0,0,0,0,0,0,0,0,0,0,0,0,0,0,0,0,0,0,0,0,0,0,0,0,0,0,0,0,0,0,0,0,0,0,0,0,0,0,0,0,0,0,0,0,0,0,0,0,0,0,0,0,0,0,0,0,0,0,0,0,0,0,0,0,0,0,0,0,0,0,0,0,0,0,0,0,0,0,0,0,0,0,0,0,0,0,0,0,0,0,0,0,0,0,0,0,0,0,0,0,0,0,0,0,0,0,0,0,0,0,0,0,0,0,0,0,0,0,0,0,0,0,0,0,0,0],"sum_hessian":[4.4574957E2,1.573513E2,2.883983E2,1.0985517E1,1.4636578E2,2.352944E1,2.6486884E2,3.7204285E0,7.2650886E0,5.0491966E1,9.587382E1,5.4872828E0,1.8042158E1,1.4754301E2,1.17325836E2,2.2417674E0,1.4786612E0,5.53246E0,1.7326282E0,1.9637837E0,4.852818E1,8.655981E0,8.7217834E1,1.244071E0,4.2432117E0,8.856465E0,9.185693E0,2.4300566E1,1.2324245E2,3.30127E1,8.431313E1,4.32803E0,1.2044302E0,3.231727E1,1.6210913E1,1.4972882E0,7.1586933E0,8.935146E0,7.828269E1,4.170839E0,4.6856265E0,6.4429054E0,2.7427876E0,1.510617E1,9.194395E0,1.03012054E2,2.0230392E1,2.734056E1,5.672141E0,7.147557E1,1.2837565E1,7.7313714E0,2.4585897E1,1.1975275E1,4.235637E0,1.217407E0,5.941286E0,1.2443341E0,7.690812E0,5.6764065E1,2.1518625E1,1.4866004E0,2.6842382E0,3.2271388E0,1.4584877E0,3.7326708E0,2.7102346E0,1.1496093E1,3.6100771E0,4.077222E0,5.117173E0,3.1190825E1,7.182123E1,2.9100478E0,1.7320345E1,2.169038E1,5.65018E0,4.450399E0,1.2217422E0,5.3020855E1,1.8454718E1,7.935915E0,4.9016504E0,5.2422066E0,2.4891646E0,1.6374163E1,8.211735E0,9.980425E0,1.9948509E0,1.4890442E0,2.7465928E0,4.69395E0,1.2473358E0,1.9922072E0,5.6986046E0,2.7658934E1,2.910513E1,4.6496487E0,1.6868977E1,1.2333032E0,1.9938354E0,2.4944096E0,1.2382611E0,1.2299669E0,1.4802678E0,1.9260023E0,1.6840748E0,1.1935607E0,2.883661E0,1.9285514E0,3.1886218E0,2.6876509E1,4.3143153E0,1.6494444E1,5.5326786E1,1.1917379E0,1.7183098E0,1.2286246E0,1.609172E1,1.9734745E0,1.9716906E1,2.234497E0,3.415683E0,1.2280924E0,3.2223063E0,4.6888237E1,6.1326165E0,1.600423E1,2.4504855E0,1.9681691E0,5.967746E0,1.2138454E0,3.6878052E0],"tree_param":{"num_deleted":"0","num_feature":"66","num_nodes":"133","size_leaf_vector":"1"}},{"base_weights":[2.1828972E-3,1.9413464E-1,-2.9907897E-1,2.2429377E-1,-1.1219436E0,-4.2828277E-1,3.409461E-1,3.9262736E-1,-6.898892E-3,-3.038761E-3,-6.819714E-2,-5.410286E-1,1.5389787E-1,1.1210617E0,-1.7628768E-1,4.4174364E-1,-5.7226926E-1,1.9418684E-1,-3.7505418E-1,7.6614386E-1,-6.169919E-1,-7.0658034E-1,7.2037786E-1,-2.5994359E-2,1.3530434E0,2.6570794E-1,-9.4846386E-1,5.762987E-1,6.0645957E-2,-5.5838276E-2,1.8093579E-1,5.4866546E-1,-1.4929517E-1,2.9930577E-1,-7.194395E-1,1.2320626E0,-3.145888E-2,-5.1278126E-1,-1.3369384E0,1.4911042E-1,-9.9450237E-1,1.0473877E0,-1.1607196E-1,-9.030276E-3,1.6071177E0,-5.8679022E-2,6.70957E-1,-6.0696542E-2,-8.2065975E-3,3.4027138E-1,8.6917377E-1,3.542796E-1,-6.44419E-1,3.408288E-2,-2.8565556E-2,7.2642773E-1,-3.7335053E-1,-5.00457E-1,2.6429835E-1,6.4773417E-1,-8.053859E-1,-1.0424728E0,-2.9830672E-3,8.217008E-2,-7.026737E-3,-6.1735415E-1,-6.753423E-2,-1.4459213E0,-5.1235235E-3,-2.5628319E-2,3.697977E-2,6.3868426E-3,-6.384648E-2,-2.2838479E-2,1.2746794E0,3.816083E-2,-5.8488476E-1,8.789611E-2,1.6536696E-2,8.8490653E-1,-2.676163E-2,2.8876638E-2,-1.5507226E-2,2.1898238E-2,6.912536E-2,-5.5391073E-2,2.4359442E-2,-5.08953E-2,2.3493038E-2,1.6673625E-2,5.768248E-2,2.1439617E-2,-6.2243104E-2,1.2471627E-2,-5.034333E-2,-4.254289E-2,2.3263393E-2,-4.7547337E-2,4.630948E-2,-5.527408E-2,-3.7793822E-3,-4.880152E-3,-6.0580105E-2,-5.446754E-2,2.0698909E-2,-1.4237489E-2,-4.1211393E-2,-3.214293E-2,2.8754694E-2,-2.1516226E-2,-7.557237E-2,2.0693207E-2,8.3429374E-2,-5.5323433E-2,1.5340716E-2,6.0544487E-2,-1.8387413E-2],"categories":[],"categories_nodes":[],"categories_segments":[],"categories_sizes":[],"default_left":[0,0,0,0,0,0,0,0,0,0,0,0,0,0,0,0,0,0,0,0,0,0,0,0,0,0,0,0,0,0,0,0,0,0,0,0,0,0,0,0,0,0,0,0,0,0,0,0,0,0,0,0,0,0,0,0,0,0,0,0,0,0,0,0,0,0,0,0,0,0,0,0,0,0,0,0,0,0,0,0,0,0,0,0,0,0,0,0,0,0,0,0,0,0,0,0,0,0,0,0,0,0,0,0,0,0,0,0,0,0,0,0,0,0,0,0,0],"id":7,"left_children":[1,3,5,7,9,11,13,15,17,-1,-1,19,21,23,25,27,29,31,33,35,37,39,41,-1,43,45,47,49,51,-1,53,55,57,59,61,63,-1,65,67,69,71,73,75,-1,77,-1,79,-1,-1,81,83,85,87,-1,-1,89,91,93,95,97,99,101,103,-1,-1,105,107,109,-1,-1,-1,-1,-1,-1,111,-1,113,-1,-1,115,-1,-1,-1,-1,-1,-1,-1,-1,-1,-1,-1,-1,-1,-1,-1,-1,-1,-1,-1,-1,-1,-1,-1,-1,-1,-1,-1,-1,-1,-1,-1,-1,-1,-1,-1,-1,-1],"loss_changes":[2.603336E1,1.1165867E1,1.463475E1,1.0496719E1,1.5418229E0,9.681164E0,1.2297012E1,7.6485004E0,8.556325E0,0E0,0E0,1.2658604E1,1.2452392E1,5.3060427E0,6.700883E0,7.608593E0,3.4807377E0,9.185976E0,9.695772E0,5.4469047E0,8.057648E0,2.6691155E0,4.2984195E0,0E0,4.52619E0,8.252038E0,1.2785001E0,7.3113213E0,8.512279E0,0E0,1.9770641E0,6.33731E0,5.761896E0,6.105102E0,6.3188505E0,3.4634485E0,0E0,4.773737E0,1.7505665E0,1.7253311E0,2.63094E0,4.3696394E0,2.5867362E0,0E0,1.233118E0,0E0,3.2148838E0,0E0,0E0,9.836406E0,1.0122543E1,6.1545877E0,5.521944E0,0E0,0E0,4.881365E0,5.1776075E0,8.343045E0,4.5313997E0,6.036599E0,7.758281E-1,2.8899593E0,4.750399E0,0E0,0E0,5.519581E0,8.057371E0,2.0752716E-1,0E0,0E0,0E0,0E0,0E0,0E0,2.662157E0,0E0,2.1778748E0,0E0,0E0,4.2833204E0,0E0,0E0,0E0,0E0,0E0,0E0,0E0,0E0,0E0,0E0,0E0,0E0,0E0,0E0,0E0,0E0,0E0,0E0,0E0,0E0,0E0,0E0,0E0,0E0,0E0,0E0,0E0,0E0,0E0,0E0,0E0,0E0,0E0,0E0,0E0,0E0,0E0],"parents":[2147483647,0,0,1,1,2,2,3,3,4,4,5,5,6,6,7,7,8,8,11,11,12,12,13,13,14,14,15,15,16,16,17,17,18,18,19,19,20,20,21,21,22,22,24,24,25,25,26,26,27,27,28,28,30,30,31,31,32,32,33,33,34,34,35,35,37,37,38,38,39,39,40,40,41,41,42,42,44,44,46,46,49,49,50,50,51,51,52,52,55,55,56,56,57,57,58,58,59,59,60,60,61,61,62,62,65,65,66,66,67,67,74,74,76,76,79,79],"right_children":[2,4,6,8,10,12,14,16,18,-1,-1,20,22,24,26,28,30,32,34,36,38,40,42,-1,44,46,48,50,52,-1,54,56,58,60,62,64,-1,66,68,70,72,74,76,-1,78,-1,80,-1,-1,82,84,86,88,-1,-1,90,92,94,96,98,100,102,104,-1,-1,106,108,110,-1,-1,-1,-1,-1,-1,112,-1,114,-1,-1,116,-1,-1,-1,-1,-1,-1,-1,-1,-1,-1,-1,-1,-1,-1,-1,-1,-1,-1,-1,-1,-1,-1,-1,-1,-1,-1,-1,-1,-1,-1,-1,-1,-1,-1,-1,-1,-1],"split_conditions":[-7.352941E-1,-2.0630372E0,7.016129E1,-6E-2,-2.3E-1,1.8855219E0,2.1449704E0,2.12562E1,-3.4602077E-3,-3.038761E-3,-6.819714E-2,1.3307985E0,2.9038042E-1,-5.643341E-4,1.5204082E1,1.704918E-2,2.241E1,3.8763657E-1,-4.716981E-3,2.396166E0,3.194057E-1,9.909591E-2,1.4047655E-1,-2.5994359E-2,3.1804733E0,2.545249E0,4.2608697E-2,-3.908046E0,1.6363636E0,-5.5838276E-2,6.289308E-3,1.889E1,-6.2460965E-4,1.081081E0,5E-2,-3.0747605E-2,-3.145888E-2,4.636785E0,4.5555E4,8.1541884E-1,-1.1476664E-2,1.4E3,6.2603878E1,-9.030276E-3,2.7E-1,-5.8679022E-2,1.904E1,-6.0696542E-2,-8.2065975E-3,4.7252747E1,2.0974708E0,3.3388983E-2,3.7096813E-2,3.408288E-2,-2.8565556E-2,1.332E1,-2.1929824E-1,2.2248596E-1,-9.932886E0,-3.547917E-1,1.5E-1,-6.2460965E-4,-7.1929824E-1,8.217008E-2,-7.026737E-3,2.9651595E-3,4.4444445E-4,9.1E1,-5.1235235E-3,-2.5628319E-2,3.697977E-2,6.3868426E-3,-6.384648E-2,-2.2838479E-2,-1.0695187E0,3.816083E-2,9.395973E0,8.789611E-2,1.6536696E-2,8.010204E1,-2.676163E-2,2.8876638E-2,-1.5507226E-2,2.1898238E-2,6.912536E-2,-5.5391073E-2,2.4359442E-2,-5.08953E-2,2.3493038E-2,1.6673625E-2,5.768248E-2,2.1439617E-2,-6.2243104E-2,1.2471627E-2,-5.034333E-2,-4.254289E-2,2.3263393E-2,-4.7547337E-2,4.630948E-2,-5.527408E-2,-3.7793822E-3,-4.880152E-3,-6.0580105E-2,-5.446754E-2,2.0698909E-2,-1.4237489E-2,-4.1211393E-2,-3.214293E-2,2.8754694E-2,-2.1516226E-2,-7.557237E-2,2.0693207E-2,8.3429374E-2,-5.5323433E-2,1.5340716E-2,6.0544487E-2,-1.8387413E-2],"split_indices":[52,13,6,16,20,25,19,3,35,0,0,65,61,14,30,35,36,61,44,19,49,49,7,0,30,19,14,58,26,0,41,51,44,25,20,7,0,30,34,28,35,34,6,0,20,0,45,0,0,6,19,25,9,0,0,56,29,49,58,27,20,44,26,0,0,14,41,43,0,0,0,0,0,0,58,0,59,0,0,6,0,0,0,0,0,0,0,0,0,0,0,0,0,0,0,0,0,0,0,0,0,0,0,0,0,0,0,0,0,0,0,0,0,0,0,0,0],"split_type":[0,0,0,0,0,0,0,0,0,0,0,0,0,0,0,0,0,0,0,0,0,0,0,0,0,0,0,0,0,0,0,0,0,0,0,0,0,0,0,0,0,0,0,0,0,0,0,0,0,0,0,0,0,0,0,0,0,0,0,0,0,0,0,0,0,0,0,0,0,0,0,0,0,0,0,0,0,0,0,0,0,0,0,0,0,0,0,0,0,0,0,0,0,0,0,0,0,0,0,0,0,0,0,0,0,0,0,0,0,0,0,0,0,0,0,0,0],"sum_hessian":[4.4818402E2,2.7397437E2,1.7420966E2,2.686476E2,5.3267317E0,1.4522374E2,2.8985918E1,1.5505345E2,1.1359417E2,1.2215153E0,4.1052165E0,1.2172165E2,2.3502085E1,1.1090819E1,1.7895098E1,1.4805898E2,6.9944816E0,7.377238E1,3.9821793E1,6.1860824E0,1.1553557E2,9.231777E0,1.4270308E1,1.2199926E0,9.870827E0,1.1797866E1,6.097232E0,1.0904572E2,3.901325E1,3.7795436E0,3.2149377E0,3.6011055E1,3.7761322E1,1.3505949E1,2.6315845E1,4.7252536E0,1.4608285E0,1.0242241E2,1.3113163E1,2.445621E0,6.7861567E0,1.0078095E1,4.1922116E0,1.4439552E0,8.426871E0,2.1754742E0,9.622392E0,4.146179E0,1.9510525E0,6.1580208E1,4.746552E1,2.789396E1,1.11192875E1,1.9864953E0,1.2284425E0,3.0368267E1,5.6427894E0,2.0308422E1,1.74529E1,1.0581965E1,2.9239833E0,1.7824265E1,8.491581E0,3.4839063E0,1.2413474E0,8.262917E1,1.9793236E1,1.1892006E1,1.2211566E0,1.2155147E0,1.2301064E0,1.4745744E0,5.311582E0,1.1904416E0,8.887654E0,1.2394905E0,2.9527214E0,7.199039E0,1.2278327E0,8.398974E0,1.2234173E0,4.520295E1,1.6377258E1,2.6803387E1,2.0662132E1,1.7131256E0,2.6180836E1,8.392694E0,2.7265935E0,1.6745996E1,1.3622271E1,3.2028568E0,2.4399326E0,8.390801E0,1.191762E1,2.1712303E0,1.5281669E1,1.2114806E0,9.370485E0,1.7071996E0,1.2167838E0,2.9455473E0,1.4878716E1,1.907946E0,6.5836353E0,3.259711E1,5.0032063E1,1.0443313E1,9.349922E0,1.1794118E0,1.0712594E1,3.4339764E0,5.4536777E0,1.7110296E0,1.2416917E0,6.691073E0,1.707902E0],"tree_param":{"num_deleted":"0","num_feature":"66","num_nodes":"117","size_leaf_vector":"1"}},{"base_weights":[-2.5633395E-2,2.972743E-1,-2.1286897E-1,3.319043E-1,-8.007411E-1,-4.0228012E-1,-6.1943405E-3,4.1013032E-1,-1.15063705E-1,-7.558938E-4,-5.1326234E-2,-1.8660997E-1,-6.8019235E-1,6.184124E-1,-1.3389713E-1,4.4446915E-1,-6.424877E-1,3.424318E-1,-6.9847643E-1,-7.3789704E-1,-5.724753E-2,-7.930898E-1,2.9077104E-1,1.0436319E0,-1.5362246E-1,2.936295E-1,-2.9889417E-1,-3.0193482E-2,5.1288223E-1,2.0325487E-2,-6.271982E-2,-1.9098328E-1,6.932254E-2,5.773452E-1,-1.1359221E0,-1.0282952E0,4.1052562E-1,-3.0438814E-1,3.575122E-1,2.6846943E-2,-8.492639E-1,6.747878E-2,-3.5011828E-1,1.3209715E0,-2.7189879E-2,3.836183E-2,-5.626087E-1,-2.7854864E-2,1.2053195E0,-6.358145E-1,-7.53691E-2,-5.195575E-1,1.0036229E0,7.0388746E-1,2.3171215E-1,4.6867065E-2,-5.262929E-1,5.5023164E-2,-1.0174508E-2,1.071375E-2,-7.553545E-2,-7.008495E-4,-1.235341E0,6.189669E-2,-3.0181408E-2,6.2680286E-1,-4.5138633E-1,1.2079965E0,6.333198E-2,-3.6741322E-1,-1.0271386E0,-5.1286038E-2,4.2610895E-2,1.2139275E-2,1.4613622E0,-1.057193E0,2.8904194E-2,-3.3055753E-1,7.303663E-1,6.6611166E-3,1.4131954E0,6.257325E-2,-7.657531E-1,-7.450086E-1,9.686693E-2,2.6067251E-2,-4.8635907E-2,8.913963E-3,7.248215E-2,-1.2375468E-4,4.3661915E-2,-2.9691527E-2,2.1002643E-2,-3.871009E-2,1.97862E-2,-7.287494E-2,-1.2304705E-2,5.1561214E-2,-9.548074E-3,2.7822157E-2,-2.7883401E-2,-3.0246878E-3,8.292646E-2,1.9887155E-2,-3.3173583E-2,5.350194E-3,-4.231334E-2,-5.7466496E-2,-1.2691746E-2,7.931613E-2,1.1789327E-2,-6.666108E-2,-4.5588966E-3,2.268174E-2,-4.0144417E-2,-1.8687796E-2,5.6495547E-2,8.672999E-2,6.387725E-3,-4.675561E-2,1.3498445E-2,1.8688582E-2,-4.6546936E-2,1.7196013E-2,-2.2086322E-2],"categories":[],"categories_nodes":[],"categories_segments":[],"categories_sizes":[],"default_left":[0,0,0,0,0,0,0,0,0,0,0,0,0,0,0,0,0,0,0,0,0,0,0,0,0,0,0,0,0,0,0,0,0,0,0,0,0,0,0,0,0,0,0,0,0,0,0,0,0,0,0,0,0,0,0,0,0,0,0,0,0,0,0,0,0,0,0,0,0,0,0,0,0,0,0,0,0,0,0,0,0,0,0,0,0,0,0,0,0,0,0,0,0,0,0,0,0,0,0,0,0,0,0,0,0,0,0,0,0,0,0,0,0,0,0,0,0,0,0,0,0,0,0,0,0],"id":8,"left_children":[1,3,5,7,9,11,13,15,17,-1,-1,19,21,23,25,27,29,31,33,35,37,39,41,43,45,47,49,51,53,-1,-1,55,-1,57,59,61,63,65,67,-1,69,-1,71,73,-1,-1,75,77,79,81,83,85,87,89,91,-1,93,-1,-1,-1,-1,-1,95,-1,-1,97,99,101,103,105,107,-1,-1,-1,109,111,-1,113,115,-1,117,-1,119,121,123,-1,-1,-1,-1,-1,-1,-1,-1,-1,-1,-1,-1,-1,-1,-1,-1,-1,-1,-1,-1,-1,-1,-1,-1,-1,-1,-1,-1,-1,-1,-1,-1,-1,-1,-1,-1,-1,-1,-1,-1],"loss_changes":[2.6928225E1,6.4828434E0,1.1030594E1,5.6139183E0,9.231882E-1,8.686674E0,1.0914288E1,5.1911087E0,6.7770715E0,0E0,0E0,5.9606304E0,7.23242E0,7.785948E0,8.098738E0,4.3025723E0,3.5245047E0,8.284089E0,6.8478847E0,5.7293234E0,7.2081914E0,4.7511787E0,5.483784E0,7.3693314E0,3.8670385E0,9.450224E0,6.160419E0,9.413024E0,6.0368195E0,0E0,0E0,4.431635E0,0E0,1.6518776E0,4.6751137E0,2.7099943E0,4.042079E0,6.297513E0,6.508643E0,0E0,4.383457E0,0E0,5.256013E0,1.6359653E0,0E0,0E0,4.5001163E0,5.917362E0,1.6834135E0,8.988201E0,5.9188657E0,6.4446783E0,1.9457374E0,8.166885E0,7.742244E0,0E0,2.2870252E0,0E0,0E0,0E0,0E0,0E0,2.0091E0,0E0,0E0,2.316607E0,4.4374285E0,3.9344654E0,5.2734313E0,3.8465402E0,3.489151E0,0E0,0E0,0E0,1.3775883E0,1.254859E0,0E0,7.165657E0,3.6724777E0,0E0,2.6416368E0,0E0,5.73493E0,2.529222E0,5.6349277E0,0E0,0E0,0E0,0E0,0E0,0E0,0E0,0E0,0E0,0E0,0E0,0E0,0E0,0E0,0E0,0E0,0E0,0E0,0E0,0E0,0E0,0E0,0E0,0E0,0E0,0E0,0E0,0E0,0E0,0E0,0E0,0E0,0E0,0E0,0E0,0E0,0E0,0E0,0E0,0E0],"parents":[2147483647,0,0,1,1,2,2,3,3,4,4,5,5,6,6,7,7,8,8,11,11,12,12,13,13,14,14,15,15,16,16,17,17,18,18,19,19,20,20,21,21,22,22,23,23,24,24,25,25,26,26,27,27,28,28,31,31,33,33,34,34,35,35,36,36,37,37,38,38,40,40,42,42,43,43,46,46,47,47,48,48,49,49,50,50,51,51,52,52,53,53,54,54,56,56,62,62,65,65,66,66,67,67,68,68,69,69,70,70,74,74,75,75,77,77,78,78,80,80,82,82,83,83,84,84],"right_children":[2,4,6,8,10,12,14,16,18,-1,-1,20,22,24,26,28,30,32,34,36,38,40,42,44,46,48,50,52,54,-1,-1,56,-1,58,60,62,64,66,68,-1,70,-1,72,74,-1,-1,76,78,80,82,84,86,88,90,92,-1,94,-1,-1,-1,-1,-1,96,-1,-1,98,100,102,104,106,108,-1,-1,-1,110,112,-1,114,116,-1,118,-1,120,122,124,-1,-1,-1,-1,-1,-1,-1,-1,-1,-1,-1,-1,-1,-1,-1,-1,-1,-1,-1,-1,-1,-1,-1,-1,-1,-1,-1,-1,-1,-1,-1,-1,-1,-1,-1,-1,-1,-1,-1,-1],"split_conditions":[5.882353E-1,1.1891509E0,1.9594594E0,2.0391516E-2,-4.62585E0,7.751938E-3,-7.928118E-3,5.1124744E-2,-5.813953E-1,-7.558938E-4,-5.1326234E-2,1.3E3,7.016129E1,4.6332045E-3,2.4089877E-1,1.189E1,-1.8302828E-2,-1.2631579E-2,2.2123894E-1,1.5E-2,6.7484663E-3,-1.761827E1,4.159E3,4.5454547E-2,-2.3255813E0,1.3513514E-2,3.5898778E-1,1.48056755E-2,1.6562E1,2.0325487E-2,-6.271982E-2,-1.125E-2,6.932254E-2,6.19E3,-2.6486486E-2,-6.666667E-1,4.4444445E-4,-2.9126213E0,-3.4602077E-3,2.6846943E-2,-9.849663E-3,6.747878E-2,9.856631E-3,-7.832898E-3,-2.7189879E-2,3.836183E-2,1.3541667E-2,5.4E-1,-3.4444444E0,2.1078736E-2,-5.4024853E-2,-6.3675833E0,8.902077E-1,-1.5279241E-2,-1.4164306E-2,4.6867065E-2,-5.0738914E1,5.5023164E-2,-1.0174508E-2,1.071375E-2,-7.553545E-2,-7.008495E-4,7E3,6.189669E-2,-3.0181408E-2,1.43115E1,-2.0966271E-2,-1.7843867E-2,8.836525E-3,1.0253317E0,2.5E-1,-5.1286038E-2,4.2610895E-2,1.2139275E-2,4.7E4,4.434E4,2.8904194E-2,2.3441396E0,1.3390295E-1,6.6611166E-3,4.8E-1,6.257325E-2,2.1798365E-2,3.0332366E-1,8.4E-1,2.6067251E-2,-4.8635907E-2,8.913963E-3,7.248215E-2,-1.2375468E-4,4.3661915E-2,-2.9691527E-2,2.1002643E-2,-3.871009E-2,1.97862E-2,-7.287494E-2,-1.2304705E-2,5.1561214E-2,-9.548074E-3,2.7822157E-2,-2.7883401E-2,-3.0246878E-3,8.292646E-2,1.9887155E-2,-3.3173583E-2,5.350194E-3,-4.231334E-2,-5.7466496E-2,-1.2691746E-2,7.931613E-2,1.1789327E-2,-6.666108E-2,-4.5588966E-3,2.268174E-2,-4.0144417E-2,-1.8687796E-2,5.6495547E-2,8.672999E-2,6.387725E-3,-4.675561E-2,1.3498445E-2,1.8688582E-2,-4.6546936E-2,1.7196013E-2,-2.2086322E-2],"split_indices":[53,49,19,47,21,14,14,44,21,0,0,46,6,47,55,63,14,14,25,47,41,64,34,35,21,47,55,41,0,0,0,35,0,43,35,21,41,28,35,0,44,0,35,35,0,0,41,18,30,22,21,30,65,38,47,0,13,0,0,0,0,0,34,0,0,2,38,35,47,28,18,0,0,0,46,34,0,19,49,0,18,0,38,25,18,0,0,0,0,0,0,0,0,0,0,0,0,0,0,0,0,0,0,0,0,0,0,0,0,0,0,0,0,0,0,0,0,0,0,0,0,0,0,0,0],"split_type":[0,0,0,0,0,0,0,0,0,0,0,0,0,0,0,0,0,0,0,0,0,0,0,0,0,0,0,0,0,0,0,0,0,0,0,0,0,0,0,0,0,0,0,0,0,0,0,0,0,0,0,0,0,0,0,0,0,0,0,0,0,0,0,0,0,0,0,0,0,0,0,0,0,0,0,0,0,0,0,0,0,0,0,0,0,0,0,0,0,0,0,0,0,0,0,0,0,0,0,0,0,0,0,0,0,0,0,0,0,0,0,0,0,0,0,0,0,0,0,0,0,0,0,0,0],"sum_hessian":[4.4334384E2,1.6250278E2,2.8084106E2,1.5821074E2,4.292041E0,1.4604694E2,1.3479411E2,1.3471588E2,2.3494858E1,1.1963277E0,3.0957134E0,8.317306E1,6.2873886E1,2.2228716E1,1.1256539E2,1.3101947E2,3.696408E0,1.3400009E1,1.0094849E1,1.4913601E1,6.825945E1,5.6488907E1,6.3849783E0,1.4107065E1,8.121652E0,3.1128418E1,8.143698E1,1.6575342E1,1.1444413E2,1.4854922E0,2.2109158E0,9.409521E0,3.990488E0,2.4958444E0,7.5990047E0,1.198707E1,2.9265313E0,4.2939465E1,2.5319992E1,1.9423189E0,5.454659E1,1.9905808E0,4.3943977E0,1.215187E1,1.9551958E0,2.2283747E0,5.8932767E0,2.373006E1,7.3983564E0,3.1744247E1,4.969273E1,1.1587675E1,4.987667E0,6.725372E1,4.719041E1,1.7443373E0,7.665184E0,1.249443E0,1.2464012E0,1.7440853E0,5.8549194E0,2.2131186E0,9.773952E0,1.4901334E0,1.436398E0,5.409272E0,3.7530193E1,5.7089434E0,1.961105E1,1.5533352E1,3.9013237E1,2.9075274E0,1.4868699E0,1.7144486E0,1.0437421E1,4.1619353E0,1.7313414E0,1.7362507E1,6.3675537E0,1.4680288E0,5.930328E0,1.4888214E0,3.0255424E1,9.486089E0,4.0206642E1,3.4689927E0,8.118682E0,2.2408214E0,2.7468457E0,1.3196495E1,5.4057224E1,8.366234E0,3.8824177E1,6.167267E0,1.4979175E0,7.5949826E0,2.1789687E0,3.4446893E0,1.9645829E0,3.176175E0,3.4354015E1,1.7231323E0,3.9858108E0,1.3741274E1,5.8697753E0,8.1929E0,7.340452E0,3.3269928E1,5.743309E0,9.20457E0,1.2328509E0,2.9413502E0,1.2205852E0,6.5414977E0,1.082101E1,1.7090956E0,4.6584578E0,4.4646034E0,1.4657241E0,2.6086893E1,4.168533E0,1.2078607E0,8.278229E0,2.7811106E1,1.2395536E1],"tree_param":{"num_deleted":"0","num_feature":"66","num_nodes":"125","size_leaf_vector":"1"}},{"base_weights":[-1.4903205E-2,3.0531576E-1,-1.9760372E-1,6.3880366E-1,1.7430265E-1,3.2979587E-1,-2.9471943E-1,-4.2479213E-2,7.331029E-1,6.8390715E-1,-6.619149E-4,-8.955322E-1,4.5439005E-1,-5.742148E-1,-9.606457E-2,9.950259E-1,2.1636277E-1,9.5522267E-1,-4.0395606E-1,-2.8863344E-1,2.678853E-1,-1.1096409E-3,-6.0790922E-2,-7.1601117E-1,5.806678E-1,1.0624957E-2,-7.345996E-1,-2.5143602E-1,3.2917714E-1,-1.4851478E-2,1.1164613E0,-4.3604302E-1,9.030796E-1,-3.8982677E-1,1.240976E0,2.1418964E-2,-9.2343605E-1,-4.768318E-1,3.256621E-1,3.6118215E-1,-6.0081303E-2,1.319128E-2,-5.9018504E-2,7.063389E-1,-5.115295E-1,-2.7314115E-1,1.074476E0,5.879206E-1,-7.9867715E-1,1.720552E-1,-3.8944608E-1,8.1468123E-1,-2.1768922E-1,1.2060014E0,-4.3156887E-3,-7.261683E-2,6.113954E-1,-1.3243101E-2,1.3353976E0,-6.7209296E-2,4.4124957E-2,-9.423149E-3,1.3453178E0,-6.1313022E-2,-3.4666255E-3,4.3854454E-1,-6.8346614E-1,-5.15427E-2,6.537976E-1,6.639926E-1,-1.3451727E-2,8.634671E-1,-1.8350151E-1,1.34882135E-2,-5.5303764E-2,8.4866196E-1,-5.4572886E-1,-1.4615919E-3,7.231312E-2,5.6264874E-2,-2.0826094E-2,1.0402589E-1,-8.562663E-1,-9.418826E-1,4.1973785E-1,-6.913412E-2,-5.8185536E-1,-5.244419E-1,1.2187053E0,8.281999E-1,-6.0481995E-1,6.849514E-2,1.7447682E-2,6.1752897E-2,-5.3275833E-3,1.5250742E-2,7.68401E-2,7.409479E-2,1.5684031E-2,6.239875E-2,-2.7516559E-2,3.4439184E-2,-4.086341E-2,7.11354E-2,5.174238E-3,-2.9564088E-2,4.323042E-2,1.0751927E-2,-6.5493986E-2,-3.4596074E-2,4.858963E-2,-4.6160918E-2,2.5102291E-2,-6.492523E-3,6.672494E-2,-4.313735E-2,4.6066906E-2,-5.0706785E-2,4.410047E-2,-5.730337E-2,-3.0709794E-2,-6.0318727E-2,-2.8653122E-3,-1.961278E-2,3.848431E-2,-4.8371784E-2,1.23518985E-2,2.1283894E-3,-3.8396917E-2,-5.8790952E-2,1.40721155E-2,-1.46161495E-2,7.757475E-2,5.7321634E-2,-7.3554725E-3,1.7064596E-3,-5.3096563E-2],"categories":[],"categories_nodes":[],"categories_segments":[],"categories_sizes":[],"default_left":[0,0,0,0,0,0,0,0,0,0,0,0,0,0,0,0,0,0,0,0,0,0,0,0,0,0,0,0,0,0,0,0,0,0,0,0,0,0,0,0,0,0,0,0,0,0,0,0,0,0,0,0,0,0,0,0,0,0,0,0,0,0,0,0,0,0,0,0,0,0,0,0,0,0,0,0,0,0,0,0,0,0,0,0,0,0,0,0,0,0,0,0,0,0,0,0,0,0,0,0,0,0,0,0,0,0,0,0,0,0,0,0,0,0,0,0,0,0,0,0,0,0,0,0,0,0,0,0,0,0,0,0,0,0,0,0,0],"id":9,"left_children":[1,3,5,7,9,11,13,-1,15,17,19,21,23,25,27,29,31,33,35,37,39,-1,-1,41,43,45,47,49,51,-1,53,55,57,59,61,-1,63,65,67,69,-1,-1,-1,71,73,75,77,79,81,83,85,87,89,91,-1,-1,93,-1,95,-1,-1,-1,97,-1,-1,99,101,-1,103,105,107,109,111,-1,-1,113,115,-1,-1,-1,-1,117,119,121,123,125,127,129,131,133,135,-1,-1,-1,-1,-1,-1,-1,-1,-1,-1,-1,-1,-1,-1,-1,-1,-1,-1,-1,-1,-1,-1,-1,-1,-1,-1,-1,-1,-1,-1,-1,-1,-1,-1,-1,-1,-1,-1,-1,-1,-1,-1,-1,-1,-1,-1],"loss_changes":[2.5782148E1,6.884143E0,1.4466427E1,6.9085083E0,1.037251E1,7.1393757E0,1.3128672E1,0E0,5.557625E0,9.161483E0,6.851386E0,1.2056735E0,6.429817E0,9.2423935E0,9.332447E0,4.7291985E0,7.394178E0,9.744516E0,3.2656755E0,5.0976086E0,6.719365E0,0E0,0E0,2.3182132E0,5.478426E0,6.987451E0,7.018261E0,6.0928593E0,1.0239004E1,0E0,2.8858871E0,1.0135503E1,4.361805E0,7.236693E0,3.2531872E0,0E0,1.0540307E0,6.5662756E0,5.401078E0,4.986453E0,0E0,0E0,0E0,4.8918934E0,2.3547835E0,6.0597305E0,2.0413957E0,2.707168E0,3.9427567E0,7.5783567E0,4.7710924E0,1.1614201E1,8.036423E0,2.9083138E0,0E0,0E0,2.3622243E0,0E0,7.679024E-1,0E0,0E0,0E0,2.1933975E0,0E0,0E0,6.0581164E0,5.5974617E0,0E0,3.730104E0,6.626668E0,6.3816457E0,5.5498924E0,3.458254E0,0E0,0E0,2.0602455E0,7.925994E0,0E0,0E0,0E0,0E0,5.537407E0,4.192169E0,1.1109843E0,6.5506496E0,8.881922E0,5.6838818E0,3.1659982E0,8.441071E0,1.8601422E0,4.172305E0,0E0,0E0,0E0,0E0,0E0,0E0,0E0,0E0,0E0,0E0,0E0,0E0,0E0,0E0,0E0,0E0,0E0,0E0,0E0,0E0,0E0,0E0,0E0,0E0,0E0,0E0,0E0,0E0,0E0,0E0,0E0,0E0,0E0,0E0,0E0,0E0,0E0,0E0,0E0,0E0,0E0,0E0,0E0,0E0,0E0,0E0],"parents":[2147483647,0,0,1,1,2,2,3,3,4,4,5,5,6,6,8,8,9,9,10,10,11,11,12,12,13,13,14,14,15,15,16,16,17,17,18,18,19,19,20,20,23,23,24,24,25,25,26,26,27,27,28,28,30,30,31,31,32,32,33,33,34,34,36,36,37,37,38,38,39,39,43,43,44,44,45,45,46,46,47,47,48,48,49,49,50,50,51,51,52,52,53,53,56,56,58,58,62,62,65,65,66,66,68,68,69,69,70,70,71,71,72,72,75,75,76,76,81,81,82,82,83,83,84,84,85,85,86,86,87,87,88,88,89,89,90,90],"right_children":[2,4,6,8,10,12,14,-1,16,18,20,22,24,26,28,30,32,34,36,38,40,-1,-1,42,44,46,48,50,52,-1,54,56,58,60,62,-1,64,66,68,70,-1,-1,-1,72,74,76,78,80,82,84,86,88,90,92,-1,-1,94,-1,96,-1,-1,-1,98,-1,-1,100,102,-1,104,106,108,110,112,-1,-1,114,116,-1,-1,-1,-1,118,120,122,124,126,128,130,132,134,136,-1,-1,-1,-1,-1,-1,-1,-1,-1,-1,-1,-1,-1,-1,-1,-1,-1,-1,-1,-1,-1,-1,-1,-1,-1,-1,-1,-1,-1,-1,-1,-1,-1,-1,-1,-1,-1,-1,-1,-1,-1,-1,-1,-1,-1,-1],"split_conditions":[6.0949063E-1,2.2779043E-1,-7.928118E-3,-3.6054385E-1,-1.4164306E-2,3.80105E3,3.6953908E-1,-4.2479213E-2,3.116883E-1,4.15E4,-2.9E-1,-4.971591E-3,-3.5521235E-2,1.3198484E-1,7.76699E0,4.08E2,-9E-2,4.69E3,1.689E1,-1.7857143E0,3.5971224E-2,-1.1096409E-3,-6.0790922E-2,-2.9787235E-2,1.926E1,5E-1,9.95E0,-6E-2,1.2442748E1,-1.4851478E-2,1.3909097E-1,1.45E4,-1.5345269E-2,3.7684283E-1,1E-2,2.1418964E-2,5.45E4,-2.3684211E-2,-2.6285714E-2,1E4,-6.0081303E-2,1.319128E-2,-5.9018504E-2,-1.8382353E0,-2.5E-1,-8.3507305E-1,-1.4773777E-2,3.348837E-2,-6.6E-1,1.595E3,-2.8571428E-3,-1.125E-2,2.1449704E0,1.810746E1,-4.3156887E-3,-7.261683E-2,6.9E3,-1.3243101E-2,2.6061213E-1,-6.7209296E-2,4.4124957E-2,-9.423149E-3,1.6666666E0,-6.1313022E-2,-3.4666255E-3,-9.397024E-3,-6.5709996E-1,-5.15427E-2,5.4744524E-1,3.86295E3,2.4311619E0,5.1E1,3.141488E-1,1.34882135E-2,-5.5303764E-2,-4.6108272E-2,3.7E-1,-1.4615919E-3,7.231312E-2,5.6264874E-2,-2.0826094E-2,-1.45E0,6.70062E-3,2.7559056E0,-5.6E-1,-5.806452E0,1.194E1,1.3274336E0,-4.9532712E-1,3.3466134E-2,1.543E4,6.849514E-2,1.7447682E-2,6.1752897E-2,-5.3275833E-3,1.5250742E-2,7.68401E-2,7.409479E-2,1.5684031E-2,6.239875E-2,-2.7516559E-2,3.4439184E-2,-4.086341E-2,7.11354E-2,5.174238E-3,-2.9564088E-2,4.323042E-2,1.0751927E-2,-6.5493986E-2,-3.4596074E-2,4.858963E-2,-4.6160918E-2,2.5102291E-2,-6.492523E-3,6.672494E-2,-4.313735E-2,4.6066906E-2,-5.0706785E-2,4.410047E-2,-5.730337E-2,-3.0709794E-2,-6.0318727E-2,-2.8653122E-3,-1.961278E-2,3.848431E-2,-4.8371784E-2,1.23518985E-2,2.1283894E-3,-3.8396917E-2,-5.8790952E-2,1.40721155E-2,-1.46161495E-2,7.757475E-2,5.7321634E-2,-7.3554725E-3,1.7064596E-3,-5.3096563E-2],"split_indices":[53,25,14,9,35,24,25,0,30,34,32,41,41,49,30,40,31,24,33,30,47,0,0,14,45,26,33,31,30,0,8,43,35,61,18,0,40,41,44,43,0,0,0,64,26,52,44,14,31,46,47,38,19,12,0,0,40,0,61,0,0,0,30,0,0,47,8,0,25,24,25,37,61,0,0,7,18,0,0,0,0,31,9,19,32,64,33,25,26,47,34,0,0,0,0,0,0,0,0,0,0,0,0,0,0,0,0,0,0,0,0,0,0,0,0,0,0,0,0,0,0,0,0,0,0,0,0,0,0,0,0,0,0,0,0,0,0],"split_type":[0,0,0,0,0,0,0,0,0,0,0,0,0,0,0,0,0,0,0,0,0,0,0,0,0,0,0,0,0,0,0,0,0,0,0,0,0,0,0,0,0,0,0,0,0,0,0,0,0,0,0,0,0,0,0,0,0,0,0,0,0,0,0,0,0,0,0,0,0,0,0,0,0,0,0,0,0,0,0,0,0,0,0,0,0,0,0,0,0,0,0,0,0,0,0,0,0,0,0,0,0,0,0,0,0,0,0,0,0,0,0,0,0,0,0,0,0,0,0,0,0,0,0,0,0,0,0,0,0,0,0,0,0,0,0,0,0],"sum_hessian":[4.3865787E2,1.5911176E2,2.795461E2,4.378448E1,1.1532728E2,4.309845E1,2.3644766E2,2.1315386E0,4.1652943E1,2.8732302E1,8.659497E1,3.4067726E0,3.9691677E1,9.745037E1,1.3899728E2,2.7027683E1,1.4625257E1,2.3094427E1,5.637875E0,4.175017E1,4.4844803E1,1.2010646E0,2.205708E0,3.4105916E0,3.6281082E1,2.117391E1,7.627646E1,1.0210111E2,3.6896175E1,2.1977663E0,2.4829918E1,7.6871853E0,6.9380713E0,3.9828463E0,1.9111582E1,2.2339323E0,3.4039426E0,3.213035E1,9.619824E0,4.287684E1,1.9679638E0,1.235478E0,2.1751134E0,3.285409E1,3.4269917E0,1.7302092E1,3.8718176E0,3.1471024E0,7.312936E1,2.5034555E1,7.706655E1,1.9285192E1,1.7610985E1,2.310704E1,1.7228781E0,3.7054014E0,3.9817836E0,1.9789971E0,4.959074E0,2.243523E0,1.7393234E0,1.2452985E0,1.7866283E1,2.1912882E0,1.2126544E0,5.7105713E0,2.6419775E1,1.4566146E0,8.16321E0,2.3284214E1,1.9592625E1,2.7948566E1,4.905526E0,1.7169771E0,1.7100146E0,2.9692273E0,1.4332865E1,1.2077606E0,2.664057E0,1.9718448E0,1.1752576E0,4.3372455E0,6.8792114E1,4.0440235E0,2.0990532E1,2.9430931E1,4.7635624E1,4.400812E0,1.4884379E1,4.449823E0,1.3161161E1,1.8895147E1,4.211893E0,1.7453655E0,2.2364182E0,1.2219634E0,3.7371109E0,1.5392083E1,2.4742E0,2.9961228E0,2.7144487E0,1.9787099E0,2.4441067E1,2.7439818E0,5.419228E0,2.940136E0,2.0344078E1,1.7366056E1,2.2265682E0,1.4689683E0,2.6479597E1,2.1927862E0,2.71274E0,1.2282221E0,1.7410051E0,1.2124754E1,2.2081108E0,1.6550174E0,2.682228E0,2.9609673E1,3.918244E1,2.8331206E0,1.2109027E0,6.285422E0,1.4705111E1,7.1257E0,2.2305231E1,1.1113665E1,3.6521957E1,2.1798494E0,2.2209628E0,2.7084208E0,1.2175959E1,3.2228022E0,1.2270206E0,5.8747644E0,7.286397E0],"tree_param":{"num_deleted":"0","num_feature":"66","num_nodes":"137","size_leaf_vector":"1"}},{"base_weights":[-1.4815925E-2,2.703119E-1,-2.1082051E-1,3.1319568E-1,-4.3585E-1,-7.249466E-1,-1.2510926E-1,3.4537968E-1,-7.032943E-1,-9.392359E-1,3.5404778E-1,4.037723E-1,-9.053635E-1,-4.779685E-1,-2.5326088E-2,3.6540812E-1,-5.1149573E-2,7.4738017E-3,-6.0142335E-2,-5.9903778E-2,-5.702217E-3,-3.014925E-2,9.231516E-1,6.941563E-2,-4.718921E-1,-1.8632108E-1,-1.0443581E0,-7.782614E-1,3.3738602E-2,-7.461379E-1,3.3661168E-2,1.1872841E0,3.3096746E-1,5.9022035E-2,1.2530729E-2,1.8218676E-2,-4.9556147E-2,3.129748E-2,-7.5413835E-1,-1.1260587E0,1.2273773E-2,-1.0908515E0,-6.861527E-2,5.1172286E-1,-8.8937515E-1,-1.0344815E0,2.2306202E-1,-2.598455E-1,1.5753904E-1,7.627586E-2,9.892396E-3,-4.77336E-2,3.5857043E-1,8.2241684E-5,-5.2455332E-2,-1.2128267E0,-7.883903E-4,6.344677E-4,-1.1851225E0,-5.9720565E-2,3.6377922E-1,7.6880544E-1,-3.4800097E-2,-6.023962E-2,1.6977174E-2,1.1159827E-2,-1.3440245E0,4.4844918E-2,-2.7960826E-2,3.6383295E-1,-4.5011097E-1,2.806235E-1,-2.692304E-1,1.5347891E-2,5.3425487E-2,-3.922504E-2,-7.379624E-2,-6.32125E-2,2.182652E-3,-1.9836916E-2,6.1545577E-2,5.105973E-2,-2.9564379E-2,-1.9433511E-2,-7.199668E-2,-4.5805663E-2,3.0797586E-2,2.4880504E-2,-2.9777562E-2,-2.1812664E-2,1.9525988E-2,4.146281E-2,-2.7819594E-2],"categories":[],"categories_nodes":[],"categories_segments":[],"categories_sizes":[],"default_left":[0,0,0,0,0,0,0,0,0,0,0,0,0,0,0,0,0,0,0,0,0,0,0,0,0,0,0,0,0,0,0,0,0,0,0,0,0,0,0,0,0,0,0,0,0,0,0,0,0,0,0,0,0,0,0,0,0,0,0,0,0,0,0,0,0,0,0,0,0,0,0,0,0,0,0,0,0,0,0,0,0,0,0,0,0,0,0,0,0,0,0,0,0],"id":10,"left_children":[1,3,5,7,9,11,13,15,17,19,21,23,25,27,29,31,-1,-1,-1,-1,-1,-1,33,-1,35,37,39,41,43,45,47,49,51,-1,-1,-1,-1,-1,53,55,-1,57,59,61,63,65,67,69,71,-1,-1,-1,73,-1,-1,75,-1,-1,77,-1,79,81,-1,-1,-1,-1,83,-1,-1,85,87,89,91,-1,-1,-1,-1,-1,-1,-1,-1,-1,-1,-1,-1,-1,-1,-1,-1,-1,-1,-1,-1],"loss_changes":[2.4683918E1,5.5860767E0,1.1441716E1,5.8120785E0,4.595374E0,7.938265E0,7.928277E0,4.9145126E0,2.5457687E0,1.3204265E0,3.2249491E0,5.669622E0,3.0406036E0,7.6569157E0,7.5449743E0,4.249998E0,0E0,0E0,0E0,0E0,0E0,0E0,3.0413532E-1,0E0,2.0219002E0,3.4519396E0,3.1121387E0,6.8762627E0,8.981155E0,3.9815865E0,6.0197487E0,1.7766218E0,5.978327E0,0E0,0E0,0E0,0E0,0E0,9.50567E-1,2.4360886E0,0E0,2.2711067E0,5.61842E0,4.684987E0,3.1058936E0,4.3960676E0,2.5573964E0,5.9999237E0,6.182347E0,0E0,0E0,0E0,5.395672E0,0E0,0E0,1.5044785E0,0E0,0E0,1.9988251E0,0E0,6.0678754E0,4.549813E0,0E0,0E0,0E0,0E0,2.2703457E-1,0E0,0E0,4.45269E0,5.552395E0,7.317637E0,8.831443E0,0E0,0E0,0E0,0E0,0E0,0E0,0E0,0E0,0E0,0E0,0E0,0E0,0E0,0E0,0E0,0E0,0E0,0E0,0E0,0E0],"parents":[2147483647,0,0,1,1,2,2,3,3,4,4,5,5,6,6,7,7,8,8,9,9,10,10,11,11,12,12,13,13,14,14,15,15,22,22,24,24,25,25,26,26,27,27,28,28,29,29,30,30,31,31,32,32,38,38,39,39,41,41,42,42,43,43,44,44,45,45,46,46,47,47,48,48,52,52,55,55,58,58,60,60,61,61,66,66,69,69,70,70,71,71,72,72],"right_children":[2,4,6,8,10,12,14,16,18,20,22,24,26,28,30,32,-1,-1,-1,-1,-1,-1,34,-1,36,38,40,42,44,46,48,50,52,-1,-1,-1,-1,-1,54,56,-1,58,60,62,64,66,68,70,72,-1,-1,-1,74,-1,-1,76,-1,-1,78,-1,80,82,-1,-1,-1,-1,84,-1,-1,86,88,90,92,-1,-1,-1,-1,-1,-1,-1,-1,-1,-1,-1,-1,-1,-1,-1,-1,-1,-1,-1,-1],"split_conditions":[8.4033614E-1,-4.3072507E-1,3.6E3,1.0425066E0,-3.5294117E1,9.94E0,2.6838896E-1,-2.0630372E0,-2.4810126E-2,1.0638298E-2,4.347826E-1,4.3703705E1,-2.4755284E-1,2.0446097E-2,-4.0394703E-1,-9.770422E0,-5.1149573E-2,7.4738017E-3,-6.0142335E-2,-5.9903778E-2,-5.702217E-3,-3.014925E-2,-1.5759845E-1,6.941563E-2,5.535055E0,-1.2820513E0,7.016129E1,9.584664E-3,1.6E4,3.5714285E0,2.6936027E-1,1.2150669E-3,-3.6054385E-1,5.9022035E-2,1.2530729E-2,1.8218676E-2,-4.9556147E-2,3.129748E-2,1.34E3,3.0272824E-1,1.2273773E-2,-2.0725389E0,-1.2180974E0,4.1E-1,1.81E4,-7.485282E0,2.9770992E0,-1.6641453E-2,3.70845E4,7.627586E-2,9.892396E-3,-4.77336E-2,5.687346E-1,8.2241684E-5,-5.2455332E-2,-1.8869726E-1,-7.883903E-4,6.344677E-4,-1E0,-5.9720565E-2,-8.57449E-3,2.85E4,-3.4800097E-2,-6.023962E-2,1.6977174E-2,1.1159827E-2,4.722E3,4.4844918E-2,-2.7960826E-2,-6.489648E-1,1.3145341E-1,-3.5889983E-1,-1.2118019E-2,1.5347891E-2,5.3425487E-2,-3.922504E-2,-7.379624E-2,-6.32125E-2,2.182652E-3,-1.9836916E-2,6.1545577E-2,5.105973E-2,-2.9564379E-2,-1.9433511E-2,-7.199668E-2,-4.5805663E-2,3.0797586E-2,2.4880504E-2,-2.9777562E-2,-2.1812664E-2,1.9525988E-2,4.146281E-2,-2.7819594E-2],"split_indices":[53,52,23,49,13,48,61,13,35,44,25,6,7,22,27,52,0,0,0,0,0,0,27,0,59,52,6,41,37,29,25,41,9,0,0,0,0,0,23,27,0,28,52,20,43,29,28,44,24,0,0,0,27,0,0,27,0,0,13,0,38,43,0,0,0,0,23,0,0,7,49,7,38,0,0,0,0,0,0,0,0,0,0,0,0,0,0,0,0,0,0,0,0],"split_type":[0,0,0,0,0,0,0,0,0,0,0,0,0,0,0,0,0,0,0,0,0,0,0,0,0,0,0,0,0,0,0,0,0,0,0,0,0,0,0,0,0,0,0,0,0,0,0,0,0,0,0,0,0,0,0,0,0,0,0,0,0,0,0,0,0,0,0,0,0,0,0,0,0,0,0,0,0,0,0,0,0,0,0,0,0,0,0,0,0,0,0,0,0],"sum_hessian":[4.3966083E2,1.7895538E2,2.6070544E2,1.6923459E2,9.720796E0,3.6186733E1,2.245187E2,1.6468071E2,4.55388E0,5.82169E0,3.8991055E0,4.816416E0,3.1370317E1,4.8658722E1,1.7585999E2,1.6302748E2,1.6532228E0,1.9410884E0,2.6127918E0,4.0876365E0,1.7340534E0,1.4317951E0,2.4673107E0,1.9916708E0,2.824745E0,5.4608617E0,2.5909456E1,3.0335543E1,1.8323181E1,1.2421593E1,1.6343839E2,5.2106066E0,1.5781688E2,1.2383543E0,1.2289562E0,1.196279E0,1.6284658E0,2.2046707E0,3.256191E0,2.4485474E1,1.423983E0,2.068631E1,9.649232E0,1.2365853E1,5.957329E0,9.521521E0,2.9000726E0,4.8182026E1,1.1525636E2,3.4793918E0,1.7312146E0,2.6112044E0,1.5520567E2,1.193238E0,2.062953E0,2.2625002E1,1.8604704E0,1.6961765E0,1.8990133E1,2.1886015E0,7.4606304E0,1.0495214E1,1.8706392E0,4.7562184E0,1.2011101E0,1.9356984E0,7.585822E0,1.4793097E0,1.4207629E0,1.1049666E1,3.7132362E1,8.9722084E1,2.5534273E1,1.4602222E2,9.183449E0,1.0124315E1,1.2500688E1,1.7814117E1,1.1760154E0,4.2636614E0,3.196969E0,9.062653E0,1.4325613E0,1.1530203E0,6.4328017E0,1.38495E0,9.664716E0,4.6181393E0,3.251422E1,1.1531293E1,7.8190796E1,4.900498E0,2.0633776E1],"tree_param":{"num_deleted":"0","num_feature":"66","num_nodes":"93","size_leaf_vector":"1"}},{"base_weights":[5.3536054E-4,1.2129646E-1,-2.8502586E-1,2.0368174E-1,-2.4237056E-1,-5.410963E-1,-2.0659497E-2,2.4214093E-1,-6.2443197E-1,-9.070954E-1,-5.0867014E-2,5.8816636E-1,-6.2173206E-1,8.652713E-1,-1.43366E-1,-2.2503097E-1,3.064061E-1,-5.8736324E-2,-1.4002763E-1,-1.0633017E0,1.5160215E-2,2.1614811E-1,-5.562002E-1,5.8999866E-2,-1.7081752E-2,5.8148682E-2,-7.214174E-1,-3.0339723E-2,1.2744678E0,-4.8459858E-1,2.7054173E-1,2.1317832E-1,-7.3296785E-1,9.553264E-1,2.5295338E-1,5.30253E-1,-5.8045155E-1,-1.1784469E0,-1.9331923E-3,-4.9743798E-2,3.9763412E-1,-8.9185846E-1,1.7643721E-1,9.390987E-1,-6.5008485E-1,-7.8449255E-1,3.9566036E-2,8.455004E-2,1.38174E-3,-1.820314E-1,-9.8393244E-1,9.0826696E-1,-1.3503589E-1,5.153429E-1,-5.039785E-2,-6.21749E-3,-1.0573609E0,1.1120833E0,-2.553156E-2,3.2041997E-1,-9.2721574E-2,4.1939892E-2,-1.2654646E-3,1.1551295E-2,-5.5110563E-2,-1.315628E0,-9.227744E-3,5.6152064E-1,-5.251926E-1,3.996511E-2,-1.1793618E0,-2.9886565E-1,5.4045644E-2,-6.4941174E-3,7.4840374E-2,1.4773855E-3,-4.778091E-2,-8.4950536E-1,1.9288592E-1,6.061932E-2,-4.0658882E-1,-1.3055128E0,1.0600135E-1,3.5188E-2,1.4064991E0,1.0950433E-1,-5.8598172E-2,6.8032265E-2,5.530843E-3,-3.0166864E-2,5.423488E-2,-6.421786E-2,1.3389729E-2,2.6362771E-2,7.001868E-2,5.04627E-3,2.667338E-2,1.4699171E-2,-2.7441526E-2,-2.0218335E-2,-6.9990695E-2,1.3097796E-2,6.4531304E-2,1.42810745E-2,-5.5155266E-2,-1.2721591E-2,-7.028992E-2,2.845858E-2,-4.3849863E-2,-4.442437E-2,1.9635944E-2,-4.5971584E-2,5.516565E-2,-4.5256715E-2,4.513749E-3,-1.6061883E-2,-6.999539E-2,4.3459218E-2,-3.1247122E-2,-3.989411E-2,4.2703036E-2,2.4858234E-2,7.845984E-2,-8.78028E-3,5.993971E-2],"categories":[],"categories_nodes":[],"categories_segments":[],"categories_sizes":[],"default_left":[0,0,0,0,0,0,0,0,0,0,0,0,0,0,0,0,0,0,0,0,0,0,0,0,0,0,0,0,0,0,0,0,0,0,0,0,0,0,0,0,0,0,0,0,0,0,0,0,0,0,0,0,0,0,0,0,0,0,0,0,0,0,0,0,0,0,0,0,0,0,0,0,0,0,0,0,0,0,0,0,0,0,0,0,0,0,0,0,0,0,0,0,0,0,0,0,0,0,0,0,0,0,0,0,0,0,0,0,0,0,0,0,0,0,0,0,0,0,0,0,0,0,0,0,0],"id":11,"left_children":[1,3,5,7,9,11,13,15,17,19,21,23,25,27,29,31,33,-1,35,37,-1,39,41,-1,-1,43,45,-1,47,49,51,53,55,57,59,61,63,65,-1,-1,67,69,71,73,75,77,-1,-1,-1,79,81,83,85,87,-1,89,91,93,-1,95,97,-1,-1,-1,-1,99,-1,101,103,-1,105,107,-1,-1,-1,-1,-1,109,111,-1,113,115,117,119,121,123,-1,-1,-1,-1,-1,-1,-1,-1,-1,-1,-1,-1,-1,-1,-1,-1,-1,-1,-1,-1,-1,-1,-1,-1,-1,-1,-1,-1,-1,-1,-1,-1,-1,-1,-1,-1,-1,-1,-1],"loss_changes":[1.511518E1,9.278578E0,8.807652E0,8.167209E0,7.254574E0,6.387743E0,7.205011E0,7.311715E0,2.8875904E0,2.7362423E0,6.2709293E0,3.1113374E0,4.258333E0,5.6322336E0,8.332866E0,6.77791E0,7.128971E0,0E0,2.4405818E0,1.3147984E0,0E0,7.1088605E0,4.101614E0,0E0,0E0,6.1513057E0,5.8048954E0,0E0,3.398819E0,4.6838784E0,7.07572E0,6.6982603E0,3.2948394E0,4.201255E0,4.6399317E0,6.018829E-1,2.3027494E0,1.1658211E0,0E0,0E0,4.420456E0,6.371128E0,2.848413E0,2.797818E0,1.1731899E0,3.5099182E0,0E0,0E0,0E0,7.1531177E0,4.3155966E0,4.5526905E0,4.5157747E0,4.6683693E0,0E0,4.124871E0,3.25457E0,1.7229481E0,0E0,7.6911983E0,5.9919567E0,0E0,0E0,0E0,0E0,1.17899895E-1,0E0,4.8269362E0,2.4848514E0,0E0,1.725483E0,2.8247564E0,0E0,0E0,0E0,0E0,0E0,2.7488327E0,5.1656575E0,0E0,4.8051634E0,4.122982E-1,2.5737965E0,4.0033617E0,2.1261024E-1,4.8427377E0,0E0,0E0,0E0,0E0,0E0,0E0,0E0,0E0,0E0,0E0,0E0,0E0,0E0,0E0,0E0,0E0,0E0,0E0,0E0,0E0,0E0,0E0,0E0,0E0,0E0,0E0,0E0,0E0,0E0,0E0,0E0,0E0,0E0,0E0,0E0,0E0,0E0,0E0,0E0],"parents":[2147483647,0,0,1,1,2,2,3,3,4,4,5,5,6,6,7,7,8,8,9,9,10,10,11,11,12,12,13,13,14,14,15,15,16,16,18,18,19,19,21,21,22,22,25,25,26,26,28,28,29,29,30,30,31,31,32,32,33,33,34,34,35,35,36,36,37,37,40,40,41,41,42,42,43,43,44,44,45,45,49,49,50,50,51,51,52,52,53,53,55,55,56,56,57,57,59,59,60,60,65,65,67,67,68,68,70,70,71,71,77,77,78,78,80,80,81,81,82,82,83,83,84,84,85,85],"right_children":[2,4,6,8,10,12,14,16,18,20,22,24,26,28,30,32,34,-1,36,38,-1,40,42,-1,-1,44,46,-1,48,50,52,54,56,58,60,62,64,66,-1,-1,68,70,72,74,76,78,-1,-1,-1,80,82,84,86,88,-1,90,92,94,-1,96,98,-1,-1,-1,-1,100,-1,102,104,-1,106,108,-1,-1,-1,-1,-1,110,112,-1,114,116,118,120,122,124,-1,-1,-1,-1,-1,-1,-1,-1,-1,-1,-1,-1,-1,-1,-1,-1,-1,-1,-1,-1,-1,-1,-1,-1,-1,-1,-1,-1,-1,-1,-1,-1,-1,-1,-1,-1,-1,-1,-1],"split_conditions":[-2.1008404E-1,1E-1,6.9444447E0,2.3605604E1,1.72E3,-2E-1,-1.1476664E-2,4.4592E3,3.7579292E-1,2.15E4,1.5716786E1,1.0738644E-1,-4.7147572E-2,1.0253317E0,6.983471E1,-1.6E-1,1.0168418E1,-5.8736324E-2,5.865034E-1,6.0733614E0,1.5160215E-2,-4.0394703E-1,5.8855003E-1,5.8999866E-2,-1.7081752E-2,2.0140892E-1,3.1637453E-2,-3.0339723E-2,-7.2727275E0,-1.3333333E1,2.1449704E0,2.9375E-2,2.1E3,6.557377E0,-1.3312451E0,-9.381443E1,2.6770636E1,1.702E1,-1.9331923E-3,-4.9743798E-2,2.7985987E-1,1.5339492E-1,2.2046E1,-2.2624435E0,-1.2987013E-2,3.298071E-2,3.9566036E-2,8.455004E-2,1.38174E-3,1.505E3,1.611E1,3.3613446E-1,8.7434555E1,1.7487139E-1,-5.039785E-2,-6.8331407E-3,1.149E4,1.1173184E0,-2.553156E-2,-2E-1,2.1E-1,4.1939892E-2,-1.2654646E-3,1.1551295E-2,-5.5110563E-2,-1.0258152E1,-9.227744E-3,2.9E-1,1.2745791E-2,3.996511E-2,-2.4148469E-1,2.183575E-1,5.4045644E-2,-6.4941174E-3,7.4840374E-2,1.4773855E-3,-4.778091E-2,3.437277E-1,1E-1,6.061932E-2,5.6E-1,-8.5263157E-1,5.9090908E1,4.2112884E-1,1.8476093E-1,8.2180855E1,-5.8598172E-2,6.8032265E-2,5.530843E-3,-3.0166864E-2,5.423488E-2,-6.421786E-2,1.3389729E-2,2.6362771E-2,7.001868E-2,5.04627E-3,2.667338E-2,1.4699171E-2,-2.7441526E-2,-2.0218335E-2,-6.9990695E-2,1.3097796E-2,6.4531304E-2,1.42810745E-2,-5.5155266E-2,-1.2721591E-2,-7.028992E-2,2.845858E-2,-4.3849863E-2,-4.442437E-2,1.9635944E-2,-4.5971584E-2,5.516565E-2,-4.5256715E-2,4.513749E-3,-1.6061883E-2,-6.999539E-2,4.3459218E-2,-3.1247122E-2,-3.989411E-2,4.2703036E-2,2.4858234E-2,7.845984E-2,-8.78028E-3,5.993971E-2],"split_indices":[52,16,65,10,34,31,35,24,27,46,12,27,21,28,6,31,12,0,27,29,0,27,28,0,0,55,35,0,13,13,19,47,23,29,58,13,10,0,0,0,7,49,0,30,47,47,0,0,0,37,56,25,6,49,0,15,34,19,0,31,31,0,0,0,0,30,0,32,15,0,27,49,0,0,0,0,0,7,20,0,32,26,6,7,7,6,0,0,0,0,0,0,0,0,0,0,0,0,0,0,0,0,0,0,0,0,0,0,0,0,0,0,0,0,0,0,0,0,0,0,0,0,0,0,0],"split_type":[0,0,0,0,0,0,0,0,0,0,0,0,0,0,0,0,0,0,0,0,0,0,0,0,0,0,0,0,0,0,0,0,0,0,0,0,0,0,0,0,0,0,0,0,0,0,0,0,0,0,0,0,0,0,0,0,0,0,0,0,0,0,0,0,0,0,0,0,0,0,0,0,0,0,0,0,0,0,0,0,0,0,0,0,0,0,0,0,0,0,0,0,0,0,0,0,0,0,0,0,0,0,0,0,0,0,0,0,0,0,0,0,0,0,0,0,0,0,0,0,0,0,0,0,0],"sum_hessian":[4.3631314E2,3.0704288E2,1.2927025E2,2.5069113E2,5.6351746E1,6.51337E1,6.413655E1,2.4024146E2,1.0449678E1,1.176785E1,4.4583893E1,3.9214637E0,6.121224E1,7.0663733E0,5.707018E1,2.8749203E1,2.1149225E2,4.2249465E0,6.2247314E0,1.05302305E1,1.2376199E0,2.9544838E1,1.5039056E1,2.231805E0,1.6896586E0,7.880668E0,5.333157E1,1.4319842E0,5.634389E0,3.118771E1,2.588247E1,1.5745494E1,1.3003708E1,1.4811167E1,1.9668109E2,2.387396E0,3.8373356E0,9.331481E0,1.1987493E0,3.2664652E0,2.6278374E1,1.0164745E1,4.87431E0,3.3668158E0,4.5138526E0,5.1659004E1,1.6725647E0,3.9564204E0,1.6779686E0,2.026989E1,1.0917821E1,9.579826E0,1.6302643E1,1.3085521E1,2.6599736E0,4.3275948E0,8.676113E0,1.3598458E1,1.2127082E0,1.6462392E2,3.2057167E1,1.2071556E0,1.1802405E0,1.7197998E0,2.1175358E0,7.9152694E0,1.4162115E0,2.2647827E1,3.6305475E0,1.2182968E0,8.946448E0,3.6341376E0,1.2401726E0,1.4173132E0,1.9495027E0,1.6800396E0,2.833813E0,4.855976E1,3.0992413E0,2.2013466E0,1.8068542E1,8.277723E0,2.6400979E0,3.8695796E0,5.7102466E0,1.3915358E1,2.3872845E0,3.4720263E0,9.613494E0,3.0856094E0,1.2419854E0,7.43355E0,1.2425637E0,5.424063E0,8.174396E0,8.1811E1,8.281292E1,1.7540865E1,1.4516302E1,1.1601887E0,6.7550807E0,1.7015867E1,5.631959E0,1.7213109E0,1.9092367E0,2.1771264E0,6.769322E0,1.4590065E0,2.175131E0,4.7358376E1,1.2013865E0,1.390501E0,1.7087404E0,8.608856E0,9.459687E0,1.1097075E0,7.168016E0,1.1990432E0,1.4410547E0,1.9308679E0,1.9387118E0,1.4821436E0,4.2281027E0,1.1693499E1,2.221859E0],"tree_param":{"num_deleted":"0","num_feature":"66","num_nodes":"125","size_leaf_vector":"1"}},{"base_weights":[-1.3597538E-2,2.4569482E-1,-1.9228782E-1,2.995683E-1,-5.24991E-1,-3.9176175E-1,2.6360927E-2,4.0378813E-2,4.9924162E-1,-1.127698E0,1.7982611E-1,6.533857E-1,-4.4850087E-1,-3.838751E-1,1.7950068E-1,-2.7453363E-1,3.4890303E-1,-5.170359E-2,5.3052104E-1,-1.629428E-2,-6.639812E-2,9.432738E-1,-7.528573E-1,-1.084217E-2,1.0075979E0,3.980091E-1,-5.034E-1,-1.5212591E-1,-9.5829886E-1,6.580237E-1,5.9578225E-2,-5.21549E-2,-1.1346476E0,5.274514E-1,-1.03671E0,6.150702E-1,-5.3774595E-2,9.525233E-3,6.0646474E-2,-6.6433856E-3,-5.1410265E-2,7.033439E-2,-9.786937E-3,6.0779553E-2,-4.910318E-1,-1.2376024E0,-4.0327087E-1,8.8374645E-1,-3.509992E-1,-6.633321E-2,-3.9079112E-1,8.2521474E-1,-3.241413E-2,8.58795E-1,-5.1710397E-2,-3.9977092E-1,5.3557265E-1,-7.436166E-2,-9.64111E-3,6.3256764E-1,-5.3894944E-2,-9.662332E-3,-6.401567E-2,2.75783E-1,7.8620064E-1,-8.7074506E-1,2.77431E-1,1.763097E-2,-5.345061E-2,-1.3914625E-3,-1.3462749E0,5.061401E-2,-4.412288E-1,7.003282E-2,1.4051046E-3,-1.09582506E-1,-5.6120317E-2,2.8587906E-2,-5.5766325E-2,-1.42254E-1,1.0621754E0,1.1836852E0,-5.389384E-3,-3.4657618E-1,2.7613524E-1,1.6597101E-2,-3.5959315E-2,-9.502E-3,6.420722E-2,3.821951E-2,-3.0154154E-2,1.850468E-3,6.795819E-2,4.494862E-2,-2.270554E-3,-9.624035E-3,-5.5487003E-2,-3.708379E-2,2.7365625E-2,-7.054087E-2,-1.7921893E-2,-3.0569822E-4,-2.7263412E-2,-1.9218696E-2,4.4773612E-2,-5.251295E-2,4.4539154E-2,7.590791E-2,2.3615034E-2,6.8115674E-2,1.006147E-2,-4.8683956E-3,-3.7819605E-2,3.9554965E-2,-1.5108691E-3],"categories":[],"categories_nodes":[],"categories_segments":[],"categories_sizes":[],"default_left":[0,0,0,0,0,0,0,0,0,0,0,0,0,0,0,0,0,0,0,0,0,0,0,0,0,0,0,0,0,0,0,0,0,0,0,0,0,0,0,0,0,0,0,0,0,0,0,0,0,0,0,0,0,0,0,0,0,0,0,0,0,0,0,0,0,0,0,0,0,0,0,0,0,0,0,0,0,0,0,0,0,0,0,0,0,0,0,0,0,0,0,0,0,0,0,0,0,0,0,0,0,0,0,0,0,0,0,0,0,0,0,0,0,0,0],"id":12,"left_children":[1,3,5,7,9,11,13,15,17,19,21,23,25,27,29,31,33,-1,35,-1,-1,37,39,-1,41,43,45,47,49,51,53,55,57,59,61,63,65,-1,-1,-1,-1,-1,-1,-1,67,69,71,73,75,-1,77,79,-1,81,83,85,87,-1,-1,89,-1,-1,-1,91,93,95,97,-1,-1,-1,99,-1,101,-1,-1,103,-1,-1,-1,105,107,109,-1,111,113,-1,-1,-1,-1,-1,-1,-1,-1,-1,-1,-1,-1,-1,-1,-1,-1,-1,-1,-1,-1,-1,-1,-1,-1,-1,-1,-1,-1,-1,-1],"loss_changes":[2.0358694E1,7.6013594E0,1.1354007E1,8.685445E0,5.3332877E0,8.36215E0,7.9229283E0,7.3132644E0,5.1014385E0,6.347151E-1,5.2883973E0,2.5037298E0,6.2258816E0,4.42051E0,5.223973E0,7.0794415E0,9.939044E0,0E0,4.6615696E0,0E0,0E0,5.767133E-1,4.5237458E-1,0E0,2.8907833E0,6.7425785E0,8.4846115E0,5.5900807E0,1.5034628E0,4.5272393E0,6.665068E0,6.4868455E0,2.2432861E0,6.4687576E0,7.122903E-1,4.5401E0,3.6950905E0,0E0,0E0,0E0,0E0,0E0,0E0,0E0,2.6993613E0,1.8270645E0,6.3044357E0,1.9121504E0,4.014549E0,0E0,4.281257E0,3.9670591E0,0E0,3.0025496E0,6.503167E0,4.881583E0,6.6741467E0,0E0,0E0,5.8062525E0,0E0,0E0,0E0,7.453746E0,5.0974884E0,4.2237258E-1,3.112257E0,0E0,0E0,0E0,3.2266235E-1,0E0,4.834543E0,0E0,0E0,5.3236723E0,0E0,0E0,0E0,4.834547E0,2.9110289E0,9.4297695E-1,0E0,3.5355468E0,5.063114E0,0E0,0E0,0E0,0E0,0E0,0E0,0E0,0E0,0E0,0E0,0E0,0E0,0E0,0E0,0E0,0E0,0E0,0E0,0E0,0E0,0E0,0E0,0E0,0E0,0E0,0E0,0E0,0E0,0E0,0E0],"parents":[2147483647,0,0,1,1,2,2,3,3,4,4,5,5,6,6,7,7,8,8,9,9,10,10,11,11,12,12,13,13,14,14,15,15,16,16,18,18,21,21,22,22,24,24,25,25,26,26,27,27,28,28,29,29,30,30,31,31,32,32,33,33,34,34,35,35,36,36,44,44,45,45,46,46,47,47,48,48,50,50,51,51,53,53,54,54,55,55,56,56,59,59,63,63,64,64,65,65,66,66,70,70,72,72,75,75,79,79,80,80,81,81,83,83,84,84],"right_children":[2,4,6,8,10,12,14,16,18,20,22,24,26,28,30,32,34,-1,36,-1,-1,38,40,-1,42,44,46,48,50,52,54,56,58,60,62,64,66,-1,-1,-1,-1,-1,-1,-1,68,70,72,74,76,-1,78,80,-1,82,84,86,88,-1,-1,90,-1,-1,-1,92,94,96,98,-1,-1,-1,100,-1,102,-1,-1,104,-1,-1,-1,106,108,110,-1,112,114,-1,-1,-1,-1,-1,-1,-1,-1,-1,-1,-1,-1,-1,-1,-1,-1,-1,-1,-1,-1,-1,-1,-1,-1,-1,-1,-1,-1,-1,-1],"split_conditions":[8.4033614E-1,2.15E1,8.897E3,3.1978777E-1,2.175E1,-2.4978466E-2,-9E-2,-5.982007E-2,1.2E1,1.6472E4,4.5045044E1,5.84125E3,9.94E0,-1.8295404E0,1.195E1,5.307017E-2,3.002258E-1,-5.170359E-2,1.0045909E0,-1.629428E-2,-6.639812E-2,4.602E3,2.178652E1,-1.084217E-2,7.2033896E0,2.7291024E-1,4.04905E3,1.3145341E-1,1.3443278E1,-1.2E1,-1.2006003E-2,1.5151516E-2,1.3004E4,3.1E-1,-7.148531E-3,-1.6292135E0,5.5E3,9.525233E-3,6.0646474E-2,-6.6433856E-3,-5.1410265E-2,7.033439E-2,-9.786937E-3,6.0779553E-2,-2.8369173E-1,1.0286554E0,1.2E1,2.912333E1,-2.4554941E-1,-6.633321E-2,1.4189189E-2,1.1764705E-3,-3.241413E-2,4.6370766E-1,9.7435194E-1,-1.7800381E0,-1.9206719E-1,-7.436166E-2,-9.64111E-3,5.05E4,-5.3894944E-2,-9.662332E-3,-6.401567E-2,-5.0738914E1,1.5E-1,1.545E4,1.3198484E-1,1.763097E-2,-5.345061E-2,-1.3914625E-3,3.0272824E-1,5.061401E-2,-1.8181818E-2,7.003282E-2,1.4051046E-3,1.590106E-2,-5.6120317E-2,2.8587906E-2,-5.5766325E-2,8.35E3,-3.853211E-1,4.5883548E-1,-5.389384E-3,2.2803487E-2,4.337051E0,1.6597101E-2,-3.5959315E-2,-9.502E-3,6.420722E-2,3.821951E-2,-3.0154154E-2,1.850468E-3,6.795819E-2,4.494862E-2,-2.270554E-3,-9.624035E-3,-5.5487003E-2,-3.708379E-2,2.7365625E-2,-7.054087E-2,-1.7921893E-2,-3.0569822E-4,-2.7263412E-2,-1.9218696E-2,4.4773612E-2,